// Neural Network File Format by Kyle Julian, Stanford 2016
3,784,10,784,
784,64,32,10,
0,
0.0,0.0,0.0,0.0,0.0,0.0,0.0,0.0,0.0,0.0,0.0,0.0,0.0,0.0,0.0,0.0,0.0,0.0,0.0,0.0,0.0,0.0,0.0,0.0,0.0,0.0,0.0,0.0,0.0,0.0,0.0,0.0,0.0,0.0,0.0,0.0,0.0,0.0,0.0,0.0,0.0,0.0,0.0,0.0,0.0,0.0,0.0,0.0,0.0,0.0,0.0,0.0,0.0,0.0,0.0,0.0,0.0,0.0,0.0,0.0,0.0,0.0,0.0,0.0,0.0,0.0,0.0,0.0,0.0,0.0,0.0,0.0,0.0,0.0,0.0,0.0,0.0,0.0,0.0,0.0,0.0,0.0,0.0,0.0,0.0,0.0,0.0,0.0,0.0,0.0,0.0,0.0,0.0,0.0,0.0,0.0,0.0,0.0,0.0,0.0,0.0,0.0,0.0,0.0,0.0,0.0,0.0,0.0,0.0,0.0,0.0,0.0,0.0,0.0,0.0,0.0,0.0,0.0,0.0,0.0,0.0,0.0,0.0,0.0,0.0,0.0,0.0,0.0,0.0,0.0,0.0,0.0,0.0,0.0,0.0,0.0,0.0,0.0,0.0,0.0,0.0,0.0,0.0,0.0,0.0,0.0,0.0,0.0,0.0,0.0,0.0,0.0,0.0,0.0,0.0,0.0,0.0,0.0,0.0,0.0,0.0,0.0,0.0,0.0,0.0,0.0,0.0,0.0,0.0,0.0,0.0,0.0,0.0,0.0,0.0,0.0,0.0,0.0,0.0,0.0,0.0,0.0,0.0,0.0,0.0,0.0,0.0,0.0,0.0,0.0,0.0,0.0,0.0,0.0,0.0,0.0,0.0,0.0,0.0,0.0,0.0,0.0,0.0,0.0,0.0,0.0,0.0,0.0,0.0,0.0,0.0,0.0,0.0,0.0,0.0,0.0,0.0,0.0,0.0,0.0,0.0,0.0,0.0,0.0,0.0,0.0,0.0,0.0,0.0,0.0,0.0,0.0,0.0,0.0,0.0,0.0,0.0,0.0,0.0,0.0,0.0,0.0,0.0,0.0,0.0,0.0,0.0,0.0,0.0,0.0,0.0,0.0,0.0,0.0,0.0,0.0,0.0,0.0,0.0,0.0,0.0,0.0,0.0,0.0,0.0,0.0,0.0,0.0,0.0,0.0,0.0,0.0,0.0,0.0,0.0,0.0,0.0,0.0,0.0,0.0,0.0,0.0,0.0,0.0,0.0,0.0,0.0,0.0,0.0,0.0,0.0,0.0,0.0,0.0,0.0,0.0,0.0,0.0,0.0,0.0,0.0,0.0,0.0,0.0,0.0,0.0,0.0,0.0,0.0,0.0,0.0,0.0,0.0,0.0,0.0,0.0,0.0,0.0,0.0,0.0,0.0,0.0,0.0,0.0,0.0,0.0,0.0,0.0,0.0,0.0,0.0,0.0,0.0,0.0,0.0,0.0,0.0,0.0,0.0,0.0,0.0,0.0,0.0,0.0,0.0,0.0,0.0,0.0,0.0,0.0,0.0,0.0,0.0,0.0,0.0,0.0,0.0,0.0,0.0,0.0,0.0,0.0,0.0,0.0,0.0,0.0,0.0,0.0,0.0,0.0,0.0,0.0,0.0,0.0,0.0,0.0,0.0,0.0,0.0,0.0,0.0,0.0,0.0,0.0,0.0,0.0,0.0,0.0,0.0,0.0,0.0,0.0,0.0,0.0,0.0,0.0,0.0,0.0,0.0,0.0,0.0,0.0,0.0,0.0,0.0,0.0,0.0,0.0,0.0,0.0,0.0,0.0,0.0,0.0,0.0,0.0,0.0,0.0,0.0,0.0,0.0,0.0,0.0,0.0,0.0,0.0,0.0,0.0,0.0,0.0,0.0,0.0,0.0,0.0,0.0,0.0,0.0,0.0,0.0,0.0,0.0,0.0,0.0,0.0,0.0,0.0,0.0,0.0,0.0,0.0,0.0,0.0,0.0,0.0,0.0,0.0,0.0,0.0,0.0,0.0,0.0,0.0,0.0,0.0,0.0,0.0,0.0,0.0,0.0,0.0,0.0,0.0,0.0,0.0,0.0,0.0,0.0,0.0,0.0,0.0,0.0,0.0,0.0,0.0,0.0,0.0,0.0,0.0,0.0,0.0,0.0,0.0,0.0,0.0,0.0,0.0,0.0,0.0,0.0,0.0,0.0,0.0,0.0,0.0,0.0,0.0,0.0,0.0,0.0,0.0,0.0,0.0,0.0,0.0,0.0,0.0,0.0,0.0,0.0,0.0,0.0,0.0,0.0,0.0,0.0,0.0,0.0,0.0,0.0,0.0,0.0,0.0,0.0,0.0,0.0,0.0,0.0,0.0,0.0,0.0,0.0,0.0,0.0,0.0,0.0,0.0,0.0,0.0,0.0,0.0,0.0,0.0,0.0,0.0,0.0,0.0,0.0,0.0,0.0,0.0,0.0,0.0,0.0,0.0,0.0,0.0,0.0,0.0,0.0,0.0,0.0,0.0,0.0,0.0,0.0,0.0,0.0,0.0,0.0,0.0,0.0,0.0,0.0,0.0,0.0,0.0,0.0,0.0,0.0,0.0,0.0,0.0,0.0,0.0,0.0,0.0,0.0,0.0,0.0,0.0,0.0,0.0,0.0,0.0,0.0,0.0,0.0,0.0,0.0,0.0,0.0,0.0,0.0,0.0,0.0,0.0,0.0,0.0,0.0,0.0,0.0,0.0,0.0,0.0,0.0,0.0,0.0,0.0,0.0,0.0,0.0,0.0,0.0,0.0,0.0,0.0,0.0,0.0,0.0,0.0,0.0,0.0,0.0,0.0,0.0,0.0,0.0,0.0,0.0,0.0,0.0,0.0,0.0,0.0,0.0,0.0,0.0,0.0,0.0,0.0,0.0,0.0,0.0,0.0,0.0,0.0,0.0,0.0,0.0,0.0,0.0,0.0,0.0,0.0,0.0,0.0,0.0,0.0,0.0,0.0,0.0,0.0,0.0,0.0,0.0,0.0,0.0,0.0,0.0,0.0,0.0,0.0,0.0,0.0,0.0,0.0,0.0,0.0,0.0,0.0,0.0,0.0,0.0,0.0,0.0,0.0,0.0,0.0,0.0,0.0,0.0,0.0,0.0,0.0,0.0,0.0,0.0,0.0,0.0,0.0,0.0,0.0,0.0,0.0,0.0,0.0,0.0,0.0,0.0,0.0,0.0,0.0,0.0,0.0,0.0,0.0,0.0,0.0,0.0,0.0,0.0,0.0,0.0,0.0,0.0,0.0,0.0,0.0,0.0,0.0,0.0,0.0,0.0,0.0,0.0,0.0,0.0,0.0,0.0,0.0,0.0,0.0,0.0,0.0,0.0,0.0,0.0,0.0,0.0,0.0,0.0,0.0,0.0,0.0,0.0,0.0,0.0,0.0,0.0,0.0,0.0,0.0,0.0,0.0,
1.0,1.0,1.0,1.0,1.0,1.0,1.0,1.0,1.0,1.0,1.0,1.0,1.0,1.0,1.0,1.0,1.0,1.0,1.0,1.0,1.0,1.0,1.0,1.0,1.0,1.0,1.0,1.0,1.0,1.0,1.0,1.0,1.0,1.0,1.0,1.0,1.0,1.0,1.0,1.0,1.0,1.0,1.0,1.0,1.0,1.0,1.0,1.0,1.0,1.0,1.0,1.0,1.0,1.0,1.0,1.0,1.0,1.0,1.0,1.0,1.0,1.0,1.0,1.0,1.0,1.0,1.0,1.0,1.0,1.0,1.0,1.0,1.0,1.0,1.0,1.0,1.0,1.0,1.0,1.0,1.0,1.0,1.0,1.0,1.0,1.0,1.0,1.0,1.0,1.0,1.0,1.0,1.0,1.0,1.0,1.0,1.0,1.0,1.0,1.0,1.0,1.0,1.0,1.0,1.0,1.0,1.0,1.0,1.0,1.0,1.0,1.0,1.0,1.0,1.0,1.0,1.0,1.0,1.0,1.0,1.0,1.0,1.0,1.0,1.0,1.0,1.0,1.0,1.0,1.0,1.0,1.0,1.0,1.0,1.0,1.0,1.0,1.0,1.0,1.0,1.0,1.0,1.0,1.0,1.0,1.0,1.0,1.0,1.0,1.0,1.0,1.0,1.0,1.0,1.0,1.0,1.0,1.0,1.0,1.0,1.0,1.0,1.0,1.0,1.0,1.0,1.0,1.0,1.0,1.0,1.0,1.0,1.0,1.0,1.0,1.0,1.0,1.0,1.0,1.0,1.0,1.0,1.0,1.0,1.0,1.0,1.0,1.0,1.0,1.0,1.0,1.0,1.0,1.0,1.0,1.0,1.0,1.0,1.0,1.0,1.0,1.0,1.0,1.0,1.0,1.0,1.0,1.0,1.0,1.0,1.0,1.0,1.0,1.0,1.0,1.0,1.0,1.0,1.0,1.0,1.0,1.0,1.0,1.0,1.0,1.0,1.0,1.0,1.0,1.0,1.0,1.0,1.0,1.0,1.0,1.0,1.0,1.0,1.0,1.0,1.0,1.0,1.0,1.0,1.0,1.0,1.0,1.0,1.0,1.0,1.0,1.0,1.0,1.0,1.0,1.0,1.0,1.0,1.0,1.0,1.0,1.0,1.0,1.0,1.0,1.0,1.0,1.0,1.0,1.0,1.0,1.0,1.0,1.0,1.0,1.0,1.0,1.0,1.0,1.0,1.0,1.0,1.0,1.0,1.0,1.0,1.0,1.0,1.0,1.0,1.0,1.0,1.0,1.0,1.0,1.0,1.0,1.0,1.0,1.0,1.0,1.0,1.0,1.0,1.0,1.0,1.0,1.0,1.0,1.0,1.0,1.0,1.0,1.0,1.0,1.0,1.0,1.0,1.0,1.0,1.0,1.0,1.0,1.0,1.0,1.0,1.0,1.0,1.0,1.0,1.0,1.0,1.0,1.0,1.0,1.0,1.0,1.0,1.0,1.0,1.0,1.0,1.0,1.0,1.0,1.0,1.0,1.0,1.0,1.0,1.0,1.0,1.0,1.0,1.0,1.0,1.0,1.0,1.0,1.0,1.0,1.0,1.0,1.0,1.0,1.0,1.0,1.0,1.0,1.0,1.0,1.0,1.0,1.0,1.0,1.0,1.0,1.0,1.0,1.0,1.0,1.0,1.0,1.0,1.0,1.0,1.0,1.0,1.0,1.0,1.0,1.0,1.0,1.0,1.0,1.0,1.0,1.0,1.0,1.0,1.0,1.0,1.0,1.0,1.0,1.0,1.0,1.0,1.0,1.0,1.0,1.0,1.0,1.0,1.0,1.0,1.0,1.0,1.0,1.0,1.0,1.0,1.0,1.0,1.0,1.0,1.0,1.0,1.0,1.0,1.0,1.0,1.0,1.0,1.0,1.0,1.0,1.0,1.0,1.0,1.0,1.0,1.0,1.0,1.0,1.0,1.0,1.0,1.0,1.0,1.0,1.0,1.0,1.0,1.0,1.0,1.0,1.0,1.0,1.0,1.0,1.0,1.0,1.0,1.0,1.0,1.0,1.0,1.0,1.0,1.0,1.0,1.0,1.0,1.0,1.0,1.0,1.0,1.0,1.0,1.0,1.0,1.0,1.0,1.0,1.0,1.0,1.0,1.0,1.0,1.0,1.0,1.0,1.0,1.0,1.0,1.0,1.0,1.0,1.0,1.0,1.0,1.0,1.0,1.0,1.0,1.0,1.0,1.0,1.0,1.0,1.0,1.0,1.0,1.0,1.0,1.0,1.0,1.0,1.0,1.0,1.0,1.0,1.0,1.0,1.0,1.0,1.0,1.0,1.0,1.0,1.0,1.0,1.0,1.0,1.0,1.0,1.0,1.0,1.0,1.0,1.0,1.0,1.0,1.0,1.0,1.0,1.0,1.0,1.0,1.0,1.0,1.0,1.0,1.0,1.0,1.0,1.0,1.0,1.0,1.0,1.0,1.0,1.0,1.0,1.0,1.0,1.0,1.0,1.0,1.0,1.0,1.0,1.0,1.0,1.0,1.0,1.0,1.0,1.0,1.0,1.0,1.0,1.0,1.0,1.0,1.0,1.0,1.0,1.0,1.0,1.0,1.0,1.0,1.0,1.0,1.0,1.0,1.0,1.0,1.0,1.0,1.0,1.0,1.0,1.0,1.0,1.0,1.0,1.0,1.0,1.0,1.0,1.0,1.0,1.0,1.0,1.0,1.0,1.0,1.0,1.0,1.0,1.0,1.0,1.0,1.0,1.0,1.0,1.0,1.0,1.0,1.0,1.0,1.0,1.0,1.0,1.0,1.0,1.0,1.0,1.0,1.0,1.0,1.0,1.0,1.0,1.0,1.0,1.0,1.0,1.0,1.0,1.0,1.0,1.0,1.0,1.0,1.0,1.0,1.0,1.0,1.0,1.0,1.0,1.0,1.0,1.0,1.0,1.0,1.0,1.0,1.0,1.0,1.0,1.0,1.0,1.0,1.0,1.0,1.0,1.0,1.0,1.0,1.0,1.0,1.0,1.0,1.0,1.0,1.0,1.0,1.0,1.0,1.0,1.0,1.0,1.0,1.0,1.0,1.0,1.0,1.0,1.0,1.0,1.0,1.0,1.0,1.0,1.0,1.0,1.0,1.0,1.0,1.0,1.0,1.0,1.0,1.0,1.0,1.0,1.0,1.0,1.0,1.0,1.0,1.0,1.0,1.0,1.0,1.0,1.0,1.0,1.0,1.0,1.0,1.0,1.0,1.0,1.0,1.0,1.0,1.0,1.0,1.0,1.0,1.0,1.0,1.0,1.0,1.0,1.0,1.0,1.0,1.0,1.0,1.0,1.0,1.0,1.0,1.0,1.0,1.0,1.0,1.0,1.0,1.0,1.0,1.0,1.0,1.0,1.0,1.0,1.0,1.0,1.0,1.0,1.0,1.0,1.0,1.0,1.0,1.0,1.0,
0.0,0.0,0.0,0.0,0.0,0.0,0.0,0.0,0.0,0.0,0.0,0.0,0.0,0.0,0.0,0.0,0.0,0.0,0.0,0.0,0.0,0.0,0.0,0.0,0.0,0.0,0.0,0.0,0.0,0.0,0.0,0.0,0.0,0.0,0.0,0.0,0.0,0.0,0.0,0.0,0.0,0.0,0.0,0.0,0.0,0.0,0.0,0.0,0.0,0.0,0.0,0.0,0.0,0.0,0.0,0.0,0.0,0.0,0.0,0.0,0.0,0.0,0.0,0.0,0.0,0.0,0.0,0.0,0.0,0.0,0.0,0.0,0.0,0.0,0.0,0.0,0.0,0.0,0.0,0.0,0.0,0.0,0.0,0.0,0.0,0.0,0.0,0.0,0.0,0.0,0.0,0.0,0.0,0.0,0.0,0.0,0.0,0.0,0.0,0.0,0.0,0.0,0.0,0.0,0.0,0.0,0.0,0.0,0.0,0.0,0.0,0.0,0.0,0.0,0.0,0.0,0.0,0.0,0.0,0.0,0.0,0.0,0.0,0.0,0.0,0.0,0.0,0.0,0.0,0.0,0.0,0.0,0.0,0.0,0.0,0.0,0.0,0.0,0.0,0.0,0.0,0.0,0.0,0.0,0.0,0.0,0.0,0.0,0.0,0.0,0.0,0.0,0.0,0.0,0.0,0.0,0.0,0.0,0.0,0.0,0.0,0.0,0.0,0.0,0.0,0.0,0.0,0.0,0.0,0.0,0.0,0.0,0.0,0.0,0.0,0.0,0.0,0.0,0.0,0.0,0.0,0.0,0.0,0.0,0.0,0.0,0.0,0.0,0.0,0.0,0.0,0.0,0.0,0.0,0.0,0.0,0.0,0.0,0.0,0.0,0.0,0.0,0.0,0.0,0.0,0.0,0.0,0.0,0.0,0.0,0.0,0.0,0.0,0.0,0.0,0.0,0.0,0.0,0.0,0.0,0.0,0.0,0.0,0.0,0.0,0.0,0.0,0.0,0.0,0.0,0.0,0.0,0.0,0.0,0.0,0.0,0.0,0.0,0.0,0.0,0.0,0.0,0.0,0.0,0.0,0.0,0.0,0.0,0.0,0.0,0.0,0.0,0.0,0.0,0.0,0.0,0.0,0.0,0.0,0.0,0.0,0.0,0.0,0.0,0.0,0.0,0.0,0.0,0.0,0.0,0.0,0.0,0.0,0.0,0.0,0.0,0.0,0.0,0.0,0.0,0.0,0.0,0.0,0.0,0.0,0.0,0.0,0.0,0.0,0.0,0.0,0.0,0.0,0.0,0.0,0.0,0.0,0.0,0.0,0.0,0.0,0.0,0.0,0.0,0.0,0.0,0.0,0.0,0.0,0.0,0.0,0.0,0.0,0.0,0.0,0.0,0.0,0.0,0.0,0.0,0.0,0.0,0.0,0.0,0.0,0.0,0.0,0.0,0.0,0.0,0.0,0.0,0.0,0.0,0.0,0.0,0.0,0.0,0.0,0.0,0.0,0.0,0.0,0.0,0.0,0.0,0.0,0.0,0.0,0.0,0.0,0.0,0.0,0.0,0.0,0.0,0.0,0.0,0.0,0.0,0.0,0.0,0.0,0.0,0.0,0.0,0.0,0.0,0.0,0.0,0.0,0.0,0.0,0.0,0.0,0.0,0.0,0.0,0.0,0.0,0.0,0.0,0.0,0.0,0.0,0.0,0.0,0.0,0.0,0.0,0.0,0.0,0.0,0.0,0.0,0.0,0.0,0.0,0.0,0.0,0.0,0.0,0.0,0.0,0.0,0.0,0.0,0.0,0.0,0.0,0.0,0.0,0.0,0.0,0.0,0.0,0.0,0.0,0.0,0.0,0.0,0.0,0.0,0.0,0.0,0.0,0.0,0.0,0.0,0.0,0.0,0.0,0.0,0.0,0.0,0.0,0.0,0.0,0.0,0.0,0.0,0.0,0.0,0.0,0.0,0.0,0.0,0.0,0.0,0.0,0.0,0.0,0.0,0.0,0.0,0.0,0.0,0.0,0.0,0.0,0.0,0.0,0.0,0.0,0.0,0.0,0.0,0.0,0.0,0.0,0.0,0.0,0.0,0.0,0.0,0.0,0.0,0.0,0.0,0.0,0.0,0.0,0.0,0.0,0.0,0.0,0.0,0.0,0.0,0.0,0.0,0.0,0.0,0.0,0.0,0.0,0.0,0.0,0.0,0.0,0.0,0.0,0.0,0.0,0.0,0.0,0.0,0.0,0.0,0.0,0.0,0.0,0.0,0.0,0.0,0.0,0.0,0.0,0.0,0.0,0.0,0.0,0.0,0.0,0.0,0.0,0.0,0.0,0.0,0.0,0.0,0.0,0.0,0.0,0.0,0.0,0.0,0.0,0.0,0.0,0.0,0.0,0.0,0.0,0.0,0.0,0.0,0.0,0.0,0.0,0.0,0.0,0.0,0.0,0.0,0.0,0.0,0.0,0.0,0.0,0.0,0.0,0.0,0.0,0.0,0.0,0.0,0.0,0.0,0.0,0.0,0.0,0.0,0.0,0.0,0.0,0.0,0.0,0.0,0.0,0.0,0.0,0.0,0.0,0.0,0.0,0.0,0.0,0.0,0.0,0.0,0.0,0.0,0.0,0.0,0.0,0.0,0.0,0.0,0.0,0.0,0.0,0.0,0.0,0.0,0.0,0.0,0.0,0.0,0.0,0.0,0.0,0.0,0.0,0.0,0.0,0.0,0.0,0.0,0.0,0.0,0.0,0.0,0.0,0.0,0.0,0.0,0.0,0.0,0.0,0.0,0.0,0.0,0.0,0.0,0.0,0.0,0.0,0.0,0.0,0.0,0.0,0.0,0.0,0.0,0.0,0.0,0.0,0.0,0.0,0.0,0.0,0.0,0.0,0.0,0.0,0.0,0.0,0.0,0.0,0.0,0.0,0.0,0.0,0.0,0.0,0.0,0.0,0.0,0.0,0.0,0.0,0.0,0.0,0.0,0.0,0.0,0.0,0.0,0.0,0.0,0.0,0.0,0.0,0.0,0.0,0.0,0.0,0.0,0.0,0.0,0.0,0.0,0.0,0.0,0.0,0.0,0.0,0.0,0.0,0.0,0.0,0.0,0.0,0.0,0.0,0.0,0.0,0.0,0.0,0.0,0.0,0.0,0.0,0.0,0.0,0.0,0.0,0.0,0.0,0.0,0.0,0.0,0.0,0.0,0.0,0.0,0.0,0.0,0.0,0.0,0.0,0.0,0.0,0.0,0.0,0.0,0.0,0.0,0.0,0.0,0.0,0.0,0.0,0.0,0.0,0.0,0.0,0.0,0.0,0.0,0.0,0.0,0.0,0.0,0.0,0.0,0.0,0.0,0.0,0.0,0.0,0.0,0.0,0.0,0.0,0.0,0.0,0.0,0.0,0.0,0.0,0.0,0.0,0.0,0.0,0.0,0.0,0.0,0.0,0.0,0.0,0.0,0.0,0.0,
1.0,1.0,1.0,1.0,1.0,1.0,1.0,1.0,1.0,1.0,1.0,1.0,1.0,1.0,1.0,1.0,1.0,1.0,1.0,1.0,1.0,1.0,1.0,1.0,1.0,1.0,1.0,1.0,1.0,1.0,1.0,1.0,1.0,1.0,1.0,1.0,1.0,1.0,1.0,1.0,1.0,1.0,1.0,1.0,1.0,1.0,1.0,1.0,1.0,1.0,1.0,1.0,1.0,1.0,1.0,1.0,1.0,1.0,1.0,1.0,1.0,1.0,1.0,1.0,1.0,1.0,1.0,1.0,1.0,1.0,1.0,1.0,1.0,1.0,1.0,1.0,1.0,1.0,1.0,1.0,1.0,1.0,1.0,1.0,1.0,1.0,1.0,1.0,1.0,1.0,1.0,1.0,1.0,1.0,1.0,1.0,1.0,1.0,1.0,1.0,1.0,1.0,1.0,1.0,1.0,1.0,1.0,1.0,1.0,1.0,1.0,1.0,1.0,1.0,1.0,1.0,1.0,1.0,1.0,1.0,1.0,1.0,1.0,1.0,1.0,1.0,1.0,1.0,1.0,1.0,1.0,1.0,1.0,1.0,1.0,1.0,1.0,1.0,1.0,1.0,1.0,1.0,1.0,1.0,1.0,1.0,1.0,1.0,1.0,1.0,1.0,1.0,1.0,1.0,1.0,1.0,1.0,1.0,1.0,1.0,1.0,1.0,1.0,1.0,1.0,1.0,1.0,1.0,1.0,1.0,1.0,1.0,1.0,1.0,1.0,1.0,1.0,1.0,1.0,1.0,1.0,1.0,1.0,1.0,1.0,1.0,1.0,1.0,1.0,1.0,1.0,1.0,1.0,1.0,1.0,1.0,1.0,1.0,1.0,1.0,1.0,1.0,1.0,1.0,1.0,1.0,1.0,1.0,1.0,1.0,1.0,1.0,1.0,1.0,1.0,1.0,1.0,1.0,1.0,1.0,1.0,1.0,1.0,1.0,1.0,1.0,1.0,1.0,1.0,1.0,1.0,1.0,1.0,1.0,1.0,1.0,1.0,1.0,1.0,1.0,1.0,1.0,1.0,1.0,1.0,1.0,1.0,1.0,1.0,1.0,1.0,1.0,1.0,1.0,1.0,1.0,1.0,1.0,1.0,1.0,1.0,1.0,1.0,1.0,1.0,1.0,1.0,1.0,1.0,1.0,1.0,1.0,1.0,1.0,1.0,1.0,1.0,1.0,1.0,1.0,1.0,1.0,1.0,1.0,1.0,1.0,1.0,1.0,1.0,1.0,1.0,1.0,1.0,1.0,1.0,1.0,1.0,1.0,1.0,1.0,1.0,1.0,1.0,1.0,1.0,1.0,1.0,1.0,1.0,1.0,1.0,1.0,1.0,1.0,1.0,1.0,1.0,1.0,1.0,1.0,1.0,1.0,1.0,1.0,1.0,1.0,1.0,1.0,1.0,1.0,1.0,1.0,1.0,1.0,1.0,1.0,1.0,1.0,1.0,1.0,1.0,1.0,1.0,1.0,1.0,1.0,1.0,1.0,1.0,1.0,1.0,1.0,1.0,1.0,1.0,1.0,1.0,1.0,1.0,1.0,1.0,1.0,1.0,1.0,1.0,1.0,1.0,1.0,1.0,1.0,1.0,1.0,1.0,1.0,1.0,1.0,1.0,1.0,1.0,1.0,1.0,1.0,1.0,1.0,1.0,1.0,1.0,1.0,1.0,1.0,1.0,1.0,1.0,1.0,1.0,1.0,1.0,1.0,1.0,1.0,1.0,1.0,1.0,1.0,1.0,1.0,1.0,1.0,1.0,1.0,1.0,1.0,1.0,1.0,1.0,1.0,1.0,1.0,1.0,1.0,1.0,1.0,1.0,1.0,1.0,1.0,1.0,1.0,1.0,1.0,1.0,1.0,1.0,1.0,1.0,1.0,1.0,1.0,1.0,1.0,1.0,1.0,1.0,1.0,1.0,1.0,1.0,1.0,1.0,1.0,1.0,1.0,1.0,1.0,1.0,1.0,1.0,1.0,1.0,1.0,1.0,1.0,1.0,1.0,1.0,1.0,1.0,1.0,1.0,1.0,1.0,1.0,1.0,1.0,1.0,1.0,1.0,1.0,1.0,1.0,1.0,1.0,1.0,1.0,1.0,1.0,1.0,1.0,1.0,1.0,1.0,1.0,1.0,1.0,1.0,1.0,1.0,1.0,1.0,1.0,1.0,1.0,1.0,1.0,1.0,1.0,1.0,1.0,1.0,1.0,1.0,1.0,1.0,1.0,1.0,1.0,1.0,1.0,1.0,1.0,1.0,1.0,1.0,1.0,1.0,1.0,1.0,1.0,1.0,1.0,1.0,1.0,1.0,1.0,1.0,1.0,1.0,1.0,1.0,1.0,1.0,1.0,1.0,1.0,1.0,1.0,1.0,1.0,1.0,1.0,1.0,1.0,1.0,1.0,1.0,1.0,1.0,1.0,1.0,1.0,1.0,1.0,1.0,1.0,1.0,1.0,1.0,1.0,1.0,1.0,1.0,1.0,1.0,1.0,1.0,1.0,1.0,1.0,1.0,1.0,1.0,1.0,1.0,1.0,1.0,1.0,1.0,1.0,1.0,1.0,1.0,1.0,1.0,1.0,1.0,1.0,1.0,1.0,1.0,1.0,1.0,1.0,1.0,1.0,1.0,1.0,1.0,1.0,1.0,1.0,1.0,1.0,1.0,1.0,1.0,1.0,1.0,1.0,1.0,1.0,1.0,1.0,1.0,1.0,1.0,1.0,1.0,1.0,1.0,1.0,1.0,1.0,1.0,1.0,1.0,1.0,1.0,1.0,1.0,1.0,1.0,1.0,1.0,1.0,1.0,1.0,1.0,1.0,1.0,1.0,1.0,1.0,1.0,1.0,1.0,1.0,1.0,1.0,1.0,1.0,1.0,1.0,1.0,1.0,1.0,1.0,1.0,1.0,1.0,1.0,1.0,1.0,1.0,1.0,1.0,1.0,1.0,1.0,1.0,1.0,1.0,1.0,1.0,1.0,1.0,1.0,1.0,1.0,1.0,1.0,1.0,1.0,1.0,1.0,1.0,1.0,1.0,1.0,1.0,1.0,1.0,1.0,1.0,1.0,1.0,1.0,1.0,1.0,1.0,1.0,1.0,1.0,1.0,1.0,1.0,1.0,1.0,1.0,1.0,1.0,1.0,1.0,1.0,1.0,1.0,1.0,1.0,1.0,1.0,1.0,1.0,1.0,1.0,1.0,1.0,1.0,1.0,1.0,1.0,1.0,1.0,1.0,1.0,1.0,1.0,1.0,1.0,1.0,1.0,1.0,1.0,1.0,1.0,1.0,1.0,1.0,1.0,1.0,1.0,1.0,1.0,1.0,1.0,1.0,1.0,1.0,1.0,1.0,1.0,1.0,1.0,1.0,1.0,1.0,1.0,1.0,1.0,1.0,1.0,1.0,1.0,1.0,1.0,1.0,1.0,
3.55781e-04,3.03337e-02,-7.04219e-02,3.26044e-02,1.08007e-01,2.28713e-01,1.64632e-01,1.11991e-01,4.81834e-02,1.42527e-01,3.12412e-01,1.92758e-01,7.95205e-02,2.09364e-01,2.39314e-01,1.33839e-01,5.32766e-02,5.24968e-03,9.40185e-02,7.19366e-02,-6.65865e-02,7.34405e-02,8.50460e-02,1.88974e-01,-1.72917e-02,-7.93962e-02,1.97269e-02,-6.37756e-02,6.86217e-03,-4.26380e-02,-4.46095e-02,4.95141e-02,9.19238e-02,3.03974e-02,-9.64048e-02,-1.40626e-01,-2.43938e-01,-1.46604e-01,9.23987e-02,1.13420e-01,2.78018e-02,-9.14588e-02,-3.30225e-02,-6.39118e-02,-5.33555e-02,-5.30129e-02,-8.03819e-02,-9.28770e-02,-2.60694e-01,-1.18139e-01,2.59556e-02,-6.93573e-02,1.11535e-02,-1.09380e-01,-7.64562e-03,-1.26190e-01,-5.86810e-02,-2.80919e-04,-5.07130e-02,1.64198e-02,-2.03410e-02,-2.70669e-02,-1.37590e-01,-1.46018e-01,-2.15491e-01,-2.23274e-01,5.44261e-02,4.43186e-02,4.42583e-02,-5.65722e-02,-2.97199e-02,-4.52834e-02,-2.47692e-02,1.61429e-02,-1.58323e-01,-6.42447e-02,-1.93030e-01,-5.16319e-02,-1.06516e-01,-1.35301e-01,-1.01279e-01,5.81957e-02,7.92671e-02,1.72021e-02,-6.32148e-02,-1.30600e-01,-3.35277e-02,-1.72709e-01,1.02134e-02,-1.29585e-01,-2.17098e-01,-2.64308e-01,-1.66433e-01,3.21658e-03,-7.17075e-04,1.24055e-02,-8.56525e-03,-2.73314e-02,5.17203e-02,3.36246e-02,3.82067e-02,-5.04748e-02,-1.22280e-02,-5.02124e-03,-2.34822e-01,-1.49328e-01,-1.07911e-01,-1.02963e-01,-9.34927e-02,9.11319e-02,5.31949e-02,1.64559e-02,-7.69472e-03,-1.07635e-01,-8.28903e-02,-4.66453e-02,-1.44571e-01,-9.43435e-02,-3.03559e-01,-1.35983e-01,1.80475e-02,-1.46459e-01,7.84095e-02,-1.69491e-02,-1.63949e-02,4.27351e-02,7.45730e-02,-9.84453e-03,-1.95979e-02,-1.66892e-02,-9.56746e-02,-4.75692e-02,-6.02552e-02,-1.05512e-01,-1.41223e-01,-3.62228e-02,-5.99980e-02,1.35761e-01,2.21278e-02,-3.88674e-03,6.13004e-02,8.27209e-02,-7.90952e-03,-1.54898e-01,-3.05870e-02,-8.34559e-02,-2.13489e-01,4.45525e-02,-3.87127e-02,7.92850e-02,1.67437e-02,-7.09258e-02,7.46690e-02,6.36871e-02,6.19590e-02,4.19121e-02,5.81141e-02,-4.28793e-02,-7.81809e-02,-9.37619e-03,4.87093e-02,-1.03711e-01,-3.96524e-02,3.60916e-02,1.24158e-02,2.99404e-02,1.38424e-01,-2.05460e-03,-2.90558e-03,2.03712e-02,-1.10114e-01,-1.44478e-01,-1.14331e-01,-1.86720e-01,-7.29483e-02,-9.43657e-02,3.10137e-02,2.91372e-02,2.14358e-02,1.39475e-02,4.39367e-02,2.80448e-02,7.90023e-02,8.29296e-02,7.68110e-02,3.32586e-02,-1.01953e-01,8.09772e-02,7.91155e-02,5.25841e-02,2.53674e-02,-9.20821e-02,-3.04549e-02,-6.92332e-02,-1.41476e-02,8.25435e-02,-5.84736e-02,-2.02100e-02,-8.37189e-02,-1.81651e-01,-2.14020e-02,-1.96514e-01,-5.46456e-02,-4.84065e-02,1.88344e-02,2.06014e-02,1.51119e-02,-3.77251e-04,5.44157e-02,6.85323e-02,5.64533e-02,-2.15523e-03,-3.14104e-02,5.92139e-02,4.49063e-03,-4.38367e-02,-2.53389e-02,6.87771e-02,-7.33200e-02,-5.15220e-02,-9.66355e-02,4.91458e-02,-1.67600e-02,-5.62346e-02,-2.69558e-02,-4.16770e-02,-8.86068e-02,-1.24450e-01,-1.38940e-01,-2.22647e-01,-3.37847e-02,7.01502e-02,4.25967e-03,3.47814e-02,7.53293e-02,5.60722e-02,-5.49338e-02,1.18691e-01,8.33948e-02,6.32505e-02,4.93664e-02,-4.65596e-02,-8.32207e-02,9.25695e-03,1.02543e-01,3.86308e-02,-1.97010e-02,-1.11966e-01,1.37941e-02,3.70087e-02,2.38571e-02,5.13289e-02,1.14561e-02,-1.05114e-01,-1.71067e-01,-2.21802e-01,-1.20354e-01,-2.74340e-02,-2.14584e-02,9.85616e-02,-4.97192e-02,-4.72352e-02,6.56751e-02,9.15152e-02,9.03438e-02,3.39440e-03,-7.16397e-02,4.14203e-02,-8.28607e-02,7.53025e-02,-9.38108e-02,-7.43575e-02,-2.42853e-02,-3.86934e-02,5.11834e-02,8.09336e-03,-2.33701e-02,-4.32279e-02,-1.28380e-01,3.75751e-02,3.70491e-02,4.79865e-02,-4.74620e-02,-9.90733e-02,-7.11664e-02,5.82139e-03,1.13767e-03,8.42601e-02,6.26224e-02,-7.25634e-02,-6.95547e-02,3.72852e-02,-2.75987e-02,8.03123e-02,4.96190e-02,1.38390e-03,9.30915e-03,6.05239e-03,-2.01678e-02,-4.50326e-02,-4.82023e-03,2.06938e-02,1.78511e-04,-3.92301e-02,-2.07984e-02,2.66709e-02,1.59900e-02,-6.99901e-02,-6.46802e-02,9.14799e-02,-4.55997e-02,-6.82275e-02,-3.50641e-02,-5.02438e-02,-6.37797e-02,1.77600e-01,6.32204e-02,-5.91660e-02,-1.04821e-01,-8.34827e-03,6.38714e-02,-5.54422e-02,-4.55641e-02,2.42888e-02,6.43147e-02,-9.01813e-02,-8.59905e-02,1.29959e-04,5.45862e-02,6.13099e-02,9.97230e-02,-2.09239e-02,-1.01123e-01,-1.58353e-02,2.33652e-02,3.71258e-02,7.03926e-02,1.16964e-02,-7.03882e-02,-5.25090e-03,-6.07503e-02,-7.37574e-02,2.25494e-02,8.02428e-02,1.50930e-02,-3.46248e-02,-8.34778e-02,-2.11220e-02,-1.06133e-02,4.92805e-02,-5.47386e-02,-5.51721e-03,-5.97503e-03,4.38525e-02,-8.00027e-02,-2.03414e-03,2.86823e-02,8.34612e-02,8.45581e-03,4.51327e-03,-8.55276e-02,6.01233e-02,-9.24681e-02,1.99620e-03,1.24269e-02,-3.89943e-03,-6.66197e-02,6.60348e-02,-5.28446e-02,-1.37206e-01,-4.50764e-02,4.07768e-02,5.10697e-02,-1.11796e-01,-4.30284e-02,-5.72148e-02,3.02911e-02,1.37656e-01,-3.95629e-02,1.12089e-01,7.49487e-02,-4.87024e-02,-2.79848e-02,2.00977e-03,1.06451e-01,1.16882e-01,3.18920e-02,3.82553e-02,4.66571e-02,-4.06142e-02,2.80414e-02,-5.60293e-02,-1.10288e-03,-6.01886e-02,-7.67368e-03,-5.43942e-02,-1.27982e-01,-1.23783e-01,-9.58447e-02,8.09389e-03,3.12909e-02,-5.24512e-02,-1.06733e-03,-4.51507e-02,1.05505e-01,-2.05706e-02,8.51844e-02,1.74623e-02,1.09824e-01,-1.01577e-02,-6.92772e-02,-1.00232e-03,1.29370e-01,5.29386e-02,-8.91263e-02,-9.17674e-02,1.40804e-02,-7.58194e-02,-7.73553e-02,2.39592e-02,6.14339e-02,-5.88476e-02,-2.32153e-02,5.28292e-02,-1.06276e-01,-6.61901e-02,5.49452e-02,9.89901e-02,-3.51253e-02,-1.53936e-01,-5.22317e-02,-1.07196e-02,7.22059e-02,9.46988e-02,-8.27745e-02,8.09271e-02,7.28316e-02,-7.12409e-02,-1.84426e-01,-7.29531e-02,-1.88838e-02,-2.73825e-02,-3.12295e-02,-1.07837e-01,-6.50875e-02,-4.90410e-02,-7.70910e-02,-3.35455e-02,-3.02369e-02,4.93787e-03,9.99838e-03,-4.47022e-02,-1.01524e-01,-3.14144e-02,-3.52108e-02,4.79649e-02,-7.00377e-02,-1.32943e-01,-9.55096e-02,-6.71406e-02,-3.04614e-02,1.62494e-02,7.26707e-02,4.51205e-02,1.78181e-02,6.07578e-04,-1.42872e-01,-9.35502e-02,8.11832e-02,-3.75071e-02,-1.09129e-01,-1.07313e-01,4.56429e-02,-1.56077e-02,-3.60650e-02,-7.04235e-02,2.54581e-02,6.19039e-02,-7.17957e-02,5.82916e-02,-1.58491e-01,-4.27183e-02,-4.44914e-02,-3.16197e-02,8.76908e-03,-1.38890e-01,-1.08922e-01,3.51476e-02,1.51008e-01,1.12045e-01,-7.85737e-03,3.09480e-02,4.78511e-02,-3.13636e-02,-5.25502e-02,-7.00951e-02,8.71620e-02,5.16957e-02,5.25372e-02,-3.40517e-02,-1.44600e-02,-2.22460e-02,-8.98324e-02,-2.55852e-02,-5.12846e-02,-2.31780e-02,-4.33350e-02,5.05234e-03,-4.11259e-02,-5.94596e-02,-4.57817e-02,6.73721e-02,-6.80116e-02,-1.87938e-01,-9.45070e-02,-5.06530e-02,1.61443e-02,5.47371e-02,9.71375e-03,1.35864e-01,4.55530e-02,-1.40109e-01,-5.03376e-02,-6.14111e-02,1.11764e-01,1.27144e-01,1.71889e-02,-1.47137e-01,-1.15778e-01,-5.10411e-03,-2.02082e-02,4.27376e-02,-6.38539e-02,-1.01033e-02,2.44435e-02,-6.65468e-02,-1.35986e-01,-8.02272e-02,-5.07326e-02,1.36906e-01,-3.70280e-02,-1.75733e-01,-6.05664e-02,2.56889e-02,5.14913e-02,2.62233e-02,-3.45501e-02,2.85109e-02,-1.28570e-02,-7.77958e-02,-2.98882e-02,3.77709e-02,1.43025e-01,6.49937e-02,-3.19068e-02,-3.85562e-02,-9.46096e-02,-7.95716e-02,6.24716e-03,-2.93588e-02,4.08203e-02,-1.43964e-02,-4.78727e-02,3.64132e-02,2.42418e-02,-4.77506e-02,-1.08867e-01,7.67170e-02,-8.43817e-02,-7.13382e-02,-1.37616e-02,-2.14983e-02,1.45064e-01,1.32246e-01,-4.15144e-02,5.73838e-02,1.13157e-01,-6.54893e-02,-1.16505e-01,5.43579e-02,1.15320e-01,3.24916e-02,3.54412e-02,-1.36765e-01,2.04582e-02,-1.57130e-03,8.38616e-02,-3.84238e-03,8.81790e-02,1.18684e-01,1.13084e-01,1.00123e-01,4.22427e-02,-3.09288e-02,-2.31276e-02,5.91815e-03,-8.18448e-02,-1.65544e-01,-6.04148e-02,-6.37459e-02,6.43053e-02,5.96157e-02,-3.53537e-02,2.50069e-02,-2.33146e-03,6.46889e-02,3.60464e-02,4.59429e-02,-2.62356e-02,3.56054e-02,5.61653e-02,-1.27642e-03,-6.55412e-02,6.86044e-02,1.28477e-02,7.95327e-02,3.49997e-02,7.22011e-02,2.51634e-02,-1.27870e-03,-9.32203e-02,-3.48582e-02,-2.05783e-02,1.41101e-01,-9.32534e-02,-1.25963e-01,-5.24532e-02,-1.03503e-02,5.20079e-02,1.99974e-01,-1.61665e-02,5.39561e-02,1.07413e-01,3.29956e-02,-9.23743e-02,-9.61935e-03,3.59576e-03,7.35342e-02,-2.04034e-02,-8.25286e-02,-1.07481e-02,-4.41978e-03,8.75279e-02,8.95286e-02,1.63725e-01,2.67987e-02,4.47158e-02,1.44249e-01,5.84354e-02,-5.59664e-03,-6.48574e-02,8.80570e-02,-1.27007e-01,-1.50966e-01,-1.86469e-01,7.20662e-02,6.73371e-02,1.69879e-01,7.58466e-02,5.63692e-02,2.98151e-02,1.91653e-02,-7.79816e-02,-1.55940e-01,2.11489e-02,5.08440e-02,-2.92842e-03,-1.78581e-01,5.33193e-02,2.05979e-02,6.30039e-02,8.67048e-02,-1.61783e-02,5.77294e-02,4.86678e-02,1.23811e-01,2.14345e-03,-7.00819e-02,7.62357e-02,1.75823e-02,-1.27777e-01,-2.01151e-01,-1.13233e-01,4.39016e-02,2.01426e-01,1.58264e-01,9.32316e-02,2.77438e-02,5.71091e-02,7.63415e-03,-1.03467e-01,-1.18209e-01,-1.82086e-01,1.01208e-01,2.03774e-02,-6.37801e-02,6.33881e-03,6.08310e-02,8.46927e-02,2.32505e-01,-1.28979e-01,-6.68441e-02,-4.35590e-02,-5.76615e-02,-2.76477e-02,-1.67479e-01,1.06067e-01,-1.80445e-02,-2.70485e-01,-2.16970e-01,-6.63302e-02,6.21795e-02,2.04875e-01,2.62791e-01,1.05814e-01,1.25239e-01,2.66797e-02,5.95554e-02,-1.13244e-02,-9.45950e-02,-2.01699e-01,3.24190e-02,6.77647e-02,-1.27048e-01,-8.84757e-03,3.98692e-02,5.60766e-02,1.74984e-01,-4.45027e-02,-8.15109e-02,-8.11128e-02,-1.24456e-02,-9.72103e-02,-2.17563e-01,-5.24610e-02,-1.34126e-01,-2.51462e-01,-1.06178e-01,-2.98474e-02,-1.70481e-02,1.37265e-01,2.52143e-01,8.92560e-02,1.58897e-01,7.48678e-02,7.51397e-02,-6.87677e-04,-9.49484e-02,-1.37857e-01,6.09854e-02,8.14144e-02,-1.63751e-01,-1.06333e-01,3.65249e-02,-5.38835e-02,4.26382e-02,-1.31792e-02,-4.61032e-02,2.67826e-02,6.76109e-02,6.04886e-02,-1.37536e-01,9.26546e-02,-3.46838e-02,-3.66388e-01,-2.45829e-01,1.91725e-04,2.50222e-01,2.03307e-01,-6.83351e-02,-2.22111e-01,2.17600e-01,2.26407e-01,2.10232e-01,2.17919e-01,-1.63144e-01,-1.66268e-01,2.54567e-02,7.26388e-02,-3.04734e-02,-1.92165e-01,3.66884e-02,-7.56400e-02,-7.60289e-02,
1.73106e-01,-3.87567e-02,-1.60889e-01,-1.48472e-01,5.02132e-02,1.85905e-01,8.01473e-02,4.47934e-03,-5.63039e-02,8.36604e-02,6.67627e-02,1.41943e-03,1.83668e-01,2.60212e-01,2.05696e-01,2.25857e-01,-5.37017e-02,-1.45027e-01,-1.04263e-01,-1.62443e-01,-2.17282e-01,-5.43105e-02,-2.37435e-02,9.91430e-02,1.85276e-02,-5.06961e-02,-6.66753e-03,-9.75357e-02,-9.95062e-02,-1.45701e-01,-1.10536e-01,-1.89084e-01,8.56470e-02,1.73092e-01,1.59268e-01,-2.28865e-02,-8.00754e-03,4.01283e-02,-7.00447e-03,-5.62078e-02,1.15877e-01,1.16431e-01,1.04404e-01,1.81395e-01,-1.42077e-02,-3.72702e-02,-1.82862e-01,-7.01617e-03,-5.58607e-02,4.36748e-02,9.33676e-03,9.19513e-02,4.17915e-02,-6.98766e-02,6.88613e-02,-1.98235e-01,1.19534e-01,8.28504e-02,1.43869e-02,1.91767e-02,4.35285e-02,5.26159e-02,-3.18795e-02,6.85752e-02,-2.82949e-03,2.00549e-03,-5.45068e-02,9.66609e-02,9.59403e-02,1.12615e-01,8.07704e-02,1.42408e-02,-7.97215e-02,-1.06373e-01,-3.02075e-02,-6.50078e-02,-1.25425e-01,-1.31907e-02,-1.14755e-01,-5.83494e-02,-1.03532e-01,4.79809e-03,8.88415e-02,-1.67587e-01,2.27756e-01,1.53998e-01,-9.52883e-02,-1.94428e-02,-1.13151e-01,-7.57542e-02,8.02080e-03,-6.81509e-03,8.05161e-02,1.74479e-02,-2.41014e-02,-6.24288e-02,6.10465e-02,5.51731e-02,7.11146e-02,6.11082e-02,4.28659e-02,-6.05005e-02,-9.76450e-02,4.26519e-02,8.42143e-02,-9.16698e-02,-1.53752e-01,-5.20681e-02,-4.51047e-02,4.22236e-02,-1.59688e-03,8.37318e-02,6.36718e-02,7.30779e-02,4.69869e-02,1.43719e-02,-1.15428e-02,-1.07984e-01,3.77834e-02,3.94317e-02,8.47736e-02,-1.31073e-01,-6.76948e-02,-1.66060e-02,-6.28798e-02,1.53216e-02,-4.36754e-02,-4.54138e-02,-3.54000e-03,-6.65361e-02,-3.79656e-02,-6.47190e-02,2.26325e-02,4.34079e-02,-7.64194e-02,-1.15034e-01,-8.35744e-02,-6.51488e-03,2.22904e-02,6.32185e-02,2.28798e-02,1.13032e-01,-3.88624e-02,2.25129e-02,-2.16040e-01,-6.97964e-02,-3.62697e-02,2.89755e-02,3.43321e-02,-5.23144e-02,1.12531e-02,-3.08339e-02,-5.41233e-02,-5.21446e-02,-7.90696e-02,-2.60380e-02,3.68928e-02,-5.51083e-02,-6.27458e-02,2.66952e-02,-6.76360e-03,-6.39362e-02,-3.67876e-02,-9.36732e-02,-1.72621e-01,-8.24967e-02,3.76663e-02,-1.48258e-01,-2.19556e-02,-1.02466e-02,-1.59613e-01,-9.25166e-03,-1.69083e-01,-4.71975e-02,-2.43594e-02,2.00981e-03,-5.45827e-02,1.01328e-02,-6.47291e-02,7.38560e-02,-1.36661e-02,1.90334e-03,5.23340e-03,-1.07040e-01,-7.26668e-02,1.76778e-02,-5.97651e-03,-6.60234e-03,-1.96555e-03,-8.47714e-02,-3.25692e-02,-6.30989e-02,-3.74637e-02,-3.95025e-02,-1.56977e-01,-8.21309e-02,-1.27506e-01,-1.79201e-01,-7.39879e-02,-1.50890e-02,-3.85194e-03,-6.38686e-02,-1.20565e-01,-1.79599e-02,-6.22040e-02,-3.40377e-02,5.79873e-02,-3.37754e-02,7.14729e-02,-2.35797e-02,-3.57845e-02,-4.80988e-02,-6.68822e-02,-1.11107e-01,4.76870e-02,-1.47263e-01,-6.05129e-02,-1.10631e-01,-1.54075e-01,-3.60072e-02,-7.93073e-02,-6.23724e-02,-2.81753e-03,-5.98451e-02,8.05780e-02,-2.62771e-02,4.62427e-03,-4.60571e-03,-3.61062e-02,-7.24666e-02,-3.43740e-02,2.91739e-02,-7.50863e-02,5.92930e-02,4.96001e-02,-1.00121e-02,6.83276e-02,-4.37121e-02,-9.03109e-02,2.57023e-02,7.42219e-02,-7.23360e-02,-1.25371e-01,2.21054e-02,5.44659e-02,-3.57483e-02,-3.18325e-02,2.41939e-02,-6.50303e-02,-1.84324e-02,1.92617e-02,1.83826e-01,1.39349e-01,3.52434e-02,3.77454e-02,-7.07715e-02,-1.26718e-01,-3.57040e-02,-5.44584e-02,-3.83072e-02,6.72887e-02,-7.18933e-02,3.42535e-02,-4.09850e-02,5.70971e-02,-7.17016e-02,-4.09585e-02,-8.63891e-02,-2.61553e-02,-3.17254e-02,-1.27928e-01,1.53721e-02,3.21878e-02,5.78869e-03,-1.56644e-01,-3.20839e-02,2.88064e-03,-4.22731e-02,1.28093e-01,2.71569e-01,1.95874e-01,1.89123e-02,1.15165e-02,-1.91420e-02,6.43499e-02,-7.86620e-02,-1.72722e-02,8.16667e-03,-4.01576e-02,4.63447e-02,2.21285e-02,2.45240e-03,-3.92262e-02,6.49552e-02,-8.81924e-02,4.05631e-02,-1.03487e-02,9.42465e-02,-4.87340e-02,-4.20414e-02,2.13099e-02,-8.61562e-02,-4.97678e-02,1.57506e-02,-5.94101e-02,5.96474e-02,3.78946e-02,2.45076e-01,1.71456e-01,7.87160e-03,-3.08231e-02,9.47540e-03,-5.15820e-02,-5.10361e-02,2.68105e-02,7.23455e-02,1.07250e-01,4.92130e-02,2.19933e-02,-4.49020e-02,1.75683e-02,5.87264e-02,-4.53366e-02,-4.27768e-02,4.01223e-02,-6.24340e-03,-3.55953e-02,-2.27312e-02,3.08970e-02,-5.12705e-02,6.13504e-02,-1.09343e-01,5.04218e-02,-2.99804e-02,1.12510e-01,1.57979e-01,7.42177e-02,2.63375e-02,-1.29432e-01,4.83950e-02,8.62253e-03,-8.11931e-03,2.88590e-02,8.76335e-02,6.50719e-02,7.30714e-02,-3.15303e-02,-1.54143e-02,4.06670e-02,4.65935e-02,-1.13854e-01,8.69011e-02,-5.22793e-02,-7.58682e-03,6.83322e-02,3.65967e-02,3.36193e-02,5.05964e-02,-7.74009e-02,-6.61453e-02,9.31042e-02,5.44064e-02,1.61236e-01,1.20782e-01,2.57222e-01,4.99912e-02,-2.63709e-02,-1.80719e-02,-6.95779e-03,-1.36977e-02,1.10701e-01,1.31262e-01,1.16252e-01,7.85476e-02,1.77134e-02,-6.58524e-02,5.13660e-03,-6.09050e-02,6.17804e-03,-5.22261e-02,-1.71584e-03,-1.51220e-02,-4.19805e-02,5.16306e-02,6.99622e-02,-3.49358e-02,-3.83842e-02,5.28211e-02,7.53007e-02,1.81332e-02,-8.17864e-03,1.37214e-01,1.61593e-01,1.89276e-02,-5.11746e-02,-8.75982e-02,-1.02389e-01,2.87980e-02,9.78618e-02,1.35686e-01,4.10305e-02,6.44516e-02,1.25454e-01,2.33818e-02,-2.63016e-03,-8.69543e-02,-6.30157e-02,-3.39994e-02,-6.34321e-02,5.43202e-02,-6.43434e-03,-2.79165e-02,2.37885e-02,1.50507e-02,-4.86712e-02,3.14598e-02,1.10581e-01,7.71273e-02,-5.32441e-02,5.50483e-02,8.33734e-02,6.76413e-02,-9.65597e-02,-4.86307e-02,3.86159e-02,2.59966e-02,3.51281e-02,7.17021e-02,3.64339e-02,9.42731e-02,3.79237e-02,-3.24170e-02,3.48089e-02,-1.53395e-02,2.21654e-02,5.65039e-02,-7.05078e-03,5.78595e-02,3.84569e-02,-5.31268e-03,9.57405e-02,7.90426e-02,1.09087e-01,2.11129e-02,5.58221e-02,-3.23713e-02,8.30347e-02,1.45958e-01,1.86877e-01,1.30914e-02,-9.08970e-02,-5.09714e-02,2.89771e-02,8.58957e-02,1.28390e-01,4.13994e-02,8.86285e-02,6.52654e-02,1.14951e-01,8.52977e-02,-5.98494e-02,3.12512e-02,-3.36325e-02,4.03358e-02,-4.47553e-02,-1.33602e-02,5.46901e-02,-2.03259e-03,1.27069e-01,8.25049e-02,1.77724e-02,3.47773e-02,-5.59705e-02,1.05188e-01,-3.46559e-02,6.79581e-02,8.70591e-02,7.96569e-02,-1.37974e-01,-1.32333e-01,-9.11123e-02,-2.82900e-02,1.17850e-01,9.02782e-02,1.47345e-02,9.26145e-02,-1.25164e-02,3.89199e-05,1.05219e-02,4.47579e-04,-8.56224e-02,1.95032e-02,3.52286e-03,-6.30767e-02,-4.28025e-03,1.03584e-01,-9.97516e-03,6.20889e-02,-5.86132e-02,5.96165e-02,5.87754e-03,-2.30074e-02,1.80916e-02,9.43005e-03,1.07166e-01,-4.06908e-02,-2.74365e-02,-5.60381e-02,-7.30856e-02,1.37594e-01,7.93153e-02,9.14700e-02,4.84057e-03,-6.41818e-02,4.74576e-02,-3.34491e-04,8.98843e-02,1.08483e-02,-1.89455e-02,1.31155e-03,8.01198e-02,1.58779e-03,8.07231e-02,4.05591e-02,5.06045e-02,1.16032e-01,1.47004e-01,5.28805e-03,2.14223e-02,8.05599e-02,9.91418e-02,7.76001e-02,9.31990e-02,1.40415e-03,-1.29752e-01,-1.42256e-02,5.56099e-03,9.23883e-03,5.77761e-02,-3.84442e-02,-9.99420e-02,8.61286e-02,-1.29364e-03,-5.39540e-02,9.05659e-02,5.22843e-03,7.11891e-02,9.02328e-02,1.24431e-02,1.00639e-01,6.78310e-02,-5.81800e-02,-4.37383e-02,2.45275e-02,-2.80572e-02,2.99553e-02,-3.74804e-02,-4.37693e-02,-1.83067e-02,6.85948e-02,4.29095e-02,-7.76347e-02,-7.08998e-02,-2.84900e-02,-3.08806e-02,6.86813e-03,8.87899e-02,4.59340e-02,-4.00333e-02,6.22537e-02,-3.23095e-02,-1.50702e-02,3.83301e-02,2.36975e-02,-5.07170e-02,-2.86060e-02,-7.53394e-03,6.95823e-02,4.11196e-02,-9.40908e-02,1.26391e-02,2.51711e-02,8.85174e-02,-5.48934e-02,-6.65080e-02,-7.18332e-02,5.78408e-02,3.57659e-02,1.75249e-01,-2.45620e-02,4.18576e-02,-1.76668e-02,1.70998e-02,7.22533e-02,1.47543e-01,-2.51787e-02,-4.44607e-02,1.63730e-03,-7.06910e-02,-6.04864e-02,-1.07033e-01,1.78545e-02,7.02867e-02,2.52922e-02,4.09623e-02,-6.06058e-02,-8.12990e-02,4.18717e-02,-8.96690e-02,-7.58114e-03,4.08853e-02,9.15147e-02,1.33775e-03,-5.03585e-02,2.79088e-02,-4.56151e-02,3.97586e-02,-1.06485e-01,-9.01340e-02,5.02440e-03,1.06395e-01,1.44491e-01,9.95752e-02,-5.40627e-02,-2.99496e-02,-1.27798e-02,4.17574e-02,1.33997e-02,4.31318e-02,-6.72108e-03,4.63414e-02,-7.05992e-02,9.59341e-02,-7.41247e-03,7.54782e-02,4.71340e-02,-7.17045e-03,-8.51754e-02,9.16025e-02,-3.32263e-02,-2.31302e-02,-9.12875e-02,3.10600e-02,5.07606e-02,5.95776e-02,3.17819e-02,-8.04513e-02,-3.63053e-02,8.26908e-02,1.93266e-02,8.37680e-02,4.58516e-02,5.13255e-02,-1.01035e-02,6.11657e-02,-5.94543e-02,-1.70718e-02,7.45932e-02,2.54057e-03,3.22723e-02,3.96748e-02,7.49843e-02,-1.23717e-02,4.56349e-02,5.66869e-02,-7.65241e-02,-1.10644e-02,1.76518e-02,3.05093e-02,2.67953e-02,-4.88744e-02,-3.02472e-02,-1.37223e-01,3.33057e-02,4.50266e-02,7.99256e-02,-2.28632e-02,1.60740e-01,-3.00336e-02,6.06740e-02,2.53226e-02,1.56695e-02,-1.12859e-02,2.45410e-03,-4.22101e-03,1.74264e-02,-2.90732e-02,7.99082e-02,3.11884e-02,5.31131e-02,1.25701e-02,1.81133e-02,3.54224e-03,7.81162e-02,9.46886e-02,2.62509e-02,-9.98010e-02,-6.20903e-03,-1.05781e-01,-7.40055e-02,-3.49205e-02,-8.35907e-02,7.36645e-02,-4.66138e-02,1.06923e-01,7.34852e-02,-3.21066e-03,-9.12047e-02,-3.38592e-02,-5.11376e-02,-9.23145e-02,1.94590e-02,7.29312e-02,4.82429e-02,2.40871e-02,-5.68830e-02,-7.09244e-04,3.04577e-02,8.48565e-02,2.30375e-02,-3.92504e-02,4.05905e-02,9.14217e-04,-6.04101e-02,-4.74122e-02,-4.91143e-02,1.96666e-02,-3.95854e-02,-3.19699e-02,2.07318e-02,1.12154e-01,1.54441e-01,1.33700e-01,-1.46883e-02,-6.03656e-02,-5.29476e-02,-9.21363e-02,-8.40474e-02,8.83053e-02,3.02327e-05,6.90837e-02,7.51739e-02,6.90987e-02,3.23611e-02,4.23076e-02,-6.24389e-04,4.66495e-02,-1.30543e-02,-1.80356e-02,-9.97007e-04,-1.86878e-01,-1.76691e-02,-6.66371e-02,-2.48805e-02,-1.53385e-01,-1.27687e-01,-4.08692e-02,3.41361e-02,-3.89590e-02,-1.91528e-04,-4.41256e-02,-5.70585e-03,-1.84481e-01,-1.99522e-02,-1.17123e-01,-8.77313e-02,-2.22829e-02,9.04863e-02,9.96316e-02,1.90197e-01,4.14123e-02,5.67629e-02,1.24140e-01,2.85323e-02,-1.53658e-01,-2.29721e-01,-1.02776e-01,-1.30971e-01,-1.92183e-01,-2.43921e-01,-2.38074e-01,-1.49619e-01,-1.32169e-02,-4.88911e-02,
8.05647e-02,1.73052e-02,6.88695e-02,-1.04173e-01,-1.51872e-01,-1.06558e-01,-2.14053e-01,-8.77207e-02,-1.90102e-02,1.63422e-01,6.33873e-02,4.83976e-02,1.19326e-02,-1.36718e-01,-9.97389e-02,-1.03530e-01,5.59136e-02,9.77056e-02,7.91751e-02,2.65730e-02,-2.31193e-01,-2.44251e-01,-1.75474e-01,-9.00722e-03,1.66549e-01,7.40106e-02,7.73950e-02,4.85797e-02,-8.24764e-03,2.24787e-02,-6.19039e-02,-2.47735e-03,-2.54605e-03,6.09534e-02,3.80026e-02,6.41757e-02,7.29688e-02,3.19936e-02,-2.65137e-02,2.39565e-03,2.87522e-02,7.49163e-02,1.00762e-01,6.04664e-02,8.13333e-02,-6.41851e-02,-2.45395e-02,-6.92668e-02,4.94718e-02,9.63830e-03,-8.99192e-02,-1.09033e-01,-2.97074e-02,4.51889e-03,-1.29170e-01,4.79747e-02,-1.18432e-01,6.30671e-02,-3.59516e-04,1.14545e-01,7.26326e-02,3.54125e-02,1.76872e-01,1.52449e-01,-2.21892e-02,5.42777e-02,-4.43543e-02,3.64561e-02,5.55222e-02,-4.03720e-02,4.76465e-02,-6.20579e-02,-9.02558e-02,-1.76676e-03,3.95944e-02,-1.18468e-01,7.58018e-02,1.96965e-01,1.62796e-01,5.34207e-02,1.46805e-01,-2.27700e-02,-1.70857e-01,-6.49118e-02,1.37758e-01,4.96514e-02,4.09351e-02,-4.51342e-02,3.03877e-02,2.23561e-01,1.37954e-01,5.82807e-02,3.24098e-02,3.55087e-02,6.89766e-02,-1.15373e-01,4.76789e-02,-4.92801e-04,-1.15321e-02,-1.37266e-01,1.16502e-03,-8.89687e-02,-3.61664e-02,2.77139e-02,-2.09910e-02,3.93081e-02,5.46985e-02,1.61168e-01,1.31686e-01,2.03397e-01,2.28970e-02,8.16130e-02,-4.79389e-02,7.04298e-04,1.22351e-01,-8.02818e-02,-1.39658e-02,7.42293e-02,1.15219e-01,8.40989e-02,-2.06201e-02,-1.07759e-02,3.11746e-02,-2.79863e-02,-8.67915e-02,-1.12781e-01,-1.48932e-01,2.92734e-02,-1.26930e-01,1.94558e-02,1.69266e-02,-9.94533e-02,3.65323e-02,1.92994e-02,4.84997e-02,1.39282e-01,8.16521e-02,1.46835e-01,1.02695e-01,-4.27130e-02,-1.41771e-01,7.57971e-02,-1.94654e-02,9.12338e-02,1.14653e-01,9.79924e-02,1.50720e-01,1.27303e-01,-2.84466e-02,-1.01059e-02,4.19809e-02,-5.04324e-03,1.62641e-02,-1.32567e-01,-1.83556e-02,-7.96780e-02,-1.36485e-01,-1.95090e-03,-3.67166e-02,-6.11182e-02,-8.37653e-03,5.41561e-02,1.00487e-01,1.66317e-01,1.03916e-01,1.65290e-01,1.71419e-01,2.07785e-02,1.42689e-02,1.42108e-01,-3.80434e-04,-1.47469e-02,1.88645e-02,1.30737e-01,1.35937e-01,6.81479e-02,-1.44032e-02,-4.43270e-02,-3.32425e-02,-8.78079e-02,-1.52466e-02,-3.18428e-02,-8.58136e-03,-4.97202e-02,3.38639e-02,6.56153e-02,3.15114e-02,-1.54919e-02,-6.56598e-02,3.14442e-02,1.31229e-01,-4.47491e-02,-2.63039e-02,1.17827e-01,1.40354e-01,1.26414e-01,6.53618e-03,1.07476e-01,9.04670e-02,1.07090e-02,-6.66526e-02,3.47124e-02,1.39815e-01,6.70743e-02,7.84750e-02,4.23849e-03,-4.18011e-02,1.56306e-02,-7.32259e-02,9.79789e-04,-5.89582e-03,-4.35557e-02,-1.02541e-01,-7.82968e-02,-6.51538e-02,6.05310e-02,6.65262e-02,2.29356e-02,1.89249e-03,-9.70776e-02,-2.78839e-02,-6.40327e-02,-8.67238e-03,-2.63769e-02,-6.93272e-03,9.33300e-02,-2.83108e-02,-4.43461e-02,3.43600e-02,-1.41757e-02,7.97270e-02,1.33431e-01,9.13208e-02,-1.34209e-02,5.05485e-02,-1.01181e-01,1.66861e-02,3.29831e-02,-1.28114e-01,-6.82413e-02,-1.14839e-01,-5.71462e-02,-1.40944e-01,-8.02434e-02,9.32085e-02,1.40042e-02,-1.80313e-02,-1.08682e-01,-7.33947e-02,-4.80479e-02,3.18740e-02,4.75759e-02,1.05436e-01,1.09546e-01,3.65092e-03,-4.82969e-02,9.50740e-02,5.01653e-02,-4.05710e-02,7.11927e-02,4.52502e-03,-9.12135e-02,6.81799e-04,9.25666e-02,-3.91570e-02,-6.30460e-02,-9.74211e-02,-8.75232e-02,-4.16713e-02,-5.88531e-02,-6.99391e-02,-7.37790e-03,8.25334e-02,5.33600e-02,-5.09446e-03,-1.05682e-01,9.64071e-02,-3.38718e-03,1.32818e-01,1.00656e-01,2.32523e-01,1.11088e-01,5.24321e-02,8.79033e-02,-1.97687e-02,9.10019e-02,9.13892e-02,7.91670e-02,1.21761e-01,5.67089e-03,6.85601e-02,-2.92881e-02,-2.83568e-02,-3.40961e-03,-1.22705e-02,4.08085e-02,1.25982e-02,8.13729e-02,-2.94876e-02,-5.31437e-02,1.01338e-01,1.46809e-01,2.00640e-03,-4.09936e-02,1.34164e-01,8.44240e-02,5.69587e-02,2.12011e-01,1.95401e-01,8.72193e-02,1.13153e-01,6.34326e-02,-5.80360e-02,-2.45058e-02,4.39453e-02,5.60542e-02,-2.55008e-03,3.51502e-02,-4.40782e-02,6.01470e-03,8.10300e-03,3.93290e-02,6.11597e-02,3.66857e-02,-3.59526e-02,6.11928e-02,6.02943e-02,-2.85163e-02,1.12977e-01,9.28986e-02,7.76396e-02,-1.44484e-02,-2.34343e-02,1.09631e-01,-5.27939e-02,1.56768e-01,1.12917e-01,3.86763e-02,1.93142e-02,4.59321e-02,6.86730e-02,-4.82759e-02,3.50266e-02,-5.46616e-02,-5.51658e-02,-6.69795e-02,-6.26345e-02,7.33014e-03,9.98429e-03,3.87489e-02,3.80491e-02,-6.41691e-02,9.06188e-02,-3.40951e-02,3.07952e-02,2.85489e-02,2.75134e-02,3.79865e-02,9.13497e-02,2.17368e-02,8.11534e-02,-5.11393e-02,-5.94937e-02,6.42292e-02,1.73524e-01,-1.91803e-02,-4.15075e-02,-5.63723e-02,-7.46028e-02,-1.47871e-02,2.73940e-02,-5.01362e-02,-3.69929e-02,7.39063e-02,-4.25484e-02,7.92295e-02,2.06108e-02,5.69569e-02,-1.07464e-01,-5.09834e-02,7.92262e-02,2.67790e-02,-3.39251e-02,-6.61276e-02,4.26881e-02,1.12306e-01,-4.13854e-02,-1.11414e-02,6.87971e-02,2.45027e-02,-3.31923e-02,3.75752e-02,1.10918e-02,-1.36317e-02,-9.40709e-02,-1.12342e-01,-6.18411e-02,-6.71156e-02,9.13735e-02,8.56526e-02,-5.10324e-02,2.23717e-02,3.50870e-02,-4.28310e-05,6.36442e-03,-8.76635e-02,3.01934e-02,-7.34650e-02,-4.60338e-02,-5.04005e-03,-4.36225e-04,-2.92603e-02,-6.07756e-02,2.48553e-02,6.17753e-02,6.50649e-02,-1.67411e-02,-1.60947e-01,-1.76577e-01,-2.66773e-02,-5.01658e-02,-1.58551e-01,-8.19113e-02,-1.37277e-01,-3.82671e-02,-1.84300e-02,-6.00824e-04,-9.13876e-04,-4.37589e-02,-1.18899e-01,8.15917e-02,-4.32932e-02,7.40566e-02,-5.59689e-02,-5.45773e-02,-1.36219e-02,5.57249e-02,-3.10048e-02,-3.86254e-02,1.64245e-02,2.32145e-02,6.21782e-02,-4.81038e-02,5.67841e-02,-6.02875e-02,-2.08739e-01,-1.70706e-01,-1.64014e-01,-5.56445e-02,2.96675e-02,3.39347e-02,-4.61443e-02,5.16731e-02,4.60795e-02,-3.45824e-02,-5.07888e-02,-2.96927e-02,5.54282e-02,1.42857e-02,-1.73271e-02,-7.14912e-03,4.48940e-02,-4.23244e-02,-9.50076e-02,2.52354e-02,-2.14334e-03,-1.39453e-02,-9.23547e-02,4.66311e-02,-3.52857e-02,-3.92993e-02,6.95538e-02,-4.63940e-02,1.72147e-02,8.41609e-02,5.81121e-02,-1.17193e-01,1.31665e-01,1.50109e-01,1.37094e-01,7.66220e-04,-1.05483e-02,7.60028e-02,1.76929e-02,-2.75531e-04,1.44091e-02,4.53690e-02,-4.57139e-02,4.21347e-02,8.11584e-02,1.06458e-01,-2.02515e-02,-4.66942e-02,4.18712e-02,5.70727e-02,3.85462e-02,-9.69744e-02,1.44185e-02,-2.58206e-02,1.90684e-02,5.79283e-02,1.10946e-01,1.66681e-01,1.28748e-02,-2.20199e-02,3.22427e-02,-5.23973e-02,8.24746e-02,-5.30737e-02,-4.35779e-02,6.31782e-02,-4.01103e-02,-7.00914e-02,-3.27050e-02,-5.74401e-02,-5.95228e-03,7.39314e-02,6.90138e-02,-6.60382e-02,-1.01936e-01,-8.02621e-02,4.38676e-02,-6.62613e-02,-8.12854e-02,2.32867e-02,3.41893e-02,-5.53748e-02,-7.88093e-02,5.07613e-02,-2.56320e-03,3.04980e-02,4.69166e-02,3.96413e-02,-6.51357e-02,6.00562e-02,-7.18404e-02,-3.18623e-02,-7.54141e-02,3.51085e-02,-7.70529e-02,-1.21481e-01,7.91106e-02,3.84793e-02,-9.41177e-02,-7.56004e-02,9.64688e-04,4.78841e-03,-7.11951e-03,8.48452e-03,-6.98307e-02,-3.60281e-02,-4.30761e-02,-3.29327e-02,-2.42791e-02,4.19628e-02,-4.67971e-02,4.81044e-03,-8.30934e-02,-8.78295e-03,-1.53663e-01,-1.03752e-01,-4.92218e-02,-6.11513e-02,-5.84211e-03,-1.36266e-01,-7.55344e-02,-8.02715e-02,-1.24432e-01,-1.70725e-01,1.50081e-02,-7.27106e-02,-7.88822e-02,-1.69205e-02,3.62773e-02,-2.16270e-03,4.44046e-02,4.80090e-02,-2.21115e-02,3.22471e-02,-5.63737e-02,-1.02950e-01,2.02129e-02,-9.96804e-02,-1.41561e-01,-8.93729e-02,6.54134e-02,-5.07902e-02,-1.17340e-01,1.07088e-02,-1.08704e-01,-7.81612e-02,-1.73966e-01,-1.23891e-01,-4.26948e-02,-7.02740e-02,-1.60445e-01,-2.01610e-02,4.97887e-02,-5.37575e-02,-2.68822e-02,5.32521e-02,-1.91021e-02,-5.33988e-02,-6.64336e-02,-3.91481e-02,2.79970e-02,1.42592e-02,4.02597e-02,-1.28887e-01,-1.17529e-01,7.91603e-03,-9.44142e-02,-8.51765e-02,-9.97629e-02,-5.70485e-03,-3.57471e-02,1.25882e-03,-1.06602e-01,-2.18198e-01,-1.00106e-01,-1.53726e-01,-1.03048e-01,4.69576e-02,-7.77918e-03,-9.00477e-02,-1.07036e-02,-1.88961e-02,5.23936e-02,1.13117e-01,8.82013e-02,1.35923e-03,1.03678e-01,5.00763e-02,3.10915e-02,-3.95345e-02,6.37209e-02,1.34823e-03,3.41167e-02,3.59031e-02,-1.11317e-01,-6.09132e-02,-4.33463e-02,-7.97777e-02,-3.16317e-02,-1.43337e-01,-2.34526e-01,-1.71041e-01,-7.33395e-02,-5.21790e-02,-2.02601e-02,8.62731e-03,-3.14334e-02,1.40945e-03,1.02119e-02,5.39921e-02,7.30584e-02,4.32668e-02,8.17456e-02,1.01754e-01,1.25208e-01,-1.29244e-02,-3.78376e-03,-4.76280e-02,4.94584e-03,-8.74585e-02,-8.78127e-02,3.61969e-02,-1.19673e-01,-5.39345e-02,-7.81535e-02,1.11637e-02,-5.41947e-03,-2.07614e-01,-1.77061e-01,-2.54356e-03,-5.25731e-02,-1.48018e-01,1.91813e-02,8.23258e-02,3.58581e-03,3.81610e-02,9.83440e-02,4.07370e-02,9.84529e-02,1.78912e-02,8.23271e-02,2.46828e-02,-5.57854e-02,-8.74997e-02,3.96272e-02,-7.36418e-02,-4.78253e-02,-1.16836e-01,-1.10518e-02,1.79569e-02,-9.96508e-02,-7.36406e-02,4.91707e-02,4.12158e-02,-4.00425e-02,1.18813e-02,-5.46915e-02,9.58747e-03,-8.14067e-02,-2.54982e-02,7.40676e-02,1.24301e-01,-5.86622e-02,-1.46863e-02,1.05758e-01,2.43117e-02,6.86136e-02,1.14218e-01,3.52087e-03,4.00668e-02,-4.09100e-02,6.82652e-02,1.09917e-03,1.01454e-01,5.70505e-02,-1.53418e-01,-2.67900e-02,8.04088e-02,-1.11435e-01,-3.28680e-02,5.64969e-02,1.04255e-01,8.47217e-02,6.03053e-02,-2.32106e-02,1.42279e-01,4.62635e-02,-2.69178e-02,9.18089e-02,4.24081e-02,7.00231e-02,-4.60740e-02,7.18028e-02,-3.73469e-02,1.01615e-01,6.01438e-02,8.09570e-02,1.11762e-01,7.20332e-03,8.55564e-02,6.53486e-02,8.44556e-02,-5.02236e-02,-4.71311e-02,1.18484e-01,8.65965e-02,-7.42238e-02,-1.19079e-01,6.21618e-02,-3.13336e-02,2.89798e-02,-3.18297e-02,-1.93077e-01,6.20132e-02,8.65323e-02,1.97560e-02,7.91080e-02,1.17717e-02,9.93803e-02,8.93469e-02,-7.36854e-03,2.67124e-02,-9.57180e-03,4.31491e-02,2.09386e-01,1.69371e-01,1.63209e-02,6.16540e-02,2.36318e-02,3.47556e-02,7.89077e-03,1.52147e-01,2.58299e-02,6.62826e-02,-1.54977e-02,-4.70436e-02,-1.69143e-02,-2.31563e-01,-2.16396e-03,
1.71884e-01,1.31171e-01,1.02616e-01,-1.17696e-01,-7.55387e-02,7.02157e-02,1.64908e-01,1.40078e-01,3.70259e-02,6.51859e-02,2.53362e-01,2.09524e-01,-2.55162e-02,-2.84341e-02,-9.23458e-02,-1.17585e-01,1.23106e-01,1.08957e-01,-2.99341e-02,-1.17544e-01,-1.00731e-01,6.01060e-02,9.41487e-02,1.20413e-02,-4.46822e-02,5.73465e-02,6.30472e-03,1.64372e-01,1.02378e-01,1.65413e-03,3.94987e-02,-3.17380e-03,2.80254e-02,4.54878e-02,-2.12346e-02,-1.93136e-01,-8.43576e-02,2.28277e-01,4.48244e-02,-4.97350e-02,6.70513e-02,-1.81413e-02,4.81629e-02,-8.40439e-02,-9.21231e-02,7.86902e-04,6.91760e-02,2.66018e-02,-1.29706e-01,-1.18766e-01,-2.83560e-03,-6.46136e-02,-4.56751e-03,4.66396e-02,9.20370e-04,1.28469e-02,-1.03274e-01,-1.16795e-01,-3.91070e-02,-5.98995e-02,9.83962e-02,-4.49428e-02,-1.16506e-01,-9.15787e-02,-2.41682e-02,6.46676e-02,-1.29892e-02,1.51702e-02,-6.28629e-04,-5.23840e-02,-2.11004e-02,-1.56348e-01,-3.97651e-02,3.65509e-02,2.42522e-02,-7.78887e-02,-6.18616e-03,-1.31198e-02,-1.21978e-01,7.53793e-02,-8.06692e-02,3.90116e-02,-1.66814e-02,2.86453e-02,-1.49125e-01,-1.28683e-01,5.06920e-02,-1.03070e-01,-7.81028e-02,4.41366e-02,3.48690e-02,-2.57834e-02,-3.09131e-02,-5.48555e-03,1.42643e-02,-7.70336e-03,9.43905e-03,-1.23909e-01,-4.20794e-02,1.77174e-02,-1.07263e-01,1.00527e-01,7.38165e-02,2.25212e-02,3.32949e-02,-2.93319e-02,3.24843e-02,7.41564e-02,-3.97058e-02,-2.04937e-02,-8.21248e-02,1.35720e-01,-1.49284e-01,-1.05032e-01,-7.67992e-02,-1.87941e-01,-6.03654e-02,1.19114e-02,-6.36082e-02,-6.46229e-03,1.13946e-01,8.14725e-02,1.26788e-01,-2.96115e-02,-5.69966e-02,-2.05768e-02,-2.83484e-02,1.98591e-02,-5.76781e-02,2.99752e-02,3.16081e-02,2.45895e-02,-1.87789e-02,1.01100e-01,8.97654e-02,1.05482e-01,2.59788e-02,9.32635e-03,6.47555e-02,-3.96571e-02,-1.40372e-01,-2.24334e-01,-1.87238e-01,-1.68019e-01,1.39429e-01,-5.72933e-02,5.72238e-02,2.13798e-02,1.48154e-01,6.34010e-02,4.11988e-02,1.91752e-02,-5.17950e-02,-9.83523e-02,-1.13962e-01,1.20877e-02,-3.21850e-02,3.95816e-02,-4.77444e-02,-1.85240e-02,1.06702e-01,8.12084e-02,7.93961e-02,1.87744e-02,-2.70949e-02,5.78120e-02,1.53512e-01,-8.49371e-02,-1.70595e-01,-1.73976e-01,-3.09210e-01,-2.11491e-01,-2.24864e-03,-3.73126e-02,2.88849e-02,1.24132e-01,8.02428e-03,1.26004e-02,6.83567e-02,-3.84130e-03,-1.11396e-01,-3.19685e-02,-7.90848e-02,-7.51712e-02,-7.77916e-02,4.91122e-02,6.00432e-02,5.33141e-02,3.39992e-02,9.34042e-02,9.77530e-02,1.02714e-01,1.30222e-01,4.90238e-02,5.65581e-02,4.35475e-03,-8.44181e-02,-8.06100e-02,-2.19162e-01,-3.83166e-02,-4.18345e-02,-9.38675e-02,-2.20811e-02,7.45457e-02,-1.18752e-01,7.73264e-02,-3.85573e-02,-5.00739e-02,3.73165e-02,-5.11187e-03,9.17251e-03,-4.05298e-02,5.53718e-02,-1.12458e-01,9.30940e-02,-1.22863e-02,6.86957e-02,7.99648e-02,2.24206e-02,3.73010e-02,-1.28176e-02,-1.95286e-02,2.71882e-02,-3.20929e-02,-1.08886e-01,-9.38160e-02,-2.08983e-01,-2.07944e-01,-1.17750e-01,-1.71375e-01,-6.71377e-02,4.91804e-02,-1.32070e-01,-1.81055e-02,-6.17699e-02,-1.16841e-01,8.33599e-02,-4.29363e-02,-6.29075e-02,1.83711e-02,-9.06704e-04,1.00857e-02,-6.62175e-02,5.21585e-02,8.13400e-02,3.29930e-02,6.72195e-02,-7.80030e-02,1.69778e-02,4.23963e-02,-6.53584e-03,1.23169e-02,-2.12893e-01,-2.85386e-01,-1.42629e-01,-2.47858e-01,-5.40949e-02,-1.74631e-01,-9.91692e-03,-7.31320e-02,-1.02899e-01,-1.35554e-01,-3.64213e-02,3.51781e-02,1.27804e-02,-4.29861e-02,-7.00639e-02,1.18344e-02,3.54456e-02,4.07170e-02,-7.57065e-02,1.28555e-03,-5.31808e-02,6.73143e-02,4.08272e-02,-6.78395e-02,2.15958e-02,6.45578e-02,3.43375e-02,1.22068e-02,-2.59889e-01,-2.10369e-01,-2.02825e-01,-2.06893e-01,-5.29773e-02,-1.70329e-01,-3.63099e-02,1.96188e-02,-4.22571e-02,-1.16954e-01,-9.12745e-02,7.90158e-02,7.11752e-02,-1.23399e-02,-1.92528e-02,-5.93725e-02,-5.98493e-02,8.54318e-02,5.23059e-03,-2.41360e-02,6.43639e-02,1.50961e-02,-1.20450e-01,-1.75592e-01,6.45940e-02,2.76767e-02,-4.13469e-02,1.13856e-01,-2.62177e-01,-2.54695e-01,-1.33504e-01,-8.16124e-02,-6.73927e-02,-1.37153e-01,-2.66003e-02,4.62646e-02,-1.20855e-01,-3.07916e-02,2.70137e-02,8.18581e-03,2.66631e-02,2.59856e-02,7.90784e-03,-2.69869e-02,8.60002e-02,-3.41607e-02,-1.24904e-01,-9.16691e-02,7.01735e-02,5.00245e-02,-7.46972e-02,-7.69181e-02,1.18661e-02,-4.09259e-02,-1.04705e-01,-1.15799e-02,-3.34847e-01,-2.09699e-01,-8.31533e-02,-7.74800e-02,-1.66946e-01,-8.48110e-02,-2.92664e-02,4.58823e-02,-2.37622e-02,1.90321e-02,-6.27335e-03,1.99647e-02,9.13092e-02,8.16396e-02,-2.05264e-02,2.26372e-02,5.08183e-02,-2.09354e-02,-3.56521e-02,-7.83992e-02,-3.29727e-02,-3.64424e-02,-7.76338e-02,-7.69761e-02,-2.49032e-02,-8.74542e-02,8.63258e-02,3.62487e-02,-9.92134e-02,8.41086e-03,-7.60343e-04,-7.00311e-02,-6.22813e-02,5.74059e-03,1.51748e-01,-6.44061e-03,4.34468e-03,-5.76828e-02,1.65796e-02,7.54781e-02,-3.62340e-02,-9.49896e-03,-6.73557e-02,-9.42060e-02,2.95557e-02,2.94012e-02,-8.87337e-02,3.52692e-02,-8.60497e-02,-2.43879e-03,-3.39442e-02,-8.74082e-02,-8.34455e-02,3.79899e-02,-8.85998e-02,-1.32005e-01,7.64586e-02,-1.52683e-02,-5.27055e-03,-1.69217e-01,-1.12190e-01,1.34392e-01,4.87018e-02,-5.97353e-03,-6.56384e-02,-1.18101e-03,6.27087e-02,3.23527e-02,-2.59534e-02,9.47481e-02,-4.13451e-03,2.91291e-02,5.29145e-02,5.31005e-02,-9.09196e-02,-8.99280e-02,-6.77878e-02,2.30877e-02,4.06686e-02,-8.05028e-02,2.16179e-02,-8.38717e-02,5.64487e-03,-1.49902e-01,1.22927e-01,4.40055e-02,-1.36582e-01,-4.79098e-02,8.56226e-03,6.60588e-02,2.39728e-03,-7.41111e-03,1.29251e-01,4.28149e-02,-1.40135e-02,-5.67446e-03,1.01716e-01,5.78773e-02,1.27262e-02,-5.01227e-02,6.86990e-02,3.05348e-02,1.66298e-02,6.83726e-02,7.91541e-02,8.98810e-02,4.68415e-02,-1.89554e-02,-2.49144e-02,9.20260e-03,-1.33694e-02,-4.06546e-03,7.61768e-02,1.25364e-01,-1.38575e-01,-8.50459e-02,-3.00748e-02,5.36655e-02,2.79414e-02,1.01951e-01,1.44171e-01,-4.51032e-02,-4.77725e-02,3.72704e-03,5.28836e-02,4.32596e-02,-3.37492e-02,-3.15540e-02,1.63635e-02,2.67950e-02,-5.10847e-02,-4.88599e-02,3.51634e-02,6.25428e-02,-9.02667e-03,8.75712e-03,-3.12704e-03,-1.55826e-02,8.83407e-02,-4.54883e-02,1.30445e-01,1.50346e-01,-9.11139e-02,-1.97387e-01,2.82655e-02,1.54977e-01,4.49400e-02,9.28328e-02,7.18460e-02,-3.07258e-02,1.12118e-01,4.87044e-02,-3.12090e-02,-3.56853e-02,1.12768e-01,7.66609e-02,5.53974e-02,3.23857e-02,-8.99307e-02,-2.13607e-02,3.95571e-02,-2.78604e-02,3.72691e-02,-5.19149e-02,-4.15871e-02,3.13280e-03,-4.35832e-02,1.16351e-01,1.15261e-02,5.04060e-02,-1.82970e-02,-1.59108e-01,-3.28905e-02,4.46211e-02,1.27741e-01,3.23488e-02,-5.80422e-03,6.08399e-02,1.10995e-01,1.10373e-01,-1.22000e-02,1.67518e-02,6.30742e-02,7.69124e-02,-1.16018e-02,-4.48948e-02,9.71614e-02,-7.33349e-02,1.25385e-02,-6.32117e-04,4.32579e-02,1.84271e-02,3.29649e-02,-1.60460e-02,-1.61197e-02,4.69244e-02,1.26222e-01,1.42132e-02,-7.56182e-02,-8.51881e-02,-8.13518e-03,1.24066e-01,3.87041e-02,9.52803e-02,-1.93857e-03,1.06996e-02,8.41336e-02,3.01016e-02,4.75229e-02,-2.92887e-02,-4.75575e-02,3.91408e-02,7.61920e-02,-2.00752e-02,-6.33499e-02,-1.40589e-01,-1.22649e-01,-1.03087e-01,-1.54806e-02,6.64549e-02,-2.38721e-02,3.63304e-02,1.48356e-02,-6.17700e-02,-2.33451e-02,7.32857e-03,-4.12880e-02,-1.32834e-01,-9.65649e-03,8.51466e-02,4.90837e-02,-3.08146e-02,-5.85188e-02,1.02815e-01,7.02280e-02,7.92732e-02,-5.31272e-02,7.57529e-02,4.61729e-02,-1.91477e-02,8.42426e-02,4.43229e-02,-1.31336e-01,-1.97490e-01,-7.74227e-02,-6.84139e-02,-5.45345e-02,2.07297e-02,-9.66736e-02,-7.82991e-04,-6.86769e-02,-4.54591e-02,-7.95267e-02,-9.43862e-02,-1.09457e-01,-6.28184e-02,-3.45607e-02,8.65913e-02,-2.97210e-02,-1.11824e-01,-8.50428e-02,1.92777e-02,-1.98777e-02,-3.85985e-02,6.02737e-02,4.49602e-02,1.01216e-01,4.00860e-02,5.66614e-02,-3.25918e-02,-2.28569e-02,-6.31201e-02,-1.99798e-01,-5.69153e-02,-9.92908e-02,-1.62877e-02,1.37548e-02,-1.30040e-02,2.27579e-03,-5.80744e-02,-1.32940e-01,-2.09469e-02,-6.59883e-02,-2.66704e-02,4.89140e-02,-3.51636e-02,-3.06912e-03,-3.35300e-02,2.36066e-03,1.37572e-01,1.28468e-01,4.27607e-02,4.12602e-02,4.80881e-02,9.05440e-02,7.88535e-02,5.92466e-02,-4.39103e-02,-5.58265e-02,-7.95312e-02,-1.19859e-01,-6.55999e-02,1.67925e-02,-9.52855e-02,-5.81255e-03,3.55267e-02,-3.58797e-03,-4.68026e-02,-2.18396e-02,-7.70130e-02,-6.69859e-02,-4.90946e-02,6.24859e-02,5.69035e-02,5.47790e-02,-4.68513e-02,-7.08663e-02,1.59557e-01,1.46812e-01,4.50645e-04,-2.66704e-02,1.03744e-01,9.91232e-02,3.68713e-02,5.48538e-02,-2.21918e-02,5.98393e-02,-8.25630e-02,-6.03932e-02,-1.11361e-01,-7.99197e-02,-1.02313e-01,9.50161e-02,4.05968e-04,1.59293e-02,-7.69225e-02,-1.38382e-01,2.68416e-02,-8.13986e-02,2.13264e-03,-1.06001e-01,3.57932e-02,6.02591e-02,-9.93935e-02,-4.04552e-02,3.00761e-02,5.89611e-02,-1.51073e-02,3.75085e-02,7.43848e-02,-3.97654e-02,6.55038e-02,-1.00620e-02,5.04859e-02,2.34900e-02,-5.15431e-02,-1.20187e-01,-1.08712e-01,8.27046e-02,-1.30265e-02,4.19986e-03,5.02553e-02,9.08656e-02,-2.37387e-02,3.70091e-02,-7.27148e-02,-1.01127e-01,-8.26237e-02,-2.03244e-02,6.22798e-02,4.27715e-02,-2.23459e-01,-4.58598e-02,8.27829e-02,-3.63069e-02,8.91126e-03,4.66793e-03,5.03224e-02,4.55288e-02,-1.49982e-02,2.17157e-02,3.23860e-02,6.91005e-02,-1.27630e-01,-6.00562e-02,-5.03448e-02,6.89867e-02,1.48988e-02,4.26438e-02,-6.83955e-02,1.01925e-01,-1.21802e-01,1.49371e-01,8.43927e-02,-4.19275e-02,-9.87902e-02,-1.16343e-01,1.85627e-02,-7.11256e-03,-2.48765e-02,-7.69189e-02,6.97926e-02,-1.03179e-02,2.50691e-02,-8.56052e-02,-7.75719e-02,4.76484e-02,4.28024e-04,-8.38617e-02,3.13315e-03,-4.95230e-02,-9.35689e-03,-1.24174e-02,-2.19671e-02,3.51139e-02,-7.81482e-02,-1.07612e-01,5.66534e-02,2.74790e-02,-3.42026e-02,1.46470e-01,-6.01868e-02,-7.93435e-02,-4.22069e-02,-4.47369e-02,3.68691e-03,-5.02814e-02,-1.43835e-01,-9.38436e-02,-1.07810e-02,1.19995e-01,-1.41573e-01,-2.51728e-01,-8.85736e-02,-1.55272e-01,-9.14726e-02,-3.43225e-03,-5.64902e-02,8.65123e-02,-7.07964e-02,3.17345e-02,2.82349e-02,-6.51324e-02,-3.71347e-02,-2.38168e-02,8.74547e-02,-3.31238e-02,1.28612e-02,
7.65598e-02,3.65996e-02,-5.09651e-02,1.54406e-02,4.39371e-02,-3.92393e-02,-8.34081e-02,-1.62974e-02,-1.34592e-01,-1.50073e-01,-2.15923e-01,-1.73285e-01,-1.24848e-01,1.01470e-02,1.11173e-02,2.30176e-03,-5.50098e-02,-6.86128e-02,-4.39305e-02,-1.56949e-01,-9.67844e-02,-4.72901e-02,-1.41575e-02,-5.11260e-02,-6.87521e-02,-4.86034e-02,2.23125e-02,-3.76424e-02,2.21360e-02,1.77976e-02,8.60698e-02,3.05278e-02,2.71639e-02,5.60135e-02,-1.06053e-01,-1.29375e-01,-5.80545e-02,-8.16388e-02,-1.17249e-01,-6.30627e-02,-6.44635e-02,-1.44008e-01,-1.18663e-01,-4.89728e-02,-4.21268e-02,-1.18906e-01,-8.40213e-02,-1.25465e-01,-1.66099e-01,-8.68515e-02,-7.78051e-02,-7.01812e-03,1.73120e-02,5.56221e-02,1.65944e-01,2.61547e-02,6.39514e-02,1.36054e-01,4.30265e-02,1.25158e-02,5.98737e-02,8.24616e-02,-1.24995e-02,-1.16925e-02,-2.24874e-02,-5.84946e-02,-5.52520e-02,-9.50636e-02,-2.38355e-02,-5.94422e-02,2.45612e-02,-7.58999e-02,-9.84960e-02,-2.07086e-02,9.08368e-03,-6.40671e-02,-1.11293e-01,4.67437e-02,-1.16276e-01,9.58816e-03,-9.92796e-02,5.27353e-02,4.34652e-02,1.36472e-01,1.73181e-02,8.29407e-02,1.57574e-01,8.74421e-02,2.93717e-02,5.62952e-02,3.74592e-02,1.17101e-02,2.33436e-02,-1.36272e-02,-1.13343e-01,2.73896e-02,5.63966e-02,-4.68905e-02,-1.30446e-02,-5.83824e-02,-1.13523e-01,-7.86802e-02,-3.44304e-02,-9.38435e-02,-6.28529e-02,-5.93254e-02,5.09017e-02,5.82471e-02,-1.77243e-02,8.86594e-02,6.27261e-02,3.24298e-02,1.61274e-01,1.67398e-01,2.09451e-01,1.38236e-01,1.36769e-01,8.40137e-02,8.65948e-02,-5.15653e-02,-8.00255e-02,8.57823e-03,-2.91294e-02,-1.44500e-03,-2.56369e-02,2.81127e-02,-4.81148e-02,-2.08444e-01,-2.12833e-01,-1.93657e-01,-1.22745e-01,-1.56440e-01,-2.47359e-01,-1.45061e-01,-4.45252e-02,-2.76674e-02,-2.44044e-02,-4.76229e-03,1.90743e-03,6.41590e-02,1.90071e-01,1.49371e-01,1.83025e-01,9.08324e-02,1.19659e-01,5.99195e-02,-2.48999e-02,1.12438e-01,-1.63323e-02,6.59041e-02,5.67616e-02,1.18541e-01,8.45030e-02,-1.39631e-02,1.67650e-02,-7.47080e-03,-2.27470e-01,-1.99919e-01,-1.64398e-01,1.07191e-02,-4.00417e-02,-1.25361e-01,-5.62635e-02,-4.41979e-02,-7.41779e-02,-2.39469e-03,3.03928e-02,2.04028e-01,1.02126e-01,-2.77490e-03,1.13525e-01,8.83903e-02,1.96017e-01,3.76390e-03,-3.00749e-02,9.69688e-02,3.97994e-03,1.46093e-01,-7.64436e-05,8.27837e-02,-3.37023e-02,1.23943e-01,6.58474e-02,7.33092e-02,-1.11435e-01,-2.50973e-01,-2.38106e-01,-2.46080e-01,-1.54559e-01,-3.04973e-02,7.17751e-02,8.36686e-03,-4.96706e-02,6.05103e-02,5.59909e-02,5.15415e-02,6.59049e-02,1.04199e-01,2.19127e-01,2.31438e-01,2.19833e-01,5.06446e-02,9.31996e-02,-7.86987e-03,-2.32673e-02,4.93569e-02,6.27912e-02,1.56829e-01,4.11053e-02,7.88184e-02,1.16238e-01,9.86101e-02,-5.04698e-03,-1.82744e-01,-2.75123e-01,-2.59479e-01,-1.25451e-01,8.30649e-02,8.35090e-02,1.08679e-02,8.60307e-02,2.45513e-02,9.19190e-02,9.96293e-02,1.68286e-01,2.04264e-01,1.54758e-01,1.03664e-01,8.70941e-02,7.96759e-02,2.37192e-02,3.57285e-02,-3.01830e-02,-8.81750e-03,1.31331e-01,1.67032e-01,8.27286e-02,1.24462e-01,1.63329e-01,1.28950e-01,-9.11060e-02,-1.26409e-01,-1.18818e-01,-2.72066e-02,4.73724e-02,4.91761e-02,2.17642e-02,9.48802e-02,-1.11325e-02,8.67471e-02,4.84358e-02,-8.96248e-02,2.46245e-01,1.59831e-01,7.36452e-02,5.72290e-02,2.96183e-02,5.85962e-02,4.36309e-02,1.47145e-01,9.29403e-02,2.26346e-01,5.07802e-02,-7.22157e-03,1.65788e-02,1.37520e-01,2.00444e-01,1.91266e-01,-1.69803e-02,-1.65071e-01,-4.99301e-02,-1.77448e-03,4.02823e-02,1.62826e-01,6.35449e-02,4.31605e-02,2.36235e-02,1.67338e-02,-4.28285e-02,-3.78421e-02,1.52788e-01,1.30348e-02,2.68441e-03,-1.06386e-02,1.10543e-01,3.16091e-02,1.83002e-01,1.78664e-01,1.75918e-01,1.39605e-01,-5.46318e-02,-2.37492e-01,-1.18869e-01,1.17989e-02,-1.61934e-02,1.12963e-01,9.72531e-02,-4.89263e-02,1.03660e-01,1.01882e-01,1.21484e-01,1.81608e-01,9.63549e-02,3.28132e-02,8.16710e-02,3.02993e-03,-1.17713e-02,1.10478e-01,1.40152e-01,7.18109e-02,-3.96376e-03,-3.06825e-02,1.77321e-01,1.95153e-01,1.57216e-01,1.83762e-01,-4.81763e-02,-2.62294e-01,-2.60360e-01,-3.85854e-01,-1.95060e-01,-9.23577e-02,-2.97866e-02,1.96871e-02,1.12471e-01,8.53733e-02,1.03320e-01,3.71464e-02,1.52643e-01,4.38638e-02,7.91546e-02,6.41035e-02,3.56869e-03,2.72423e-03,5.80796e-02,2.52554e-02,9.38378e-02,6.91039e-02,3.77637e-02,-8.24594e-03,-1.55149e-03,5.09486e-02,-1.55014e-02,-5.54973e-02,-1.30208e-01,-9.26116e-02,-1.01274e-01,-6.22520e-02,-3.75243e-02,-1.33496e-01,-9.95830e-02,-3.25788e-02,2.69116e-03,-4.34840e-02,6.14037e-03,1.86894e-02,1.12169e-01,6.04447e-02,-1.13665e-02,3.85058e-02,1.14283e-01,-2.71365e-02,-6.04626e-02,-8.29536e-02,8.09975e-02,4.86278e-02,-1.18825e-02,-1.09384e-01,-3.33314e-02,1.47270e-01,1.28877e-01,3.62545e-03,2.14082e-02,-1.98525e-02,-1.46287e-02,-7.96977e-03,-4.81899e-02,-5.00516e-02,-4.84162e-02,-1.05099e-01,-5.62696e-02,3.62165e-02,4.09355e-02,9.62914e-02,-3.93278e-02,-1.14964e-02,8.23700e-02,2.13111e-02,-6.77284e-02,4.42921e-02,-7.36932e-02,1.66521e-02,-5.33116e-03,5.63770e-02,-2.96206e-02,7.14590e-02,9.65761e-02,2.64095e-01,6.06828e-02,1.20158e-01,7.20855e-02,7.16912e-03,-5.51214e-02,-8.80879e-02,-2.27524e-02,-4.77634e-02,2.16499e-02,-1.41903e-01,-1.53042e-01,3.58582e-02,-3.83375e-02,1.29573e-04,8.95780e-02,7.43343e-02,-3.00493e-02,6.30517e-02,-7.47875e-02,-1.32184e-01,-2.11872e-02,-1.85895e-02,-1.09734e-01,2.65756e-02,-1.09847e-01,-3.96039e-03,3.42990e-02,1.18297e-01,1.36387e-01,3.69674e-02,1.41201e-02,3.50164e-03,4.39983e-02,2.80151e-02,2.45694e-03,-3.24450e-02,-5.43394e-02,-2.92610e-02,-1.03624e-01,3.25874e-02,-1.12010e-02,8.42180e-02,5.05088e-03,-1.03308e-02,-1.25147e-02,3.12341e-02,-7.51029e-02,-1.56963e-01,-8.40698e-02,1.69685e-01,-1.69128e-01,-7.55175e-02,-7.91020e-02,2.29775e-02,1.09873e-01,1.00187e-01,1.32467e-02,6.43195e-02,4.99487e-02,-6.69534e-02,-4.54859e-02,-5.34556e-02,8.22465e-03,-8.36478e-02,5.33821e-02,-2.88223e-02,-2.72749e-02,-1.24824e-01,-3.47676e-02,3.16806e-02,-3.22072e-04,-2.98836e-02,6.73114e-02,1.57345e-02,-1.35612e-02,-8.85928e-02,7.16267e-02,1.46234e-01,-9.10119e-02,-2.70288e-02,-7.27772e-02,4.02495e-02,7.55899e-02,1.87136e-02,-8.63217e-03,1.10303e-01,3.52501e-02,-2.24455e-02,-1.00376e-02,-9.59584e-02,-1.41860e-03,-5.67194e-02,5.77142e-02,-5.07201e-02,-7.40224e-02,-2.45129e-02,-1.64294e-02,4.68150e-02,-1.91885e-02,-3.62463e-03,1.07063e-01,1.04875e-01,5.02806e-02,4.66703e-02,-2.79174e-02,1.51764e-01,-1.31167e-01,-4.97126e-02,-2.72087e-02,-5.32557e-02,1.11868e-01,4.17480e-02,1.47065e-02,1.00773e-01,-4.43068e-02,5.43006e-02,-2.60629e-02,-2.12047e-02,5.64716e-02,5.33070e-02,-5.39543e-02,6.15318e-05,-4.92236e-02,5.16149e-02,1.67574e-02,-2.29175e-02,4.35366e-02,-4.85004e-02,8.93857e-02,9.55228e-02,3.33808e-02,1.32684e-01,9.48115e-02,-4.65585e-02,-4.85547e-02,1.54749e-02,1.90044e-02,1.01328e-01,8.64959e-02,7.83875e-02,9.12847e-02,-1.72798e-02,9.86815e-02,-2.32612e-02,8.69310e-02,9.44422e-02,8.02561e-03,-1.00248e-02,-5.45935e-02,-6.45280e-02,-8.93763e-03,-5.69197e-02,-1.02095e-01,2.61850e-03,9.71054e-02,4.58327e-02,4.50424e-02,1.25918e-02,8.49309e-02,2.18097e-01,8.06006e-02,-1.85982e-01,-1.05915e-01,-8.93434e-02,4.31136e-02,5.77209e-02,-1.57627e-02,-6.87117e-03,-3.06940e-03,8.35080e-02,8.29004e-02,-2.98730e-02,1.47283e-02,7.01234e-02,-2.78896e-02,-1.01759e-02,-7.11004e-02,-8.39751e-02,-1.92136e-01,-2.61421e-01,-2.39394e-01,-7.33741e-02,1.31212e-01,1.32640e-01,8.42959e-02,6.66243e-02,1.40957e-01,1.61842e-01,3.01908e-02,-1.21589e-01,-1.51637e-01,4.52938e-02,3.15751e-02,-1.31161e-01,-2.41409e-02,-6.23261e-02,-1.44960e-02,5.29132e-02,-3.34967e-02,-6.51321e-02,3.26315e-02,9.65016e-02,1.11679e-01,3.36979e-02,-1.13999e-01,-1.48586e-01,-2.33375e-01,-2.63998e-01,-3.24115e-01,-2.32849e-01,6.51012e-02,-1.89435e-02,-3.21008e-02,5.07455e-03,-4.24690e-02,8.80198e-02,5.91525e-02,-3.59923e-02,-1.04493e-01,-1.40530e-01,-9.16519e-02,-5.86661e-03,-7.17340e-02,-2.38186e-03,1.97437e-02,1.25250e-02,-1.16630e-01,2.96829e-02,9.15521e-02,3.07574e-02,-4.59030e-03,-1.74853e-01,-1.96523e-01,-3.63138e-01,-3.28066e-01,-3.42719e-01,-3.72620e-01,-1.48267e-01,6.68103e-02,3.71071e-02,6.14919e-04,9.61889e-02,1.13979e-01,1.16125e-01,1.16580e-01,2.88198e-01,-7.44605e-02,-1.94817e-01,-2.18153e-01,-1.23059e-01,-1.33537e-01,-2.47701e-02,-1.38584e-01,-7.50177e-02,-7.48327e-03,1.86639e-02,1.13562e-01,9.05476e-02,-2.53435e-02,-9.77600e-02,-1.49473e-01,-1.62946e-01,-1.76475e-01,-1.56909e-01,-4.70732e-02,1.02589e-01,1.13039e-01,3.10773e-02,1.37621e-02,1.76449e-01,8.30905e-02,1.56292e-01,7.60016e-02,1.00706e-01,-1.94636e-01,-8.65439e-02,-2.31884e-01,-1.64154e-01,-2.94667e-01,-1.94835e-01,-1.85189e-01,-6.90727e-02,-1.44365e-01,-9.37758e-02,-7.99639e-02,-1.89412e-01,-2.04994e-01,-6.31699e-02,-1.03292e-01,-1.94635e-01,-2.30011e-01,-9.76495e-02,-1.77436e-01,-1.63486e-01,-1.70969e-01,-1.29757e-01,-6.14304e-02,-2.17640e-02,-9.85215e-02,-7.89613e-02,1.96328e-02,1.19368e-01,-2.70115e-01,-2.16722e-01,-1.65727e-01,-2.61951e-01,-1.50494e-01,-1.32591e-01,-1.80147e-01,-1.00026e-01,-1.19485e-01,-1.41865e-01,-1.43744e-01,-1.48967e-01,-1.41115e-01,-5.30046e-03,-3.12044e-02,-6.19144e-02,-8.70778e-02,-3.06841e-02,-4.26421e-02,-1.35614e-01,-1.48901e-01,-4.52315e-02,-5.93295e-02,-7.37191e-02,-1.77723e-01,-5.65210e-02,-6.71927e-02,-3.28182e-02,-1.80666e-01,-2.05903e-01,-2.72417e-01,-2.71689e-01,-2.59270e-01,-1.95372e-01,-3.28346e-02,-5.76190e-02,-8.62903e-02,-1.13914e-01,-7.04238e-02,-5.72848e-02,-4.49440e-02,-3.30171e-03,-8.96997e-03,3.05751e-02,-2.11162e-02,-5.76786e-02,-6.01646e-02,-9.64353e-02,-9.59650e-02,-6.88535e-02,-1.47526e-01,-1.78680e-01,-2.23339e-01,-1.51959e-01,-1.47039e-01,-7.79814e-02,-1.08734e-01,-1.68600e-01,-1.45095e-01,-2.17057e-01,-2.67996e-01,-1.03228e-01,-9.85953e-02,-1.00018e-01,-1.16350e-02,-1.50281e-02,-2.41369e-02,-3.90981e-02,-1.10983e-01,-8.41924e-02,6.45373e-02,7.03271e-02,-9.36280e-02,-7.22644e-02,-7.62422e-02,-5.24075e-02,-1.31758e-01,-1.99609e-01,-1.80217e-01,-1.20356e-01,-1.57069e-01,-2.39123e-01,-1.83238e-01,-1.50546e-01,
-4.20194e-02,7.74682e-02,-8.18958e-02,-7.59770e-03,-8.70392e-02,-2.24417e-01,-5.91231e-02,5.71988e-02,-1.29999e-01,-1.29456e-01,-1.10123e-01,4.04357e-02,-1.72112e-01,-1.36072e-01,3.82718e-02,-2.02344e-01,-6.97362e-02,2.24302e-02,-8.93352e-02,-1.07394e-01,-1.99005e-01,-1.43278e-01,-1.53033e-01,-6.13932e-02,-1.88877e-01,-9.53584e-02,4.42326e-02,5.79935e-02,5.22130e-02,-3.36312e-02,8.93934e-02,-1.08550e-01,-1.99687e-01,-1.66118e-01,-8.95427e-02,-1.39186e-01,-9.66145e-02,1.70145e-01,6.84124e-02,7.19594e-02,-2.06274e-02,-1.06174e-03,8.42762e-02,-5.44127e-02,-1.63186e-02,2.03755e-01,1.47363e-01,-3.32932e-02,-1.66315e-01,-5.57657e-02,-2.04074e-01,-7.77650e-02,-5.35898e-02,-5.93735e-02,3.79815e-02,9.96559e-02,-5.88801e-02,-7.45098e-02,-8.62514e-02,-1.63108e-01,-1.13477e-01,-1.33258e-01,-1.10208e-01,-1.05876e-01,-1.15827e-01,1.89702e-02,-1.16830e-01,-3.22009e-02,-1.25548e-01,-3.62723e-02,-1.49119e-01,-5.79279e-02,-3.29756e-02,-7.17518e-02,1.34547e-02,-1.06904e-01,2.46051e-02,-1.12866e-01,-1.21647e-01,-2.64868e-01,-1.05031e-01,-1.24950e-01,3.04099e-02,-1.22262e-02,-6.31917e-02,2.99564e-02,-2.87659e-02,-1.37311e-01,-1.12376e-01,-2.10621e-01,8.09785e-02,-1.44528e-01,-1.57277e-01,-3.26722e-02,3.79904e-02,-6.58611e-02,1.30079e-02,-1.18780e-01,-2.71669e-02,-6.40921e-02,-7.60431e-02,-7.93767e-02,4.97135e-02,-2.02742e-01,-1.16626e-01,1.89230e-02,-2.31156e-02,-2.95440e-01,-1.98184e-01,-1.40388e-02,-7.71696e-02,9.14515e-03,-3.81907e-02,-1.31052e-01,-1.29045e-01,-6.59510e-02,-7.33246e-02,-6.75664e-03,-5.28184e-02,-8.25750e-02,-1.28130e-01,-9.06791e-02,6.02732e-02,6.05807e-03,-1.01435e-01,-6.67352e-02,-1.01770e-01,2.72397e-02,-1.05228e-01,3.49428e-02,2.98968e-03,-7.96642e-02,-4.89771e-04,-7.42331e-02,-1.29095e-02,8.69787e-02,-2.99820e-01,-7.85388e-02,-1.13696e-01,-1.24810e-01,1.20734e-02,-6.63672e-02,-1.28190e-01,-2.08466e-01,-1.83404e-02,-3.02464e-02,4.06384e-02,2.92600e-02,1.22677e-01,1.93260e-02,7.01210e-02,1.31715e-02,8.24039e-05,-1.07537e-02,1.46714e-03,-8.71650e-03,-9.54656e-02,1.31983e-02,-7.18483e-02,-4.59271e-02,-6.35891e-02,4.65830e-02,-9.87547e-03,5.61624e-02,-2.34365e-01,-2.16429e-01,-1.31559e-01,-3.12931e-02,-6.15362e-02,-7.39251e-02,-7.97410e-02,-1.74804e-01,8.10882e-03,5.03731e-02,9.37566e-02,1.24654e-01,8.23784e-03,2.22884e-02,-4.74845e-02,-4.46490e-02,-8.01335e-03,-1.30004e-01,-1.27085e-01,3.40351e-03,-5.97742e-02,1.70597e-02,-7.50167e-02,-2.25033e-03,1.49821e-01,4.62375e-04,2.63310e-02,-7.31643e-03,-2.05139e-01,-1.39454e-01,-1.41045e-02,4.52638e-03,-4.06632e-02,-5.20711e-02,-7.18459e-02,-1.54590e-01,-1.62390e-02,1.11330e-02,3.66171e-04,8.59673e-02,-3.81010e-03,8.88279e-03,-1.81966e-02,-9.56190e-02,6.59036e-02,-1.02794e-01,-1.33233e-01,-5.12754e-02,-1.42367e-01,-6.78038e-02,-8.70278e-02,3.66173e-02,2.51293e-02,-1.65799e-02,1.12008e-01,4.85489e-02,-2.41015e-02,-2.11355e-01,-1.22618e-01,-6.18232e-02,-8.92234e-03,-7.16826e-02,-1.87538e-01,-9.17063e-02,-1.49791e-01,1.03117e-01,7.67111e-03,7.67038e-02,1.08014e-01,-6.35306e-02,4.82248e-03,-9.36866e-03,-8.70692e-02,-4.83401e-02,-1.13009e-01,-8.56308e-02,-8.41686e-02,-6.94300e-02,-8.43635e-02,-8.39165e-04,-7.83966e-02,4.24553e-02,-4.47497e-02,-1.00225e-02,-1.52006e-02,-1.32687e-01,-1.57068e-01,2.87336e-02,1.21772e-02,-1.88567e-04,1.60252e-02,-3.39938e-02,-1.57576e-01,1.35183e-01,1.01668e-01,1.02342e-01,-1.53156e-02,4.68163e-02,-1.43532e-02,5.94009e-02,-1.69023e-02,1.14905e-02,-8.42355e-02,-9.45592e-02,-1.71732e-02,-2.85510e-02,-2.68093e-02,-1.15371e-01,5.93354e-02,-7.72379e-03,4.52159e-02,-9.71204e-02,-7.00281e-02,-1.93211e-01,-3.79325e-02,-6.35918e-02,-1.04523e-01,-9.84727e-02,-1.31714e-02,-1.48899e-01,-1.18250e-01,9.49023e-02,1.02296e-01,1.35992e-01,1.64740e-02,3.30376e-02,-8.60818e-02,2.96180e-04,-3.28134e-02,-1.71336e-02,-3.43401e-02,-1.05427e-01,-6.26582e-03,-8.43130e-02,-2.83351e-02,3.52286e-02,3.65779e-02,3.27624e-02,7.05571e-02,-1.37111e-01,-1.56968e-01,-1.47184e-01,-1.06011e-01,-1.20831e-02,4.82651e-02,-4.86175e-02,3.67552e-02,-3.50283e-02,-4.80052e-02,2.80244e-02,4.86218e-02,1.72554e-02,-3.21478e-02,1.66376e-02,3.17021e-02,6.41994e-02,-8.24086e-02,-3.03285e-02,-3.67880e-02,-2.46127e-02,-9.61935e-02,-1.13441e-01,-1.55230e-01,6.14347e-03,5.16783e-02,6.39989e-02,5.90317e-02,2.69279e-02,-4.81499e-02,-3.43102e-02,-1.44038e-01,-6.94289e-03,-4.37195e-02,-9.13626e-02,-3.27165e-03,-8.74962e-02,-6.36596e-02,1.03389e-01,6.26925e-02,5.18556e-02,-6.59649e-02,-1.04902e-01,-1.52111e-03,6.90826e-02,-7.53508e-02,-6.79895e-02,-6.98168e-02,-2.18403e-02,-6.03729e-02,1.64671e-02,5.47638e-03,-9.51969e-02,5.02628e-02,1.49744e-02,3.68042e-02,-2.52378e-02,-1.28914e-01,-1.66403e-01,-7.32307e-02,-3.23058e-02,4.27127e-02,-7.89926e-02,-4.77005e-02,-1.40593e-01,-1.14009e-01,5.45155e-02,1.16295e-01,8.37863e-02,2.67479e-02,-4.57986e-02,5.84033e-02,1.82101e-02,-4.68199e-02,1.80490e-02,-1.45425e-02,-6.38909e-02,1.06801e-02,4.72573e-02,3.83514e-02,-6.47593e-02,6.96668e-02,8.65559e-02,-4.09848e-02,4.26617e-02,-5.03932e-02,-2.04353e-01,-1.37481e-01,-7.00147e-02,5.14579e-02,-1.54550e-01,-1.52265e-01,-1.52205e-01,5.97999e-02,3.15024e-03,2.20643e-02,1.10354e-01,4.02152e-02,-7.57515e-03,6.49466e-02,-2.46778e-03,6.10635e-02,-7.59219e-02,3.26656e-02,-3.69968e-02,-2.03062e-02,3.30060e-02,-7.75398e-02,-2.43340e-02,-3.13368e-02,4.59298e-02,6.49301e-02,3.50511e-02,-4.26134e-02,-1.88299e-01,-1.04132e-01,-3.05218e-02,5.45708e-02,-1.03368e-01,-4.98175e-03,-2.14544e-01,1.68626e-02,5.34593e-03,1.30953e-01,5.43251e-02,-3.38895e-02,-1.41987e-03,5.46863e-02,-4.38283e-03,8.48207e-02,-1.78478e-03,4.82685e-02,-7.74711e-02,-2.94571e-02,-1.32672e-02,3.83420e-02,4.98013e-03,-3.51877e-02,5.91382e-02,3.32646e-02,2.10488e-02,-8.66373e-02,-1.98109e-01,-9.31988e-02,5.67347e-02,2.01140e-03,-7.93972e-02,-1.29310e-01,-1.97129e-01,-6.47877e-02,1.31098e-02,-4.89819e-02,7.43408e-03,2.71390e-02,8.10642e-02,9.65317e-02,2.74379e-02,6.99787e-02,5.22473e-03,-1.59047e-02,-2.50238e-02,2.89822e-02,4.92208e-02,-4.21413e-02,-2.53936e-02,-3.10868e-02,1.88889e-02,2.85975e-02,-2.11422e-02,-2.02646e-02,-6.42931e-02,-1.17926e-01,1.58225e-02,-3.56673e-02,-8.53783e-02,-4.27966e-02,-2.08774e-01,-8.34121e-02,6.74786e-02,1.12749e-01,-1.06066e-01,-4.80915e-02,3.90655e-02,1.00461e-01,6.74421e-02,-6.09976e-03,3.46218e-02,9.08896e-02,4.68259e-02,6.94908e-02,-4.93839e-02,1.21976e-01,-1.80916e-02,-4.08032e-02,1.67747e-02,-5.37120e-03,-7.30166e-02,-1.07858e-01,-2.07310e-01,-5.31888e-02,2.15086e-02,-6.83447e-02,4.90193e-03,-1.12035e-01,-3.63240e-01,-1.90966e-01,1.06644e-01,-1.86894e-02,-3.15336e-02,9.16263e-02,4.07633e-02,5.97305e-02,-4.95264e-02,-7.86136e-03,-1.56951e-02,2.41472e-02,3.68817e-02,8.74007e-02,2.36976e-02,7.35130e-02,-9.53973e-03,4.12917e-02,9.65436e-02,1.49826e-01,-1.35414e-03,-1.20777e-01,-1.19031e-01,-5.81460e-02,-1.09428e-01,-3.39582e-02,-4.36948e-02,-2.84560e-02,-1.63874e-01,-1.51716e-01,7.11603e-03,1.69983e-02,-8.94038e-02,3.18789e-02,1.54403e-02,3.69815e-02,-1.70307e-02,6.88779e-02,1.02542e-01,9.98707e-02,7.64040e-03,5.39412e-02,6.43036e-02,3.39073e-02,5.93777e-02,-2.48446e-02,-6.13578e-02,1.38522e-01,3.23212e-02,-2.06682e-01,-1.18199e-01,-5.10093e-02,-4.53588e-02,8.55998e-02,-1.90525e-02,2.21660e-02,-2.21529e-01,-1.27374e-01,4.53827e-02,5.33647e-02,-7.84774e-02,-2.09098e-02,2.76364e-02,4.41727e-02,6.66381e-02,2.99521e-02,-4.64615e-03,8.26719e-02,-8.32919e-02,3.06865e-02,6.70007e-02,1.11949e-01,-3.70065e-02,3.68634e-03,1.40093e-02,6.17293e-02,-7.41225e-02,-5.58783e-02,4.80645e-02,3.57338e-02,2.57494e-02,-1.19971e-01,-2.04804e-02,-6.35358e-03,-2.16732e-01,-7.54954e-02,1.05236e-01,-4.57445e-02,-1.23264e-01,-5.00643e-03,1.87163e-02,-8.15334e-04,6.74175e-02,2.06098e-02,1.30458e-01,1.46319e-01,8.36320e-02,-5.82222e-03,5.71513e-02,5.24994e-02,1.88324e-02,3.76073e-02,3.08055e-02,1.56510e-01,-7.61540e-02,-1.30136e-01,2.61782e-02,1.10901e-01,8.65790e-02,7.42518e-03,3.70289e-02,2.16600e-02,-4.81125e-02,3.21883e-02,-3.88265e-02,4.88621e-02,-1.06146e-01,-5.89718e-02,6.20582e-02,2.74441e-02,-4.08895e-02,-3.77816e-03,1.13534e-01,1.41817e-01,8.52037e-02,7.50243e-02,4.71099e-02,1.32580e-01,-5.84262e-02,-1.10515e-01,-1.02828e-01,3.43666e-02,8.32276e-02,5.57203e-02,1.32717e-01,-1.61457e-02,3.49165e-02,1.48461e-02,2.98150e-02,-4.43094e-03,-2.64396e-02,-5.27600e-02,-1.62920e-02,6.47456e-02,-2.56428e-01,-1.84448e-01,8.02760e-02,1.40161e-01,2.07340e-02,6.12594e-03,1.22102e-01,1.66061e-01,6.49129e-02,1.31694e-01,9.57000e-02,4.67101e-02,6.50194e-02,-1.48391e-01,-8.40563e-02,-2.14483e-02,-2.65765e-02,2.16216e-03,6.49896e-02,-3.56348e-02,4.60371e-02,-4.88685e-02,-9.72375e-02,-3.57237e-02,-1.11222e-02,-1.02853e-01,4.72524e-02,-3.12967e-02,-1.30664e-01,-1.70914e-01,1.01145e-01,-9.77522e-03,-3.40549e-02,7.55990e-02,-1.97043e-02,1.19063e-01,4.75069e-02,-1.68753e-02,1.94576e-02,8.29481e-02,-4.70624e-02,-1.14753e-02,4.75957e-02,5.69660e-02,-3.40898e-02,1.45685e-01,3.94122e-02,-9.51032e-03,-6.91456e-02,-4.18015e-02,-8.16415e-02,9.03665e-03,-8.52319e-02,-7.44192e-02,6.53600e-03,-1.40642e-01,-2.45240e-01,-7.10465e-02,4.28685e-02,5.48742e-02,7.75880e-02,-6.95815e-02,1.33018e-03,7.49593e-02,6.50675e-02,-4.59000e-02,1.12665e-03,1.42448e-01,-3.45255e-02,9.68180e-03,-1.14639e-01,-4.87505e-02,-9.31709e-02,4.76329e-02,1.06916e-01,7.00335e-03,-4.78865e-02,2.30959e-02,4.16756e-02,3.65882e-02,-2.52733e-01,-2.36083e-01,3.91275e-02,-1.48854e-01,-2.73246e-01,4.18746e-02,1.58947e-01,9.81896e-02,8.09768e-03,-3.68089e-02,-5.59089e-03,7.92637e-02,-2.79602e-03,3.87755e-02,-2.40550e-02,9.91651e-02,1.07955e-01,8.95770e-02,-1.90699e-01,6.85439e-02,-6.59126e-02,-2.59683e-01,1.21207e-01,-3.28536e-02,-4.40471e-02,1.47302e-01,-5.48720e-02,5.75028e-03,-1.33501e-01,5.43844e-03,1.39561e-01,-9.21277e-02,-1.96474e-01,2.44021e-01,1.52971e-01,1.13807e-01,6.50090e-02,7.60521e-02,4.30796e-02,9.25305e-03,-3.06149e-02,2.99776e-02,9.23035e-02,1.28875e-01,1.62983e-01,1.02542e-01,-1.32786e-02,-7.09207e-02,4.57308e-02,-1.58785e-01,3.04427e-02,-1.65333e-01,-7.50402e-02,
6.70286e-02,7.87960e-02,1.66717e-01,7.77208e-04,-5.57904e-03,5.51673e-02,3.50767e-02,-1.70314e-02,3.71314e-02,9.29352e-02,-1.86382e-01,-3.19257e-02,1.15914e-01,-1.32820e-01,-2.29409e-01,-8.39317e-02,2.78660e-02,2.24055e-02,2.28206e-02,3.71499e-02,2.96803e-02,-5.71488e-02,-5.40733e-02,-1.12367e-01,3.08848e-02,-3.54392e-02,-1.73875e-01,1.80285e-01,9.28180e-02,2.10700e-02,1.33960e-01,1.70662e-01,5.54370e-02,-4.36883e-02,7.76312e-02,1.31477e-01,1.07259e-01,-1.41314e-01,-1.52606e-01,5.38718e-02,5.01138e-02,-1.99502e-02,6.33070e-02,4.49205e-02,-4.66727e-02,-3.59853e-02,-1.70405e-02,-2.83545e-02,1.33369e-01,1.34839e-01,8.66229e-03,-1.45175e-02,4.84631e-02,4.94024e-02,-7.62668e-02,6.98458e-02,-1.17372e-01,-8.58678e-02,3.06814e-02,1.19838e-01,6.07600e-02,9.50589e-03,2.17771e-03,9.16109e-02,6.93478e-02,-3.97529e-03,5.39100e-02,1.05114e-02,-5.94391e-02,-6.23948e-02,4.83349e-02,-5.52331e-02,-1.12901e-01,6.66800e-02,-6.46835e-02,-1.85056e-02,-2.75292e-02,1.61957e-02,1.40674e-01,1.15945e-01,2.47146e-01,4.16033e-02,-1.21079e-01,-8.48659e-02,-2.00930e-01,-4.34045e-02,5.26345e-02,6.68986e-02,8.43441e-02,7.80058e-02,1.27911e-01,2.97430e-04,4.24182e-02,1.15527e-01,4.04882e-02,-9.86600e-02,3.15275e-02,-4.86281e-02,-9.02721e-02,1.77314e-03,7.79396e-02,-7.18151e-02,-4.36840e-02,1.10860e-01,6.37561e-02,1.07050e-01,2.46737e-03,2.54792e-02,2.26255e-02,4.64084e-02,-7.92093e-02,-7.08521e-02,-1.07782e-01,-7.16206e-03,-2.16723e-02,5.91592e-02,-4.31709e-02,5.09049e-03,4.67786e-02,-6.62505e-02,4.53208e-02,-3.34268e-02,4.25211e-02,-7.74882e-02,-2.19952e-02,-3.32070e-03,-5.42613e-02,1.23898e-01,-6.20442e-02,4.01870e-02,-4.47566e-02,4.96561e-02,-4.53978e-03,8.49331e-02,9.59479e-02,4.21204e-02,2.76453e-02,9.92632e-02,-2.75863e-02,-9.31451e-03,-1.56032e-01,-2.57844e-02,1.24472e-01,-6.37364e-02,3.02823e-02,5.96111e-02,1.60796e-02,-6.11794e-02,-2.87802e-02,-3.24732e-02,8.93259e-02,3.31673e-02,-8.39448e-02,3.74992e-02,-1.43943e-02,-4.07825e-02,-4.97031e-02,3.87113e-02,-5.22804e-02,-1.33930e-02,5.65978e-02,-9.32748e-02,2.34717e-02,8.08767e-02,1.25729e-03,1.55817e-01,-2.42405e-02,-3.26898e-02,-1.73600e-02,3.59356e-02,1.90446e-01,1.14152e-01,-7.90209e-03,-5.40198e-02,2.04094e-02,3.85916e-02,6.36966e-02,1.22409e-01,5.71167e-02,8.92303e-02,7.49438e-02,-1.90118e-02,-5.38678e-02,-8.04942e-02,-2.23544e-02,-1.77772e-02,-3.37549e-02,6.33250e-02,-2.65592e-02,-1.07361e-01,3.23775e-02,-4.43297e-02,1.95559e-02,1.33130e-02,-1.46243e-02,-1.89737e-02,-4.04352e-02,2.04917e-01,6.08964e-02,7.59922e-02,5.14693e-02,7.21387e-02,-4.66891e-02,3.78193e-02,9.08150e-02,5.37489e-02,8.59583e-02,4.96694e-02,1.12245e-01,1.29778e-01,-7.51028e-02,-8.32634e-02,1.16806e-02,-8.00004e-02,-6.29439e-02,1.42343e-01,-2.85161e-02,-8.40086e-02,1.22359e-01,6.15533e-02,7.72022e-02,1.05481e-02,1.06329e-01,-2.29452e-02,1.49140e-02,1.68009e-01,8.06306e-02,2.35580e-02,1.04420e-01,2.61543e-02,4.27717e-02,-4.34743e-02,1.52792e-01,1.01425e-01,3.94702e-03,9.33993e-02,-3.65854e-02,6.99489e-02,3.75748e-02,2.83534e-02,-7.90226e-02,2.50176e-02,-2.08117e-02,1.22877e-01,7.18822e-02,-5.15070e-02,9.60091e-02,-2.52032e-03,1.13618e-01,5.20349e-02,3.65998e-02,-1.64668e-01,-5.82773e-02,-6.27371e-03,1.84891e-01,8.46576e-02,1.84548e-01,1.09591e-01,3.25269e-02,1.64930e-03,8.54956e-02,3.15568e-02,-1.85657e-02,-1.12594e-02,-1.56592e-02,1.15532e-01,5.30025e-03,5.81828e-02,-7.82329e-02,-5.10219e-02,-4.42957e-02,2.04207e-02,4.04121e-03,-2.51766e-02,1.26820e-01,2.14557e-02,-3.34431e-02,8.13657e-03,-1.78636e-02,-6.72281e-02,-1.37664e-01,1.13101e-01,4.30820e-02,-4.67944e-02,4.22933e-02,1.05267e-01,4.93064e-02,1.16204e-02,5.96638e-02,1.31868e-02,-3.88745e-02,9.16241e-02,7.92261e-02,-2.69387e-02,-7.63872e-02,-6.10711e-02,1.54137e-02,-1.14600e-01,-1.39605e-01,5.57953e-02,6.22913e-02,4.08124e-03,9.22585e-02,3.64464e-03,-6.04746e-02,-7.70810e-03,-7.32245e-02,-1.14236e-01,-2.81521e-02,2.48512e-02,9.21327e-02,-3.15522e-02,9.80662e-02,1.29270e-02,1.80747e-03,-6.18087e-03,9.03323e-02,6.64315e-02,-1.00971e-01,5.41753e-02,4.10905e-02,9.33599e-02,8.89549e-02,5.97183e-02,-1.19347e-01,-1.92782e-02,2.97941e-02,-3.81709e-02,-6.45218e-02,1.33436e-02,5.40626e-02,-3.13152e-02,1.24721e-02,2.52392e-03,-1.11422e-01,-1.56752e-01,6.23208e-02,-2.18703e-02,1.80490e-01,1.04247e-01,3.31000e-02,4.80041e-02,-1.03947e-01,1.31051e-02,1.14432e-01,6.52041e-02,7.63210e-02,1.00988e-01,3.07939e-02,4.70434e-02,-6.30762e-02,7.31839e-02,-4.88968e-02,-6.34315e-02,1.73714e-02,-3.07271e-02,-6.98751e-02,-2.94438e-02,2.27534e-02,1.29356e-01,3.55668e-02,8.70560e-02,4.15923e-03,-1.50744e-01,-1.96875e-01,1.77207e-01,-8.08498e-03,2.40314e-02,2.30811e-02,4.37266e-02,7.65133e-02,4.21374e-02,-5.18559e-02,1.17762e-01,-4.28742e-02,-4.45234e-02,1.69500e-02,8.02344e-02,8.36654e-02,3.11321e-02,-9.74983e-02,-9.27478e-02,-2.09008e-02,-2.98396e-02,3.23283e-02,-6.57907e-02,-4.73202e-02,-5.45480e-02,6.68518e-02,2.06592e-02,3.59269e-02,5.97717e-02,-1.60093e-01,1.41155e-01,1.15795e-02,5.54864e-02,-2.89375e-02,2.32201e-02,-6.81798e-02,-8.55120e-02,1.19887e-02,1.31621e-01,5.86331e-02,3.68438e-02,-7.70995e-02,-3.62242e-02,8.59360e-02,-5.80080e-02,-9.05857e-02,-4.79198e-03,-5.20742e-02,-1.04042e-01,-6.66763e-02,1.23001e-03,-4.45470e-02,1.31795e-02,-1.37921e-02,1.79174e-02,3.24378e-02,1.44749e-01,-5.47782e-02,-3.93279e-02,-2.34125e-02,-1.93680e-02,2.17407e-03,6.12275e-02,-3.01689e-02,-3.50404e-02,-7.56275e-02,2.71168e-02,-6.04672e-03,-1.75119e-02,-3.36827e-02,1.82724e-02,5.52260e-02,-5.08750e-03,1.36317e-02,-5.38926e-02,4.16608e-03,-1.10403e-01,-8.29715e-02,2.35280e-02,-6.85697e-03,1.37590e-02,-6.13438e-02,-3.72289e-02,-1.05644e-02,1.01514e-02,-2.06058e-02,9.05472e-02,-1.60686e-02,5.83261e-02,4.22220e-02,2.89868e-02,6.61448e-02,-1.09315e-01,1.98361e-02,-2.36647e-02,2.86604e-02,9.93425e-02,2.32974e-02,5.37631e-02,1.79874e-02,-4.55590e-02,-1.47707e-02,5.52715e-02,1.42269e-03,-1.08813e-01,-6.69377e-02,1.73588e-02,-2.61722e-02,-5.94551e-02,2.38007e-02,-3.63488e-02,4.22322e-02,-8.29482e-02,-5.19117e-02,8.45862e-02,-3.50472e-02,-3.00295e-02,3.09115e-02,1.34933e-02,4.23532e-02,-6.94533e-02,1.62724e-03,3.71880e-02,3.57576e-02,5.93305e-02,-2.40252e-02,5.66318e-02,2.61426e-03,6.70146e-02,3.69587e-02,5.24515e-02,1.99451e-02,-1.25102e-02,-9.34247e-02,-4.62389e-02,1.05840e-02,-5.63815e-03,-1.44914e-02,-8.25837e-02,-6.64908e-02,-1.42301e-01,6.34579e-02,-2.69928e-02,-1.19853e-01,1.16794e-02,1.12077e-01,9.95647e-02,1.10581e-02,-1.16404e-02,6.57219e-02,9.86767e-02,-2.39792e-02,8.16396e-02,5.64267e-02,5.66301e-02,6.36277e-02,-7.98406e-03,-8.00920e-02,-1.58923e-02,7.48996e-05,3.55758e-02,-9.67082e-02,-7.70351e-02,-6.73108e-02,-8.23347e-02,-2.44560e-03,6.71441e-02,-6.27097e-02,1.71583e-02,-5.81230e-02,-6.09173e-02,8.42860e-03,-5.25521e-02,3.78344e-02,8.68850e-03,9.05138e-03,2.11446e-02,7.30000e-02,8.12169e-02,5.06894e-02,8.63068e-02,8.87988e-02,-2.90853e-02,-4.13275e-02,-1.00472e-02,-5.71978e-02,2.25592e-02,-5.77022e-04,3.89376e-02,-3.93949e-03,-8.48252e-02,-8.60429e-03,-5.53836e-02,-1.19583e-02,9.11687e-02,-8.93749e-02,-2.84788e-02,-4.67590e-02,-5.36844e-02,-7.64230e-02,-4.64000e-02,8.37897e-02,9.09373e-02,2.79764e-02,1.08397e-01,1.71331e-01,-8.08903e-03,1.02579e-01,-5.80477e-02,-5.86855e-02,9.53362e-02,-1.89695e-02,8.68691e-02,4.70915e-02,-6.31215e-02,-1.31345e-02,1.08339e-01,-3.59256e-02,-3.17129e-03,-1.10488e-01,-5.21873e-02,-7.29024e-02,8.09451e-02,-7.01891e-02,-1.12187e-01,-1.07375e-01,-7.32754e-02,-1.58436e-02,-1.34403e-01,4.05212e-03,2.74315e-04,-3.45625e-02,6.22944e-02,1.65247e-01,-6.24335e-02,6.78308e-02,-1.04684e-01,-4.91165e-02,5.69760e-02,1.25227e-02,-1.29858e-02,1.32075e-02,1.86477e-02,3.64814e-02,1.13188e-01,-7.63479e-02,2.31026e-02,-1.18731e-01,-1.43928e-01,-1.06827e-01,1.19723e-01,6.73389e-02,-1.01910e-02,-1.06905e-01,-1.32071e-01,2.48510e-02,-1.18432e-01,-7.83671e-02,1.86574e-02,3.62190e-02,1.08377e-02,9.95967e-03,-4.19803e-02,-3.69461e-02,-3.66861e-02,-3.38217e-02,5.25290e-02,5.22668e-02,4.29229e-02,-7.38603e-02,6.71065e-05,6.16807e-03,-3.10798e-02,8.22971e-02,-2.12082e-02,-8.25147e-02,-1.32911e-01,-7.16551e-02,1.04359e-01,-5.10907e-02,-2.69271e-02,3.94837e-02,-1.47636e-01,-4.17903e-02,-4.09577e-02,-1.27297e-01,-1.18449e-01,-3.45421e-02,6.34598e-02,6.43137e-02,4.27150e-02,7.96269e-03,-4.15846e-02,2.75914e-03,7.78160e-02,-3.24322e-02,-1.34844e-03,-5.31940e-02,-2.48199e-02,8.15160e-03,-4.50074e-02,-5.13157e-04,-3.30831e-02,-1.44226e-01,-9.31363e-02,-8.74406e-02,-3.52845e-02,1.76146e-01,-1.15728e-02,1.18348e-01,-4.20704e-02,1.06282e-02,-1.80478e-01,-1.54283e-01,-3.09538e-02,1.01390e-01,6.64624e-02,9.45943e-02,-1.05110e-01,2.36039e-02,-1.92553e-02,3.24951e-02,4.28267e-02,6.16075e-02,-8.24227e-02,-1.46524e-02,4.46818e-02,-4.30715e-02,4.88095e-02,8.31841e-02,1.07615e-01,-4.34314e-02,-5.86262e-02,-4.73828e-02,1.08412e-01,1.18600e-01,-3.43821e-02,6.23453e-02,1.14282e-01,7.12351e-02,-6.66167e-02,-8.17683e-03,-1.89909e-02,9.19062e-02,-1.23134e-03,1.32377e-02,-1.61731e-02,-5.62039e-02,-6.49688e-02,7.80507e-03,-3.57448e-02,6.79365e-02,6.79778e-02,3.78528e-02,9.01448e-03,-3.91473e-02,-4.70917e-02,-4.94127e-02,-3.15487e-02,-1.25425e-02,-1.41483e-01,-2.10547e-03,7.65587e-02,1.66808e-01,7.94048e-02,2.88453e-02,1.35057e-01,8.92384e-02,-6.97478e-02,2.27319e-03,3.94084e-03,5.35498e-02,1.36243e-01,-7.88209e-02,-1.24674e-02,8.14655e-02,8.42285e-03,1.02123e-01,7.60150e-02,4.21220e-02,1.78002e-02,6.32696e-02,9.86472e-02,1.14361e-01,-3.85649e-02,9.84691e-02,1.37349e-01,1.34313e-01,5.65026e-02,6.13331e-02,1.24856e-01,2.20404e-02,1.42022e-01,1.28485e-01,-3.97180e-02,-1.79495e-02,-1.95247e-01,2.37399e-02,-2.15078e-02,7.50327e-02,4.89506e-02,-2.92265e-02,-9.28691e-03,6.09764e-02,-1.31517e-02,-3.06330e-03,1.80524e-01,1.39068e-01,2.12887e-01,9.77282e-02,1.42282e-01,3.53365e-02,9.27872e-02,1.33532e-01,4.68436e-02,6.63669e-02,-2.85892e-02,-1.19407e-01,-1.37962e-01,-1.75148e-01,1.84661e-02,
1.40862e-01,-1.94920e-01,-8.01207e-02,-5.64132e-02,2.18363e-01,2.97223e-01,4.16840e-01,3.07866e-01,1.03680e-01,1.82862e-01,2.07423e-01,-8.61695e-03,1.08343e-01,-3.45337e-02,-9.35525e-02,1.62980e-02,-1.22868e-01,-2.08640e-02,1.63287e-01,3.84570e-02,1.06720e-01,2.17531e-01,2.38767e-01,1.17894e-01,6.11622e-02,6.66753e-02,2.16707e-02,-5.38272e-02,-1.20326e-01,-3.24859e-02,-1.19873e-01,7.35902e-02,1.81374e-01,2.21504e-01,2.12587e-01,1.90768e-01,1.62968e-01,-6.19838e-03,-9.36865e-02,1.18765e-02,1.12394e-01,-7.52536e-02,-1.14732e-01,5.15545e-03,-3.83829e-02,-8.01059e-02,-6.94853e-02,-8.86590e-03,-3.80933e-02,1.08017e-01,4.38609e-03,6.50202e-02,1.66800e-01,-5.32583e-02,-7.59180e-02,-8.05696e-02,3.88606e-02,5.66421e-02,5.16502e-02,4.17372e-02,1.12680e-01,1.34077e-02,6.24646e-02,7.39730e-02,7.92358e-02,8.74628e-02,-3.20226e-02,3.42072e-02,-4.89812e-02,-1.49637e-02,-7.07477e-02,-9.18306e-02,-1.99313e-02,-5.62600e-02,3.04983e-02,6.14770e-02,-4.06082e-02,-2.04074e-02,-4.87813e-04,-9.23288e-02,5.82482e-02,5.85513e-02,-4.07490e-02,6.97726e-02,2.09017e-01,3.22583e-02,-3.44384e-02,1.24681e-01,1.69965e-03,-4.38802e-02,-3.03426e-02,6.47967e-02,1.72714e-01,1.66921e-02,-6.27280e-02,9.24894e-02,5.85236e-02,-1.76730e-03,-5.49129e-02,5.14729e-02,7.16163e-02,-7.08312e-02,-4.14545e-02,3.85354e-02,1.11393e-01,2.15245e-02,-9.48609e-02,-5.70209e-02,-6.38598e-02,7.40818e-02,6.99700e-03,-4.41687e-02,8.71679e-02,1.43572e-02,4.71262e-02,3.88798e-02,-1.09348e-01,-6.12721e-02,6.11672e-02,1.26548e-01,4.92568e-03,-8.84091e-02,-5.74075e-02,-3.79496e-02,2.05512e-02,-1.31424e-02,-3.45732e-02,3.54802e-03,-1.97608e-02,-3.99341e-02,-4.74550e-02,-5.98523e-04,8.72260e-02,2.18177e-02,-7.38454e-02,-1.12210e-01,-4.02736e-02,2.25124e-02,-1.48630e-02,1.52844e-01,5.71042e-02,1.65972e-01,-2.15360e-02,2.63854e-02,-6.63497e-02,4.06463e-02,1.82474e-02,3.05503e-02,-4.99675e-03,-8.99123e-02,-3.76845e-02,-1.69782e-03,2.84172e-02,5.14112e-02,-3.62538e-02,-4.78463e-02,3.85485e-03,-4.10329e-02,7.35719e-02,-3.83391e-02,-5.16256e-02,-1.58189e-02,-2.67117e-02,-5.78254e-02,-4.44297e-02,2.71225e-02,1.36463e-01,8.66054e-02,1.92289e-03,2.99017e-02,-1.86266e-03,-4.42216e-03,-1.93502e-01,-1.10007e-01,-4.38552e-02,5.73426e-02,-1.47471e-02,4.47447e-02,-5.40414e-02,-1.94873e-02,2.59423e-02,-5.40745e-02,1.51981e-02,3.60491e-02,2.87208e-02,1.06099e-01,1.91121e-02,2.47249e-02,4.00096e-02,8.34896e-02,-5.59267e-02,-1.01016e-01,-2.43078e-02,-1.69008e-02,2.00245e-01,1.28289e-01,-6.30642e-02,-8.08547e-02,1.00084e-02,-1.56568e-01,-9.26328e-02,-7.23992e-03,-4.97533e-02,-3.61549e-02,5.31261e-02,-1.85938e-02,-8.83760e-02,-5.74975e-02,-9.72361e-02,6.03263e-02,1.06992e-01,1.01325e-01,-1.40016e-02,-1.65141e-02,8.43798e-02,3.19588e-02,-4.18295e-03,1.06091e-02,2.02483e-02,2.71894e-02,-1.07747e-01,2.28823e-02,7.65884e-02,-1.02983e-02,-5.06349e-02,-1.63420e-01,-8.50315e-02,-8.00495e-02,-1.33939e-01,-1.35713e-01,-8.79166e-02,3.81848e-03,6.35761e-03,-1.01532e-01,-1.88340e-02,5.00867e-03,1.71940e-02,-7.94484e-03,-6.22660e-02,-5.45868e-02,1.45107e-02,7.95041e-02,-4.03742e-02,-5.39791e-02,1.06964e-01,9.63883e-02,-5.82361e-02,4.76712e-02,-4.57226e-02,6.62680e-03,-2.43416e-03,-7.62292e-02,-3.31152e-02,-2.92748e-02,-1.40797e-01,-1.47966e-01,-4.96500e-02,-9.78478e-02,-1.39432e-02,7.15201e-02,-1.01963e-02,-1.72311e-01,-1.31818e-01,3.68923e-02,-2.17063e-02,3.24343e-02,6.83008e-02,1.13221e-01,5.12623e-02,1.86953e-02,6.38536e-02,-8.93568e-03,1.01904e-02,7.55044e-02,-9.92160e-02,5.06008e-02,-6.40576e-03,5.68578e-02,3.42952e-02,7.51833e-02,7.12068e-02,9.86745e-03,1.46710e-02,7.69601e-03,-1.16179e-03,-1.31901e-01,-4.81362e-02,3.70105e-02,-3.06013e-02,-1.54817e-01,-6.49438e-02,-8.68502e-02,-2.17087e-02,3.80394e-02,-5.22129e-03,1.14250e-01,-1.88130e-02,1.04302e-03,2.40646e-02,1.66550e-02,1.24488e-01,-1.34155e-03,-2.33297e-03,8.72354e-03,6.52980e-02,1.69443e-01,3.28228e-02,-4.44227e-02,-8.02827e-02,-6.71670e-02,-7.35690e-02,-1.16355e-01,-7.62829e-02,3.80331e-03,1.04440e-02,7.50901e-02,-5.77645e-02,-1.76081e-01,-8.79808e-02,3.88554e-02,6.63166e-03,7.99823e-03,4.73400e-02,3.92848e-02,4.64238e-02,8.72662e-02,-7.43925e-02,-1.03849e-01,5.82522e-02,2.72966e-02,-3.80821e-02,-7.51890e-02,3.62848e-02,1.21370e-01,7.05684e-02,4.43588e-02,-1.54832e-01,4.58526e-02,-5.79106e-02,-1.84768e-01,-3.97016e-02,-6.30438e-02,-3.51816e-02,-4.13023e-02,5.70470e-02,-3.86046e-02,-8.06094e-02,-3.77740e-04,1.06669e-01,6.05403e-02,4.04982e-02,4.77088e-02,6.88959e-02,1.03070e-01,4.59889e-02,-3.21190e-02,8.58868e-02,1.14402e-01,-2.91348e-03,-1.37211e-02,-2.89144e-02,1.22399e-01,1.68659e-01,7.47939e-02,-1.66371e-02,-7.92966e-02,-6.42180e-02,-6.23144e-03,8.14534e-03,-1.47897e-01,-8.31033e-02,-1.01630e-02,-6.10365e-03,-1.18595e-01,5.03710e-02,5.37935e-02,8.45510e-02,1.25277e-01,5.09713e-03,1.63867e-01,3.97267e-02,-3.06781e-02,6.57177e-02,-4.14874e-02,1.40225e-01,7.68978e-03,1.62598e-02,6.07709e-02,5.45981e-02,5.90560e-02,6.03751e-02,1.04465e-01,7.32947e-02,-2.52888e-02,1.40140e-02,1.87696e-03,-3.52676e-02,-1.35607e-01,-6.99493e-02,-2.68025e-02,-8.38638e-02,2.14720e-02,-4.43040e-02,6.78234e-02,-3.74268e-02,6.15145e-02,-1.49018e-02,1.08729e-01,-2.53164e-02,6.38984e-02,1.19668e-01,8.08743e-02,1.63143e-01,1.85988e-02,5.94728e-02,-5.65263e-02,1.85319e-02,1.01073e-02,1.06651e-01,1.09734e-01,1.09535e-01,7.43569e-02,1.14552e-01,1.37454e-01,-2.99453e-02,-6.48914e-02,-2.19335e-02,-4.12606e-02,4.12923e-02,-2.59878e-02,1.68367e-02,5.71086e-03,8.86456e-02,6.74157e-02,7.39342e-02,-3.20183e-02,5.77239e-02,2.93113e-02,1.06963e-01,7.46029e-02,1.57079e-01,2.29848e-02,-1.22975e-02,3.74265e-02,7.16754e-02,3.07395e-02,2.06938e-02,-4.59111e-03,1.04909e-01,-2.33645e-02,5.87865e-02,1.38426e-01,6.35418e-03,-1.53220e-01,-7.35156e-02,1.65357e-02,4.39694e-03,-6.92099e-02,-3.42410e-02,2.14272e-02,-2.23523e-02,-5.07570e-02,6.57167e-02,-1.91931e-02,6.59485e-02,1.33014e-02,6.69836e-02,4.24301e-02,3.43625e-02,5.23399e-02,5.29136e-02,9.59206e-02,1.65824e-02,1.08490e-01,5.00405e-03,6.97943e-03,-4.53906e-02,2.91223e-02,1.20030e-01,1.93039e-01,-1.79066e-02,7.08263e-03,-6.51706e-02,-4.16962e-02,-4.74518e-02,5.78971e-03,-5.50540e-03,9.13790e-02,-2.33182e-02,-2.96040e-02,-4.31820e-02,8.59808e-02,5.68768e-02,7.15504e-03,1.15260e-01,1.06107e-01,8.34786e-02,-7.51702e-03,8.15395e-02,4.60698e-02,-4.62702e-02,7.96523e-02,-1.33450e-02,9.95913e-02,4.86024e-02,1.18055e-01,1.23058e-01,1.59512e-01,2.01618e-02,-4.26988e-02,-9.39326e-03,1.99872e-02,-4.85071e-02,3.40772e-02,3.73500e-03,-3.15416e-02,9.07725e-02,-7.16228e-02,5.25244e-02,-2.19098e-02,9.82523e-02,-3.35942e-02,6.58462e-02,6.82390e-02,1.08311e-01,1.52521e-01,-4.51719e-02,4.28663e-02,1.13112e-01,-1.68660e-02,6.09686e-02,5.60200e-02,6.02986e-02,2.72850e-02,6.18661e-02,1.23802e-01,9.92724e-02,-1.53718e-01,-5.89366e-02,-3.06541e-02,-1.40363e-02,-6.45761e-02,-7.46978e-02,-5.52447e-02,5.79204e-02,3.27178e-02,1.82224e-02,8.73947e-02,1.84494e-02,4.98743e-02,-6.11694e-02,5.47905e-02,2.82965e-02,6.33854e-02,1.41281e-01,3.27252e-02,8.10964e-02,8.36643e-02,1.44175e-01,1.60359e-01,4.01962e-02,6.42298e-02,1.71125e-01,1.05600e-01,3.22659e-02,-7.86116e-03,-2.79047e-02,-1.54298e-01,-1.13385e-01,2.66927e-02,-4.30005e-02,5.47080e-02,7.01396e-02,6.53832e-02,-3.92588e-02,-7.27195e-02,-2.51082e-02,-1.78858e-02,-3.13659e-02,5.45181e-02,1.31978e-02,3.26643e-02,2.80895e-02,-8.79919e-02,-2.36020e-02,-2.18966e-02,6.54600e-02,1.06047e-01,6.89615e-02,3.45296e-02,9.40463e-02,2.55525e-02,7.24714e-02,-1.70301e-03,6.92251e-02,-9.21280e-02,-3.23510e-02,-1.08090e-02,7.00292e-03,-6.02870e-02,1.39289e-02,-5.11713e-02,-1.21077e-01,-1.31948e-02,-3.58143e-02,-6.57286e-02,-4.98332e-02,-2.95466e-02,-4.24401e-02,-3.79291e-03,5.60162e-02,5.68803e-02,2.33193e-02,3.17473e-02,4.78752e-02,1.14931e-01,4.88309e-03,7.93266e-02,8.17167e-02,8.68299e-02,-6.58633e-02,6.45442e-03,-8.08493e-02,-5.53458e-02,1.48249e-02,-7.31436e-02,-9.48794e-02,8.27983e-02,-1.08754e-02,4.33158e-02,-7.24166e-03,8.01312e-02,1.99637e-02,-3.72539e-02,3.81380e-02,-4.85256e-03,6.48696e-02,-4.33931e-02,4.44130e-02,1.21480e-02,6.95997e-02,-2.45930e-02,4.01982e-02,9.40837e-02,2.04719e-02,6.74568e-02,-9.27891e-03,1.05545e-01,-1.19978e-02,9.39739e-02,-7.92755e-02,-5.12314e-02,9.08631e-02,4.94091e-02,-1.11055e-01,4.72937e-02,5.07449e-02,2.33237e-02,-7.36079e-02,7.47527e-02,5.04918e-02,-2.60849e-04,-3.67562e-02,-6.55070e-02,5.70739e-02,6.92064e-02,3.46989e-02,-8.11457e-02,-5.87351e-02,3.89870e-02,-1.07149e-01,1.47732e-01,1.31094e-01,2.68639e-02,6.63234e-02,3.18208e-02,-3.05094e-02,6.08836e-02,7.76324e-02,1.42777e-01,2.55731e-02,-4.02108e-03,-8.20288e-02,8.64533e-02,-1.38178e-02,2.90884e-02,1.99949e-02,4.02174e-02,-4.47291e-02,-2.08715e-02,-8.47091e-02,5.33384e-02,5.50853e-02,3.46289e-02,-7.56227e-03,-9.44955e-03,-1.62272e-01,-3.26400e-02,-3.84468e-02,4.33147e-03,-2.75095e-02,6.89781e-03,-5.47585e-02,-4.07784e-02,7.25386e-02,2.44657e-02,1.08085e-02,-5.38128e-03,-4.11784e-02,-1.06840e-01,4.05792e-02,4.96935e-02,3.14021e-02,6.16403e-02,8.45687e-03,3.66030e-02,4.73440e-02,-8.23040e-02,4.30897e-02,2.92037e-02,-1.05117e-02,-4.18048e-02,3.88473e-02,-9.61450e-02,-1.12845e-01,9.28009e-02,-8.23709e-02,3.33365e-02,-1.84934e-01,-2.08227e-01,-1.68297e-02,5.79757e-02,-7.22626e-02,-6.78050e-02,4.77532e-02,-4.12587e-02,-3.54990e-02,-5.35278e-02,-7.18277e-03,1.18754e-02,9.79305e-02,-3.39074e-02,-3.05133e-02,9.79365e-02,-2.39945e-02,-7.57360e-02,4.13877e-02,-6.12140e-02,-6.80886e-02,3.49829e-02,-7.80126e-02,-8.70969e-03,-2.09593e-02,9.73442e-03,2.31349e-02,6.32563e-02,-7.83759e-02,-1.33782e-01,-8.11064e-02,-1.26680e-01,-6.08634e-02,-9.01446e-02,-8.99134e-02,-1.19520e-01,-9.43776e-02,-2.33821e-02,-1.56370e-02,2.41322e-02,8.46657e-02,1.23855e-01,7.09932e-03,-1.82103e-02,4.98662e-03,7.91207e-02,-1.74057e-02,-2.26718e-01,-8.31875e-02,-1.08336e-01,-7.63675e-02,-2.38957e-02,-1.97109e-01,-1.77771e-01,1.02089e-01,-6.93272e-02,
