// Neural Network File Format by Kyle Julian, Stanford 2016
3,784,10,784,
784,16,16,10,
0,
0.0,0.0,0.0,0.0,0.0,0.0,0.0,0.0,0.0,0.0,0.0,0.0,0.0,0.0,0.0,0.0,0.0,0.0,0.0,0.0,0.0,0.0,0.0,0.0,0.0,0.0,0.0,0.0,0.0,0.0,0.0,0.0,0.0,0.0,0.0,0.0,0.0,0.0,0.0,0.0,0.0,0.0,0.0,0.0,0.0,0.0,0.0,0.0,0.0,0.0,0.0,0.0,0.0,0.0,0.0,0.0,0.0,0.0,0.0,0.0,0.0,0.0,0.0,0.0,0.0,0.0,0.0,0.0,0.0,0.0,0.0,0.0,0.0,0.0,0.0,0.0,0.0,0.0,0.0,0.0,0.0,0.0,0.0,0.0,0.0,0.0,0.0,0.0,0.0,0.0,0.0,0.0,0.0,0.0,0.0,0.0,0.0,0.0,0.0,0.0,0.0,0.0,0.0,0.0,0.0,0.0,0.0,0.0,0.0,0.0,0.0,0.0,0.0,0.0,0.0,0.0,0.0,0.0,0.0,0.0,0.0,0.0,0.0,0.0,0.0,0.0,0.0,0.0,0.0,0.0,0.0,0.0,0.0,0.0,0.0,0.0,0.0,0.0,0.0,0.0,0.0,0.0,0.0,0.0,0.0,0.0,0.0,0.0,0.0,0.0,0.0,0.0,0.0,0.0,0.0,0.0,0.0,0.0,0.0,0.0,0.0,0.0,0.0,0.0,0.0,0.0,0.0,0.0,0.0,0.0,0.0,0.0,0.0,0.0,0.0,0.0,0.0,0.0,0.0,0.0,0.0,0.0,0.0,0.0,0.0,0.0,0.0,0.0,0.0,0.0,0.0,0.0,0.0,0.0,0.0,0.0,0.0,0.0,0.0,0.0,0.0,0.0,0.0,0.0,0.0,0.0,0.0,0.0,0.0,0.0,0.0,0.0,0.0,0.0,0.0,0.0,0.0,0.0,0.0,0.0,0.0,0.0,0.0,0.0,0.0,0.0,0.0,0.0,0.0,0.0,0.0,0.0,0.0,0.0,0.0,0.0,0.0,0.0,0.0,0.0,0.0,0.0,0.0,0.0,0.0,0.0,0.0,0.0,0.0,0.0,0.0,0.0,0.0,0.0,0.0,0.0,0.0,0.0,0.0,0.0,0.0,0.0,0.0,0.0,0.0,0.0,0.0,0.0,0.0,0.0,0.0,0.0,0.0,0.0,0.0,0.0,0.0,0.0,0.0,0.0,0.0,0.0,0.0,0.0,0.0,0.0,0.0,0.0,0.0,0.0,0.0,0.0,0.0,0.0,0.0,0.0,0.0,0.0,0.0,0.0,0.0,0.0,0.0,0.0,0.0,0.0,0.0,0.0,0.0,0.0,0.0,0.0,0.0,0.0,0.0,0.0,0.0,0.0,0.0,0.0,0.0,0.0,0.0,0.0,0.0,0.0,0.0,0.0,0.0,0.0,0.0,0.0,0.0,0.0,0.0,0.0,0.0,0.0,0.0,0.0,0.0,0.0,0.0,0.0,0.0,0.0,0.0,0.0,0.0,0.0,0.0,0.0,0.0,0.0,0.0,0.0,0.0,0.0,0.0,0.0,0.0,0.0,0.0,0.0,0.0,0.0,0.0,0.0,0.0,0.0,0.0,0.0,0.0,0.0,0.0,0.0,0.0,0.0,0.0,0.0,0.0,0.0,0.0,0.0,0.0,0.0,0.0,0.0,0.0,0.0,0.0,0.0,0.0,0.0,0.0,0.0,0.0,0.0,0.0,0.0,0.0,0.0,0.0,0.0,0.0,0.0,0.0,0.0,0.0,0.0,0.0,0.0,0.0,0.0,0.0,0.0,0.0,0.0,0.0,0.0,0.0,0.0,0.0,0.0,0.0,0.0,0.0,0.0,0.0,0.0,0.0,0.0,0.0,0.0,0.0,0.0,0.0,0.0,0.0,0.0,0.0,0.0,0.0,0.0,0.0,0.0,0.0,0.0,0.0,0.0,0.0,0.0,0.0,0.0,0.0,0.0,0.0,0.0,0.0,0.0,0.0,0.0,0.0,0.0,0.0,0.0,0.0,0.0,0.0,0.0,0.0,0.0,0.0,0.0,0.0,0.0,0.0,0.0,0.0,0.0,0.0,0.0,0.0,0.0,0.0,0.0,0.0,0.0,0.0,0.0,0.0,0.0,0.0,0.0,0.0,0.0,0.0,0.0,0.0,0.0,0.0,0.0,0.0,0.0,0.0,0.0,0.0,0.0,0.0,0.0,0.0,0.0,0.0,0.0,0.0,0.0,0.0,0.0,0.0,0.0,0.0,0.0,0.0,0.0,0.0,0.0,0.0,0.0,0.0,0.0,0.0,0.0,0.0,0.0,0.0,0.0,0.0,0.0,0.0,0.0,0.0,0.0,0.0,0.0,0.0,0.0,0.0,0.0,0.0,0.0,0.0,0.0,0.0,0.0,0.0,0.0,0.0,0.0,0.0,0.0,0.0,0.0,0.0,0.0,0.0,0.0,0.0,0.0,0.0,0.0,0.0,0.0,0.0,0.0,0.0,0.0,0.0,0.0,0.0,0.0,0.0,0.0,0.0,0.0,0.0,0.0,0.0,0.0,0.0,0.0,0.0,0.0,0.0,0.0,0.0,0.0,0.0,0.0,0.0,0.0,0.0,0.0,0.0,0.0,0.0,0.0,0.0,0.0,0.0,0.0,0.0,0.0,0.0,0.0,0.0,0.0,0.0,0.0,0.0,0.0,0.0,0.0,0.0,0.0,0.0,0.0,0.0,0.0,0.0,0.0,0.0,0.0,0.0,0.0,0.0,0.0,0.0,0.0,0.0,0.0,0.0,0.0,0.0,0.0,0.0,0.0,0.0,0.0,0.0,0.0,0.0,0.0,0.0,0.0,0.0,0.0,0.0,0.0,0.0,0.0,0.0,0.0,0.0,0.0,0.0,0.0,0.0,0.0,0.0,0.0,0.0,0.0,0.0,0.0,0.0,0.0,0.0,0.0,0.0,0.0,0.0,0.0,0.0,0.0,0.0,0.0,0.0,0.0,0.0,0.0,0.0,0.0,0.0,0.0,0.0,0.0,0.0,0.0,0.0,0.0,0.0,0.0,0.0,0.0,0.0,0.0,0.0,0.0,0.0,0.0,0.0,0.0,0.0,0.0,0.0,0.0,0.0,0.0,0.0,0.0,0.0,0.0,0.0,0.0,0.0,0.0,0.0,0.0,0.0,0.0,0.0,0.0,0.0,0.0,0.0,0.0,0.0,0.0,0.0,0.0,0.0,0.0,0.0,0.0,0.0,0.0,0.0,0.0,0.0,0.0,0.0,0.0,0.0,0.0,0.0,0.0,0.0,0.0,0.0,0.0,0.0,0.0,0.0,0.0,0.0,0.0,0.0,0.0,0.0,0.0,0.0,0.0,0.0,0.0,0.0,0.0,0.0,0.0,0.0,0.0,0.0,0.0,0.0,0.0,
1.0,1.0,1.0,1.0,1.0,1.0,1.0,1.0,1.0,1.0,1.0,1.0,1.0,1.0,1.0,1.0,1.0,1.0,1.0,1.0,1.0,1.0,1.0,1.0,1.0,1.0,1.0,1.0,1.0,1.0,1.0,1.0,1.0,1.0,1.0,1.0,1.0,1.0,1.0,1.0,1.0,1.0,1.0,1.0,1.0,1.0,1.0,1.0,1.0,1.0,1.0,1.0,1.0,1.0,1.0,1.0,1.0,1.0,1.0,1.0,1.0,1.0,1.0,1.0,1.0,1.0,1.0,1.0,1.0,1.0,1.0,1.0,1.0,1.0,1.0,1.0,1.0,1.0,1.0,1.0,1.0,1.0,1.0,1.0,1.0,1.0,1.0,1.0,1.0,1.0,1.0,1.0,1.0,1.0,1.0,1.0,1.0,1.0,1.0,1.0,1.0,1.0,1.0,1.0,1.0,1.0,1.0,1.0,1.0,1.0,1.0,1.0,1.0,1.0,1.0,1.0,1.0,1.0,1.0,1.0,1.0,1.0,1.0,1.0,1.0,1.0,1.0,1.0,1.0,1.0,1.0,1.0,1.0,1.0,1.0,1.0,1.0,1.0,1.0,1.0,1.0,1.0,1.0,1.0,1.0,1.0,1.0,1.0,1.0,1.0,1.0,1.0,1.0,1.0,1.0,1.0,1.0,1.0,1.0,1.0,1.0,1.0,1.0,1.0,1.0,1.0,1.0,1.0,1.0,1.0,1.0,1.0,1.0,1.0,1.0,1.0,1.0,1.0,1.0,1.0,1.0,1.0,1.0,1.0,1.0,1.0,1.0,1.0,1.0,1.0,1.0,1.0,1.0,1.0,1.0,1.0,1.0,1.0,1.0,1.0,1.0,1.0,1.0,1.0,1.0,1.0,1.0,1.0,1.0,1.0,1.0,1.0,1.0,1.0,1.0,1.0,1.0,1.0,1.0,1.0,1.0,1.0,1.0,1.0,1.0,1.0,1.0,1.0,1.0,1.0,1.0,1.0,1.0,1.0,1.0,1.0,1.0,1.0,1.0,1.0,1.0,1.0,1.0,1.0,1.0,1.0,1.0,1.0,1.0,1.0,1.0,1.0,1.0,1.0,1.0,1.0,1.0,1.0,1.0,1.0,1.0,1.0,1.0,1.0,1.0,1.0,1.0,1.0,1.0,1.0,1.0,1.0,1.0,1.0,1.0,1.0,1.0,1.0,1.0,1.0,1.0,1.0,1.0,1.0,1.0,1.0,1.0,1.0,1.0,1.0,1.0,1.0,1.0,1.0,1.0,1.0,1.0,1.0,1.0,1.0,1.0,1.0,1.0,1.0,1.0,1.0,1.0,1.0,1.0,1.0,1.0,1.0,1.0,1.0,1.0,1.0,1.0,1.0,1.0,1.0,1.0,1.0,1.0,1.0,1.0,1.0,1.0,1.0,1.0,1.0,1.0,1.0,1.0,1.0,1.0,1.0,1.0,1.0,1.0,1.0,1.0,1.0,1.0,1.0,1.0,1.0,1.0,1.0,1.0,1.0,1.0,1.0,1.0,1.0,1.0,1.0,1.0,1.0,1.0,1.0,1.0,1.0,1.0,1.0,1.0,1.0,1.0,1.0,1.0,1.0,1.0,1.0,1.0,1.0,1.0,1.0,1.0,1.0,1.0,1.0,1.0,1.0,1.0,1.0,1.0,1.0,1.0,1.0,1.0,1.0,1.0,1.0,1.0,1.0,1.0,1.0,1.0,1.0,1.0,1.0,1.0,1.0,1.0,1.0,1.0,1.0,1.0,1.0,1.0,1.0,1.0,1.0,1.0,1.0,1.0,1.0,1.0,1.0,1.0,1.0,1.0,1.0,1.0,1.0,1.0,1.0,1.0,1.0,1.0,1.0,1.0,1.0,1.0,1.0,1.0,1.0,1.0,1.0,1.0,1.0,1.0,1.0,1.0,1.0,1.0,1.0,1.0,1.0,1.0,1.0,1.0,1.0,1.0,1.0,1.0,1.0,1.0,1.0,1.0,1.0,1.0,1.0,1.0,1.0,1.0,1.0,1.0,1.0,1.0,1.0,1.0,1.0,1.0,1.0,1.0,1.0,1.0,1.0,1.0,1.0,1.0,1.0,1.0,1.0,1.0,1.0,1.0,1.0,1.0,1.0,1.0,1.0,1.0,1.0,1.0,1.0,1.0,1.0,1.0,1.0,1.0,1.0,1.0,1.0,1.0,1.0,1.0,1.0,1.0,1.0,1.0,1.0,1.0,1.0,1.0,1.0,1.0,1.0,1.0,1.0,1.0,1.0,1.0,1.0,1.0,1.0,1.0,1.0,1.0,1.0,1.0,1.0,1.0,1.0,1.0,1.0,1.0,1.0,1.0,1.0,1.0,1.0,1.0,1.0,1.0,1.0,1.0,1.0,1.0,1.0,1.0,1.0,1.0,1.0,1.0,1.0,1.0,1.0,1.0,1.0,1.0,1.0,1.0,1.0,1.0,1.0,1.0,1.0,1.0,1.0,1.0,1.0,1.0,1.0,1.0,1.0,1.0,1.0,1.0,1.0,1.0,1.0,1.0,1.0,1.0,1.0,1.0,1.0,1.0,1.0,1.0,1.0,1.0,1.0,1.0,1.0,1.0,1.0,1.0,1.0,1.0,1.0,1.0,1.0,1.0,1.0,1.0,1.0,1.0,1.0,1.0,1.0,1.0,1.0,1.0,1.0,1.0,1.0,1.0,1.0,1.0,1.0,1.0,1.0,1.0,1.0,1.0,1.0,1.0,1.0,1.0,1.0,1.0,1.0,1.0,1.0,1.0,1.0,1.0,1.0,1.0,1.0,1.0,1.0,1.0,1.0,1.0,1.0,1.0,1.0,1.0,1.0,1.0,1.0,1.0,1.0,1.0,1.0,1.0,1.0,1.0,1.0,1.0,1.0,1.0,1.0,1.0,1.0,1.0,1.0,1.0,1.0,1.0,1.0,1.0,1.0,1.0,1.0,1.0,1.0,1.0,1.0,1.0,1.0,1.0,1.0,1.0,1.0,1.0,1.0,1.0,1.0,1.0,1.0,1.0,1.0,1.0,1.0,1.0,1.0,1.0,1.0,1.0,1.0,1.0,1.0,1.0,1.0,1.0,1.0,1.0,1.0,1.0,1.0,1.0,1.0,1.0,1.0,1.0,1.0,1.0,1.0,1.0,1.0,1.0,1.0,1.0,1.0,1.0,1.0,1.0,1.0,1.0,1.0,1.0,1.0,1.0,1.0,1.0,1.0,1.0,1.0,1.0,1.0,1.0,1.0,1.0,1.0,1.0,1.0,1.0,1.0,1.0,1.0,1.0,1.0,1.0,1.0,1.0,1.0,1.0,1.0,1.0,1.0,1.0,1.0,1.0,1.0,1.0,1.0,1.0,1.0,1.0,1.0,1.0,1.0,1.0,1.0,1.0,1.0,1.0,1.0,1.0,1.0,
0.0,0.0,0.0,0.0,0.0,0.0,0.0,0.0,0.0,0.0,0.0,0.0,0.0,0.0,0.0,0.0,0.0,0.0,0.0,0.0,0.0,0.0,0.0,0.0,0.0,0.0,0.0,0.0,0.0,0.0,0.0,0.0,0.0,0.0,0.0,0.0,0.0,0.0,0.0,0.0,0.0,0.0,0.0,0.0,0.0,0.0,0.0,0.0,0.0,0.0,0.0,0.0,0.0,0.0,0.0,0.0,0.0,0.0,0.0,0.0,0.0,0.0,0.0,0.0,0.0,0.0,0.0,0.0,0.0,0.0,0.0,0.0,0.0,0.0,0.0,0.0,0.0,0.0,0.0,0.0,0.0,0.0,0.0,0.0,0.0,0.0,0.0,0.0,0.0,0.0,0.0,0.0,0.0,0.0,0.0,0.0,0.0,0.0,0.0,0.0,0.0,0.0,0.0,0.0,0.0,0.0,0.0,0.0,0.0,0.0,0.0,0.0,0.0,0.0,0.0,0.0,0.0,0.0,0.0,0.0,0.0,0.0,0.0,0.0,0.0,0.0,0.0,0.0,0.0,0.0,0.0,0.0,0.0,0.0,0.0,0.0,0.0,0.0,0.0,0.0,0.0,0.0,0.0,0.0,0.0,0.0,0.0,0.0,0.0,0.0,0.0,0.0,0.0,0.0,0.0,0.0,0.0,0.0,0.0,0.0,0.0,0.0,0.0,0.0,0.0,0.0,0.0,0.0,0.0,0.0,0.0,0.0,0.0,0.0,0.0,0.0,0.0,0.0,0.0,0.0,0.0,0.0,0.0,0.0,0.0,0.0,0.0,0.0,0.0,0.0,0.0,0.0,0.0,0.0,0.0,0.0,0.0,0.0,0.0,0.0,0.0,0.0,0.0,0.0,0.0,0.0,0.0,0.0,0.0,0.0,0.0,0.0,0.0,0.0,0.0,0.0,0.0,0.0,0.0,0.0,0.0,0.0,0.0,0.0,0.0,0.0,0.0,0.0,0.0,0.0,0.0,0.0,0.0,0.0,0.0,0.0,0.0,0.0,0.0,0.0,0.0,0.0,0.0,0.0,0.0,0.0,0.0,0.0,0.0,0.0,0.0,0.0,0.0,0.0,0.0,0.0,0.0,0.0,0.0,0.0,0.0,0.0,0.0,0.0,0.0,0.0,0.0,0.0,0.0,0.0,0.0,0.0,0.0,0.0,0.0,0.0,0.0,0.0,0.0,0.0,0.0,0.0,0.0,0.0,0.0,0.0,0.0,0.0,0.0,0.0,0.0,0.0,0.0,0.0,0.0,0.0,0.0,0.0,0.0,0.0,0.0,0.0,0.0,0.0,0.0,0.0,0.0,0.0,0.0,0.0,0.0,0.0,0.0,0.0,0.0,0.0,0.0,0.0,0.0,0.0,0.0,0.0,0.0,0.0,0.0,0.0,0.0,0.0,0.0,0.0,0.0,0.0,0.0,0.0,0.0,0.0,0.0,0.0,0.0,0.0,0.0,0.0,0.0,0.0,0.0,0.0,0.0,0.0,0.0,0.0,0.0,0.0,0.0,0.0,0.0,0.0,0.0,0.0,0.0,0.0,0.0,0.0,0.0,0.0,0.0,0.0,0.0,0.0,0.0,0.0,0.0,0.0,0.0,0.0,0.0,0.0,0.0,0.0,0.0,0.0,0.0,0.0,0.0,0.0,0.0,0.0,0.0,0.0,0.0,0.0,0.0,0.0,0.0,0.0,0.0,0.0,0.0,0.0,0.0,0.0,0.0,0.0,0.0,0.0,0.0,0.0,0.0,0.0,0.0,0.0,0.0,0.0,0.0,0.0,0.0,0.0,0.0,0.0,0.0,0.0,0.0,0.0,0.0,0.0,0.0,0.0,0.0,0.0,0.0,0.0,0.0,0.0,0.0,0.0,0.0,0.0,0.0,0.0,0.0,0.0,0.0,0.0,0.0,0.0,0.0,0.0,0.0,0.0,0.0,0.0,0.0,0.0,0.0,0.0,0.0,0.0,0.0,0.0,0.0,0.0,0.0,0.0,0.0,0.0,0.0,0.0,0.0,0.0,0.0,0.0,0.0,0.0,0.0,0.0,0.0,0.0,0.0,0.0,0.0,0.0,0.0,0.0,0.0,0.0,0.0,0.0,0.0,0.0,0.0,0.0,0.0,0.0,0.0,0.0,0.0,0.0,0.0,0.0,0.0,0.0,0.0,0.0,0.0,0.0,0.0,0.0,0.0,0.0,0.0,0.0,0.0,0.0,0.0,0.0,0.0,0.0,0.0,0.0,0.0,0.0,0.0,0.0,0.0,0.0,0.0,0.0,0.0,0.0,0.0,0.0,0.0,0.0,0.0,0.0,0.0,0.0,0.0,0.0,0.0,0.0,0.0,0.0,0.0,0.0,0.0,0.0,0.0,0.0,0.0,0.0,0.0,0.0,0.0,0.0,0.0,0.0,0.0,0.0,0.0,0.0,0.0,0.0,0.0,0.0,0.0,0.0,0.0,0.0,0.0,0.0,0.0,0.0,0.0,0.0,0.0,0.0,0.0,0.0,0.0,0.0,0.0,0.0,0.0,0.0,0.0,0.0,0.0,0.0,0.0,0.0,0.0,0.0,0.0,0.0,0.0,0.0,0.0,0.0,0.0,0.0,0.0,0.0,0.0,0.0,0.0,0.0,0.0,0.0,0.0,0.0,0.0,0.0,0.0,0.0,0.0,0.0,0.0,0.0,0.0,0.0,0.0,0.0,0.0,0.0,0.0,0.0,0.0,0.0,0.0,0.0,0.0,0.0,0.0,0.0,0.0,0.0,0.0,0.0,0.0,0.0,0.0,0.0,0.0,0.0,0.0,0.0,0.0,0.0,0.0,0.0,0.0,0.0,0.0,0.0,0.0,0.0,0.0,0.0,0.0,0.0,0.0,0.0,0.0,0.0,0.0,0.0,0.0,0.0,0.0,0.0,0.0,0.0,0.0,0.0,0.0,0.0,0.0,0.0,0.0,0.0,0.0,0.0,0.0,0.0,0.0,0.0,0.0,0.0,0.0,0.0,0.0,0.0,0.0,0.0,0.0,0.0,0.0,0.0,0.0,0.0,0.0,0.0,0.0,0.0,0.0,0.0,0.0,0.0,0.0,0.0,0.0,0.0,0.0,0.0,0.0,0.0,0.0,0.0,0.0,0.0,0.0,0.0,0.0,0.0,0.0,0.0,0.0,0.0,0.0,0.0,0.0,0.0,0.0,0.0,0.0,0.0,0.0,0.0,0.0,0.0,0.0,0.0,0.0,0.0,0.0,0.0,0.0,0.0,0.0,0.0,0.0,0.0,0.0,0.0,0.0,0.0,0.0,0.0,0.0,0.0,0.0,0.0,0.0,0.0,0.0,0.0,0.0,0.0,0.0,0.0,0.0,0.0,0.0,0.0,0.0,0.0,0.0,0.0,0.0,0.0,0.0,0.0,0.0,0.0,0.0,
1.0,1.0,1.0,1.0,1.0,1.0,1.0,1.0,1.0,1.0,1.0,1.0,1.0,1.0,1.0,1.0,1.0,1.0,1.0,1.0,1.0,1.0,1.0,1.0,1.0,1.0,1.0,1.0,1.0,1.0,1.0,1.0,1.0,1.0,1.0,1.0,1.0,1.0,1.0,1.0,1.0,1.0,1.0,1.0,1.0,1.0,1.0,1.0,1.0,1.0,1.0,1.0,1.0,1.0,1.0,1.0,1.0,1.0,1.0,1.0,1.0,1.0,1.0,1.0,1.0,1.0,1.0,1.0,1.0,1.0,1.0,1.0,1.0,1.0,1.0,1.0,1.0,1.0,1.0,1.0,1.0,1.0,1.0,1.0,1.0,1.0,1.0,1.0,1.0,1.0,1.0,1.0,1.0,1.0,1.0,1.0,1.0,1.0,1.0,1.0,1.0,1.0,1.0,1.0,1.0,1.0,1.0,1.0,1.0,1.0,1.0,1.0,1.0,1.0,1.0,1.0,1.0,1.0,1.0,1.0,1.0,1.0,1.0,1.0,1.0,1.0,1.0,1.0,1.0,1.0,1.0,1.0,1.0,1.0,1.0,1.0,1.0,1.0,1.0,1.0,1.0,1.0,1.0,1.0,1.0,1.0,1.0,1.0,1.0,1.0,1.0,1.0,1.0,1.0,1.0,1.0,1.0,1.0,1.0,1.0,1.0,1.0,1.0,1.0,1.0,1.0,1.0,1.0,1.0,1.0,1.0,1.0,1.0,1.0,1.0,1.0,1.0,1.0,1.0,1.0,1.0,1.0,1.0,1.0,1.0,1.0,1.0,1.0,1.0,1.0,1.0,1.0,1.0,1.0,1.0,1.0,1.0,1.0,1.0,1.0,1.0,1.0,1.0,1.0,1.0,1.0,1.0,1.0,1.0,1.0,1.0,1.0,1.0,1.0,1.0,1.0,1.0,1.0,1.0,1.0,1.0,1.0,1.0,1.0,1.0,1.0,1.0,1.0,1.0,1.0,1.0,1.0,1.0,1.0,1.0,1.0,1.0,1.0,1.0,1.0,1.0,1.0,1.0,1.0,1.0,1.0,1.0,1.0,1.0,1.0,1.0,1.0,1.0,1.0,1.0,1.0,1.0,1.0,1.0,1.0,1.0,1.0,1.0,1.0,1.0,1.0,1.0,1.0,1.0,1.0,1.0,1.0,1.0,1.0,1.0,1.0,1.0,1.0,1.0,1.0,1.0,1.0,1.0,1.0,1.0,1.0,1.0,1.0,1.0,1.0,1.0,1.0,1.0,1.0,1.0,1.0,1.0,1.0,1.0,1.0,1.0,1.0,1.0,1.0,1.0,1.0,1.0,1.0,1.0,1.0,1.0,1.0,1.0,1.0,1.0,1.0,1.0,1.0,1.0,1.0,1.0,1.0,1.0,1.0,1.0,1.0,1.0,1.0,1.0,1.0,1.0,1.0,1.0,1.0,1.0,1.0,1.0,1.0,1.0,1.0,1.0,1.0,1.0,1.0,1.0,1.0,1.0,1.0,1.0,1.0,1.0,1.0,1.0,1.0,1.0,1.0,1.0,1.0,1.0,1.0,1.0,1.0,1.0,1.0,1.0,1.0,1.0,1.0,1.0,1.0,1.0,1.0,1.0,1.0,1.0,1.0,1.0,1.0,1.0,1.0,1.0,1.0,1.0,1.0,1.0,1.0,1.0,1.0,1.0,1.0,1.0,1.0,1.0,1.0,1.0,1.0,1.0,1.0,1.0,1.0,1.0,1.0,1.0,1.0,1.0,1.0,1.0,1.0,1.0,1.0,1.0,1.0,1.0,1.0,1.0,1.0,1.0,1.0,1.0,1.0,1.0,1.0,1.0,1.0,1.0,1.0,1.0,1.0,1.0,1.0,1.0,1.0,1.0,1.0,1.0,1.0,1.0,1.0,1.0,1.0,1.0,1.0,1.0,1.0,1.0,1.0,1.0,1.0,1.0,1.0,1.0,1.0,1.0,1.0,1.0,1.0,1.0,1.0,1.0,1.0,1.0,1.0,1.0,1.0,1.0,1.0,1.0,1.0,1.0,1.0,1.0,1.0,1.0,1.0,1.0,1.0,1.0,1.0,1.0,1.0,1.0,1.0,1.0,1.0,1.0,1.0,1.0,1.0,1.0,1.0,1.0,1.0,1.0,1.0,1.0,1.0,1.0,1.0,1.0,1.0,1.0,1.0,1.0,1.0,1.0,1.0,1.0,1.0,1.0,1.0,1.0,1.0,1.0,1.0,1.0,1.0,1.0,1.0,1.0,1.0,1.0,1.0,1.0,1.0,1.0,1.0,1.0,1.0,1.0,1.0,1.0,1.0,1.0,1.0,1.0,1.0,1.0,1.0,1.0,1.0,1.0,1.0,1.0,1.0,1.0,1.0,1.0,1.0,1.0,1.0,1.0,1.0,1.0,1.0,1.0,1.0,1.0,1.0,1.0,1.0,1.0,1.0,1.0,1.0,1.0,1.0,1.0,1.0,1.0,1.0,1.0,1.0,1.0,1.0,1.0,1.0,1.0,1.0,1.0,1.0,1.0,1.0,1.0,1.0,1.0,1.0,1.0,1.0,1.0,1.0,1.0,1.0,1.0,1.0,1.0,1.0,1.0,1.0,1.0,1.0,1.0,1.0,1.0,1.0,1.0,1.0,1.0,1.0,1.0,1.0,1.0,1.0,1.0,1.0,1.0,1.0,1.0,1.0,1.0,1.0,1.0,1.0,1.0,1.0,1.0,1.0,1.0,1.0,1.0,1.0,1.0,1.0,1.0,1.0,1.0,1.0,1.0,1.0,1.0,1.0,1.0,1.0,1.0,1.0,1.0,1.0,1.0,1.0,1.0,1.0,1.0,1.0,1.0,1.0,1.0,1.0,1.0,1.0,1.0,1.0,1.0,1.0,1.0,1.0,1.0,1.0,1.0,1.0,1.0,1.0,1.0,1.0,1.0,1.0,1.0,1.0,1.0,1.0,1.0,1.0,1.0,1.0,1.0,1.0,1.0,1.0,1.0,1.0,1.0,1.0,1.0,1.0,1.0,1.0,1.0,1.0,1.0,1.0,1.0,1.0,1.0,1.0,1.0,1.0,1.0,1.0,1.0,1.0,1.0,1.0,1.0,1.0,1.0,1.0,1.0,1.0,1.0,1.0,1.0,1.0,1.0,1.0,1.0,1.0,1.0,1.0,1.0,1.0,1.0,1.0,1.0,1.0,1.0,1.0,1.0,1.0,1.0,1.0,1.0,1.0,1.0,1.0,1.0,1.0,1.0,1.0,1.0,1.0,1.0,1.0,1.0,1.0,1.0,1.0,1.0,1.0,1.0,1.0,1.0,1.0,1.0,1.0,1.0,1.0,1.0,1.0,1.0,1.0,1.0,1.0,1.0,1.0,1.0,1.0,1.0,1.0,1.0,1.0,1.0,1.0,1.0,1.0,1.0,1.0,1.0,
-7.68542e-02,-3.28094e-02,2.14258e-02,1.75738e-02,8.73819e-03,3.58717e-02,7.74058e-02,-2.10690e-03,-8.64299e-02,7.73624e-03,1.54093e-04,-4.57589e-02,3.12304e-02,-7.22946e-02,-5.78898e-02,5.18981e-04,8.60807e-02,3.58948e-02,7.44457e-02,2.44638e-03,-2.95250e-02,-6.50943e-02,5.67931e-02,-4.98169e-02,-3.64054e-02,8.37567e-02,-1.55383e-02,6.60309e-02,6.84940e-02,3.45922e-03,8.18926e-02,-7.73448e-03,-7.82849e-02,-1.47136e-01,-1.96837e-01,-1.16379e-01,9.83777e-02,1.21872e-01,8.78754e-03,-6.88694e-02,-1.49438e-01,-7.01113e-02,1.16646e-01,-1.91506e-01,-1.21607e-01,-9.88959e-02,-1.98353e-02,-5.53457e-02,-1.45917e-01,-1.29526e-01,-1.04172e-01,-1.15288e-02,3.95575e-02,6.34884e-02,5.10371e-02,4.99235e-02,-4.88680e-02,-7.15600e-02,-1.72645e-02,-8.55222e-02,-8.93457e-02,3.00216e-02,-9.28557e-02,5.00435e-02,7.28270e-02,-3.65104e-04,2.48750e-02,1.41860e-02,6.39202e-02,5.35111e-03,1.50638e-01,1.70072e-01,-5.70939e-02,-7.50734e-02,-5.20695e-02,1.57300e-01,-1.36282e-02,1.06006e-01,-4.46381e-03,9.89547e-03,-6.75841e-02,-9.16404e-02,5.66082e-02,-5.66703e-02,2.02914e-02,3.64641e-02,3.85876e-02,-2.44417e-02,9.39824e-03,1.15820e-01,1.38539e-01,1.10872e-01,3.26650e-02,-3.33941e-03,1.33098e-02,1.58309e-01,3.84651e-02,-8.49601e-03,2.59622e-02,1.53174e-03,-5.12512e-02,-1.44113e-02,-6.27521e-02,5.99144e-02,5.89532e-02,1.88091e-02,7.28679e-02,6.36123e-02,-4.44674e-02,-1.36325e-01,-1.21302e-02,7.75247e-03,8.36600e-02,5.28282e-02,-1.24246e-01,-1.22859e-01,6.84647e-02,3.69800e-02,-9.06728e-03,-4.40834e-02,5.92905e-03,9.87591e-03,-1.15239e-01,-1.79508e-02,3.02544e-03,-5.95411e-02,-7.06235e-02,-1.52012e-01,-5.45019e-02,-1.76912e-02,-1.75104e-02,5.61713e-02,4.89452e-02,8.94397e-02,3.46978e-02,1.27537e-01,-3.20441e-02,-1.49866e-01,-1.58476e-01,-5.65487e-02,4.37452e-02,-3.50866e-02,-8.21568e-02,-6.18469e-02,1.48672e-01,4.82687e-02,4.56853e-02,-4.46859e-02,-2.38057e-02,-6.44388e-02,-4.51728e-02,-1.42798e-01,-1.49441e-01,-7.63578e-02,5.88488e-02,-2.57803e-03,2.56317e-02,2.58841e-02,1.01623e-02,7.11193e-02,4.99095e-02,-1.50105e-02,5.94986e-02,1.09085e-01,4.05219e-02,-1.96929e-01,-1.46117e-01,2.87949e-02,6.07832e-03,7.67696e-02,-6.21907e-02,-7.52920e-02,1.17579e-01,5.15922e-02,-4.01703e-02,-5.25928e-02,-1.56502e-01,-6.51153e-02,-1.62613e-01,-2.08095e-01,-1.74303e-01,-1.71380e-01,-1.77403e-01,-1.21505e-01,-1.93169e-01,-1.50288e-01,-1.09605e-01,-1.04729e-01,-1.43514e-01,-1.59714e-01,5.66403e-02,1.27870e-01,1.18611e-01,-5.23190e-02,6.82943e-03,4.41890e-02,-4.39462e-02,1.41125e-01,-1.07021e-02,-3.25348e-02,8.15414e-02,1.57357e-01,-9.00876e-02,-2.03687e-02,-5.90366e-02,-8.54549e-02,-2.01841e-01,-8.41545e-02,-2.57107e-01,-1.51310e-01,-1.57340e-01,-2.07899e-01,-2.59952e-01,-1.56418e-01,-1.81184e-01,-1.11564e-01,-1.65039e-01,-4.10152e-02,3.44111e-02,1.13603e-02,1.53413e-01,-7.01867e-02,1.88078e-01,8.31778e-02,3.77944e-02,-9.55906e-02,3.22998e-02,-3.48180e-02,3.05233e-02,-6.02174e-02,-1.52029e-01,-3.54544e-02,-1.91701e-01,-1.34646e-01,-1.05447e-01,-2.49320e-01,-1.36626e-01,-1.52542e-01,-2.89030e-01,-2.26347e-01,-1.65300e-01,-1.08283e-01,-1.15394e-01,-7.99462e-02,-9.04027e-02,2.26187e-02,-6.66947e-02,3.51735e-02,-1.45633e-02,-2.67503e-02,-1.03989e-01,-1.26344e-01,3.76311e-03,-4.70947e-02,-2.02605e-02,-1.16117e-01,-1.62228e-01,-2.70223e-02,-1.59840e-01,-4.37399e-02,-3.93567e-02,-4.28668e-02,-1.74070e-01,-1.13029e-01,-2.20880e-01,-2.08612e-01,-1.68130e-01,-5.55700e-02,-3.73307e-02,2.33918e-02,-3.29501e-02,4.44905e-02,1.24324e-01,9.70636e-02,4.43187e-02,8.68252e-02,-1.05348e-01,-3.00589e-02,-7.00691e-02,-4.43908e-02,1.51316e-02,-1.21496e-02,-8.38661e-02,-5.85101e-02,3.65175e-02,-4.70588e-02,-1.89520e-01,3.82547e-02,4.91600e-02,-4.45315e-02,-8.24463e-02,-2.88772e-02,2.71346e-02,-9.66488e-02,-7.23196e-02,4.03383e-02,9.23131e-02,5.87809e-03,3.92043e-02,6.67614e-02,5.63713e-02,3.17386e-02,1.19032e-01,-9.24589e-02,2.20376e-02,7.27404e-03,-3.31426e-02,-8.09717e-02,4.01302e-02,-7.08983e-02,-5.44328e-02,-2.69597e-02,-9.31044e-02,-1.12085e-01,4.48737e-03,-2.67397e-02,9.48739e-03,9.60305e-02,5.60972e-02,6.50648e-02,8.07768e-02,-6.78240e-02,-1.11216e-01,5.96673e-02,1.01074e-01,-2.84766e-02,5.10352e-02,2.07120e-02,-3.33566e-03,1.04873e-03,-6.02517e-02,-1.06149e-01,-7.30447e-02,-1.67875e-01,-1.21607e-01,-7.64831e-02,-6.13753e-02,-4.61289e-02,-1.79169e-01,-1.03459e-01,-1.29646e-01,1.04345e-02,-2.99225e-02,8.98542e-02,1.11262e-01,1.13391e-01,8.68283e-02,2.90693e-01,3.28629e-01,5.71726e-02,-4.08536e-02,5.14387e-02,6.65678e-02,-8.34026e-02,-1.04716e-01,-9.20878e-03,-8.90434e-03,6.20974e-02,2.09273e-02,-1.22966e-01,-8.32024e-02,-8.47696e-02,-1.64715e-01,8.47814e-02,-5.88971e-02,-8.29459e-02,-1.39283e-01,-1.29592e-01,-1.75816e-01,1.19671e-01,2.35511e-01,1.41233e-01,1.67886e-01,1.80318e-01,2.93872e-01,2.97937e-01,3.37380e-01,5.59626e-02,-4.51212e-02,7.32018e-02,1.04109e-01,3.02246e-02,5.82106e-02,-2.98246e-02,4.69263e-02,6.43899e-02,1.25182e-01,1.72705e-01,7.63675e-02,4.16469e-02,-3.69984e-02,8.98813e-02,8.46632e-02,1.69124e-02,-9.64656e-02,3.39705e-02,5.40492e-02,1.30039e-01,2.04239e-01,2.22393e-01,2.18780e-01,1.57877e-01,1.42796e-01,2.41581e-01,1.95487e-01,1.06672e-01,5.66083e-02,6.51552e-02,7.08707e-02,8.80195e-02,8.42670e-02,2.10307e-02,1.85476e-02,3.44834e-07,1.86904e-01,1.46320e-01,1.74000e-01,4.24494e-02,-1.62266e-01,-5.08129e-02,1.36709e-02,1.72693e-01,1.18410e-01,1.24217e-01,1.02213e-01,1.98477e-01,2.11942e-01,2.05052e-01,2.37981e-01,1.69922e-01,2.43121e-01,1.33714e-01,8.79097e-02,8.29158e-02,4.20014e-02,1.47910e-01,1.22045e-01,1.66530e-01,3.89082e-02,1.50678e-01,7.26575e-02,1.15003e-01,2.03237e-01,9.55906e-02,9.83910e-02,2.11298e-01,-3.01793e-02,1.07365e-02,1.04339e-01,-8.39714e-02,-6.70715e-02,1.61925e-01,9.50176e-02,1.51375e-01,2.32985e-01,1.67347e-01,1.17558e-01,1.73472e-01,5.12292e-02,4.73169e-02,1.65017e-02,-1.97903e-02,7.58853e-02,1.96306e-01,2.06804e-01,1.99315e-01,1.10816e-01,1.71238e-01,1.43833e-01,1.68665e-01,1.32063e-01,1.11782e-01,-1.58058e-02,9.53195e-02,-8.73688e-02,-3.02967e-02,5.46045e-02,-1.29369e-01,1.19811e-01,-3.11064e-02,6.50425e-04,3.52168e-02,9.56368e-02,1.65604e-01,1.49601e-01,9.73080e-02,-5.90000e-02,5.64317e-02,-9.16765e-02,3.78975e-02,2.07916e-01,1.83158e-01,1.69848e-01,1.61746e-01,2.03124e-01,3.84449e-02,9.23614e-02,1.64007e-01,5.05441e-02,7.20447e-02,-7.12283e-02,2.68310e-02,-8.84438e-02,-1.12588e-01,-1.34687e-01,-7.63342e-02,7.50013e-02,8.79010e-02,5.95468e-02,5.12404e-02,6.30604e-02,1.04722e-01,8.02561e-02,7.19482e-02,-7.94832e-02,-9.13216e-02,-1.32400e-02,5.88533e-02,7.64732e-02,2.44652e-02,1.36844e-01,1.09197e-01,6.57580e-02,9.95105e-02,1.47587e-01,1.18657e-01,-4.69692e-02,-5.32137e-02,1.69983e-02,-1.07783e-02,-3.41648e-02,7.32692e-02,7.65934e-02,-1.97639e-02,-1.03091e-02,1.14554e-01,9.94571e-02,6.14518e-02,-2.93899e-02,8.86970e-02,4.77539e-02,5.01598e-02,-3.66543e-03,-1.38674e-02,-2.21069e-02,-7.62560e-03,1.67944e-01,9.30480e-02,3.10654e-02,8.88152e-03,1.16051e-01,-1.00637e-01,-7.98183e-02,-3.96852e-03,-6.64544e-02,-1.18333e-01,-1.14207e-01,-2.06373e-01,-1.24218e-01,-4.38143e-02,2.26310e-02,-8.05340e-02,6.06348e-02,1.15916e-01,3.66314e-02,-9.40148e-02,-2.00529e-01,-7.23717e-02,-3.79096e-02,-6.05975e-02,-6.81980e-02,2.51505e-02,-6.15663e-02,-5.27731e-02,-2.63597e-02,1.37955e-02,2.48865e-02,-9.35666e-03,-1.39137e-02,-9.06186e-02,-1.06377e-01,1.71482e-03,-2.28496e-01,-2.03053e-01,-1.59694e-01,-2.74415e-01,-1.15550e-02,2.39544e-02,-5.39992e-02,5.93321e-02,1.68213e-02,1.24661e-01,-7.13607e-02,-1.39773e-01,-2.22730e-01,-1.74416e-01,-1.29985e-01,5.62173e-03,5.44938e-02,-7.89910e-02,-7.27931e-02,-2.58356e-02,-2.79750e-02,-5.74053e-02,-6.61470e-02,2.32056e-02,-3.38259e-02,-5.18666e-02,-1.78500e-02,-1.01400e-01,-1.08309e-01,-1.00679e-01,-2.07411e-01,-2.43982e-01,3.09193e-03,-6.99836e-02,-9.23153e-02,4.48067e-02,-1.40778e-01,-1.16193e-01,-6.19152e-02,-1.38993e-01,-2.13837e-01,-2.17758e-01,-3.87613e-02,-1.45947e-01,5.88425e-02,-5.88665e-02,-3.15336e-02,1.60722e-02,-4.98911e-02,-1.77226e-02,-3.62980e-02,-1.50850e-02,-1.13861e-01,3.23045e-02,-8.81849e-02,-1.04292e-02,-6.94791e-02,-2.68528e-01,-1.03678e-01,-9.71779e-02,-5.40894e-02,-1.27574e-02,-8.33476e-02,-2.50871e-02,4.23930e-02,-1.32719e-01,-2.87099e-02,-1.76763e-01,-1.40089e-01,-3.31586e-02,-1.65783e-01,-5.00217e-02,-3.31169e-02,-4.96627e-02,-1.21883e-01,-9.66105e-02,-1.05000e-01,1.18673e-02,-7.78951e-02,4.96747e-02,1.75039e-02,3.32897e-02,-2.45906e-02,6.70987e-02,-9.47517e-02,-2.67917e-01,-2.78950e-01,-9.32965e-03,2.58904e-02,-7.38108e-03,-4.09713e-02,-5.77937e-02,1.09409e-02,-1.43118e-01,-2.86446e-01,-1.63697e-01,-1.20988e-01,-1.03688e-01,-2.26608e-01,-1.93953e-01,-1.17850e-01,-7.94782e-02,-1.74009e-01,-9.16485e-02,-6.82532e-02,-1.63935e-01,-2.85257e-02,-8.97651e-02,-5.82044e-02,-9.16738e-02,-5.01940e-02,-4.80041e-02,-7.78606e-02,-1.76680e-01,-2.06990e-01,1.34641e-01,1.10531e-01,-2.14024e-02,-4.21278e-02,-2.78404e-03,-1.85676e-02,4.50506e-02,-3.36516e-01,-3.10260e-01,-2.48128e-01,-2.46512e-01,-3.35079e-01,-2.60517e-01,-2.82308e-01,-2.07524e-01,-3.15923e-01,-2.45518e-01,-2.05412e-01,-2.02613e-01,-2.67305e-01,-2.97945e-01,-2.42615e-01,-2.72681e-01,-1.97661e-01,-1.56458e-01,-7.29832e-02,-1.43113e-01,-2.00139e-01,8.43151e-02,1.40885e-01,-4.14008e-03,-1.82282e-02,-4.53178e-02,-6.54862e-02,-4.44293e-02,-1.55299e-01,-2.38103e-01,-3.79542e-01,-3.68574e-01,-4.51710e-01,-4.03953e-01,-3.92907e-01,-4.84767e-01,-3.55052e-01,-4.76857e-01,-6.14791e-01,-4.96566e-01,-3.97460e-01,-4.81983e-01,-3.98582e-01,-3.78260e-01,-3.30939e-01,-2.40669e-01,-2.88199e-01,-7.70165e-02,-7.39062e-02,-7.95195e-03,2.96353e-02,-8.24626e-02,-8.39382e-02,-6.19461e-02,-8.26018e-02,5.40669e-02,4.99419e-02,1.05549e-01,-9.28738e-02,-1.54668e-01,-1.85358e-01,-8.15409e-02,-2.89586e-01,-1.66289e-01,-1.90056e-01,-1.70929e-01,-2.66064e-01,-1.16136e-01,-1.67844e-01,-1.69514e-01,-2.64832e-01,-2.21700e-01,4.67819e-02,4.10424e-02,-4.28305e-02,4.50390e-02,-7.84723e-02,-2.23152e-02,-6.46358e-02,5.61216e-02,
7.05832e-02,7.89079e-03,-3.46772e-02,-1.64422e-02,-8.37205e-02,5.82711e-02,9.60333e-03,6.81438e-03,-3.66426e-02,7.76695e-02,-2.61458e-02,-5.80820e-03,-6.72863e-02,4.23923e-02,-4.68421e-02,2.98184e-02,-2.75357e-02,7.27887e-03,-8.21789e-02,4.19363e-02,6.07224e-02,5.15074e-02,-8.23544e-02,-6.83873e-03,3.51867e-02,-2.22224e-02,-2.67033e-02,-3.39088e-02,-4.98996e-02,3.02357e-02,-5.93426e-02,-6.67065e-02,-4.83515e-03,-1.55451e-02,1.42759e-01,1.69700e-01,3.38318e-02,5.49536e-05,-2.38846e-04,8.51032e-04,-1.36257e-02,-3.07016e-02,-1.06201e-01,4.86637e-02,2.37374e-01,1.30114e-01,-1.16637e-01,-3.34789e-02,-2.14711e-03,-5.48355e-02,1.28316e-01,1.65209e-01,6.14209e-02,-6.22068e-02,-7.80376e-02,3.39366e-02,-3.12276e-02,-1.56647e-02,5.74094e-02,2.01509e-02,-1.19065e-01,4.10786e-02,1.27980e-01,-1.13033e-03,1.59498e-01,3.56271e-01,3.18318e-01,2.44167e-01,1.75031e-01,4.06969e-02,6.37912e-02,2.80767e-02,1.26012e-01,1.77290e-01,1.45841e-01,-2.43834e-02,1.78428e-01,2.57866e-01,4.44861e-02,1.38918e-01,1.32777e-01,1.95674e-01,4.67348e-02,-7.60376e-02,-4.89892e-02,3.25888e-03,2.82230e-02,3.76293e-02,-9.20010e-02,1.17032e-01,-4.42930e-02,6.86514e-02,2.76635e-02,1.26656e-01,2.09446e-01,6.54949e-02,1.05482e-01,1.62442e-01,1.01332e-01,2.05221e-02,3.98433e-02,-1.15250e-02,5.68988e-02,-1.76364e-02,-1.97346e-02,9.52693e-02,-3.18823e-02,5.01085e-02,1.70271e-01,6.95528e-02,-3.31199e-02,-7.57156e-02,1.33950e-02,7.78412e-05,-1.65863e-01,-1.94848e-01,-4.74782e-02,-1.12140e-01,1.33550e-01,3.41075e-02,-7.46661e-02,-4.66220e-02,1.97861e-02,8.96887e-02,1.37910e-04,4.99884e-02,6.64406e-02,1.03136e-02,-4.18856e-03,5.16619e-02,1.51720e-03,-4.02546e-03,-4.20901e-03,-5.10463e-02,-2.14879e-02,-4.23643e-02,-7.42268e-02,-2.82901e-02,4.34035e-03,3.14533e-02,-6.44978e-02,1.72893e-03,-4.60661e-03,-1.12665e-01,4.02201e-03,-4.19449e-02,-8.83083e-02,-6.83912e-02,-5.14117e-02,2.60611e-02,2.97949e-02,-2.02838e-02,-5.97060e-02,-8.78533e-04,-2.21004e-02,1.79661e-02,1.20883e-01,5.76154e-02,4.26677e-02,2.31639e-02,3.58158e-02,-8.19541e-02,5.53210e-03,-1.68085e-02,4.61682e-02,1.38643e-01,5.73575e-03,3.46327e-02,-7.56447e-02,5.76575e-02,7.53804e-04,2.47029e-02,1.57010e-02,-1.61095e-01,-8.51782e-02,2.02352e-02,-1.46326e-02,1.16286e-02,-7.52228e-02,-5.39706e-02,-4.04100e-02,-4.12969e-02,-3.00371e-02,1.16434e-01,6.11474e-02,4.41053e-02,-7.08248e-02,-8.47574e-02,-1.24843e-02,-2.42850e-02,6.09303e-05,-6.04561e-02,5.13347e-02,2.83598e-02,-6.85320e-02,1.56687e-01,-8.23069e-02,-5.44400e-02,9.47057e-02,-3.52121e-02,1.52830e-02,-2.86007e-02,-5.87697e-02,9.20009e-03,2.76259e-02,3.63695e-02,6.78633e-03,-1.86888e-03,-1.03274e-02,7.01640e-02,1.16180e-01,6.57946e-02,-1.46684e-02,-9.02266e-02,-1.10692e-01,-2.67182e-02,-1.69113e-01,-4.62601e-02,4.22713e-02,-1.53814e-01,6.39146e-02,1.25106e-01,1.53745e-02,1.26368e-01,2.20811e-02,-3.02176e-03,4.40280e-02,-9.64298e-02,9.73247e-02,1.53736e-02,-3.95082e-02,7.45179e-02,1.16334e-01,7.47208e-02,8.83268e-02,7.92021e-02,2.46628e-02,9.50288e-02,3.64364e-02,7.03643e-02,7.18784e-02,3.03850e-03,-1.52537e-01,6.41728e-03,-7.77466e-02,-6.61079e-02,-4.67087e-02,-5.12700e-02,-1.40430e-01,-1.44357e-01,-1.01114e-02,1.96302e-02,5.38052e-02,-1.41702e-01,-4.44729e-03,-9.09212e-02,1.09437e-01,1.63854e-01,8.25899e-02,9.34241e-02,5.16955e-02,2.30516e-01,1.66223e-01,1.36517e-01,1.28779e-01,4.73297e-02,8.37374e-02,2.22716e-02,-4.03437e-02,-8.80756e-02,-1.54742e-01,-1.34356e-01,-4.36884e-02,-5.73261e-02,1.78295e-02,-4.33006e-02,-2.37766e-01,-2.11711e-01,-1.30866e-01,9.76760e-03,5.37269e-02,-1.67689e-01,-3.12342e-05,-4.45495e-02,6.93443e-02,2.28167e-01,2.12404e-01,1.56665e-01,2.56911e-01,1.29417e-01,2.06721e-01,1.12670e-01,5.87597e-02,-3.01597e-02,-1.00894e-01,-1.84544e-01,-7.79243e-02,-6.18146e-03,3.74439e-02,8.87844e-03,-1.50311e-02,-3.52052e-02,8.05106e-03,-8.96148e-02,-2.50058e-01,-3.24836e-01,-1.67280e-01,-1.00918e-01,-1.12621e-01,1.76744e-02,-1.12602e-01,8.41244e-03,9.09467e-02,1.74019e-01,8.81080e-02,1.69830e-01,2.42682e-02,5.90414e-02,-2.26092e-02,-1.02963e-01,-2.12166e-01,-2.10706e-01,-1.36281e-01,-1.49601e-01,-1.48258e-01,-4.93760e-02,3.70058e-02,3.55946e-02,3.22260e-02,3.53921e-02,4.71794e-02,6.11460e-02,6.59014e-03,-1.09955e-01,-1.29742e-01,-9.85500e-02,-1.25057e-01,-1.31352e-02,-9.91768e-02,1.09296e-02,1.21455e-01,5.41063e-02,-3.07169e-02,-3.53289e-02,2.51356e-02,-6.32351e-02,-8.24326e-02,-8.34718e-02,-2.38183e-01,-1.66906e-01,-1.91374e-01,-1.77029e-01,-9.52149e-02,-9.74575e-03,-1.15968e-02,1.70546e-01,9.38176e-02,4.40182e-02,4.44626e-02,9.04441e-02,1.75677e-01,2.13196e-01,1.24828e-01,1.02542e-01,3.36473e-02,-1.19631e-01,-5.74101e-02,-3.74062e-02,-2.13552e-01,-7.21363e-02,-9.55840e-02,-1.69458e-01,-9.71453e-02,-1.73283e-01,-4.22325e-02,-9.37675e-02,-2.84148e-02,1.49557e-02,-4.48402e-02,-8.34333e-02,-6.78245e-03,1.70683e-02,1.16783e-01,4.94399e-02,3.83553e-02,4.44671e-02,-7.29990e-02,6.23486e-03,2.06986e-01,2.13777e-01,2.43817e-01,1.66810e-01,-1.74659e-02,-2.03822e-01,-1.72681e-01,-9.12842e-02,-2.04735e-01,-1.73695e-01,-1.47006e-01,-1.46120e-01,-1.10042e-01,-9.28397e-02,3.15297e-02,4.02410e-02,6.19812e-02,8.42008e-03,9.65154e-03,-6.34593e-02,9.76882e-02,1.06561e-02,4.72085e-02,-3.00385e-02,-3.60877e-02,-9.63028e-02,-2.80970e-02,-4.36582e-02,5.90097e-02,2.32617e-01,4.37974e-01,1.04145e-01,-4.31356e-02,-1.98145e-01,-5.96252e-02,1.08676e-01,-4.66716e-02,-4.78168e-03,-1.68964e-02,2.42200e-02,-1.00734e-01,5.37378e-02,4.75589e-02,2.34219e-02,9.09230e-02,8.58725e-02,4.37400e-03,8.52943e-02,4.41466e-02,5.47231e-02,-7.62481e-02,-3.63385e-02,-1.14353e-01,-5.28069e-02,-9.73841e-02,-1.98580e-02,6.38252e-02,2.14940e-01,2.30831e-01,9.86660e-02,4.42296e-02,-9.38213e-02,1.16596e-02,1.43636e-01,-2.67215e-02,4.70876e-03,7.80863e-03,2.36616e-02,-8.03171e-02,6.29748e-02,1.57730e-01,2.03860e-01,2.46068e-01,1.85750e-01,1.58465e-01,2.03375e-02,2.00655e-01,5.30721e-02,-5.57724e-03,4.76374e-02,-5.56700e-02,2.67022e-02,-2.90620e-02,1.43242e-01,1.36224e-01,4.03511e-01,3.51311e-01,1.84528e-01,7.46005e-02,-1.30016e-01,2.22370e-03,1.00272e-02,9.37060e-02,2.54311e-02,-8.90841e-03,8.76575e-02,1.45374e-02,7.62387e-02,2.05539e-01,2.18946e-01,1.91969e-01,1.50822e-01,7.71715e-02,1.47213e-01,7.64827e-02,6.49125e-02,5.29390e-02,1.21865e-02,2.69530e-02,8.38541e-02,1.84220e-02,1.39245e-02,1.12369e-01,3.73410e-01,2.65677e-01,1.04687e-01,6.87433e-03,3.91894e-02,-6.12363e-02,1.84556e-02,4.36838e-02,6.26051e-02,-4.32062e-03,1.36452e-01,6.61284e-02,1.16329e-01,1.64926e-01,1.66266e-01,2.36995e-01,1.05589e-01,2.09246e-02,8.58467e-02,7.27145e-02,7.21375e-02,4.43291e-02,1.28774e-02,3.56041e-02,5.97956e-02,1.73334e-01,2.52340e-01,2.19165e-01,2.84738e-01,9.98530e-02,9.88560e-02,-1.22582e-02,-6.85742e-02,-1.53360e-01,-9.54903e-02,4.39648e-02,9.25765e-02,1.43821e-01,1.45369e-01,3.09147e-02,5.56105e-02,6.55008e-02,1.14452e-01,1.42040e-01,1.08808e-01,8.70032e-02,7.16437e-02,6.91755e-02,9.19617e-02,1.14634e-01,6.54616e-02,8.72789e-02,9.54656e-02,2.58071e-01,1.54892e-01,1.75386e-01,2.58945e-01,1.70623e-01,8.45387e-02,-8.10814e-02,-6.50165e-02,7.63376e-02,2.27912e-02,1.88422e-01,1.04823e-01,5.57023e-02,2.07396e-01,3.25548e-03,1.44874e-01,1.18563e-01,9.75584e-02,1.35233e-01,1.17349e-01,-1.86891e-02,8.50676e-02,-2.15794e-02,-4.49291e-02,1.16277e-01,9.30341e-02,2.16275e-01,2.61721e-01,1.76820e-01,2.16716e-01,2.49210e-01,1.26862e-01,4.85109e-02,-1.26715e-02,-7.20477e-02,-1.82068e-02,8.41054e-02,9.60060e-02,5.91757e-02,8.36345e-02,5.18242e-02,1.71061e-01,1.07841e-01,3.27244e-02,1.19756e-01,-3.63749e-02,7.85977e-02,4.62925e-02,-2.15279e-02,2.21783e-02,6.28769e-04,1.35200e-01,1.40340e-01,2.27600e-01,7.77685e-02,1.06259e-01,2.38064e-01,2.60030e-01,1.59780e-01,5.10336e-02,1.09747e-01,-3.11055e-02,-7.90273e-02,-8.10771e-02,1.30442e-01,2.05413e-01,1.29839e-01,8.67919e-02,6.20846e-02,9.25194e-02,4.20808e-02,1.15079e-01,8.97630e-02,9.41940e-02,-5.27082e-03,1.89733e-02,-2.25592e-02,-8.51991e-02,-3.58890e-02,-5.43896e-02,7.72842e-02,1.47518e-01,1.69825e-01,1.78061e-01,1.09944e-01,1.52758e-01,1.71454e-01,4.76544e-02,-1.71736e-01,1.51592e-02,-7.14058e-02,6.66308e-02,-3.02158e-02,-7.46162e-02,-3.65260e-02,-7.49491e-02,-2.03425e-02,-1.12290e-02,5.10206e-02,4.27765e-02,-7.71597e-02,4.61937e-02,-6.42597e-02,-6.67217e-02,-9.98748e-02,-1.01199e-01,-4.57325e-02,-8.24077e-02,9.83916e-02,2.64203e-01,2.34194e-01,3.08012e-01,3.07358e-01,1.74329e-01,9.26199e-02,1.13501e-01,-1.03372e-01,2.40217e-02,1.16829e-03,-4.13325e-02,1.83493e-02,-2.02353e-01,-2.85131e-01,-2.94863e-01,-2.51774e-01,-1.33024e-01,-7.02751e-02,-5.46259e-02,-9.06094e-02,-2.07513e-02,7.69136e-03,-4.86102e-02,4.25595e-02,6.16461e-02,1.41906e-01,1.26299e-01,2.03293e-01,1.11728e-01,1.56042e-01,1.24015e-01,5.78553e-02,6.37911e-04,2.16213e-01,2.25727e-01,1.42041e-01,8.22023e-02,3.67840e-03,-4.85944e-02,-1.16254e-01,-2.62147e-01,-2.76087e-01,-3.36422e-01,-6.71286e-02,-2.25575e-01,-2.39877e-01,-1.90168e-01,-1.25381e-01,-1.00423e-01,-6.04247e-03,1.04027e-02,1.07480e-01,1.39419e-01,9.39344e-02,2.54748e-02,-2.84761e-03,-1.45803e-01,-2.49818e-02,-2.11592e-01,-2.43182e-01,-1.40487e-01,-2.33471e-01,8.89633e-02,1.43377e-01,6.65866e-02,1.65838e-03,-4.44153e-02,6.88816e-02,3.64641e-02,-2.51613e-01,-8.75939e-02,-9.96707e-02,-4.93460e-02,8.91764e-02,-7.14231e-02,-9.22972e-02,-1.75099e-01,-1.66491e-01,-1.67083e-01,-2.09814e-01,-3.68080e-01,-2.97104e-01,-2.23476e-01,-1.69154e-01,-2.81248e-01,-2.88121e-01,-3.31485e-01,-3.07227e-01,-1.80215e-01,-9.15338e-02,4.70335e-02,-2.05058e-02,-7.08466e-02,8.51513e-02,-4.38328e-02,6.46033e-02,-4.50455e-03,1.22424e-01,1.87377e-01,1.15148e-01,7.11207e-02,6.09378e-02,-6.62792e-02,-1.63701e-01,-1.76319e-01,-1.97606e-01,-1.59242e-01,-3.18626e-01,-4.70521e-02,-8.34840e-02,-1.13668e-01,-1.01844e-01,-1.45068e-01,-1.40245e-01,-2.69669e-01,-1.47091e-01,-1.95870e-01,4.64717e-02,-3.57588e-02,8.32575e-02,-2.31546e-02,
1.79696e-02,7.42655e-02,-8.51713e-02,-1.74275e-02,-7.39279e-02,-2.09642e-02,1.26712e-02,8.52369e-02,-3.87804e-02,-5.54945e-02,7.71016e-02,6.02019e-02,1.38487e-02,-8.64384e-02,1.68435e-03,-2.54611e-02,7.05170e-02,-6.72631e-02,3.04963e-02,-3.96448e-03,4.22103e-02,6.95056e-02,-3.46332e-02,-6.12621e-02,1.96831e-02,5.29234e-02,-5.62833e-02,3.68656e-02,-5.64578e-02,-7.80570e-02,-2.22410e-02,2.60880e-02,1.47001e-02,-5.07772e-02,-9.83374e-02,-8.83886e-02,-1.77920e-01,-2.00035e-01,-2.47240e-01,-1.01934e-01,-1.98270e-01,-1.84832e-01,2.97233e-02,1.57232e-02,-4.10416e-02,-1.98201e-01,-1.18480e-01,-2.26836e-01,-1.18023e-01,-8.05204e-02,-1.85579e-02,-8.09177e-02,2.60185e-02,5.53318e-02,-5.74312e-02,-4.74297e-02,-3.98246e-02,3.99212e-02,3.83617e-02,-1.22631e-01,-3.01008e-02,-1.43270e-01,-1.72340e-01,-2.41084e-01,-2.36562e-01,-2.65895e-01,-4.04834e-01,-3.01107e-01,-2.42265e-01,-2.55959e-01,-1.68950e-01,-1.64277e-01,-1.43252e-01,-1.75696e-01,-1.36499e-01,-3.13822e-01,-1.58719e-01,-2.46186e-01,-1.62873e-01,-2.29308e-01,-3.86473e-02,-7.26569e-02,4.39840e-02,1.28975e-02,7.27795e-02,4.88736e-03,1.52040e-02,-6.77078e-02,-6.10087e-02,-6.35747e-02,-2.42110e-01,-2.96334e-01,-4.27712e-01,-4.16860e-01,-4.28308e-01,-5.68285e-01,-3.78012e-01,-3.97783e-01,-4.27265e-01,-1.71357e-01,-1.74392e-01,-2.04525e-01,-9.22403e-02,-1.70703e-01,-2.04214e-02,-6.37677e-02,1.34134e-02,-2.05417e-02,-7.74435e-02,9.90215e-02,-6.39267e-02,-5.65439e-04,2.75039e-02,6.51577e-02,8.15134e-03,-6.58605e-02,-1.89292e-02,1.34273e-01,2.35772e-02,-9.66962e-02,-6.79948e-02,-1.40438e-01,-1.95174e-01,-3.45063e-01,-2.40931e-01,-2.55077e-01,-1.68373e-01,-1.94689e-01,-5.89755e-02,-1.25652e-01,-7.23279e-02,1.62715e-02,-5.57131e-02,7.25391e-02,6.24308e-02,1.02511e-01,4.78467e-02,6.96296e-03,8.91431e-02,-1.27364e-01,4.24450e-02,-6.55268e-02,-4.04577e-02,-6.41856e-06,2.45720e-02,5.86034e-02,1.50430e-01,-9.46508e-02,-1.26050e-02,-4.95939e-02,-1.70186e-01,2.77587e-02,5.05355e-02,-8.17027e-03,1.17857e-03,1.65526e-02,-1.36845e-01,-1.38372e-01,-7.67518e-02,-1.34323e-01,-7.30965e-03,3.94976e-02,8.79628e-02,5.86028e-02,1.75401e-01,3.80556e-02,2.47209e-02,-4.55697e-02,-6.36119e-02,-3.44496e-02,-9.19964e-02,5.33025e-02,-4.64041e-04,-1.52625e-01,-4.66484e-03,-1.08839e-01,-1.05938e-01,-3.28422e-02,-1.14221e-02,5.49212e-02,9.52682e-02,6.87013e-02,8.86082e-02,4.50293e-02,8.46801e-02,1.49275e-01,-2.87184e-02,4.20106e-02,-3.95630e-02,8.19075e-02,-3.88241e-02,4.62648e-02,3.89520e-02,8.53426e-02,3.13844e-02,-1.24283e-01,-6.32593e-02,-1.00329e-01,-2.77076e-02,4.33928e-02,-3.18915e-02,-1.76854e-01,-1.56444e-01,-1.19355e-01,-2.77051e-02,1.85802e-02,9.19627e-02,1.36868e-01,9.43644e-02,9.39920e-02,7.24663e-02,4.41946e-02,1.13917e-01,6.91406e-02,-6.13865e-02,5.46274e-02,1.16289e-01,9.16614e-02,8.61455e-02,-6.73579e-03,7.68885e-02,4.52715e-02,3.22521e-02,-1.59022e-01,-1.30548e-01,-2.19545e-02,-2.95652e-02,-1.46459e-01,-1.30276e-02,-5.33734e-02,3.89420e-02,7.42372e-02,7.10533e-02,4.36194e-02,-7.64313e-03,8.25052e-02,9.42853e-02,1.62431e-01,6.04841e-02,6.67603e-02,-4.05405e-02,-1.00342e-01,2.46363e-02,1.23234e-03,6.65341e-02,1.51149e-02,3.03350e-02,6.98966e-02,3.97600e-04,5.96665e-02,1.26848e-01,4.85149e-02,-8.28484e-02,-8.02991e-02,-5.74353e-02,7.50689e-03,-6.94753e-02,-1.82521e-02,1.53899e-01,9.89738e-02,1.10161e-01,9.16075e-02,2.07646e-01,1.35673e-01,9.37452e-02,9.90035e-02,1.56647e-02,-2.48046e-02,-5.43237e-02,-5.34159e-02,-1.19507e-01,-1.23043e-01,-1.29672e-01,-7.20548e-02,3.89686e-03,1.52386e-02,-3.67176e-03,3.17500e-02,3.87145e-02,4.31479e-02,-1.49533e-01,-1.30230e-02,-1.47065e-01,-8.12769e-02,-4.73531e-02,2.41747e-02,1.31153e-01,1.45196e-01,8.99827e-02,1.93023e-01,1.68945e-01,2.02086e-01,1.29966e-01,3.95460e-02,1.05690e-02,5.63151e-02,-4.73568e-02,-1.42217e-01,-2.27539e-02,-4.39690e-02,-1.55817e-01,1.45119e-02,8.31704e-02,1.47337e-02,-8.09712e-02,-1.32960e-01,-9.52784e-02,9.96845e-02,-5.97747e-02,5.41431e-03,-1.04013e-02,1.94988e-02,8.11188e-02,1.21219e-01,1.27806e-01,1.58154e-01,1.98146e-01,1.20207e-01,1.92626e-01,1.69030e-01,3.70357e-02,-3.88708e-02,5.59814e-03,1.44772e-01,-1.71824e-02,-4.57331e-02,3.90600e-03,-1.38196e-03,1.08940e-01,1.65710e-02,2.15854e-01,3.83665e-02,2.69168e-02,-2.15348e-01,2.74817e-02,7.86785e-02,-1.96613e-02,5.92192e-02,-5.15736e-02,1.06586e-01,2.21246e-01,1.45814e-01,1.75910e-01,1.35528e-01,1.37555e-01,4.56529e-02,-3.21430e-03,4.03701e-02,-1.05369e-01,-1.95467e-01,3.87288e-02,9.27050e-02,9.02432e-02,7.52014e-02,2.15161e-02,5.11181e-02,1.51738e-01,1.99966e-01,2.06205e-01,1.10197e-01,-1.83025e-03,-6.39860e-02,4.07051e-02,2.14822e-01,7.08356e-02,-8.01179e-04,-2.06384e-02,1.39579e-01,1.66899e-01,1.28723e-01,1.45583e-01,8.50657e-03,-3.54264e-02,-5.67416e-02,-1.83171e-02,-1.20257e-01,-7.88681e-02,-3.56214e-02,1.40618e-02,2.05351e-01,1.80338e-01,4.20153e-02,9.48525e-03,3.86115e-02,2.13886e-01,1.40371e-01,1.40078e-02,2.04207e-03,-8.40245e-02,1.55982e-01,1.70586e-01,1.40348e-01,-1.70185e-01,4.19439e-02,-2.26409e-02,2.09569e-01,1.43477e-01,1.20883e-01,2.89488e-02,-4.03365e-02,-3.54006e-02,-7.02309e-02,-1.26462e-01,-1.74035e-01,-1.47929e-01,1.02245e-01,1.30962e-01,2.01853e-01,1.59413e-01,1.95608e-01,6.84858e-02,1.61194e-01,1.10795e-01,-5.95252e-02,1.05064e-02,-7.74310e-02,-1.67967e-01,6.66762e-02,2.47405e-01,1.60141e-01,-1.72763e-01,1.01063e-01,-1.50515e-01,-2.22251e-02,2.84976e-02,2.69988e-02,-3.88268e-02,-1.85540e-01,-1.79122e-01,-1.94861e-01,-5.58142e-02,-3.21360e-02,-8.44745e-02,3.59658e-02,8.00482e-02,2.18277e-01,1.38053e-01,1.76628e-01,1.04627e-01,5.67843e-02,2.43873e-02,1.69286e-02,-5.79019e-02,-1.17765e-01,-1.55429e-01,-4.62378e-03,1.49728e-01,6.58642e-02,6.49436e-02,7.91420e-02,-1.09678e-01,-6.04891e-02,-1.24007e-01,-1.74994e-01,-5.49667e-02,-2.44173e-02,-9.83546e-02,-1.73443e-01,-5.60018e-02,-1.67162e-01,-6.79516e-02,1.63296e-01,1.74237e-01,5.06837e-02,1.69371e-01,1.04242e-01,-4.32050e-02,-1.24672e-01,-8.01084e-02,-8.14681e-02,6.10088e-03,-1.60797e-01,-2.15344e-01,-3.67547e-02,9.53008e-02,1.86369e-02,5.83238e-02,-4.69755e-02,-1.02669e-01,-6.64278e-02,-1.38440e-01,-2.40433e-01,-1.27814e-01,-7.07859e-02,-6.87877e-02,-2.65835e-02,-1.41455e-01,-3.96257e-02,1.36453e-01,9.20042e-02,1.53091e-01,1.66963e-01,8.36285e-02,-4.88397e-02,-1.40078e-01,-7.01455e-02,-1.18427e-01,-1.61048e-01,-5.64813e-02,-8.17916e-02,-1.33053e-01,3.07259e-02,1.50932e-01,-7.86472e-02,1.34843e-01,-4.42155e-02,-4.23669e-02,-2.18367e-01,-2.66290e-01,-2.71696e-01,-4.47363e-02,-7.10308e-02,-1.66670e-01,1.05238e-02,1.48202e-02,6.60077e-02,5.60399e-02,1.62502e-01,8.98453e-02,4.05546e-02,-9.22433e-02,-7.74974e-02,-1.02841e-01,-4.18264e-02,-2.42062e-02,-1.62104e-01,-2.10618e-01,-1.76468e-01,-1.17221e-01,1.02500e-01,2.03612e-01,1.11943e-01,1.25017e-01,3.31801e-02,-1.00200e-01,-1.45574e-01,-2.63514e-01,-1.84103e-01,-1.55136e-01,-9.19647e-02,-7.34072e-02,-1.60757e-01,-1.00461e-01,-8.37698e-02,2.13301e-02,2.62698e-02,8.56328e-02,-1.97938e-02,-7.64335e-02,-4.64962e-02,-1.26709e-01,-1.31938e-01,-1.78550e-01,-1.74248e-01,-2.32147e-01,-5.49410e-02,8.40832e-03,1.81265e-01,1.40422e-01,1.38920e-01,-3.87401e-02,-1.42212e-02,-3.29103e-02,-3.34524e-01,-2.97485e-01,-2.12963e-01,-1.99789e-01,-1.29942e-01,-1.02463e-02,-8.31001e-02,1.32911e-02,-5.52681e-02,-8.62856e-02,-3.39694e-04,6.67438e-02,2.27348e-02,9.45309e-02,3.66581e-02,-3.51280e-02,-7.55485e-02,-8.28027e-02,-6.12348e-02,-1.52450e-01,-4.99652e-02,-1.02673e-02,5.37410e-02,1.28628e-01,-8.89916e-02,3.12240e-02,3.31669e-02,-2.15090e-01,-1.70720e-01,-1.56200e-01,-8.14619e-02,-5.95881e-02,-6.61854e-02,4.32824e-02,-4.57973e-02,1.46728e-03,-1.04087e-01,-1.19342e-01,-8.45361e-02,2.02172e-02,2.94399e-02,-8.11547e-03,-4.01494e-02,-1.52558e-01,-7.04811e-02,-1.10355e-01,3.97004e-02,-5.12081e-02,-3.88237e-02,3.24134e-03,4.53986e-02,-1.21552e-01,-4.81140e-02,3.07724e-02,1.35194e-02,-1.57323e-01,-2.04664e-01,7.37864e-02,-4.25667e-02,7.07480e-02,6.92069e-03,7.44280e-02,3.18303e-02,-5.00766e-02,-1.26729e-02,-1.16559e-01,-3.47198e-02,3.79325e-02,-5.27923e-02,-6.80102e-02,2.79333e-02,-5.53083e-02,-1.02054e-01,-2.98583e-02,4.13662e-02,-6.92582e-02,5.08518e-02,1.16852e-01,6.07316e-02,-1.54747e-01,2.97195e-02,-6.09031e-02,-7.55474e-02,-7.47184e-02,-1.60245e-01,-3.64125e-02,1.06527e-01,-3.14316e-02,7.88089e-02,9.78411e-03,-9.35916e-02,-1.27332e-01,-9.45224e-02,-4.97916e-02,-9.88572e-02,-9.77656e-02,5.05856e-02,5.10683e-02,5.65679e-02,-2.44813e-02,-9.44280e-02,-6.54897e-02,1.12041e-03,1.53539e-02,8.66507e-02,7.38264e-02,-1.51295e-02,-8.92818e-02,1.62849e-02,3.63302e-02,-5.74918e-02,-8.40932e-02,-2.18837e-01,-8.94624e-02,1.13071e-01,6.17919e-02,5.65154e-02,1.79972e-02,-8.22421e-02,-5.49575e-02,-4.20206e-02,-9.29656e-03,-1.60268e-01,-1.67121e-01,-9.50935e-02,5.85561e-02,1.55595e-02,9.13740e-03,1.23361e-01,1.83507e-01,1.08323e-01,4.83993e-03,1.45118e-01,-7.29819e-02,2.10135e-02,-7.04874e-02,-4.13943e-02,2.86619e-02,-2.65227e-02,3.03540e-02,-2.12448e-02,-1.81952e-02,5.55880e-02,-4.07011e-02,1.00712e-01,-1.28803e-02,6.79398e-02,8.58434e-02,-5.20736e-03,5.59797e-02,-3.86973e-03,1.44080e-01,-2.42213e-02,8.46692e-02,7.87188e-02,4.53606e-03,1.14402e-01,2.00871e-01,2.85300e-02,-5.61098e-02,2.36672e-02,-1.57285e-01,-6.01581e-04,-1.33070e-02,6.87379e-03,1.61276e-02,-6.39092e-02,6.05257e-02,9.84123e-02,9.53393e-02,1.30700e-01,1.45094e-01,2.19440e-01,2.40495e-01,3.04820e-01,1.36082e-01,1.02553e-01,1.96725e-01,6.89215e-02,2.69458e-01,1.80023e-01,1.35128e-01,2.13853e-01,1.59418e-01,1.48617e-01,1.29797e-01,1.59073e-01,7.33816e-02,2.22827e-01,1.70814e-01,-4.06628e-02,9.90906e-03,6.67388e-02,-3.72778e-02,2.58157e-02,-5.98770e-02,-7.14560e-02,-1.59289e-01,-1.20778e-01,1.26988e-01,6.02355e-02,-8.96125e-03,-2.87120e-03,5.42423e-02,-4.92533e-02,1.39296e-01,-5.66945e-02,2.28377e-01,1.97832e-01,1.40307e-01,3.39993e-02,1.18657e-01,6.16102e-02,2.73047e-03,1.15905e-01,1.58579e-01,1.30885e-01,7.96427e-02,-6.30398e-02,6.15150e-02,4.97737e-02,
-8.40670e-02,-2.60706e-02,6.04052e-02,-4.23375e-02,1.52502e-02,-7.19850e-03,1.64500e-03,2.07244e-02,6.64813e-03,-2.29175e-02,-4.11924e-02,-4.65118e-02,9.70291e-02,-1.28132e-04,9.10627e-02,-1.28155e-02,2.82386e-02,1.20863e-02,3.22523e-02,1.11053e-02,-3.77129e-02,-4.44840e-02,-1.15495e-02,-8.49542e-02,5.80231e-02,-7.51010e-02,-1.52053e-02,2.01048e-03,-5.81303e-02,-5.19397e-02,2.35268e-02,-1.15593e-02,2.68816e-02,9.02164e-02,1.06923e-01,1.32092e-01,8.50074e-02,1.20660e-01,6.14183e-02,4.76050e-03,6.36959e-02,1.98191e-01,-6.23416e-02,-3.89497e-02,1.91227e-01,1.51097e-01,1.09707e-01,8.17201e-02,9.45171e-02,7.10101e-02,2.15799e-01,1.20673e-01,-7.87996e-02,-5.29947e-03,6.00411e-02,8.42151e-02,-6.63486e-02,-3.99005e-02,4.10738e-03,6.31587e-02,-8.92050e-02,1.41896e-01,1.99856e-01,2.65755e-01,2.12865e-01,2.53757e-01,2.79118e-01,1.38456e-01,1.80127e-01,6.73821e-02,8.61144e-02,1.19147e-01,1.34268e-01,-4.10035e-03,5.32031e-02,1.84790e-02,2.44209e-01,2.95545e-01,2.92040e-01,2.10442e-01,1.30174e-01,9.49537e-02,-6.73235e-03,5.20803e-02,2.44005e-02,2.01646e-02,-2.21135e-02,4.39023e-02,-6.01040e-02,4.56682e-02,8.37510e-02,6.18143e-02,3.78527e-02,9.23353e-02,1.27228e-01,3.33071e-02,6.09091e-04,-5.34895e-02,-1.96212e-02,9.72909e-03,1.99311e-02,-5.20929e-03,-7.28886e-03,-7.00562e-02,3.05658e-02,-5.60030e-02,1.60462e-02,3.85709e-02,1.77500e-01,-9.17462e-02,1.76944e-02,1.78674e-02,-3.30243e-02,-8.28343e-02,-1.22027e-02,-1.77199e-01,-6.21741e-02,-3.19154e-02,4.70807e-02,-5.58270e-02,-8.59740e-02,5.73315e-02,2.10137e-02,-4.18112e-02,5.52892e-02,-2.39007e-02,-6.60509e-03,-1.06685e-02,4.18518e-02,-5.69429e-02,-1.36912e-01,-7.35239e-02,-9.68035e-02,-8.34015e-03,-2.07832e-02,-2.43956e-02,-4.08964e-02,-6.93266e-02,-4.03104e-02,6.35975e-02,-8.05917e-02,-6.36022e-03,1.09042e-01,-7.40909e-02,6.77630e-02,3.33675e-03,6.27861e-02,4.30105e-02,1.29238e-02,1.02905e-01,1.23913e-01,1.05837e-01,1.46473e-01,-1.68411e-02,-2.32637e-02,7.10820e-02,-5.05808e-02,-1.25079e-01,-2.76017e-02,-1.08062e-01,-1.08832e-01,1.03978e-02,-3.12007e-02,2.09667e-02,2.10448e-03,-6.41461e-02,-7.56249e-03,1.17099e-01,-1.09709e-02,-6.08830e-02,-5.95276e-02,-6.94291e-02,2.97806e-02,5.66615e-02,-5.67843e-03,5.86250e-02,1.18737e-01,1.98739e-02,1.83250e-01,1.96050e-01,3.14806e-02,3.40818e-02,-7.29746e-02,-4.07495e-02,-1.48462e-01,-3.16403e-02,-1.26912e-01,-1.02687e-01,-9.56598e-03,1.73902e-02,-7.14312e-02,-4.07898e-03,2.71172e-03,3.76932e-02,-7.20278e-03,4.14259e-02,-2.58159e-02,-5.10443e-02,3.46641e-02,-1.00377e-03,-6.34446e-02,3.80709e-02,3.70604e-02,7.97770e-02,2.08926e-02,7.73380e-02,9.03129e-02,1.86001e-01,7.81116e-02,3.24353e-03,-7.80632e-02,-4.43162e-02,-6.36151e-02,5.52755e-02,-2.27156e-02,1.05028e-01,7.29606e-02,5.00242e-02,-8.79198e-02,-1.75246e-01,-1.48348e-01,-1.17789e-01,1.04169e-02,1.16826e-02,1.60085e-02,7.29437e-02,-3.32589e-02,-1.82877e-01,1.32808e-02,5.03429e-02,-1.05447e-01,-4.47537e-02,-3.47896e-02,1.28792e-01,1.58963e-01,1.58122e-01,1.08587e-01,1.15894e-02,9.42364e-02,-1.48416e-02,-1.54250e-02,-1.02414e-02,7.89447e-02,5.06938e-02,-1.08610e-02,-6.49378e-02,-1.36192e-01,-8.57744e-02,-3.89461e-01,-2.84957e-01,-1.74385e-01,-1.12805e-01,-1.27274e-02,-5.86624e-02,-4.16656e-02,-2.64636e-02,-2.82446e-02,-3.40187e-02,-9.03367e-02,4.11726e-02,2.32763e-02,4.09321e-02,-2.12009e-02,4.20183e-03,3.05278e-02,-1.49355e-01,-5.90474e-02,7.10873e-03,1.40951e-02,-2.98419e-02,4.35415e-03,-8.46752e-02,-4.50498e-02,-8.27900e-02,-2.93811e-02,-1.05211e-01,-1.75837e-01,-2.80896e-01,-1.63654e-01,1.02232e-01,3.99549e-02,-1.24648e-02,1.99060e-02,-1.18132e-01,-1.15519e-01,-8.84263e-02,-4.92010e-03,-1.24905e-01,-1.34397e-02,-6.06701e-02,-1.01613e-01,-1.14088e-01,-2.20111e-01,-2.64633e-01,-2.10122e-01,-4.74066e-02,6.14843e-02,2.44466e-02,-1.16010e-01,-1.55279e-01,-1.75082e-01,-1.87035e-01,-1.18820e-01,-1.19590e-01,-5.66008e-02,-1.38529e-01,1.48850e-02,-3.48677e-02,2.95735e-03,1.60051e-01,-8.80489e-02,-2.06871e-01,-1.12493e-01,-5.81922e-02,-1.79460e-01,-1.17508e-01,-1.07028e-01,-1.33922e-01,-2.10144e-01,-2.97656e-01,-2.66787e-01,-2.56599e-01,-1.24302e-01,-5.76546e-02,1.02605e-01,-1.04139e-01,-3.09244e-02,-2.15340e-02,-1.48834e-01,-6.76740e-02,-8.81062e-03,4.29436e-03,-1.15929e-01,-5.45274e-02,-2.53312e-01,-1.02076e-01,-4.47642e-02,9.79872e-02,6.10018e-02,-1.57809e-01,-1.39199e-01,-2.70363e-01,-3.89356e-01,-3.45156e-01,-3.15410e-01,-2.73080e-01,-3.51851e-01,-2.52292e-01,-1.95318e-01,-1.57844e-01,-8.68631e-02,6.16539e-02,-1.84521e-03,-8.91389e-02,-3.72240e-02,-1.97570e-01,-8.49240e-02,2.40036e-02,-8.73280e-02,-1.02581e-01,-1.16941e-02,5.73878e-02,-9.80835e-02,2.01806e-01,5.24286e-03,4.31272e-03,1.38703e-02,-7.61975e-02,-2.47306e-01,-3.08875e-01,-4.37901e-01,-4.02494e-01,-2.71873e-01,-2.18343e-01,-2.19587e-01,-6.32123e-02,-5.42845e-02,-4.34241e-03,1.74339e-02,5.03310e-02,7.23949e-02,-8.13592e-02,-1.01420e-01,-1.48758e-01,-1.13118e-02,2.64991e-02,4.53687e-02,1.77841e-01,1.07731e-01,2.14927e-01,2.39041e-01,1.09314e-01,-4.99278e-02,-1.04413e-01,-3.87468e-02,-1.10198e-01,-3.21616e-01,-2.27682e-01,-1.91224e-01,-8.57036e-02,-5.16171e-02,-7.34525e-02,-5.00149e-02,1.10044e-02,1.21828e-01,9.60369e-02,1.19417e-01,6.21958e-02,5.34061e-02,-1.08283e-02,-3.50385e-04,5.63944e-02,8.63715e-02,9.03104e-02,8.32999e-02,9.96562e-02,1.46898e-01,6.01552e-02,2.55691e-01,2.35726e-01,-6.48652e-02,2.70116e-02,-7.07633e-02,-1.28530e-01,-1.39899e-01,-2.06676e-03,-4.45911e-02,1.10173e-01,9.80556e-02,5.29806e-02,2.65305e-02,1.76497e-01,1.89771e-01,9.67968e-02,1.49076e-01,-3.04489e-02,9.49554e-02,1.61350e-02,4.39279e-02,8.63999e-02,3.11865e-02,1.01646e-01,1.04175e-02,-5.76117e-02,1.07759e-01,1.77824e-01,1.89672e-01,1.22242e-01,-5.93629e-02,1.17744e-02,-3.20279e-02,-1.53728e-01,-2.05527e-01,5.57286e-02,1.28227e-01,9.61598e-02,1.08474e-01,7.79118e-02,1.78079e-01,1.43085e-01,1.40886e-01,2.11993e-01,1.29946e-01,3.09311e-02,-2.28726e-02,-4.58438e-02,-8.03317e-02,-7.46249e-03,-6.54466e-02,3.50555e-02,-4.83922e-02,6.75238e-03,3.54493e-02,3.46922e-01,3.29262e-01,1.26033e-01,-3.35042e-02,-2.42381e-02,-7.53005e-02,-1.76599e-01,-1.48860e-01,-5.47163e-02,1.51141e-01,1.80545e-01,5.28571e-02,9.88500e-02,1.20662e-01,1.67259e-01,1.08463e-01,2.06612e-01,2.51605e-02,4.77842e-02,-4.55896e-02,-1.68964e-02,2.30635e-02,-3.03396e-02,-3.17570e-02,2.31460e-02,6.26321e-02,1.28691e-01,1.56619e-01,3.73781e-01,3.07868e-01,8.26965e-02,2.24590e-02,-9.23073e-02,-3.71845e-03,-4.53249e-02,-5.19281e-02,-4.33015e-02,3.73290e-02,1.45957e-01,1.88097e-01,2.81554e-02,1.01935e-01,9.81644e-02,2.66641e-01,1.21435e-01,1.47803e-01,-2.48343e-02,2.03399e-02,-4.22742e-02,3.19341e-02,2.38619e-02,8.80283e-02,5.31306e-02,-3.73490e-02,1.85128e-01,2.71513e-01,2.68245e-01,2.19121e-01,8.52080e-02,-7.20272e-02,-1.07489e-01,3.15355e-02,1.23032e-02,-2.57510e-02,-1.30934e-01,1.84060e-02,2.88228e-02,8.82821e-02,6.43405e-02,1.18524e-01,9.92411e-02,1.48049e-01,1.81285e-01,1.48742e-01,1.22770e-03,1.37346e-02,7.91879e-02,-9.00361e-02,4.51373e-02,-3.80704e-02,1.11717e-02,6.48520e-02,-4.59981e-02,2.85946e-02,1.43081e-01,2.17920e-01,8.16056e-02,8.02307e-02,-1.48710e-01,8.92550e-02,4.34176e-02,-3.40157e-02,-7.16542e-02,-1.03649e-01,-4.38579e-02,3.71746e-02,-7.28095e-03,3.01857e-02,3.74510e-02,9.19704e-02,9.66455e-02,9.63205e-02,1.00369e-01,5.69300e-03,-9.73703e-03,-6.37340e-02,-2.33566e-02,-4.14578e-02,-4.54345e-02,2.66934e-02,-1.48087e-02,7.54665e-02,1.49880e-02,1.51410e-01,-4.67860e-02,-2.21626e-02,7.49198e-02,3.68829e-02,3.38919e-02,2.42088e-02,-1.39907e-02,-1.20337e-01,-9.08078e-02,-9.90416e-03,8.10959e-02,-5.61411e-03,1.01500e-01,7.83109e-02,-3.13828e-03,1.27728e-01,-7.45753e-02,3.58518e-02,-1.72861e-02,7.97194e-02,2.15868e-02,5.15059e-02,-2.92982e-02,1.90888e-02,9.38979e-02,7.79675e-04,1.34362e-01,8.54787e-02,-3.28623e-02,-9.64967e-02,-4.48460e-02,1.17473e-01,8.52813e-03,-4.30596e-02,8.23929e-02,-1.87127e-02,-9.71461e-02,1.02682e-02,2.07692e-02,1.08477e-02,-4.81506e-02,-3.35163e-02,3.54032e-02,2.12390e-02,-8.01557e-03,-4.03625e-02,-9.40751e-02,3.52870e-02,-4.72045e-02,9.08445e-02,9.09818e-02,-5.95549e-02,-6.66677e-03,-1.19127e-01,9.20738e-02,-7.23304e-03,-3.16935e-02,2.38538e-02,2.86549e-02,3.87848e-02,-8.77305e-02,-1.34045e-01,1.00128e-02,-3.52170e-02,1.69078e-02,-2.93533e-02,2.84409e-03,-6.03232e-02,8.16800e-02,2.78384e-02,-4.05385e-02,3.04841e-02,-3.65722e-02,2.30812e-02,-4.32282e-02,-1.00158e-01,-1.11588e-01,5.07818e-03,5.05217e-02,1.01260e-01,-1.73848e-01,-1.19016e-01,-3.24868e-02,1.83302e-02,6.65054e-02,-8.34957e-02,1.47764e-02,1.16772e-02,-2.70592e-01,1.61772e-02,-9.40417e-02,6.26467e-02,-6.64798e-02,6.97922e-02,-6.48171e-02,6.71300e-03,5.77861e-03,5.99597e-02,5.14958e-02,7.72262e-02,-4.01673e-02,-7.50141e-02,-1.64600e-01,-1.59099e-01,-1.22805e-01,1.07031e-02,-7.46602e-02,-1.83642e-02,-1.73754e-01,1.33157e-01,2.22899e-01,-3.01200e-03,5.89968e-02,-3.69832e-02,-7.05369e-04,-4.56636e-02,1.02359e-01,2.10496e-01,4.80080e-02,-6.02839e-02,1.05566e-01,-4.49275e-02,9.63118e-03,-5.54030e-02,-2.25822e-02,-1.25061e-01,-6.19725e-02,-5.83015e-02,-1.10142e-01,-8.55666e-02,-1.42279e-01,-2.91336e-01,-2.44301e-01,-2.63127e-01,-2.15455e-01,-1.35026e-01,-9.08447e-02,-4.78319e-02,1.28453e-01,1.70249e-01,-1.94030e-02,4.44993e-02,-1.84461e-02,2.32616e-02,-2.43116e-02,-1.21532e-01,-6.95016e-02,-9.51157e-02,9.76161e-03,2.36457e-02,-1.26723e-02,-1.05516e-01,-2.72215e-02,-2.05419e-01,-2.24376e-01,-1.15100e-01,-9.18285e-02,-2.61166e-01,-2.45859e-01,-2.38240e-01,-2.44181e-01,-2.10331e-01,-1.56177e-01,-1.40025e-01,5.05730e-02,2.44655e-02,3.47178e-02,-1.45230e-02,9.09667e-03,3.80905e-02,3.14509e-02,8.48862e-02,-8.15972e-02,-2.55017e-02,-5.80316e-02,6.55251e-02,-6.19781e-02,-4.71579e-02,-5.09354e-02,1.70268e-01,7.74300e-02,-1.59736e-03,7.64278e-02,-9.45087e-02,-6.92209e-02,1.75196e-02,1.51108e-02,2.06196e-02,-9.35152e-02,-4.83470e-02,-4.14348e-02,-9.67801e-02,-7.41996e-03,1.68277e-03,6.45092e-02,-1.47191e-03,3.95270e-03,
-7.63567e-02,3.77526e-03,-2.20706e-02,8.00721e-02,6.52903e-02,-2.24131e-02,1.00771e-02,-8.33527e-03,7.36900e-03,-7.73968e-02,-4.72614e-02,-3.81248e-02,-2.66581e-02,-3.35727e-02,-4.68949e-02,-9.46504e-03,-2.20224e-04,-2.85972e-03,2.23082e-02,-8.48205e-02,1.47013e-02,9.33704e-03,2.68969e-02,2.13358e-02,-1.61723e-03,1.67861e-02,-7.06975e-02,-8.06280e-02,-5.33984e-02,1.63459e-02,6.25485e-02,6.63195e-02,6.68959e-03,-3.29325e-02,-9.90371e-02,-6.33072e-02,-1.65776e-01,-1.17798e-01,-1.35464e-01,-1.44673e-01,-1.45765e-01,-4.53153e-02,-1.64720e-01,-1.38149e-01,-7.94002e-02,-1.35865e-01,-8.42079e-02,4.50265e-03,-3.18497e-02,-1.79642e-02,-1.10167e-01,-1.11965e-01,4.31719e-02,1.78030e-02,-4.22905e-02,-6.60719e-02,-5.06682e-02,6.29822e-02,-9.03298e-02,-1.49159e-01,-2.54880e-02,-1.02344e-02,-1.26016e-01,-1.41305e-01,-1.29402e-01,-6.61724e-02,-1.50838e-01,6.74424e-02,-6.32886e-02,-8.48489e-02,-1.96676e-02,1.23471e-01,1.89458e-02,1.56586e-01,-5.41365e-03,-1.65286e-02,7.29962e-02,-8.16799e-02,-1.13154e-01,-1.78231e-01,-1.24515e-02,-3.81329e-02,-9.59808e-03,5.05880e-02,1.33725e-02,3.01120e-02,-6.15470e-02,-7.83286e-02,-1.04552e-01,1.77577e-01,1.76990e-01,1.52654e-01,1.87656e-01,2.10987e-01,1.83931e-01,3.58065e-01,2.36340e-01,2.57358e-01,2.26110e-01,2.23511e-01,2.18733e-01,2.78969e-01,2.78364e-01,1.83659e-01,1.40979e-01,1.47723e-03,-5.50234e-02,-1.03194e-01,-1.50209e-02,-4.69312e-02,5.38763e-02,-7.99561e-02,5.13743e-02,5.26442e-02,-2.26416e-02,1.41147e-01,1.08970e-01,1.84541e-01,1.86593e-01,1.42079e-01,1.77564e-01,1.16375e-01,2.36635e-01,1.86002e-01,1.99187e-01,1.04750e-01,1.29894e-01,1.95200e-01,1.18227e-01,9.16977e-02,1.77260e-01,5.09640e-02,1.21065e-01,6.95318e-02,-7.04799e-02,-1.46604e-01,3.62971e-02,1.03281e-01,-9.79845e-02,-1.19064e-01,-4.19052e-02,-6.39647e-02,-1.65785e-02,1.94740e-01,2.10804e-01,2.70196e-01,2.66432e-01,1.56845e-01,1.19877e-01,1.84931e-01,1.91790e-01,1.79094e-01,1.63475e-01,9.62727e-02,9.98730e-02,1.12164e-02,1.09834e-01,7.39491e-02,2.89390e-02,9.25054e-02,-1.07668e-02,2.15515e-02,1.65493e-02,2.04386e-02,3.85454e-02,1.07736e-01,1.57855e-02,1.10036e-01,-7.45446e-02,1.46846e-01,-2.94349e-02,1.49709e-01,1.00033e-01,6.17815e-02,1.29798e-01,6.12080e-02,1.38197e-01,2.80755e-01,2.15259e-01,6.32375e-02,1.02120e-01,1.76637e-01,1.01145e-01,1.72574e-01,1.43355e-01,9.00227e-02,-8.05558e-02,-5.01787e-02,-2.93577e-03,-4.32783e-02,-1.32908e-01,-7.73693e-02,1.70922e-02,6.15274e-02,-8.43284e-04,6.53903e-02,-3.54652e-02,4.48109e-02,-8.21463e-02,6.77542e-02,1.22774e-01,7.30566e-02,1.89125e-01,6.97173e-02,1.06470e-01,1.29840e-01,8.95885e-02,2.00504e-02,4.94678e-02,1.65995e-01,1.57147e-01,1.71783e-01,1.32662e-01,6.54331e-02,-5.02552e-02,-1.04681e-01,-7.45106e-02,-7.90220e-02,-9.84745e-02,-2.24428e-01,-8.48918e-02,1.55140e-01,9.67792e-02,6.97617e-02,-1.13005e-01,-4.89790e-02,-1.17247e-02,1.25014e-01,1.36324e-01,1.51843e-01,7.82188e-02,1.65116e-02,8.30635e-02,1.08614e-01,5.53285e-02,2.11624e-02,-1.13539e-02,-6.75265e-02,1.79031e-01,1.92859e-02,4.81636e-02,-1.31930e-01,-1.02080e-01,-2.04407e-01,-8.25786e-02,-2.29050e-02,-3.35274e-02,-3.24206e-01,-2.03377e-01,1.78218e-02,9.59134e-02,-1.75538e-01,-3.34049e-02,-3.59753e-02,-1.80078e-02,1.09804e-01,1.66945e-01,1.42560e-01,1.32089e-02,1.82852e-01,1.81967e-02,5.64445e-02,-1.48017e-01,-1.22872e-01,-1.66824e-01,-1.08993e-01,-2.09548e-02,-2.90169e-02,-1.12159e-01,-1.62014e-01,-1.07516e-01,-7.71143e-02,1.61464e-02,-5.65784e-02,-1.03521e-01,-1.09793e-01,-2.77434e-01,-8.58950e-02,-5.22421e-02,-5.64830e-02,1.65252e-02,-1.20603e-01,-1.89801e-01,1.43924e-01,4.45642e-02,-2.96059e-02,4.78133e-02,-1.69869e-03,3.42953e-02,-1.61351e-01,-1.57997e-01,-2.37803e-01,-2.08736e-01,-1.41296e-01,-7.16877e-02,-1.04183e-01,4.73712e-02,-5.79569e-02,-1.92965e-02,-6.96004e-02,-7.54060e-02,-4.93858e-02,-1.14678e-01,-3.55558e-02,-2.69245e-01,-1.39092e-01,-1.44757e-01,-1.38033e-01,-7.75551e-02,-2.46892e-01,-2.55955e-01,1.18766e-01,2.90856e-02,-1.87467e-02,-7.28564e-02,-1.30271e-01,-1.00565e-01,-1.04685e-01,-6.12435e-02,-1.08111e-01,-4.08618e-02,-7.25235e-02,-3.00346e-02,5.97682e-02,7.76987e-02,9.03083e-02,1.56840e-01,7.18827e-02,1.41954e-02,-1.44886e-02,-7.06385e-02,-8.79252e-02,-2.09757e-01,-2.49168e-01,-1.15623e-01,-1.75162e-01,-5.78642e-04,-1.79269e-01,-2.34641e-01,-1.48815e-03,-1.92123e-02,-1.00002e-01,4.00072e-03,8.56057e-03,-1.15112e-01,1.28056e-02,8.89912e-02,6.47016e-02,1.64019e-01,6.22095e-02,9.26647e-02,1.70690e-01,1.77322e-01,2.58691e-01,1.92099e-01,1.08487e-01,9.15652e-02,-4.34236e-02,3.62949e-03,7.63003e-02,-1.15988e-01,-5.69691e-02,-2.21424e-01,-2.74402e-01,-9.77488e-02,-6.89583e-02,-2.26854e-01,-1.05018e-01,-3.59373e-02,-1.25113e-01,-3.99496e-02,-1.49192e-02,-2.07520e-02,-2.78831e-03,3.02400e-02,3.06012e-02,1.78428e-01,1.73548e-01,2.06916e-01,1.31210e-01,2.99029e-01,1.59023e-01,1.64505e-01,1.82714e-01,1.05869e-01,1.15887e-01,-5.35228e-02,3.60536e-02,-7.76936e-02,-1.09737e-01,-4.84337e-02,-1.22650e-01,-2.17756e-02,2.17395e-02,-2.35960e-01,-1.19618e-01,3.10813e-02,-1.58188e-02,-4.24578e-02,5.81376e-04,2.08869e-02,3.74861e-02,9.34760e-02,-2.64110e-03,1.66359e-01,1.53727e-01,6.66640e-02,1.21455e-01,1.28104e-01,8.80115e-02,1.86219e-01,1.07420e-01,1.76072e-01,1.14856e-01,1.66050e-01,-2.69818e-02,-1.27359e-01,1.17535e-03,3.70430e-02,-9.37477e-02,-1.96316e-04,2.88243e-02,-5.38401e-02,-3.07542e-02,2.23970e-02,-4.12870e-02,2.34841e-02,-1.31639e-01,5.88076e-02,-3.85833e-02,5.18438e-02,1.71014e-01,8.15071e-02,1.00147e-01,7.37064e-02,1.01630e-01,8.87278e-02,1.40507e-01,1.40909e-01,2.15874e-01,1.47517e-01,5.57355e-02,2.02737e-01,1.10892e-01,-3.31519e-02,-4.91248e-02,1.59420e-01,2.28997e-03,-1.25291e-02,4.83953e-02,2.14327e-01,-4.76364e-02,1.77988e-02,-5.63843e-03,-4.21199e-04,-4.80956e-02,-1.64985e-02,-1.04028e-01,8.37178e-02,4.67168e-02,1.57119e-01,1.72185e-01,1.96818e-02,5.79347e-02,8.94501e-02,1.08131e-01,1.34817e-01,2.29017e-01,5.85936e-02,9.53441e-02,1.84048e-01,1.26630e-01,1.58730e-01,-4.98581e-02,1.43236e-01,-2.50724e-02,7.88849e-02,2.31357e-01,1.92943e-01,1.79645e-01,5.81900e-02,-7.92848e-02,-1.69558e-02,-9.76841e-02,-6.92155e-02,-1.47726e-01,-1.28171e-01,-1.67461e-01,5.72950e-02,-4.89841e-03,-4.97462e-02,-3.71805e-03,1.23032e-01,1.21704e-01,1.68404e-01,1.00459e-01,8.56737e-02,9.05807e-02,8.95655e-02,1.51270e-01,-6.69155e-02,-1.54393e-01,7.17516e-02,-1.44031e-01,-1.26675e-01,8.46780e-02,1.15388e-01,2.82805e-01,1.12750e-01,2.55051e-02,-2.44594e-02,-1.11616e-01,-1.67894e-01,-1.86878e-01,-1.66703e-01,9.23336e-03,6.34027e-03,-1.89992e-02,3.03319e-02,8.64937e-02,2.13281e-01,9.38347e-02,2.07587e-01,1.14744e-01,6.05234e-02,1.28508e-01,8.40028e-02,9.84037e-02,-4.22608e-03,-4.06676e-02,1.62964e-02,-1.35340e-02,-6.54425e-02,-6.97988e-02,3.20206e-02,3.12592e-01,1.43046e-01,2.17154e-01,1.39189e-01,-7.41054e-03,-1.22260e-01,-7.20787e-02,1.61648e-04,-4.35757e-02,-5.89105e-02,-1.85837e-02,2.57887e-02,1.77291e-01,2.11537e-01,2.40126e-01,8.99657e-02,1.93024e-01,-1.13880e-02,2.85315e-02,7.18631e-02,-4.55828e-02,-1.18464e-01,-6.43673e-02,2.99039e-02,-4.97791e-03,8.48759e-02,-1.19517e-01,3.27406e-02,2.83478e-01,2.39666e-01,5.85521e-02,1.26280e-01,8.36790e-02,6.72447e-04,2.12591e-02,3.20852e-02,-3.99472e-02,-8.76617e-02,-1.44394e-03,1.58099e-01,1.85528e-01,1.04779e-01,2.13554e-01,8.90952e-02,5.57264e-02,1.10271e-01,-2.36610e-02,-1.13006e-02,-2.14202e-02,-8.14589e-02,4.20839e-02,-1.23272e-01,3.52044e-02,-4.53533e-02,5.31763e-02,8.31897e-02,1.63693e-01,-2.37266e-02,7.29984e-03,-6.45911e-02,-3.80190e-02,2.08623e-02,-1.09009e-02,1.35029e-02,-3.16446e-02,2.73436e-02,1.60323e-01,1.33915e-01,2.08698e-01,1.38155e-01,6.42639e-02,4.68915e-02,7.53244e-02,-4.55899e-02,-2.06941e-02,-3.71403e-02,-5.52971e-02,-4.00858e-02,-4.33001e-02,-8.54660e-02,-4.96229e-02,-3.58916e-02,5.45731e-02,1.09245e-01,1.47268e-01,7.51381e-02,-1.10142e-01,-1.16252e-01,-9.04415e-02,-1.10135e-01,-9.46436e-02,6.53964e-02,-3.04402e-03,8.17488e-02,4.79191e-02,3.93536e-02,3.82284e-02,7.24682e-02,6.94381e-02,3.91263e-03,-1.28291e-02,6.94094e-02,-5.89661e-02,3.46807e-03,-3.17041e-02,-2.84735e-02,-9.15352e-03,-1.87143e-01,3.25325e-02,5.69033e-02,-5.64326e-02,1.89272e-01,3.71037e-01,1.92062e-01,-3.65450e-02,-5.33750e-02,-1.02275e-02,7.83917e-03,-9.00539e-02,-1.55838e-02,2.97730e-02,-2.30195e-02,6.77685e-02,-9.64882e-03,7.48552e-02,4.92092e-02,-3.07939e-02,1.38756e-01,1.37008e-01,1.23170e-01,8.92190e-03,-2.40761e-02,3.75425e-02,5.49919e-02,-1.35629e-01,-3.42749e-03,8.40311e-02,5.18556e-02,4.96864e-02,1.41037e-01,2.19938e-01,3.23295e-01,1.83430e-01,2.25298e-01,1.34785e-01,1.20339e-01,6.31125e-02,1.40754e-01,1.87163e-02,9.70389e-02,1.19392e-01,4.24893e-02,5.28713e-02,1.87135e-01,7.17484e-02,-9.27861e-02,-1.18759e-01,-9.60219e-02,1.06808e-02,-3.02546e-03,8.40893e-02,6.01976e-02,-9.06452e-02,-1.84130e-02,-4.09505e-03,-1.73606e-02,-7.35826e-02,1.84549e-01,-1.91832e-03,6.93526e-02,2.91680e-01,3.67406e-01,4.42499e-01,2.77179e-01,3.24810e-01,3.11684e-01,2.74915e-01,1.77925e-01,2.71905e-01,1.40882e-01,4.34016e-02,4.30047e-02,1.98230e-02,4.51217e-02,1.04149e-01,3.88324e-02,-1.16085e-01,-7.71056e-02,-5.46717e-03,-1.03601e-01,-9.41583e-02,-3.30756e-02,7.01563e-02,4.33778e-03,3.48151e-03,-8.48722e-02,1.30397e-01,2.20472e-01,3.19581e-01,2.86357e-01,1.68690e-01,1.08414e-01,1.25384e-02,1.48589e-01,1.70694e-01,1.55994e-02,5.46774e-02,6.06199e-02,8.35723e-02,2.30807e-02,1.37279e-01,-3.77541e-02,3.06474e-02,8.83888e-02,6.73523e-03,-6.58539e-02,1.09757e-01,1.71114e-01,-7.11625e-02,-7.20816e-03,-4.41064e-02,-8.27511e-02,-7.45451e-02,-8.11616e-03,3.10872e-02,-9.99929e-02,-1.71304e-01,-6.81021e-02,4.01350e-02,-8.28193e-02,1.26886e-02,-8.88641e-02,1.45152e-02,4.74630e-02,-1.60917e-01,-2.97180e-02,4.77465e-02,-9.35773e-02,-2.63878e-01,-2.46162e-02,7.95934e-02,4.95494e-02,-5.49054e-02,-1.04617e-01,-4.72801e-02,1.94729e-02,-9.66339e-03,3.32538e-02,-3.81245e-03,
-4.16183e-02,-5.87916e-02,4.72742e-02,4.71553e-02,7.69238e-02,4.82602e-03,7.18488e-02,7.05213e-02,1.29252e-02,5.46205e-02,-2.21641e-02,-3.83507e-02,-2.34225e-02,-3.78763e-03,-2.41292e-02,5.53621e-02,5.29750e-02,-5.74051e-02,1.08273e-02,-4.01082e-02,-2.07796e-02,-5.64595e-02,1.85547e-02,-8.17604e-02,2.79400e-02,6.76593e-02,5.80968e-02,4.08759e-02,-6.05074e-02,5.19593e-02,6.52602e-02,-6.43837e-02,-8.50341e-02,-7.59286e-02,-1.30172e-01,-7.93934e-02,-2.32522e-01,-2.46538e-01,-2.46497e-01,-1.17193e-01,-2.35238e-01,-1.55497e-01,6.15295e-02,-1.73124e-01,-1.74321e-01,-1.84671e-01,-1.60867e-01,-2.78024e-01,-2.53022e-01,-1.18244e-01,-1.10249e-01,-5.40087e-02,2.37799e-02,3.97871e-02,2.46319e-02,-2.10181e-02,2.45174e-02,6.14415e-02,-9.50698e-02,-4.57888e-02,-1.07060e-01,-6.30401e-02,-1.71543e-01,-2.70102e-01,-2.42910e-01,-3.60789e-01,-3.36252e-01,-3.51967e-01,-5.44898e-01,-3.62500e-01,-2.40191e-01,-3.54803e-01,-1.70148e-01,-1.36184e-01,-3.59402e-01,-3.23331e-01,-3.16639e-01,-1.92773e-01,-1.56469e-01,-1.63553e-01,-1.90859e-01,-4.67973e-02,-8.11366e-02,7.48442e-02,3.49201e-02,8.06088e-02,1.14023e-02,-1.29761e-01,2.03299e-02,-1.45605e-01,-1.95912e-01,-3.70094e-01,-4.27328e-01,-3.45696e-01,-2.56838e-01,-3.88865e-01,-4.64301e-01,-4.82349e-01,-3.63869e-01,-3.10859e-01,-2.71090e-01,-9.46219e-02,-1.20183e-01,-1.08684e-01,-1.71062e-01,-1.30700e-01,-3.19691e-02,-1.68811e-01,-3.53552e-02,1.11310e-01,4.22291e-02,4.64475e-02,-5.24189e-02,1.72294e-02,5.15052e-03,8.55770e-02,9.97286e-02,7.03560e-02,-1.30718e-01,-9.06527e-02,-2.64715e-01,-1.31542e-01,-1.55371e-01,-1.87279e-01,-2.90536e-01,-3.22938e-01,-3.01036e-01,-3.28596e-01,-3.12528e-01,-1.43071e-01,-1.99741e-01,-2.68672e-02,-7.05895e-03,2.28745e-02,3.57177e-02,1.02613e-01,2.91320e-01,1.29213e-01,2.69495e-02,-3.76848e-02,6.67105e-02,4.95280e-02,-9.11879e-02,-4.36928e-02,-4.43326e-02,2.74400e-02,-5.12121e-03,-1.33964e-01,-6.24188e-02,-6.28562e-02,6.86629e-02,8.33487e-02,-4.67103e-02,-4.73011e-02,-2.89453e-02,-3.17523e-04,-1.69026e-01,-1.21505e-01,-1.30848e-01,-9.28527e-02,-8.50808e-02,2.31555e-02,-2.47806e-02,1.88800e-01,1.63787e-01,2.06200e-02,-3.04339e-03,-9.30945e-02,-1.58250e-02,-7.34092e-02,1.81949e-02,-1.93564e-02,-1.67899e-02,-2.80215e-02,-8.89011e-02,-4.63543e-02,4.21246e-02,3.06543e-02,3.83405e-02,1.02062e-01,6.60761e-02,1.79735e-02,3.11346e-02,2.24549e-02,1.57571e-01,1.10706e-01,1.10397e-01,3.55802e-02,-3.06150e-02,1.84633e-02,-7.58730e-02,6.71115e-02,8.48480e-02,-2.83733e-02,1.22794e-01,1.79844e-02,-2.25892e-02,-1.87771e-01,5.72432e-02,-5.31013e-02,-1.48925e-01,-1.13152e-01,-1.49215e-01,-3.61002e-02,8.72994e-02,1.12738e-01,1.70137e-02,1.14421e-01,9.22334e-03,7.05240e-02,1.33735e-01,1.15921e-01,1.81854e-01,1.82174e-01,8.33372e-02,1.12839e-01,4.67227e-02,-3.28700e-02,-8.50930e-02,-2.71854e-02,6.50339e-03,1.01224e-01,1.20212e-01,-1.24823e-01,-1.14233e-01,-1.31127e-01,-2.01643e-02,-1.06053e-01,-2.83664e-01,-3.57397e-02,-8.79915e-02,-2.15386e-02,1.02652e-01,-1.90378e-02,-1.84568e-03,-1.09724e-02,6.45335e-02,1.02658e-01,3.67414e-02,7.89244e-02,4.88908e-02,6.22510e-02,5.85367e-02,-2.90586e-02,-2.69647e-02,-1.46112e-02,-7.80872e-02,-1.10590e-01,-1.17327e-03,-1.35465e-02,3.46323e-02,-9.94019e-02,-1.33408e-02,8.54199e-03,-8.83710e-02,-2.10343e-01,-1.89849e-01,-1.22335e-01,-7.33517e-02,-1.17289e-01,5.22069e-02,6.37416e-02,9.85114e-02,9.90785e-02,1.91008e-02,-1.96921e-02,-2.49647e-02,4.16234e-03,5.99085e-04,-1.79490e-02,8.31269e-02,-2.46562e-03,-3.06348e-03,-1.54458e-01,-5.77643e-02,-9.82932e-02,-2.19820e-01,-9.23113e-02,-9.33862e-02,-4.10594e-02,-3.05236e-02,4.42437e-03,-1.17576e-01,-1.45600e-01,-9.28578e-02,-1.72610e-02,-7.28903e-02,5.18829e-02,1.17905e-01,1.09630e-01,7.55737e-02,3.44590e-03,1.15408e-01,-1.37689e-01,-1.65709e-01,-1.45274e-01,1.11310e-02,3.08355e-02,8.96922e-02,7.07145e-02,5.33759e-02,5.93481e-03,2.17031e-02,-1.15826e-01,-1.57905e-01,-1.30169e-01,-6.86879e-02,7.06837e-02,-7.91131e-02,-1.00174e-01,-2.30052e-01,-4.34434e-02,-8.20389e-02,1.14225e-01,6.63280e-02,7.70339e-02,1.53984e-01,1.56634e-01,9.13853e-02,3.09603e-02,5.14676e-02,-1.65424e-01,-2.68953e-01,-2.70171e-02,1.20988e-01,1.51467e-01,3.50365e-02,1.21515e-02,1.02977e-01,5.14939e-02,6.32427e-03,-1.21187e-01,-2.94071e-01,-3.24156e-01,6.36791e-02,-1.37490e-01,-2.75953e-02,-1.28822e-01,-1.72535e-01,-1.91043e-02,1.23114e-01,1.28067e-01,1.52587e-01,2.03403e-01,1.58106e-01,7.72364e-02,1.70174e-01,1.27254e-01,-1.21613e-01,-1.48029e-01,-1.09171e-01,-4.09007e-02,4.96550e-02,1.52746e-01,1.88149e-01,2.06801e-01,8.31401e-02,1.47003e-01,5.91840e-02,1.22792e-02,-1.37963e-01,-1.26862e-01,9.39713e-02,-1.14914e-01,2.82633e-02,-1.65280e-02,-9.03532e-02,-6.50483e-02,3.03703e-01,1.63527e-01,1.88208e-01,2.20796e-01,1.78011e-01,1.14246e-01,1.70320e-01,1.47341e-01,-7.59824e-02,-8.81719e-02,-1.76142e-02,4.37161e-02,1.01719e-01,9.88510e-02,1.03381e-01,1.52343e-01,1.27232e-01,1.90081e-01,1.98106e-02,-4.99285e-02,-6.31773e-02,-1.08444e-01,-7.20142e-02,-4.87840e-02,-6.18743e-02,7.02297e-02,-2.02877e-01,5.38793e-02,1.60250e-01,2.52817e-01,2.01028e-01,1.42788e-01,1.28481e-01,1.73296e-01,6.10757e-02,1.00294e-01,8.02561e-02,-1.11540e-01,-4.04543e-02,6.22853e-03,1.14278e-01,2.60805e-01,1.61856e-01,1.43428e-01,1.57458e-01,1.60485e-02,8.39933e-02,-5.15989e-02,-5.28390e-02,3.72228e-02,8.65016e-04,-2.65490e-02,-1.68674e-01,1.71668e-01,-2.17317e-01,5.51143e-02,1.29932e-01,3.12862e-02,1.88345e-01,2.07026e-01,9.55821e-02,6.73288e-02,2.65738e-01,1.51710e-01,1.50209e-01,-8.21048e-02,-8.47860e-02,2.73946e-03,1.55600e-01,2.25008e-01,8.15056e-02,5.95072e-02,7.64185e-02,3.68226e-02,-3.07177e-02,-1.23772e-02,-1.13606e-01,-8.07350e-02,-1.66568e-03,3.92817e-02,-6.73964e-02,-1.13623e-01,-9.66533e-02,-7.32735e-02,-6.02262e-04,5.89030e-02,-3.59336e-02,7.46882e-02,2.33735e-01,1.90772e-01,2.72731e-01,1.42842e-01,1.78854e-01,-2.60098e-02,-5.68942e-02,1.70028e-01,1.61132e-01,1.70520e-01,7.47965e-02,-9.47512e-03,-2.04072e-02,-8.71864e-02,-1.66902e-02,-8.11543e-02,-1.46554e-01,-1.95122e-01,-1.00860e-01,2.08402e-02,2.34963e-02,7.25493e-02,-3.22089e-02,-2.84033e-01,-1.00242e-01,-1.42500e-01,-3.15521e-02,1.67471e-01,1.61721e-01,1.14140e-01,1.38380e-01,2.09350e-01,1.17823e-01,8.22799e-02,1.16473e-01,1.72101e-01,1.48652e-01,1.48762e-01,1.07842e-01,-1.10734e-01,-3.27513e-02,-5.12519e-02,-1.19326e-01,-1.86919e-01,-1.27850e-01,-1.15692e-01,4.42382e-03,-1.70510e-01,3.08303e-02,5.61037e-02,8.15095e-02,-1.78304e-01,-9.80023e-02,-1.20471e-01,-1.62533e-01,-1.30032e-01,5.21889e-03,-1.22193e-02,1.01876e-01,3.39038e-02,-2.26335e-02,-1.05550e-02,7.73114e-02,7.20354e-02,7.01929e-03,-3.87919e-02,-5.75502e-02,-1.46124e-01,2.99069e-02,-1.08549e-01,-1.31584e-01,-1.74082e-01,-3.04849e-01,-2.40116e-01,-1.37548e-01,-1.40847e-01,5.11898e-02,-6.75868e-02,4.38404e-02,2.13268e-02,-5.88255e-02,-2.10911e-01,-1.24199e-01,-1.15962e-01,-2.66959e-01,-1.57268e-01,-9.26369e-02,-1.35783e-01,-1.13520e-01,-2.07484e-03,2.16341e-02,-1.40082e-02,3.42133e-02,-6.84927e-02,-1.07565e-01,-4.63212e-02,-6.67503e-02,-4.74283e-02,-2.12264e-01,-1.78962e-01,-1.05481e-01,-9.26239e-02,-1.88922e-02,3.05787e-02,8.30439e-02,-6.90489e-02,7.57594e-02,8.79681e-03,-3.43768e-02,-2.03645e-01,-2.84820e-01,-3.27449e-01,-3.20579e-01,-2.57467e-01,-3.22866e-01,-1.39810e-01,-2.29778e-01,-8.39476e-04,-5.70503e-02,8.64865e-03,-4.14274e-02,-2.68705e-02,-3.45435e-02,-5.27547e-02,-4.86025e-02,-1.57004e-01,-8.25825e-02,-8.90327e-02,6.96312e-02,1.29898e-01,-1.10454e-01,-3.31458e-02,7.55011e-02,-1.93306e-03,-6.80945e-02,-3.36535e-02,3.79636e-02,-1.42315e-01,-2.29729e-01,-2.87470e-01,-2.90807e-01,-2.76448e-01,-2.71934e-01,-1.25560e-01,-1.65849e-01,-1.25655e-01,-9.52708e-02,-6.85197e-02,-2.65493e-03,-1.80760e-01,-1.29918e-01,-6.50919e-02,-1.16995e-01,2.43772e-02,3.14890e-02,1.73648e-02,9.39095e-02,1.14709e-02,-1.77758e-01,5.97286e-02,6.83958e-02,-1.27856e-03,-1.09157e-01,-2.28871e-02,-8.07547e-02,-1.78423e-01,-1.58800e-01,-1.99934e-01,-5.37999e-02,-3.61388e-02,-8.52234e-02,4.48299e-02,3.36444e-03,-7.01438e-02,-2.93269e-02,-1.53324e-01,-4.75836e-02,-3.32495e-02,-2.36230e-02,-4.53895e-02,4.32923e-02,6.14732e-02,-2.19167e-03,1.82376e-01,1.17737e-01,-3.21984e-02,9.88527e-02,3.36175e-02,-1.99172e-02,-1.06085e-02,-7.98985e-02,4.11482e-02,-9.53632e-02,-1.54810e-01,-9.14574e-02,7.93242e-03,-2.27817e-02,2.56061e-02,-1.52146e-02,9.53423e-02,-4.46720e-02,2.46016e-02,-7.91549e-02,-1.05468e-01,-6.99260e-02,-9.88470e-02,-1.44460e-03,-8.61164e-02,6.58022e-02,1.89640e-02,1.64172e-01,1.56356e-01,-5.48886e-03,1.74427e-02,3.83708e-02,-2.87880e-02,-7.43929e-02,-6.34362e-02,-1.14196e-01,7.61366e-02,9.42312e-02,8.55538e-02,-5.84833e-02,7.12918e-02,3.57851e-02,1.14047e-02,6.96181e-02,5.07178e-02,-1.75448e-02,-5.33387e-02,-4.86759e-02,2.64483e-02,-8.04484e-02,-7.19647e-02,-3.28246e-02,2.12092e-02,8.70440e-02,1.46139e-01,1.61192e-01,7.57782e-02,-9.95904e-02,-1.40519e-01,1.26285e-02,-2.46897e-02,-3.17761e-02,1.79944e-02,9.51510e-02,2.51848e-02,3.89437e-03,2.57758e-01,1.53995e-01,6.90124e-02,6.34081e-02,2.90136e-03,2.91396e-02,-2.45375e-03,-6.10598e-03,4.28696e-02,1.32619e-01,4.41435e-02,6.43463e-02,8.30245e-02,9.64373e-02,7.41706e-02,1.22222e-01,6.31023e-02,4.75124e-02,3.82802e-02,-3.34930e-02,-7.50693e-03,-1.55837e-01,-1.30027e-02,7.18959e-02,-3.44038e-02,4.64954e-02,1.20745e-01,1.74484e-01,2.98385e-01,2.46364e-01,2.09320e-01,9.33726e-02,1.21546e-01,7.56125e-02,8.40648e-02,2.09455e-01,1.92566e-01,1.88615e-01,9.69715e-02,7.40045e-02,1.19703e-01,1.16725e-01,8.86865e-03,5.49747e-02,8.13502e-02,-2.48415e-02,5.12928e-02,3.46727e-02,-1.38405e-01,3.22453e-02,-4.80496e-02,4.29834e-02,3.99910e-02,-1.28823e-02,-2.25526e-03,-1.39831e-01,-1.63665e-01,-9.61760e-02,-2.48017e-03,-2.97739e-02,-2.58798e-02,4.24664e-02,-4.18525e-02,7.52026e-02,-1.75391e-01,1.01778e-01,1.27687e-03,-6.91621e-03,-7.40927e-02,1.21741e-02,-2.83928e-02,9.90032e-02,2.23276e-02,7.00371e-02,-6.84712e-03,7.05355e-03,5.67912e-02,-8.26995e-02,5.89056e-02,
9.82442e-03,-3.47866e-02,2.90282e-02,-4.24058e-02,-2.97946e-02,-1.89709e-02,7.14544e-02,-4.07988e-02,1.23306e-02,3.54183e-03,1.00271e-03,5.48036e-02,1.25036e-01,1.02688e-01,-4.41499e-02,-5.63341e-02,7.44958e-02,-2.83594e-02,5.13885e-02,5.66584e-02,8.16794e-02,5.74270e-02,-3.12688e-02,-3.97882e-02,5.64875e-02,5.27105e-03,8.77909e-03,6.72128e-02,3.14486e-02,7.67860e-02,4.49162e-02,2.22169e-04,-1.53612e-02,7.56137e-02,1.08883e-01,2.11693e-01,9.12978e-02,1.10154e-01,1.82644e-01,2.08379e-01,2.39099e-01,3.44525e-01,6.83237e-03,6.04407e-02,7.05386e-02,2.07698e-01,1.57427e-01,2.80206e-01,2.14358e-01,1.28335e-01,1.49979e-01,1.47137e-01,-2.22684e-02,-7.51825e-02,8.61914e-03,5.76311e-02,-3.97631e-03,-3.00334e-02,1.01714e-01,1.60052e-01,4.83905e-02,6.03582e-02,1.66565e-01,2.41194e-01,2.85623e-01,1.88757e-01,2.51587e-01,3.63528e-01,2.97468e-01,9.56163e-02,1.86974e-01,1.41072e-01,8.23913e-02,1.22021e-01,1.01597e-02,1.34233e-01,1.56519e-01,2.14494e-01,2.63021e-01,1.80774e-01,1.32952e-01,1.44803e-02,-6.98186e-03,6.54553e-02,8.32970e-02,-6.59015e-02,-8.47358e-02,5.57641e-02,9.33353e-03,1.95063e-01,2.28940e-01,2.38152e-01,1.00922e-01,4.57026e-02,9.65294e-02,-3.63812e-02,1.58971e-02,8.82015e-03,8.40347e-02,-6.75882e-02,2.52125e-02,5.27440e-02,-2.62108e-02,7.76439e-02,-1.36206e-01,7.07029e-02,3.30262e-02,-2.02740e-02,-6.02068e-02,4.99035e-02,-4.86459e-02,-3.37589e-02,5.88968e-03,-3.78246e-02,-5.38843e-02,1.19159e-02,1.59125e-01,7.23612e-02,-1.63174e-02,-4.65264e-02,1.54754e-02,4.09594e-02,7.35623e-03,-6.29632e-02,-3.84108e-02,-4.33369e-02,-1.48256e-01,-1.84641e-01,-1.44026e-01,-1.26618e-01,-7.97808e-02,2.28776e-02,2.60047e-02,-1.36420e-01,-1.92908e-01,-2.12004e-01,-1.74043e-01,-1.32320e-01,-1.10937e-01,-6.06612e-03,6.32334e-02,5.65629e-02,1.73708e-02,-1.02446e-01,1.32715e-01,-9.84139e-03,4.44721e-02,1.33078e-01,2.80300e-01,1.32978e-01,3.19195e-02,-1.13840e-01,8.53519e-02,1.72125e-02,-7.01450e-02,2.58518e-02,-1.14726e-01,3.66685e-03,-5.61205e-02,-1.08757e-01,-1.23408e-01,-1.03056e-01,-1.60105e-01,-1.35650e-01,-1.36494e-01,-1.12061e-01,-1.12280e-01,-1.82484e-01,-2.67100e-03,-5.64493e-02,4.49114e-02,6.29168e-02,1.49311e-01,9.42151e-02,9.35781e-02,1.12508e-01,1.40746e-01,7.12763e-02,5.64853e-02,4.46032e-02,7.76241e-02,1.44154e-02,-4.33433e-03,-6.26932e-02,-2.95086e-02,-4.44379e-02,-2.16487e-01,-2.27054e-01,-8.71584e-02,-2.48098e-02,-8.14868e-02,-1.06704e-01,-1.90974e-01,-1.80906e-01,-1.18144e-01,-1.04822e-02,2.29068e-02,-2.32466e-02,2.15620e-01,1.36249e-01,7.50056e-02,9.90327e-02,1.72053e-01,2.29495e-01,1.28273e-01,1.54703e-01,1.13136e-01,-1.86648e-02,3.50880e-02,2.67622e-02,-4.26182e-02,-2.39481e-02,-1.32728e-02,3.60924e-03,2.83819e-02,-8.13968e-02,-8.19027e-03,-7.81479e-02,-5.76712e-02,-1.98896e-01,-2.73418e-01,-3.41744e-01,-7.15741e-02,-5.22637e-02,1.39738e-01,2.39507e-01,1.67231e-01,1.39795e-01,2.14388e-01,1.37365e-01,1.47315e-01,1.59798e-01,9.95700e-02,7.00714e-02,8.19107e-02,7.64015e-02,-9.32328e-03,5.00511e-02,2.27507e-02,8.11609e-02,2.06183e-02,6.50854e-02,-6.93572e-02,-1.06455e-01,-9.05034e-02,-7.95982e-02,-1.30048e-01,-1.25852e-01,-3.48959e-01,-2.25699e-01,-2.13968e-01,-1.76426e-01,9.56460e-02,7.87128e-02,5.45271e-02,7.41112e-02,7.11129e-02,2.25692e-01,7.78449e-02,9.48856e-03,1.12863e-01,3.36295e-02,5.27549e-02,3.01013e-02,1.82503e-02,7.65659e-02,1.12536e-01,-2.68291e-02,2.40973e-02,5.60213e-02,1.21996e-01,9.60864e-03,1.41112e-02,-9.65167e-02,-5.69336e-02,-2.53081e-01,-3.16570e-01,-3.94220e-01,-2.76669e-01,7.35080e-02,1.19431e-01,1.20134e-01,2.09469e-01,1.05792e-01,1.47846e-01,1.87019e-01,1.03638e-03,1.10782e-01,5.31781e-02,1.88773e-03,-2.39602e-02,-4.10247e-02,1.23360e-02,1.17647e-01,1.17783e-01,9.65640e-02,1.23829e-01,2.42883e-01,1.80295e-01,1.73515e-01,1.68681e-02,3.90800e-02,-2.39228e-02,-2.85596e-01,-4.08862e-01,-4.80762e-01,-3.56748e-01,-6.40708e-02,1.45624e-01,1.65772e-01,1.73443e-01,1.23388e-01,8.90183e-02,3.34109e-02,1.22154e-01,9.00035e-02,6.74742e-03,3.06833e-02,1.48585e-01,-1.93754e-02,1.36514e-02,4.56408e-02,-3.97704e-03,4.41185e-02,7.98838e-02,1.57380e-01,7.40284e-02,1.47400e-01,3.91679e-02,9.36948e-02,8.89574e-03,-1.72272e-01,-4.44282e-01,-5.25767e-01,-3.22096e-01,6.83582e-02,2.95669e-02,1.46071e-01,1.99224e-01,8.44425e-02,5.45885e-02,8.68303e-02,6.57616e-02,1.19412e-02,1.68651e-02,7.32756e-02,3.54686e-02,1.13403e-01,3.92399e-02,-7.05181e-02,-8.28721e-02,4.12526e-02,1.00148e-01,1.77980e-01,2.19455e-01,1.41413e-01,1.30668e-01,1.36964e-01,1.35199e-01,-3.96370e-02,-1.13927e-01,-3.85069e-01,-2.80883e-01,-2.52918e-02,4.86015e-02,-9.77843e-04,1.95606e-01,1.45813e-01,-2.46945e-02,5.05514e-02,1.99144e-02,-4.83609e-02,-1.35706e-01,7.45679e-03,1.50941e-02,2.50667e-02,-5.12675e-02,-9.09941e-02,-1.23770e-01,1.67722e-02,7.25960e-02,1.66690e-01,1.81918e-01,5.26291e-02,6.41518e-02,6.80460e-02,1.15709e-02,3.85145e-02,-1.04920e-02,-2.91386e-01,-1.79723e-01,-1.68430e-01,-2.51881e-02,3.70114e-02,1.65073e-01,1.06613e-02,-1.97695e-02,5.77955e-02,5.18258e-03,-1.15451e-02,-6.04926e-02,3.42213e-02,5.57797e-02,9.24149e-02,-5.55970e-02,-1.00246e-01,-3.56858e-02,6.84215e-02,1.48110e-01,1.55055e-01,1.06172e-01,2.26560e-01,-2.47093e-02,-3.75877e-02,6.68654e-02,2.06367e-01,1.87858e-01,-2.04879e-01,-1.89937e-01,-1.53846e-01,6.73672e-03,-2.29579e-02,1.51934e-01,-2.72020e-02,-1.63591e-01,-3.61493e-02,-5.13509e-02,-4.29961e-02,-2.20777e-01,-5.18098e-02,-1.60156e-02,3.13217e-02,-5.42699e-02,-1.34431e-01,-1.00558e-02,2.47227e-02,4.79504e-02,1.18156e-01,1.60206e-01,9.82347e-02,4.77914e-03,-5.19606e-02,1.18477e-02,-3.79938e-02,-8.94524e-04,-2.95487e-02,-2.31591e-01,-1.11701e-01,1.12994e-01,-1.11272e-01,4.11653e-02,-8.85495e-02,-1.37779e-01,-1.26106e-01,-1.07177e-01,-1.10021e-01,-8.08661e-02,-5.08860e-02,-6.18563e-02,-4.57108e-03,-2.76423e-02,-5.99526e-02,1.65641e-01,1.75664e-01,1.49088e-01,2.01435e-01,-3.41106e-02,4.66850e-02,-7.25398e-03,4.08120e-03,-8.60024e-02,-1.20414e-01,-7.40074e-02,4.93561e-02,-1.22614e-01,-3.21970e-02,6.05281e-02,-6.91021e-03,7.84024e-02,-1.06958e-01,-1.52583e-01,-2.06750e-01,-1.88027e-01,-3.35624e-01,-2.13749e-01,-4.05297e-02,1.16088e-02,7.69399e-02,1.25335e-01,1.00521e-01,1.09501e-01,1.26229e-01,8.47974e-02,4.84293e-02,6.80387e-02,-1.33257e-02,-6.80110e-02,-5.54262e-02,-4.67893e-02,-1.45418e-01,3.54251e-02,1.67172e-01,-3.60565e-02,1.37533e-01,5.63952e-03,-6.34044e-02,1.06198e-01,-2.59009e-01,-1.14878e-01,-1.62491e-01,-4.14646e-01,-2.87104e-01,-3.15209e-01,-1.57504e-01,5.68643e-02,2.37868e-01,2.76799e-01,8.86785e-02,1.32218e-01,5.35212e-02,-5.40219e-02,5.00157e-02,-1.69365e-02,-6.09016e-02,-1.72367e-01,-1.50514e-01,-2.07524e-01,-1.34553e-01,-3.60891e-02,-3.41946e-02,1.33113e-01,-1.21826e-01,-1.53204e-02,1.76069e-01,9.05557e-02,-1.05107e-01,-2.02478e-01,-2.88543e-01,-2.69199e-01,-3.13800e-01,-4.10376e-01,-5.18426e-02,1.90176e-01,3.61822e-01,2.21912e-01,1.56040e-01,3.73619e-02,7.58984e-02,-5.21934e-02,1.74782e-02,-1.02212e-01,-1.04302e-01,-1.70044e-01,-1.48055e-01,-1.94891e-01,-2.02057e-01,-7.03041e-02,-1.06407e-01,-9.60755e-02,-1.27302e-02,-3.72430e-02,4.43910e-02,-3.55198e-02,-2.53192e-01,-2.12603e-01,-2.34913e-01,-3.08047e-01,-2.95968e-01,-3.96409e-01,-1.47032e-01,9.65143e-02,2.31342e-01,2.13667e-01,1.61305e-01,4.80134e-02,4.16273e-02,-9.75291e-02,-1.67748e-01,-1.29523e-01,-5.37433e-02,-1.50312e-01,-1.29101e-01,-3.40640e-01,-2.24917e-01,-4.74666e-02,-1.68222e-01,-1.06056e-01,-6.11516e-02,-6.49998e-02,-5.68153e-02,-2.24785e-01,-2.79987e-01,-3.16464e-01,-1.69775e-01,-3.91426e-01,-3.77878e-01,-2.02896e-01,-1.61731e-01,1.68474e-02,5.57181e-02,-1.19047e-02,1.06792e-01,2.64257e-02,8.86780e-02,-6.30637e-02,-1.97603e-02,-4.79944e-02,-1.17567e-01,-2.17338e-01,-2.60134e-01,-1.51018e-01,-9.36165e-02,-7.62257e-02,-6.31259e-02,2.06659e-01,-2.40458e-02,-1.53766e-01,-1.02154e-01,-1.72520e-01,-3.87075e-01,-2.70790e-01,-1.59902e-01,-2.17302e-01,-1.34332e-01,-1.21186e-01,-1.08666e-01,-9.12057e-02,-1.23803e-01,-3.29103e-03,-5.48850e-02,-5.12024e-03,1.07268e-01,1.01770e-01,-5.42860e-02,-5.67340e-02,-3.86361e-02,-8.79543e-02,-1.01460e-01,-1.79543e-01,-1.87940e-01,-1.13696e-01,2.17905e-02,-9.91207e-02,-2.53355e-02,8.19650e-02,4.78477e-02,-8.65378e-02,-3.84388e-01,-1.20668e-01,-1.66072e-02,-5.30688e-02,-7.23499e-02,-1.33319e-01,-8.73105e-02,-1.12618e-01,-1.15429e-01,5.40416e-04,4.99888e-02,2.30869e-02,7.22873e-02,6.10477e-02,-1.00263e-02,-5.38521e-02,-1.03241e-02,-7.31283e-02,2.36499e-02,-4.52301e-02,-1.28237e-01,-2.95629e-02,-9.99930e-03,-6.84865e-02,8.41323e-02,-7.50238e-02,-4.37300e-02,-4.15413e-02,-9.42305e-02,-1.44094e-01,1.01867e-01,-3.70326e-02,-1.08666e-01,-2.07537e-01,-1.88490e-01,-2.27581e-01,-1.59113e-01,-9.39128e-02,-3.37277e-02,-1.31960e-02,9.58077e-02,1.47353e-02,1.22177e-01,-8.79869e-02,4.04328e-03,-4.85596e-03,-8.07359e-02,-1.35199e-01,-1.62979e-01,2.35209e-02,1.03141e-01,1.04066e-01,-6.62090e-02,4.66620e-02,-2.46860e-04,-5.14277e-02,5.75738e-02,1.74149e-01,1.57218e-03,-6.12435e-02,-1.39303e-01,-1.42012e-01,-1.26703e-01,-2.81260e-03,-9.65407e-02,-4.10651e-02,-8.80028e-02,-1.01913e-02,1.49037e-02,3.92946e-03,7.86017e-02,-6.34365e-03,-6.85916e-02,-5.80866e-02,-1.77901e-01,-1.37088e-01,-1.87757e-01,-2.02648e-02,-5.13343e-03,4.14056e-02,-6.12789e-02,-2.58954e-02,3.62819e-02,-1.56870e-02,-4.16414e-02,-1.76259e-01,-1.91823e-01,-1.24821e-01,-1.82669e-02,7.22492e-02,-2.05138e-02,1.45569e-02,-3.53925e-02,-8.96812e-02,9.81457e-03,-5.66093e-02,3.41955e-02,-2.86108e-02,6.76098e-02,-1.30642e-02,1.48195e-01,-1.05154e-02,-8.69926e-02,9.37137e-02,-1.78891e-01,-7.76136e-02,-1.56835e-02,-1.29491e-02,5.45437e-03,4.22794e-02,-6.61686e-02,-5.02913e-03,3.91438e-02,9.76191e-02,2.89338e-02,1.06064e-02,-5.50682e-02,3.95718e-02,5.93401e-02,1.52279e-01,-6.45964e-02,4.74179e-02,1.38210e-01,3.70431e-02,7.29035e-02,4.69264e-03,1.51544e-01,9.03263e-02,1.04993e-01,2.26093e-02,1.05789e-01,7.52918e-02,1.05956e-01,2.42239e-02,-4.19362e-02,2.17013e-02,3.56128e-02,
4.01032e-02,-3.72596e-02,-8.48922e-02,-1.56449e-02,5.85744e-02,-6.88366e-03,8.44835e-02,-3.65234e-02,-2.60967e-02,-2.88190e-02,-4.85486e-02,3.97087e-02,-3.55770e-02,-2.39800e-02,-3.22891e-02,-5.84352e-02,-5.26747e-02,7.17209e-03,-2.53640e-02,3.08210e-02,6.48433e-02,8.60786e-02,2.17403e-02,-5.87216e-02,-8.22903e-02,-1.27588e-02,6.35229e-02,-6.56171e-02,6.71548e-02,6.04583e-02,-2.07199e-02,5.34817e-02,8.70909e-03,7.85996e-02,1.23205e-01,2.11552e-01,1.42626e-01,1.19137e-01,8.39984e-02,1.55486e-01,9.26213e-02,2.97111e-01,4.26188e-02,9.98389e-02,8.28138e-03,6.76955e-02,1.71136e-01,1.94903e-01,1.08504e-01,7.57218e-02,1.80150e-01,7.16955e-02,-1.45446e-02,2.48560e-02,7.98258e-02,-8.15848e-02,7.31667e-02,-3.87783e-02,8.07978e-03,-3.07054e-02,1.63100e-02,5.97237e-02,1.82357e-01,1.09783e-01,1.09919e-01,-1.65176e-03,1.64546e-01,6.94653e-02,3.47557e-02,9.22070e-02,-3.02609e-03,1.09992e-01,1.69979e-01,1.60012e-01,2.27944e-01,1.65727e-01,1.58267e-01,1.92008e-01,1.79816e-01,2.49148e-01,-8.17619e-02,-1.70756e-02,-3.15006e-02,-6.87567e-02,-5.54927e-02,-6.02596e-02,2.76004e-02,8.34076e-03,1.81219e-01,-5.40261e-02,-1.03079e-01,-6.40328e-03,2.03276e-02,4.25683e-02,1.69236e-02,-3.31308e-02,9.31633e-02,3.59668e-02,5.14958e-02,1.14513e-01,-1.92691e-02,6.32499e-02,1.61844e-01,1.62243e-01,2.47314e-01,2.76719e-01,2.65682e-01,1.21697e-01,7.69887e-02,4.29561e-02,2.03239e-01,7.22394e-02,3.70534e-02,8.03451e-02,-1.00279e-01,-4.52277e-03,-2.10043e-01,-2.26327e-01,-3.81405e-02,-1.69296e-02,-2.01550e-01,-6.20008e-03,-3.66698e-02,-6.54917e-02,-5.61855e-02,-5.91865e-02,-3.75468e-02,4.23090e-02,9.88637e-02,1.26929e-01,1.53179e-01,1.79472e-01,7.43060e-03,1.12283e-01,1.18382e-01,2.72472e-01,1.79217e-01,2.12731e-01,-6.31342e-02,4.75280e-02,8.27127e-02,4.91239e-02,-2.42081e-02,-3.19121e-02,-2.07842e-01,-8.93118e-02,-1.29530e-01,-1.40536e-02,-1.05030e-01,3.58222e-02,-5.58733e-04,-6.00413e-02,-6.86499e-02,-6.98454e-02,5.53791e-02,-2.05581e-02,9.76592e-02,1.76440e-01,8.64256e-02,7.54319e-02,1.34009e-01,7.37095e-02,1.73476e-01,2.78410e-01,2.12511e-01,2.09792e-01,2.16783e-01,1.29247e-01,-2.59310e-02,1.25215e-01,7.41336e-02,-1.11800e-01,1.77267e-02,5.59777e-02,7.97540e-02,-4.92590e-02,1.62354e-02,4.28601e-02,-5.22677e-02,-7.44436e-02,4.45139e-02,2.24732e-02,-3.87619e-02,2.73672e-02,-7.61632e-02,4.03571e-02,4.56956e-03,1.48990e-01,8.18885e-02,1.31632e-01,1.13702e-01,1.95096e-01,3.19384e-01,2.39841e-01,2.32132e-01,7.65950e-02,-2.26568e-02,1.45561e-01,3.77297e-02,-2.00050e-01,-1.79805e-01,2.38818e-02,-3.62776e-02,1.86056e-02,1.55633e-01,1.52008e-02,1.24445e-01,8.16576e-02,3.35551e-02,3.35450e-02,1.04641e-01,-2.96956e-02,3.02725e-02,1.12513e-01,3.99698e-02,1.65078e-01,4.77813e-02,1.22503e-01,4.38250e-02,1.65975e-01,1.32983e-01,3.10222e-01,3.28094e-01,1.15154e-01,-3.26164e-03,1.45672e-01,-3.74643e-02,-1.44778e-01,-1.19241e-01,-9.09776e-02,-1.14620e-03,4.36187e-02,4.76686e-02,6.31615e-02,1.18639e-01,1.06884e-01,2.11779e-01,6.77519e-02,1.05822e-01,1.59748e-02,3.38721e-02,3.86136e-03,1.25443e-02,1.39679e-01,1.63951e-01,9.24928e-02,4.49877e-02,8.04499e-02,2.87177e-01,2.53631e-01,2.55789e-01,5.43199e-02,-2.58894e-02,-1.30350e-02,1.70438e-02,-8.46064e-02,-4.12267e-02,-1.08162e-01,-1.29771e-01,2.71762e-02,1.10695e-01,6.17249e-02,1.14484e-01,1.43799e-01,1.75706e-01,8.29816e-02,6.11047e-02,-3.64110e-02,-6.69126e-02,-3.12646e-02,-8.54363e-03,-1.06583e-01,-3.95543e-02,3.82337e-02,2.07560e-02,1.29750e-01,2.43445e-01,3.79481e-01,7.42978e-02,4.97851e-02,5.27703e-02,5.60926e-02,1.21954e-01,-8.18735e-02,2.78638e-02,-7.27972e-02,-3.92331e-04,-4.17479e-02,2.02662e-02,1.02051e-01,9.81524e-02,2.23800e-02,1.65160e-01,6.48662e-02,-9.75016e-02,-5.67660e-02,-1.25696e-01,-2.33919e-01,-2.18081e-01,-2.64648e-01,-3.06865e-01,-2.53357e-01,-2.30711e-01,-2.09768e-01,4.83481e-02,3.49112e-01,2.95995e-01,5.36490e-02,-5.80037e-02,-6.73548e-02,1.72509e-01,-7.00564e-02,1.04040e-01,1.05110e-02,-3.93346e-02,8.84648e-03,1.94074e-02,-4.55836e-02,-5.44824e-02,-1.26050e-02,-5.62591e-02,2.28420e-02,-1.39990e-01,-2.38898e-01,-8.22208e-02,-1.50949e-01,-2.23157e-01,-2.04779e-01,-4.88678e-01,-4.18320e-01,-5.87394e-01,-4.06510e-01,-2.60809e-01,1.80001e-01,2.23702e-01,-1.48673e-02,8.56823e-02,2.30596e-02,6.75999e-03,1.88970e-02,-2.12806e-02,3.08431e-02,-2.67766e-02,4.93497e-02,-5.59827e-02,-7.78735e-02,9.87482e-02,6.81294e-02,2.12174e-02,-1.45372e-02,-1.24689e-01,-1.81479e-01,-8.84425e-02,-5.86453e-02,-9.93028e-02,-8.94222e-02,-2.15579e-01,-3.05466e-01,-5.51327e-01,-6.94674e-01,-5.78851e-01,-1.97143e-01,1.21230e-01,-9.58072e-02,5.14771e-02,9.85631e-02,5.99782e-03,8.98041e-02,-2.40698e-02,7.87803e-03,-3.33819e-02,-5.89171e-02,-5.11656e-02,-3.64301e-02,8.44155e-02,-1.39071e-02,3.40851e-02,-1.35085e-02,-1.47539e-01,-8.27548e-02,-8.98080e-02,-1.22448e-01,1.06175e-02,-1.74998e-02,-1.94895e-02,-1.03845e-01,-2.89263e-01,-4.33602e-01,-4.82977e-01,-2.39382e-01,-6.69780e-02,-1.04921e-01,1.27619e-01,-7.40789e-02,1.12400e-01,-2.64304e-02,1.00506e-01,-7.49712e-02,-6.28414e-02,-6.20361e-03,3.45096e-02,9.64821e-03,-1.84286e-02,-8.50564e-02,1.51163e-02,-8.32028e-02,-1.10180e-02,6.68116e-03,1.26943e-02,-1.63923e-02,-1.48184e-02,2.96300e-02,-1.72851e-02,-2.09513e-02,2.24066e-02,-1.33597e-01,-1.41402e-01,-2.97144e-01,-1.05037e-01,3.07934e-02,4.58424e-02,-1.06118e-01,9.96904e-02,2.64532e-02,-6.11004e-02,-3.85905e-02,-6.49540e-02,-7.90606e-02,-6.62392e-02,2.63759e-02,3.81448e-02,-5.56436e-02,1.01213e-01,8.09161e-02,-1.25863e-02,4.67093e-02,-9.35123e-03,5.73718e-02,-4.37585e-03,-8.51355e-02,2.33382e-02,4.68234e-02,-6.45787e-02,2.24905e-04,4.05787e-03,-7.92501e-02,-1.62224e-01,-1.64551e-01,6.08706e-03,-6.52119e-02,-7.97582e-02,-5.88361e-03,-2.29289e-01,-1.78623e-01,-1.30148e-01,-1.08049e-01,-1.99896e-01,-7.96017e-02,-2.95660e-02,5.15307e-02,-1.94371e-03,1.23163e-01,1.19338e-01,5.89138e-02,-5.78068e-02,-4.42595e-02,2.45516e-02,9.23595e-02,3.51178e-02,7.90876e-02,-5.96280e-03,-8.18168e-02,-1.27396e-02,-1.11055e-01,-2.99016e-01,-6.80952e-02,-5.51476e-02,-5.01214e-03,1.05010e-02,-4.68311e-03,-4.39153e-03,-1.44576e-01,-2.34671e-01,-2.22002e-01,-1.61753e-01,-1.72576e-01,-1.82666e-01,-3.43997e-02,-4.81834e-03,5.03085e-03,7.76353e-03,1.51590e-02,8.16820e-02,3.33680e-02,7.30923e-02,9.76005e-02,5.51247e-02,-1.87162e-02,-2.11725e-02,-5.06364e-02,3.28368e-02,8.59119e-03,-1.78387e-01,-5.90870e-02,-8.70812e-02,2.19536e-02,3.63551e-04,1.03286e-01,8.62476e-02,-6.43701e-02,-5.39355e-02,-1.66396e-01,-1.72888e-01,-2.76719e-01,-1.98579e-01,-1.12239e-01,-2.70936e-02,7.23568e-02,-3.09655e-02,1.12539e-01,1.30167e-01,9.68159e-02,4.83519e-02,7.31772e-03,-3.47264e-02,-5.58922e-02,-7.15061e-02,4.58299e-02,8.62666e-02,6.25847e-02,-1.05296e-01,-1.08019e-01,7.52981e-02,-4.75885e-02,1.62538e-01,1.53227e-01,1.88004e-01,4.20805e-02,-1.36571e-02,-9.00644e-02,-6.07727e-02,-9.80462e-02,-1.72862e-01,-3.01633e-02,-3.88582e-02,7.99153e-03,4.03813e-02,1.43852e-01,8.86983e-02,5.51777e-02,7.07679e-02,-4.71767e-02,4.59283e-02,5.13318e-02,3.86304e-02,1.02547e-01,2.38656e-01,1.35237e-02,-8.10928e-02,-5.36410e-02,-2.41111e-03,-4.57878e-02,5.96941e-02,1.77193e-01,8.03230e-02,2.86891e-03,-7.81742e-03,4.64318e-02,-8.86616e-03,8.22736e-02,3.40544e-02,1.76931e-01,1.69187e-01,1.33796e-01,1.79453e-01,1.73153e-01,1.32296e-01,9.77609e-02,7.71702e-02,7.76508e-02,8.56378e-02,-1.18955e-02,5.67545e-02,1.69736e-01,1.24193e-01,2.02480e-01,-7.12276e-02,6.46220e-02,5.79874e-02,2.88741e-02,3.67484e-03,1.58601e-01,1.79453e-01,1.70150e-02,-4.48976e-02,2.36048e-02,6.67655e-02,8.58541e-02,2.57053e-02,1.27171e-01,1.40533e-01,1.59484e-01,1.74598e-01,1.84857e-01,1.39932e-01,1.39467e-01,3.73617e-02,6.59232e-02,3.40569e-02,1.55810e-01,1.11670e-01,1.35361e-01,1.78523e-01,5.37051e-02,1.51825e-01,-8.26341e-02,-1.46984e-02,2.33242e-03,1.13814e-01,4.02209e-02,1.48344e-01,-3.61630e-02,-2.46246e-02,-1.95901e-02,-9.14427e-03,2.95535e-02,4.86932e-02,1.04641e-01,3.21080e-02,6.35142e-02,9.22618e-02,5.53505e-02,1.46877e-01,1.11945e-01,1.11560e-01,9.94044e-02,9.52109e-02,2.40463e-02,2.23839e-01,2.19973e-01,6.11213e-02,9.52643e-02,1.28168e-01,2.36573e-02,8.20577e-03,-4.64146e-02,9.83560e-02,1.13512e-01,3.15745e-01,2.08153e-01,1.46210e-01,4.01249e-03,3.96820e-02,1.33194e-02,1.06524e-02,4.85704e-04,-1.57650e-02,7.44096e-02,-2.75776e-03,1.07840e-01,6.83826e-02,1.16715e-01,1.11446e-01,5.13654e-02,1.08018e-01,5.18515e-03,1.90855e-02,1.20786e-02,7.49475e-02,2.43381e-02,1.84041e-01,2.17480e-02,6.37926e-02,1.20051e-02,9.77315e-02,1.33752e-01,1.47553e-01,9.97716e-02,1.52315e-01,1.27463e-01,8.34610e-02,2.45345e-01,5.64535e-02,6.07550e-02,1.16342e-01,8.60919e-02,1.12743e-01,1.10279e-01,8.67214e-02,1.98335e-01,2.06462e-01,7.81362e-02,1.49254e-02,-1.91184e-02,5.20960e-02,-5.77160e-02,1.68711e-01,-3.80940e-02,3.26933e-02,6.24560e-02,4.00609e-02,-2.33946e-02,5.74889e-02,1.87630e-01,1.68003e-02,-1.56917e-03,1.01940e-01,7.71261e-02,9.13746e-02,1.25822e-01,1.61218e-01,1.80199e-01,1.17758e-01,1.92050e-01,1.68403e-01,7.68581e-02,1.78838e-01,1.69765e-01,6.27103e-02,8.36462e-02,-1.61992e-02,6.09681e-02,1.35325e-01,1.02243e-01,8.41914e-02,3.67107e-02,6.36219e-02,5.38366e-02,-1.54058e-02,-3.40492e-02,-7.69996e-02,-1.40042e-01,-3.58254e-02,-1.33683e-01,-4.09199e-02,-1.37924e-01,-5.63990e-03,-6.95586e-02,4.57946e-02,4.91035e-02,6.83263e-02,-3.86596e-03,-1.05561e-01,3.02219e-02,2.47258e-02,-1.10971e-01,-5.69434e-02,-9.87043e-02,5.85337e-02,-4.90045e-02,-3.63332e-02,2.69805e-02,-8.30430e-02,3.29500e-02,-4.54902e-02,-1.11105e-02,1.29222e-02,-6.26143e-02,3.80675e-02,-7.06036e-02,7.29213e-02,5.57207e-02,3.98840e-02,-3.62756e-02,2.36181e-02,-1.06634e-01,5.67225e-03,5.86274e-02,1.43869e-01,1.20944e-01,-1.85178e-01,-4.65330e-02,3.92483e-02,-1.15074e-02,-6.68771e-02,-1.17307e-01,-7.10240e-02,-7.62925e-02,-2.99795e-02,2.62481e-02,-7.83991e-02,-4.88270e-02,-4.42984e-02,2.04018e-02,
