// Neural Network File Format by Kyle Julian, Stanford 2016
3,784,10,784,
784,64,32,10,
0,
0.0,0.0,0.0,0.0,0.0,0.0,0.0,0.0,0.0,0.0,0.0,0.0,0.0,0.0,0.0,0.0,0.0,0.0,0.0,0.0,0.0,0.0,0.0,0.0,0.0,0.0,0.0,0.0,0.0,0.0,0.0,0.0,0.0,0.0,0.0,0.0,0.0,0.0,0.0,0.0,0.0,0.0,0.0,0.0,0.0,0.0,0.0,0.0,0.0,0.0,0.0,0.0,0.0,0.0,0.0,0.0,0.0,0.0,0.0,0.0,0.0,0.0,0.0,0.0,0.0,0.0,0.0,0.0,0.0,0.0,0.0,0.0,0.0,0.0,0.0,0.0,0.0,0.0,0.0,0.0,0.0,0.0,0.0,0.0,0.0,0.0,0.0,0.0,0.0,0.0,0.0,0.0,0.0,0.0,0.0,0.0,0.0,0.0,0.0,0.0,0.0,0.0,0.0,0.0,0.0,0.0,0.0,0.0,0.0,0.0,0.0,0.0,0.0,0.0,0.0,0.0,0.0,0.0,0.0,0.0,0.0,0.0,0.0,0.0,0.0,0.0,0.0,0.0,0.0,0.0,0.0,0.0,0.0,0.0,0.0,0.0,0.0,0.0,0.0,0.0,0.0,0.0,0.0,0.0,0.0,0.0,0.0,0.0,0.0,0.0,0.0,0.0,0.0,0.0,0.0,0.0,0.0,0.0,0.0,0.0,0.0,0.0,0.0,0.0,0.0,0.0,0.0,0.0,0.0,0.0,0.0,0.0,0.0,0.0,0.0,0.0,0.0,0.0,0.0,0.0,0.0,0.0,0.0,0.0,0.0,0.0,0.0,0.0,0.0,0.0,0.0,0.0,0.0,0.0,0.0,0.0,0.0,0.0,0.0,0.0,0.0,0.0,0.0,0.0,0.0,0.0,0.0,0.0,0.0,0.0,0.0,0.0,0.0,0.0,0.0,0.0,0.0,0.0,0.0,0.0,0.0,0.0,0.0,0.0,0.0,0.0,0.0,0.0,0.0,0.0,0.0,0.0,0.0,0.0,0.0,0.0,0.0,0.0,0.0,0.0,0.0,0.0,0.0,0.0,0.0,0.0,0.0,0.0,0.0,0.0,0.0,0.0,0.0,0.0,0.0,0.0,0.0,0.0,0.0,0.0,0.0,0.0,0.0,0.0,0.0,0.0,0.0,0.0,0.0,0.0,0.0,0.0,0.0,0.0,0.0,0.0,0.0,0.0,0.0,0.0,0.0,0.0,0.0,0.0,0.0,0.0,0.0,0.0,0.0,0.0,0.0,0.0,0.0,0.0,0.0,0.0,0.0,0.0,0.0,0.0,0.0,0.0,0.0,0.0,0.0,0.0,0.0,0.0,0.0,0.0,0.0,0.0,0.0,0.0,0.0,0.0,0.0,0.0,0.0,0.0,0.0,0.0,0.0,0.0,0.0,0.0,0.0,0.0,0.0,0.0,0.0,0.0,0.0,0.0,0.0,0.0,0.0,0.0,0.0,0.0,0.0,0.0,0.0,0.0,0.0,0.0,0.0,0.0,0.0,0.0,0.0,0.0,0.0,0.0,0.0,0.0,0.0,0.0,0.0,0.0,0.0,0.0,0.0,0.0,0.0,0.0,0.0,0.0,0.0,0.0,0.0,0.0,0.0,0.0,0.0,0.0,0.0,0.0,0.0,0.0,0.0,0.0,0.0,0.0,0.0,0.0,0.0,0.0,0.0,0.0,0.0,0.0,0.0,0.0,0.0,0.0,0.0,0.0,0.0,0.0,0.0,0.0,0.0,0.0,0.0,0.0,0.0,0.0,0.0,0.0,0.0,0.0,0.0,0.0,0.0,0.0,0.0,0.0,0.0,0.0,0.0,0.0,0.0,0.0,0.0,0.0,0.0,0.0,0.0,0.0,0.0,0.0,0.0,0.0,0.0,0.0,0.0,0.0,0.0,0.0,0.0,0.0,0.0,0.0,0.0,0.0,0.0,0.0,0.0,0.0,0.0,0.0,0.0,0.0,0.0,0.0,0.0,0.0,0.0,0.0,0.0,0.0,0.0,0.0,0.0,0.0,0.0,0.0,0.0,0.0,0.0,0.0,0.0,0.0,0.0,0.0,0.0,0.0,0.0,0.0,0.0,0.0,0.0,0.0,0.0,0.0,0.0,0.0,0.0,0.0,0.0,0.0,0.0,0.0,0.0,0.0,0.0,0.0,0.0,0.0,0.0,0.0,0.0,0.0,0.0,0.0,0.0,0.0,0.0,0.0,0.0,0.0,0.0,0.0,0.0,0.0,0.0,0.0,0.0,0.0,0.0,0.0,0.0,0.0,0.0,0.0,0.0,0.0,0.0,0.0,0.0,0.0,0.0,0.0,0.0,0.0,0.0,0.0,0.0,0.0,0.0,0.0,0.0,0.0,0.0,0.0,0.0,0.0,0.0,0.0,0.0,0.0,0.0,0.0,0.0,0.0,0.0,0.0,0.0,0.0,0.0,0.0,0.0,0.0,0.0,0.0,0.0,0.0,0.0,0.0,0.0,0.0,0.0,0.0,0.0,0.0,0.0,0.0,0.0,0.0,0.0,0.0,0.0,0.0,0.0,0.0,0.0,0.0,0.0,0.0,0.0,0.0,0.0,0.0,0.0,0.0,0.0,0.0,0.0,0.0,0.0,0.0,0.0,0.0,0.0,0.0,0.0,0.0,0.0,0.0,0.0,0.0,0.0,0.0,0.0,0.0,0.0,0.0,0.0,0.0,0.0,0.0,0.0,0.0,0.0,0.0,0.0,0.0,0.0,0.0,0.0,0.0,0.0,0.0,0.0,0.0,0.0,0.0,0.0,0.0,0.0,0.0,0.0,0.0,0.0,0.0,0.0,0.0,0.0,0.0,0.0,0.0,0.0,0.0,0.0,0.0,0.0,0.0,0.0,0.0,0.0,0.0,0.0,0.0,0.0,0.0,0.0,0.0,0.0,0.0,0.0,0.0,0.0,0.0,0.0,0.0,0.0,0.0,0.0,0.0,0.0,0.0,0.0,0.0,0.0,0.0,0.0,0.0,0.0,0.0,0.0,0.0,0.0,0.0,0.0,0.0,0.0,0.0,0.0,0.0,0.0,0.0,0.0,0.0,0.0,0.0,0.0,0.0,0.0,0.0,0.0,0.0,0.0,0.0,0.0,0.0,0.0,0.0,0.0,0.0,0.0,0.0,0.0,0.0,0.0,0.0,0.0,0.0,0.0,0.0,0.0,0.0,0.0,0.0,0.0,0.0,0.0,0.0,0.0,0.0,0.0,0.0,0.0,0.0,0.0,0.0,0.0,0.0,0.0,0.0,0.0,0.0,0.0,0.0,0.0,0.0,0.0,0.0,0.0,0.0,0.0,0.0,0.0,0.0,0.0,0.0,0.0,0.0,0.0,0.0,0.0,0.0,0.0,0.0,0.0,0.0,0.0,0.0,0.0,0.0,0.0,0.0,0.0,0.0,
1.0,1.0,1.0,1.0,1.0,1.0,1.0,1.0,1.0,1.0,1.0,1.0,1.0,1.0,1.0,1.0,1.0,1.0,1.0,1.0,1.0,1.0,1.0,1.0,1.0,1.0,1.0,1.0,1.0,1.0,1.0,1.0,1.0,1.0,1.0,1.0,1.0,1.0,1.0,1.0,1.0,1.0,1.0,1.0,1.0,1.0,1.0,1.0,1.0,1.0,1.0,1.0,1.0,1.0,1.0,1.0,1.0,1.0,1.0,1.0,1.0,1.0,1.0,1.0,1.0,1.0,1.0,1.0,1.0,1.0,1.0,1.0,1.0,1.0,1.0,1.0,1.0,1.0,1.0,1.0,1.0,1.0,1.0,1.0,1.0,1.0,1.0,1.0,1.0,1.0,1.0,1.0,1.0,1.0,1.0,1.0,1.0,1.0,1.0,1.0,1.0,1.0,1.0,1.0,1.0,1.0,1.0,1.0,1.0,1.0,1.0,1.0,1.0,1.0,1.0,1.0,1.0,1.0,1.0,1.0,1.0,1.0,1.0,1.0,1.0,1.0,1.0,1.0,1.0,1.0,1.0,1.0,1.0,1.0,1.0,1.0,1.0,1.0,1.0,1.0,1.0,1.0,1.0,1.0,1.0,1.0,1.0,1.0,1.0,1.0,1.0,1.0,1.0,1.0,1.0,1.0,1.0,1.0,1.0,1.0,1.0,1.0,1.0,1.0,1.0,1.0,1.0,1.0,1.0,1.0,1.0,1.0,1.0,1.0,1.0,1.0,1.0,1.0,1.0,1.0,1.0,1.0,1.0,1.0,1.0,1.0,1.0,1.0,1.0,1.0,1.0,1.0,1.0,1.0,1.0,1.0,1.0,1.0,1.0,1.0,1.0,1.0,1.0,1.0,1.0,1.0,1.0,1.0,1.0,1.0,1.0,1.0,1.0,1.0,1.0,1.0,1.0,1.0,1.0,1.0,1.0,1.0,1.0,1.0,1.0,1.0,1.0,1.0,1.0,1.0,1.0,1.0,1.0,1.0,1.0,1.0,1.0,1.0,1.0,1.0,1.0,1.0,1.0,1.0,1.0,1.0,1.0,1.0,1.0,1.0,1.0,1.0,1.0,1.0,1.0,1.0,1.0,1.0,1.0,1.0,1.0,1.0,1.0,1.0,1.0,1.0,1.0,1.0,1.0,1.0,1.0,1.0,1.0,1.0,1.0,1.0,1.0,1.0,1.0,1.0,1.0,1.0,1.0,1.0,1.0,1.0,1.0,1.0,1.0,1.0,1.0,1.0,1.0,1.0,1.0,1.0,1.0,1.0,1.0,1.0,1.0,1.0,1.0,1.0,1.0,1.0,1.0,1.0,1.0,1.0,1.0,1.0,1.0,1.0,1.0,1.0,1.0,1.0,1.0,1.0,1.0,1.0,1.0,1.0,1.0,1.0,1.0,1.0,1.0,1.0,1.0,1.0,1.0,1.0,1.0,1.0,1.0,1.0,1.0,1.0,1.0,1.0,1.0,1.0,1.0,1.0,1.0,1.0,1.0,1.0,1.0,1.0,1.0,1.0,1.0,1.0,1.0,1.0,1.0,1.0,1.0,1.0,1.0,1.0,1.0,1.0,1.0,1.0,1.0,1.0,1.0,1.0,1.0,1.0,1.0,1.0,1.0,1.0,1.0,1.0,1.0,1.0,1.0,1.0,1.0,1.0,1.0,1.0,1.0,1.0,1.0,1.0,1.0,1.0,1.0,1.0,1.0,1.0,1.0,1.0,1.0,1.0,1.0,1.0,1.0,1.0,1.0,1.0,1.0,1.0,1.0,1.0,1.0,1.0,1.0,1.0,1.0,1.0,1.0,1.0,1.0,1.0,1.0,1.0,1.0,1.0,1.0,1.0,1.0,1.0,1.0,1.0,1.0,1.0,1.0,1.0,1.0,1.0,1.0,1.0,1.0,1.0,1.0,1.0,1.0,1.0,1.0,1.0,1.0,1.0,1.0,1.0,1.0,1.0,1.0,1.0,1.0,1.0,1.0,1.0,1.0,1.0,1.0,1.0,1.0,1.0,1.0,1.0,1.0,1.0,1.0,1.0,1.0,1.0,1.0,1.0,1.0,1.0,1.0,1.0,1.0,1.0,1.0,1.0,1.0,1.0,1.0,1.0,1.0,1.0,1.0,1.0,1.0,1.0,1.0,1.0,1.0,1.0,1.0,1.0,1.0,1.0,1.0,1.0,1.0,1.0,1.0,1.0,1.0,1.0,1.0,1.0,1.0,1.0,1.0,1.0,1.0,1.0,1.0,1.0,1.0,1.0,1.0,1.0,1.0,1.0,1.0,1.0,1.0,1.0,1.0,1.0,1.0,1.0,1.0,1.0,1.0,1.0,1.0,1.0,1.0,1.0,1.0,1.0,1.0,1.0,1.0,1.0,1.0,1.0,1.0,1.0,1.0,1.0,1.0,1.0,1.0,1.0,1.0,1.0,1.0,1.0,1.0,1.0,1.0,1.0,1.0,1.0,1.0,1.0,1.0,1.0,1.0,1.0,1.0,1.0,1.0,1.0,1.0,1.0,1.0,1.0,1.0,1.0,1.0,1.0,1.0,1.0,1.0,1.0,1.0,1.0,1.0,1.0,1.0,1.0,1.0,1.0,1.0,1.0,1.0,1.0,1.0,1.0,1.0,1.0,1.0,1.0,1.0,1.0,1.0,1.0,1.0,1.0,1.0,1.0,1.0,1.0,1.0,1.0,1.0,1.0,1.0,1.0,1.0,1.0,1.0,1.0,1.0,1.0,1.0,1.0,1.0,1.0,1.0,1.0,1.0,1.0,1.0,1.0,1.0,1.0,1.0,1.0,1.0,1.0,1.0,1.0,1.0,1.0,1.0,1.0,1.0,1.0,1.0,1.0,1.0,1.0,1.0,1.0,1.0,1.0,1.0,1.0,1.0,1.0,1.0,1.0,1.0,1.0,1.0,1.0,1.0,1.0,1.0,1.0,1.0,1.0,1.0,1.0,1.0,1.0,1.0,1.0,1.0,1.0,1.0,1.0,1.0,1.0,1.0,1.0,1.0,1.0,1.0,1.0,1.0,1.0,1.0,1.0,1.0,1.0,1.0,1.0,1.0,1.0,1.0,1.0,1.0,1.0,1.0,1.0,1.0,1.0,1.0,1.0,1.0,1.0,1.0,1.0,1.0,1.0,1.0,1.0,1.0,1.0,1.0,1.0,1.0,1.0,1.0,1.0,1.0,1.0,1.0,1.0,1.0,1.0,1.0,1.0,1.0,1.0,1.0,1.0,1.0,1.0,1.0,1.0,1.0,1.0,1.0,1.0,1.0,1.0,1.0,1.0,1.0,1.0,1.0,1.0,1.0,1.0,1.0,1.0,1.0,1.0,1.0,1.0,1.0,1.0,1.0,1.0,1.0,1.0,1.0,1.0,1.0,1.0,1.0,1.0,1.0,1.0,1.0,1.0,
0.0,0.0,0.0,0.0,0.0,0.0,0.0,0.0,0.0,0.0,0.0,0.0,0.0,0.0,0.0,0.0,0.0,0.0,0.0,0.0,0.0,0.0,0.0,0.0,0.0,0.0,0.0,0.0,0.0,0.0,0.0,0.0,0.0,0.0,0.0,0.0,0.0,0.0,0.0,0.0,0.0,0.0,0.0,0.0,0.0,0.0,0.0,0.0,0.0,0.0,0.0,0.0,0.0,0.0,0.0,0.0,0.0,0.0,0.0,0.0,0.0,0.0,0.0,0.0,0.0,0.0,0.0,0.0,0.0,0.0,0.0,0.0,0.0,0.0,0.0,0.0,0.0,0.0,0.0,0.0,0.0,0.0,0.0,0.0,0.0,0.0,0.0,0.0,0.0,0.0,0.0,0.0,0.0,0.0,0.0,0.0,0.0,0.0,0.0,0.0,0.0,0.0,0.0,0.0,0.0,0.0,0.0,0.0,0.0,0.0,0.0,0.0,0.0,0.0,0.0,0.0,0.0,0.0,0.0,0.0,0.0,0.0,0.0,0.0,0.0,0.0,0.0,0.0,0.0,0.0,0.0,0.0,0.0,0.0,0.0,0.0,0.0,0.0,0.0,0.0,0.0,0.0,0.0,0.0,0.0,0.0,0.0,0.0,0.0,0.0,0.0,0.0,0.0,0.0,0.0,0.0,0.0,0.0,0.0,0.0,0.0,0.0,0.0,0.0,0.0,0.0,0.0,0.0,0.0,0.0,0.0,0.0,0.0,0.0,0.0,0.0,0.0,0.0,0.0,0.0,0.0,0.0,0.0,0.0,0.0,0.0,0.0,0.0,0.0,0.0,0.0,0.0,0.0,0.0,0.0,0.0,0.0,0.0,0.0,0.0,0.0,0.0,0.0,0.0,0.0,0.0,0.0,0.0,0.0,0.0,0.0,0.0,0.0,0.0,0.0,0.0,0.0,0.0,0.0,0.0,0.0,0.0,0.0,0.0,0.0,0.0,0.0,0.0,0.0,0.0,0.0,0.0,0.0,0.0,0.0,0.0,0.0,0.0,0.0,0.0,0.0,0.0,0.0,0.0,0.0,0.0,0.0,0.0,0.0,0.0,0.0,0.0,0.0,0.0,0.0,0.0,0.0,0.0,0.0,0.0,0.0,0.0,0.0,0.0,0.0,0.0,0.0,0.0,0.0,0.0,0.0,0.0,0.0,0.0,0.0,0.0,0.0,0.0,0.0,0.0,0.0,0.0,0.0,0.0,0.0,0.0,0.0,0.0,0.0,0.0,0.0,0.0,0.0,0.0,0.0,0.0,0.0,0.0,0.0,0.0,0.0,0.0,0.0,0.0,0.0,0.0,0.0,0.0,0.0,0.0,0.0,0.0,0.0,0.0,0.0,0.0,0.0,0.0,0.0,0.0,0.0,0.0,0.0,0.0,0.0,0.0,0.0,0.0,0.0,0.0,0.0,0.0,0.0,0.0,0.0,0.0,0.0,0.0,0.0,0.0,0.0,0.0,0.0,0.0,0.0,0.0,0.0,0.0,0.0,0.0,0.0,0.0,0.0,0.0,0.0,0.0,0.0,0.0,0.0,0.0,0.0,0.0,0.0,0.0,0.0,0.0,0.0,0.0,0.0,0.0,0.0,0.0,0.0,0.0,0.0,0.0,0.0,0.0,0.0,0.0,0.0,0.0,0.0,0.0,0.0,0.0,0.0,0.0,0.0,0.0,0.0,0.0,0.0,0.0,0.0,0.0,0.0,0.0,0.0,0.0,0.0,0.0,0.0,0.0,0.0,0.0,0.0,0.0,0.0,0.0,0.0,0.0,0.0,0.0,0.0,0.0,0.0,0.0,0.0,0.0,0.0,0.0,0.0,0.0,0.0,0.0,0.0,0.0,0.0,0.0,0.0,0.0,0.0,0.0,0.0,0.0,0.0,0.0,0.0,0.0,0.0,0.0,0.0,0.0,0.0,0.0,0.0,0.0,0.0,0.0,0.0,0.0,0.0,0.0,0.0,0.0,0.0,0.0,0.0,0.0,0.0,0.0,0.0,0.0,0.0,0.0,0.0,0.0,0.0,0.0,0.0,0.0,0.0,0.0,0.0,0.0,0.0,0.0,0.0,0.0,0.0,0.0,0.0,0.0,0.0,0.0,0.0,0.0,0.0,0.0,0.0,0.0,0.0,0.0,0.0,0.0,0.0,0.0,0.0,0.0,0.0,0.0,0.0,0.0,0.0,0.0,0.0,0.0,0.0,0.0,0.0,0.0,0.0,0.0,0.0,0.0,0.0,0.0,0.0,0.0,0.0,0.0,0.0,0.0,0.0,0.0,0.0,0.0,0.0,0.0,0.0,0.0,0.0,0.0,0.0,0.0,0.0,0.0,0.0,0.0,0.0,0.0,0.0,0.0,0.0,0.0,0.0,0.0,0.0,0.0,0.0,0.0,0.0,0.0,0.0,0.0,0.0,0.0,0.0,0.0,0.0,0.0,0.0,0.0,0.0,0.0,0.0,0.0,0.0,0.0,0.0,0.0,0.0,0.0,0.0,0.0,0.0,0.0,0.0,0.0,0.0,0.0,0.0,0.0,0.0,0.0,0.0,0.0,0.0,0.0,0.0,0.0,0.0,0.0,0.0,0.0,0.0,0.0,0.0,0.0,0.0,0.0,0.0,0.0,0.0,0.0,0.0,0.0,0.0,0.0,0.0,0.0,0.0,0.0,0.0,0.0,0.0,0.0,0.0,0.0,0.0,0.0,0.0,0.0,0.0,0.0,0.0,0.0,0.0,0.0,0.0,0.0,0.0,0.0,0.0,0.0,0.0,0.0,0.0,0.0,0.0,0.0,0.0,0.0,0.0,0.0,0.0,0.0,0.0,0.0,0.0,0.0,0.0,0.0,0.0,0.0,0.0,0.0,0.0,0.0,0.0,0.0,0.0,0.0,0.0,0.0,0.0,0.0,0.0,0.0,0.0,0.0,0.0,0.0,0.0,0.0,0.0,0.0,0.0,0.0,0.0,0.0,0.0,0.0,0.0,0.0,0.0,0.0,0.0,0.0,0.0,0.0,0.0,0.0,0.0,0.0,0.0,0.0,0.0,0.0,0.0,0.0,0.0,0.0,0.0,0.0,0.0,0.0,0.0,0.0,0.0,0.0,0.0,0.0,0.0,0.0,0.0,0.0,0.0,0.0,0.0,0.0,0.0,0.0,0.0,0.0,0.0,0.0,0.0,0.0,0.0,0.0,0.0,0.0,0.0,0.0,0.0,0.0,0.0,0.0,0.0,0.0,0.0,0.0,0.0,0.0,0.0,0.0,0.0,0.0,0.0,0.0,0.0,0.0,0.0,0.0,0.0,0.0,0.0,0.0,0.0,0.0,0.0,0.0,0.0,0.0,0.0,0.0,0.0,0.0,0.0,0.0,0.0,0.0,0.0,0.0,0.0,0.0,0.0,0.0,0.0,0.0,0.0,0.0,0.0,
1.0,1.0,1.0,1.0,1.0,1.0,1.0,1.0,1.0,1.0,1.0,1.0,1.0,1.0,1.0,1.0,1.0,1.0,1.0,1.0,1.0,1.0,1.0,1.0,1.0,1.0,1.0,1.0,1.0,1.0,1.0,1.0,1.0,1.0,1.0,1.0,1.0,1.0,1.0,1.0,1.0,1.0,1.0,1.0,1.0,1.0,1.0,1.0,1.0,1.0,1.0,1.0,1.0,1.0,1.0,1.0,1.0,1.0,1.0,1.0,1.0,1.0,1.0,1.0,1.0,1.0,1.0,1.0,1.0,1.0,1.0,1.0,1.0,1.0,1.0,1.0,1.0,1.0,1.0,1.0,1.0,1.0,1.0,1.0,1.0,1.0,1.0,1.0,1.0,1.0,1.0,1.0,1.0,1.0,1.0,1.0,1.0,1.0,1.0,1.0,1.0,1.0,1.0,1.0,1.0,1.0,1.0,1.0,1.0,1.0,1.0,1.0,1.0,1.0,1.0,1.0,1.0,1.0,1.0,1.0,1.0,1.0,1.0,1.0,1.0,1.0,1.0,1.0,1.0,1.0,1.0,1.0,1.0,1.0,1.0,1.0,1.0,1.0,1.0,1.0,1.0,1.0,1.0,1.0,1.0,1.0,1.0,1.0,1.0,1.0,1.0,1.0,1.0,1.0,1.0,1.0,1.0,1.0,1.0,1.0,1.0,1.0,1.0,1.0,1.0,1.0,1.0,1.0,1.0,1.0,1.0,1.0,1.0,1.0,1.0,1.0,1.0,1.0,1.0,1.0,1.0,1.0,1.0,1.0,1.0,1.0,1.0,1.0,1.0,1.0,1.0,1.0,1.0,1.0,1.0,1.0,1.0,1.0,1.0,1.0,1.0,1.0,1.0,1.0,1.0,1.0,1.0,1.0,1.0,1.0,1.0,1.0,1.0,1.0,1.0,1.0,1.0,1.0,1.0,1.0,1.0,1.0,1.0,1.0,1.0,1.0,1.0,1.0,1.0,1.0,1.0,1.0,1.0,1.0,1.0,1.0,1.0,1.0,1.0,1.0,1.0,1.0,1.0,1.0,1.0,1.0,1.0,1.0,1.0,1.0,1.0,1.0,1.0,1.0,1.0,1.0,1.0,1.0,1.0,1.0,1.0,1.0,1.0,1.0,1.0,1.0,1.0,1.0,1.0,1.0,1.0,1.0,1.0,1.0,1.0,1.0,1.0,1.0,1.0,1.0,1.0,1.0,1.0,1.0,1.0,1.0,1.0,1.0,1.0,1.0,1.0,1.0,1.0,1.0,1.0,1.0,1.0,1.0,1.0,1.0,1.0,1.0,1.0,1.0,1.0,1.0,1.0,1.0,1.0,1.0,1.0,1.0,1.0,1.0,1.0,1.0,1.0,1.0,1.0,1.0,1.0,1.0,1.0,1.0,1.0,1.0,1.0,1.0,1.0,1.0,1.0,1.0,1.0,1.0,1.0,1.0,1.0,1.0,1.0,1.0,1.0,1.0,1.0,1.0,1.0,1.0,1.0,1.0,1.0,1.0,1.0,1.0,1.0,1.0,1.0,1.0,1.0,1.0,1.0,1.0,1.0,1.0,1.0,1.0,1.0,1.0,1.0,1.0,1.0,1.0,1.0,1.0,1.0,1.0,1.0,1.0,1.0,1.0,1.0,1.0,1.0,1.0,1.0,1.0,1.0,1.0,1.0,1.0,1.0,1.0,1.0,1.0,1.0,1.0,1.0,1.0,1.0,1.0,1.0,1.0,1.0,1.0,1.0,1.0,1.0,1.0,1.0,1.0,1.0,1.0,1.0,1.0,1.0,1.0,1.0,1.0,1.0,1.0,1.0,1.0,1.0,1.0,1.0,1.0,1.0,1.0,1.0,1.0,1.0,1.0,1.0,1.0,1.0,1.0,1.0,1.0,1.0,1.0,1.0,1.0,1.0,1.0,1.0,1.0,1.0,1.0,1.0,1.0,1.0,1.0,1.0,1.0,1.0,1.0,1.0,1.0,1.0,1.0,1.0,1.0,1.0,1.0,1.0,1.0,1.0,1.0,1.0,1.0,1.0,1.0,1.0,1.0,1.0,1.0,1.0,1.0,1.0,1.0,1.0,1.0,1.0,1.0,1.0,1.0,1.0,1.0,1.0,1.0,1.0,1.0,1.0,1.0,1.0,1.0,1.0,1.0,1.0,1.0,1.0,1.0,1.0,1.0,1.0,1.0,1.0,1.0,1.0,1.0,1.0,1.0,1.0,1.0,1.0,1.0,1.0,1.0,1.0,1.0,1.0,1.0,1.0,1.0,1.0,1.0,1.0,1.0,1.0,1.0,1.0,1.0,1.0,1.0,1.0,1.0,1.0,1.0,1.0,1.0,1.0,1.0,1.0,1.0,1.0,1.0,1.0,1.0,1.0,1.0,1.0,1.0,1.0,1.0,1.0,1.0,1.0,1.0,1.0,1.0,1.0,1.0,1.0,1.0,1.0,1.0,1.0,1.0,1.0,1.0,1.0,1.0,1.0,1.0,1.0,1.0,1.0,1.0,1.0,1.0,1.0,1.0,1.0,1.0,1.0,1.0,1.0,1.0,1.0,1.0,1.0,1.0,1.0,1.0,1.0,1.0,1.0,1.0,1.0,1.0,1.0,1.0,1.0,1.0,1.0,1.0,1.0,1.0,1.0,1.0,1.0,1.0,1.0,1.0,1.0,1.0,1.0,1.0,1.0,1.0,1.0,1.0,1.0,1.0,1.0,1.0,1.0,1.0,1.0,1.0,1.0,1.0,1.0,1.0,1.0,1.0,1.0,1.0,1.0,1.0,1.0,1.0,1.0,1.0,1.0,1.0,1.0,1.0,1.0,1.0,1.0,1.0,1.0,1.0,1.0,1.0,1.0,1.0,1.0,1.0,1.0,1.0,1.0,1.0,1.0,1.0,1.0,1.0,1.0,1.0,1.0,1.0,1.0,1.0,1.0,1.0,1.0,1.0,1.0,1.0,1.0,1.0,1.0,1.0,1.0,1.0,1.0,1.0,1.0,1.0,1.0,1.0,1.0,1.0,1.0,1.0,1.0,1.0,1.0,1.0,1.0,1.0,1.0,1.0,1.0,1.0,1.0,1.0,1.0,1.0,1.0,1.0,1.0,1.0,1.0,1.0,1.0,1.0,1.0,1.0,1.0,1.0,1.0,1.0,1.0,1.0,1.0,1.0,1.0,1.0,1.0,1.0,1.0,1.0,1.0,1.0,1.0,1.0,1.0,1.0,1.0,1.0,1.0,1.0,1.0,1.0,1.0,1.0,1.0,1.0,1.0,1.0,1.0,1.0,1.0,1.0,1.0,1.0,1.0,1.0,1.0,1.0,1.0,1.0,1.0,1.0,1.0,1.0,1.0,1.0,1.0,1.0,1.0,1.0,1.0,1.0,1.0,1.0,1.0,1.0,1.0,1.0,1.0,1.0,1.0,1.0,1.0,
-2.80301e-02,-7.40627e-03,-1.39710e-02,-3.00637e-03,-5.86680e-02,-6.05692e-02,1.49572e-02,5.67846e-02,-2.59128e-02,-6.93519e-02,-3.04257e-02,-3.82578e-02,2.81771e-02,-9.35947e-02,-2.77528e-02,2.20790e-02,-9.22140e-03,-6.88818e-02,3.94218e-02,-1.01511e-02,7.61561e-02,-1.08670e-02,1.63302e-02,-2.85619e-02,7.21818e-02,2.68438e-02,-1.73238e-02,-5.32189e-02,-1.55809e-02,-3.81333e-03,-1.11611e-02,1.43319e-02,4.38077e-02,5.89762e-02,-6.37776e-02,-1.27776e-01,1.37840e-02,-5.87509e-02,7.45190e-02,5.68186e-02,1.09680e-01,4.58850e-02,5.47549e-02,-4.04897e-03,-1.03841e-01,-2.80606e-02,-4.71117e-02,1.51091e-02,2.52717e-02,-4.99320e-02,-9.19654e-02,-8.09426e-02,-3.46387e-02,-6.54155e-02,-5.38935e-02,2.92007e-02,2.94930e-02,3.71838e-02,7.02980e-02,-1.08963e-01,-1.14486e-01,2.31847e-02,-2.16936e-02,-3.28585e-02,3.72278e-02,3.85314e-03,-7.21593e-02,-1.09097e-02,-7.44454e-02,2.80167e-02,4.46324e-02,-4.18504e-02,-3.21009e-02,-6.16410e-02,-5.52654e-02,2.24456e-02,-2.81790e-02,-8.53803e-02,5.12636e-02,2.23419e-03,1.36936e-02,-9.58486e-02,-3.13977e-02,-7.43208e-02,-5.12116e-02,-6.92561e-02,1.06100e-01,-1.39943e-01,-9.31439e-02,4.16202e-03,4.75814e-02,-3.09001e-02,-1.26680e-01,1.85228e-03,-8.78938e-02,8.22406e-03,-1.31553e-01,-3.18468e-02,-3.31549e-02,2.94581e-02,7.65719e-02,-1.27867e-02,-1.83796e-01,4.97370e-02,-1.87297e-02,-2.75041e-02,4.55769e-02,-3.33938e-02,-1.10490e-01,-1.26378e-01,-7.08752e-02,1.18609e-02,1.58422e-03,-1.90540e-02,2.79925e-02,1.28884e-02,-2.50043e-02,7.76904e-03,1.87979e-02,1.95948e-02,-8.95321e-02,-1.02549e-01,6.46181e-02,6.84928e-02,-3.36308e-02,-2.39720e-02,-3.36691e-02,-1.99350e-02,-6.58248e-02,7.40893e-02,-7.83367e-02,5.35641e-02,1.75860e-01,1.88746e-01,8.32128e-02,1.03006e-01,-1.23457e-01,-1.82131e-02,-8.28859e-02,-1.43784e-01,-4.44128e-02,5.37280e-02,1.07675e-01,-3.22844e-02,7.73209e-03,1.05421e-01,1.17440e-01,1.01057e-01,-2.54831e-03,8.93246e-02,1.23824e-01,2.52660e-02,-7.94339e-02,-1.26476e-01,-1.42340e-01,-9.66191e-02,-3.67633e-02,1.43983e-02,-9.81990e-03,4.27446e-02,4.01364e-02,1.73780e-01,1.81612e-01,7.26632e-02,-3.42412e-02,-7.40661e-02,-1.60611e-01,-1.31308e-01,-5.99763e-02,-1.11412e-01,4.49901e-02,-1.14022e-02,-7.25297e-02,8.81743e-02,4.85936e-02,2.76799e-03,-3.98440e-02,8.19729e-02,5.85877e-02,2.32200e-02,2.11294e-02,-3.16313e-02,-2.36891e-01,-2.21455e-01,-1.81784e-01,-1.17881e-01,-4.62829e-02,3.31290e-02,-3.25388e-02,7.07642e-02,4.40889e-02,1.06216e-01,6.88660e-02,-1.38321e-01,-4.42631e-02,-8.91966e-02,8.10122e-02,-5.72887e-02,-2.00594e-03,2.02433e-01,1.60913e-01,7.31199e-02,7.85894e-02,7.75451e-02,7.42649e-02,1.37470e-01,7.37726e-02,4.90436e-02,4.90632e-02,-1.18109e-01,-1.71320e-01,-2.34211e-01,-1.93098e-01,-4.79333e-02,4.26707e-02,1.00867e-01,1.48290e-01,8.50104e-02,1.79368e-01,2.69356e-01,1.18714e-01,3.23282e-02,3.21073e-02,-4.73840e-02,-6.18689e-02,2.57045e-02,1.02602e-02,7.02143e-02,1.78724e-01,1.03607e-01,9.67537e-02,6.07909e-02,1.89800e-02,7.34963e-02,2.39809e-02,1.10339e-01,-4.98142e-02,-1.14503e-02,-1.37447e-01,-1.73801e-01,-8.16266e-02,9.75847e-02,2.37108e-02,1.75687e-01,1.65791e-01,9.27646e-02,1.43349e-01,1.31296e-01,1.71393e-01,1.02486e-01,1.66068e-01,-1.01067e-01,1.38127e-02,5.39047e-03,-2.66923e-02,9.19417e-02,4.00496e-03,1.96819e-02,2.41929e-02,-3.33283e-02,1.32770e-02,9.06052e-02,5.80828e-02,3.56015e-02,7.08544e-02,-1.11762e-01,-1.54202e-01,-1.07291e-01,5.28011e-02,6.32205e-02,1.93000e-01,6.74428e-02,4.72236e-02,1.30085e-01,8.53711e-02,1.51100e-01,2.58465e-01,8.57002e-02,-2.86512e-02,-5.75967e-02,1.11270e-01,4.32781e-02,-3.10077e-02,-5.75479e-02,5.26358e-02,-7.17901e-03,-8.80375e-02,-1.53701e-02,1.74024e-02,5.78715e-02,1.05979e-01,1.18212e-01,4.85529e-02,-1.26487e-02,-1.71045e-01,-6.47661e-02,2.95394e-02,1.26855e-01,1.00092e-01,1.72090e-01,7.78055e-02,-1.50707e-02,1.19272e-01,5.18420e-02,1.10560e-01,6.53687e-02,-2.49631e-02,2.59338e-02,3.00071e-02,3.83893e-02,-2.44169e-02,-3.26960e-02,-4.86188e-02,-1.45592e-02,-7.53922e-02,5.39200e-02,1.43915e-02,1.56546e-01,1.18869e-01,4.03468e-03,6.75347e-02,-1.83592e-01,-2.45335e-01,-6.86592e-02,2.73808e-02,9.87264e-03,2.52435e-03,6.59908e-02,-6.40628e-02,7.70362e-03,1.32831e-02,4.12141e-02,5.22061e-03,-1.62302e-01,-7.43903e-02,-8.63641e-03,4.66250e-02,1.04666e-01,1.18022e-01,-1.49847e-02,-9.19569e-02,-1.02096e-01,-1.10182e-02,6.04852e-02,-6.20520e-03,2.19772e-02,1.21365e-01,3.03582e-02,-2.34441e-02,-1.88932e-01,-1.80108e-01,-5.40307e-02,6.20737e-02,8.37305e-03,5.54788e-03,-9.24677e-02,-2.36463e-02,-6.06647e-02,-1.14969e-01,5.27696e-03,1.29881e-01,-6.22113e-02,-1.24721e-01,-7.51426e-02,-3.04976e-03,9.86524e-02,4.33252e-02,-9.31714e-04,-9.83254e-02,-9.63550e-02,-7.44264e-02,1.34963e-02,9.05401e-02,5.74420e-03,1.22681e-01,1.14476e-01,-2.67875e-02,-1.56526e-01,-1.13770e-01,3.53179e-02,7.26685e-02,4.65765e-02,-2.97980e-02,-5.44091e-02,-6.88154e-02,3.54398e-02,-1.59136e-02,-5.65244e-02,-3.23206e-02,-1.43570e-01,2.82711e-02,1.32997e-02,-3.11438e-02,-2.99809e-02,6.92626e-02,-5.24314e-02,-1.15085e-01,-7.23852e-03,1.67920e-02,9.05715e-02,7.08538e-02,3.71268e-03,5.62422e-02,8.05898e-02,-4.13140e-02,-1.21156e-01,-8.34121e-02,-2.46927e-02,1.29351e-02,6.50885e-02,-4.24749e-02,3.17272e-02,-3.54116e-02,-6.95604e-02,-2.60719e-02,-5.59636e-03,-5.74047e-02,-1.67446e-01,-4.90361e-02,-7.35940e-02,-9.69438e-03,-2.20793e-02,7.26098e-02,-8.24936e-02,-1.30400e-01,-1.28282e-01,-6.07384e-04,5.42453e-02,6.48870e-02,3.46359e-02,-5.26972e-02,-2.99220e-02,-6.67356e-03,-8.76878e-02,-7.38412e-02,6.14653e-02,-2.62160e-02,8.95915e-02,-3.74035e-02,3.47965e-02,-3.41582e-02,1.14018e-02,1.79233e-02,-1.21485e-01,-8.32393e-02,-1.39112e-01,-2.03231e-01,-2.59029e-03,9.49789e-02,1.34031e-02,-7.94449e-03,-9.67633e-02,-1.63188e-01,-2.60303e-02,-8.03946e-02,7.23701e-02,-4.30420e-03,9.31460e-02,-8.49639e-03,-1.08077e-01,1.30458e-02,-6.28399e-02,8.29731e-02,-2.07754e-03,3.65707e-03,-1.12525e-02,-5.12705e-02,5.37458e-02,7.61008e-03,-1.23253e-02,-1.04480e-01,-1.16632e-01,-6.02585e-02,-1.64000e-01,-2.08089e-01,3.15743e-02,-7.94710e-02,4.84152e-02,-5.63723e-02,-7.95927e-02,-7.20963e-03,-4.28559e-02,8.39676e-03,-3.39541e-02,8.36454e-03,2.25430e-02,6.61998e-02,-2.43213e-02,-9.15855e-03,-4.40591e-02,1.48040e-03,3.97203e-02,6.49499e-02,-8.01117e-04,-3.71880e-02,-4.25804e-02,7.40911e-02,-7.43047e-02,-5.38555e-02,6.52400e-03,-6.19126e-02,3.93989e-03,-8.44760e-02,-9.68131e-02,-5.48518e-02,2.20058e-02,5.91355e-02,-1.14784e-01,-1.34284e-01,-4.46243e-02,3.79970e-02,7.61039e-02,-1.94472e-02,8.59087e-02,-7.89333e-02,-3.77993e-02,-1.71150e-02,1.32891e-02,-9.27270e-03,-6.27832e-02,6.58988e-02,-5.67701e-03,3.03100e-02,-3.90561e-02,-8.20207e-02,-1.20374e-01,-3.04142e-02,-3.36098e-02,3.79651e-02,-2.78414e-02,1.49868e-01,1.21467e-01,1.62611e-02,7.65691e-02,-5.86636e-02,-1.65352e-03,-1.43288e-01,1.40015e-02,5.16253e-02,7.87988e-02,8.87818e-02,1.67226e-02,8.20168e-02,8.89744e-02,-1.07450e-01,5.90665e-02,2.17477e-02,3.42306e-02,-7.10553e-02,-7.91204e-03,1.24513e-02,-4.85581e-02,-9.60653e-02,-7.44020e-02,1.55901e-02,4.98243e-03,-5.38198e-02,2.27786e-02,1.69865e-02,1.19653e-02,5.60737e-02,6.54145e-02,9.20834e-02,-7.21283e-02,-6.63760e-02,2.80700e-02,-1.75344e-02,-1.66330e-02,6.96284e-03,6.07260e-02,1.64924e-01,-1.47461e-02,1.16534e-01,-1.92695e-02,5.05862e-02,8.23093e-03,-1.00868e-02,-9.31809e-02,-4.56793e-02,-8.82381e-02,-8.02960e-02,3.95341e-02,3.40742e-02,4.20207e-02,3.02565e-02,-1.24823e-01,-3.05245e-02,-3.12189e-02,6.30757e-03,-4.62670e-02,-4.41717e-02,8.16793e-02,-7.14394e-03,5.45400e-02,1.00390e-01,1.18133e-01,1.37756e-01,1.45041e-01,4.17134e-02,1.17000e-01,9.77974e-02,9.53775e-02,9.20694e-02,-8.92132e-04,-2.33361e-02,7.25749e-02,-3.86486e-02,1.39038e-02,1.56771e-01,1.70534e-01,1.22522e-01,5.56968e-02,7.68425e-02,-2.34235e-02,1.91270e-01,1.94290e-02,3.76934e-02,3.86357e-02,2.06579e-02,-6.91998e-02,3.12051e-02,1.83885e-01,1.98347e-01,1.62825e-01,1.36989e-01,1.10150e-01,1.58348e-01,9.28010e-02,-2.75164e-02,-3.00351e-02,6.23063e-02,1.01760e-01,2.61374e-02,5.67868e-02,2.82648e-02,2.15126e-02,-1.57837e-02,3.04500e-02,-2.62111e-02,1.59307e-02,2.73275e-02,1.15861e-02,3.10453e-03,-2.74524e-02,-4.54214e-02,-3.53964e-03,7.18549e-03,-1.42112e-01,-9.74964e-02,-7.78373e-02,9.14172e-02,1.01459e-01,6.95469e-02,4.69378e-02,1.13214e-02,-5.58160e-02,5.79664e-02,1.06550e-01,-2.70080e-03,9.27176e-02,2.95498e-02,-4.65780e-02,5.45794e-02,4.98902e-02,-1.12749e-01,-4.87595e-02,-2.57522e-02,-2.71619e-02,5.97476e-03,-1.49894e-02,-1.09936e-02,4.60874e-02,-8.12773e-02,7.93908e-02,9.72725e-02,-1.18721e-01,-1.30072e-01,4.33708e-02,1.24671e-02,-2.06513e-02,-2.65204e-02,-1.20959e-02,-7.14240e-02,3.07103e-02,1.15142e-01,5.77268e-02,5.76157e-02,-5.26782e-03,1.13069e-03,9.41432e-02,2.31836e-02,-7.07467e-02,-2.76091e-02,3.99054e-02,-4.95102e-02,-4.79952e-02,-1.93928e-02,1.01781e-02,-4.78337e-02,3.58970e-02,-5.66745e-02,-6.20327e-02,-6.52108e-02,1.28245e-01,9.42984e-02,-1.56712e-02,-1.71286e-01,2.84439e-02,-4.69070e-02,-3.91379e-02,-8.29968e-02,-8.51016e-04,4.26811e-02,4.51026e-02,7.33482e-02,-7.16807e-03,1.93765e-02,-6.69611e-02,-3.88566e-02,-7.26885e-02,-1.38919e-01,8.78120e-03,-7.12354e-02,-1.02325e-01,-6.12815e-02,-7.57539e-02,2.19080e-02,6.50869e-02,-6.45397e-02,4.44928e-02,-1.81781e-02,-2.06491e-02,-8.27718e-02,-1.29930e-01,-1.11641e-01,-4.01452e-02,-5.38616e-02,-5.58033e-02,-1.91787e-01,-8.31616e-02,-9.02792e-02,-1.33942e-01,-2.01405e-01,-1.35391e-01,-3.03816e-02,-1.33311e-01,-8.80403e-02,-2.45796e-03,-1.27167e-01,-1.13554e-01,6.85064e-02,-4.69339e-02,1.97225e-02,5.72617e-02,-6.47059e-02,-7.87175e-02,5.15279e-02,-7.66337e-02,8.07100e-02,-1.53275e-02,-5.81013e-02,-3.01446e-02,-2.14176e-02,3.27213e-03,9.62814e-03,8.48988e-03,1.85369e-02,-1.32825e-01,-1.24958e-02,2.70791e-02,-7.46943e-02,-1.04414e-01,8.21411e-03,9.76288e-02,1.63586e-02,-3.26016e-02,7.47470e-02,-1.85474e-02,5.22521e-02,1.48443e-01,2.51240e-02,-4.00550e-02,4.63406e-02,2.63342e-02,
5.96429e-02,1.12153e-02,-1.04389e-02,-5.08389e-02,-4.91416e-02,6.71444e-02,-5.57371e-02,4.03745e-02,5.64499e-02,4.13532e-03,-5.76755e-02,-2.28586e-02,-3.86476e-02,4.33744e-02,-7.01491e-02,-1.02181e-02,-6.63702e-02,6.80360e-02,-1.79520e-02,6.05779e-02,4.72717e-02,-5.48613e-02,-7.63584e-02,6.74363e-02,2.61454e-03,1.79810e-02,-2.24306e-02,3.72976e-02,3.66098e-02,-2.32987e-02,-4.53150e-02,7.57339e-02,-3.91798e-02,-6.98918e-03,-3.58759e-02,7.65132e-02,1.96346e-02,6.28131e-02,5.23193e-02,1.27398e-01,1.08497e-01,-9.17565e-03,4.16852e-03,8.93352e-03,1.38060e-01,6.14051e-02,7.75256e-03,3.35141e-02,9.78420e-02,-1.22026e-01,-4.11515e-02,5.41644e-02,9.04185e-03,-1.91569e-02,5.22655e-02,-4.90879e-02,-3.18609e-02,3.97645e-02,2.01265e-02,1.21400e-01,1.50188e-01,2.99204e-02,-1.03696e-01,4.16282e-03,-2.08528e-01,-2.53282e-01,-2.36290e-01,-1.25723e-01,-1.87135e-01,-1.28433e-01,-1.46428e-01,-1.70424e-01,-1.37785e-01,1.50265e-02,1.68592e-02,-4.96813e-02,-1.28252e-01,-6.36976e-03,-5.33088e-02,6.14428e-02,9.63294e-02,9.08885e-03,-2.03566e-02,6.67164e-02,7.20037e-03,9.23851e-03,-6.88254e-02,1.21387e-01,5.17356e-02,-1.86231e-02,-5.84952e-02,-9.98223e-02,-1.47401e-01,-1.64291e-01,3.91282e-02,4.14888e-02,-5.58361e-02,-8.22668e-02,-3.60202e-02,4.32577e-02,3.99565e-02,1.23251e-01,2.06105e-02,1.50904e-01,1.37551e-01,6.72480e-02,-2.80912e-02,-5.45584e-02,1.93092e-02,1.61415e-01,4.44958e-02,-7.45444e-03,-4.13481e-02,-3.76535e-02,-1.49321e-01,-1.19163e-02,-4.52836e-02,-1.21929e-01,-3.98860e-02,-1.03562e-01,-4.06228e-02,1.72966e-02,-1.06466e-01,7.62911e-02,4.63579e-03,-8.51553e-02,-7.65024e-02,2.41464e-02,-4.25426e-02,3.68134e-02,5.58939e-02,4.08800e-02,-1.67792e-02,-7.28887e-02,2.46192e-02,1.15350e-01,1.15362e-01,6.90680e-02,1.34502e-01,1.14471e-01,3.84690e-02,-1.27280e-02,-9.74803e-02,6.50014e-02,-1.10004e-01,-1.13229e-01,-9.79752e-02,-5.20023e-02,-6.23142e-02,1.54618e-02,-9.65068e-02,-6.44427e-02,-1.60129e-01,-3.33946e-02,9.32965e-03,-1.05969e-01,-3.12600e-02,3.86420e-02,-7.00220e-02,-1.06705e-01,-5.57603e-02,-7.60181e-02,2.32878e-02,7.41301e-02,1.90863e-02,7.87214e-02,-1.34053e-02,-4.59804e-02,1.17522e-02,3.96886e-02,1.41351e-01,2.73449e-02,4.18831e-02,6.03766e-02,3.88938e-02,-8.40305e-02,-4.51874e-02,-4.35952e-02,-4.66686e-02,-2.09729e-02,-1.20228e-01,-3.47326e-03,-8.25897e-03,-6.95159e-02,-7.47562e-02,-1.49324e-01,-1.11798e-01,5.66421e-02,-1.91317e-02,-1.49660e-02,1.14132e-01,-1.38320e-02,1.14711e-01,8.14792e-02,9.23876e-02,-1.04268e-01,-5.09156e-03,1.80591e-01,1.02948e-01,4.98997e-02,-1.46457e-02,5.60102e-02,-4.19182e-02,3.78386e-02,1.02151e-01,-1.60780e-02,1.59336e-02,1.81347e-02,2.13005e-02,-5.33481e-02,-1.02354e-01,-1.32945e-01,-1.38878e-01,2.37349e-03,3.50367e-02,-7.35519e-02,-6.08247e-02,1.75400e-02,3.65598e-02,1.63392e-01,6.23615e-02,3.86249e-02,3.82332e-03,5.76294e-02,1.83742e-01,2.77780e-02,8.44159e-02,3.56694e-02,-3.46660e-02,-6.38325e-04,1.07897e-02,5.19292e-02,-1.49648e-02,9.03355e-02,5.81128e-02,5.07121e-02,2.88180e-02,5.87850e-03,-1.75766e-02,-6.89092e-02,8.03812e-02,5.89728e-02,-2.52615e-02,3.54094e-02,-1.32487e-02,1.63105e-03,6.37637e-02,3.78919e-02,8.31816e-02,6.78789e-02,-2.51854e-03,1.99598e-02,-2.15190e-02,3.40273e-02,1.30782e-01,1.09385e-01,2.49164e-03,6.46891e-02,4.73684e-02,-1.61341e-02,4.72495e-02,8.15388e-02,2.19275e-03,9.64127e-02,1.60828e-01,2.35966e-02,1.15725e-01,9.62421e-03,1.89801e-02,1.44830e-01,-1.72668e-02,-8.55407e-03,4.99552e-03,6.10749e-02,3.90416e-02,1.69531e-02,1.64223e-01,1.82442e-02,5.00809e-02,1.11608e-01,-4.34202e-02,3.80586e-02,1.54354e-01,1.76234e-01,1.50377e-01,1.53769e-01,4.82063e-02,1.61871e-01,1.03426e-01,6.27666e-02,5.37685e-02,1.27765e-01,1.89027e-01,1.31307e-01,9.77839e-02,1.19611e-01,1.30832e-01,6.46435e-02,7.35258e-02,-7.38551e-02,4.26488e-02,1.47840e-01,1.51882e-01,6.69676e-02,9.79816e-02,9.05915e-02,2.12409e-01,2.62856e-02,6.80516e-02,1.33011e-01,5.45742e-02,1.82555e-01,1.76118e-01,9.53977e-02,3.03494e-02,2.13235e-04,5.07187e-02,2.69927e-02,4.23919e-02,1.37001e-01,4.57011e-02,1.60145e-01,4.66652e-02,5.38438e-02,-1.88458e-02,-7.47742e-02,-2.39912e-02,7.32296e-02,-1.27478e-02,-2.14693e-02,1.35992e-01,4.88227e-03,8.69769e-02,-1.34669e-02,4.06810e-02,6.63073e-02,-4.38979e-03,1.70916e-01,1.25447e-01,4.55374e-02,-4.98647e-03,1.15678e-01,1.07995e-01,2.61847e-02,8.69682e-02,2.41500e-02,7.91212e-02,9.83811e-02,1.04506e-01,-1.52615e-02,2.01577e-02,-5.96707e-02,-7.80506e-02,-1.34215e-01,2.46654e-02,7.31494e-02,6.67278e-02,2.47489e-02,7.14728e-02,-4.07636e-02,-1.75623e-02,7.23768e-02,2.28738e-01,1.43199e-01,-4.52873e-02,1.37609e-02,9.77399e-02,-1.43838e-03,-4.23216e-02,2.11439e-02,9.97475e-03,1.23324e-01,-1.75485e-03,3.85765e-02,1.18273e-01,7.55550e-02,7.92403e-02,-8.87552e-02,-6.64757e-02,-1.33843e-01,-1.53972e-01,-9.67082e-02,-1.12110e-02,8.64744e-02,2.43803e-02,-6.29380e-02,2.47338e-02,1.37353e-01,2.06152e-02,1.32247e-01,-2.37050e-02,4.37316e-03,1.27537e-02,-2.74325e-02,2.13124e-01,-1.56104e-03,-9.59876e-03,9.85928e-02,1.45621e-01,4.24075e-03,6.88339e-02,3.69040e-02,6.86816e-02,1.71468e-02,-1.14427e-01,-1.06547e-01,-4.89840e-02,-8.99033e-02,-1.14587e-01,-1.63072e-02,7.79590e-02,7.85853e-02,1.55627e-01,5.39009e-02,1.15545e-01,1.71595e-01,2.69148e-01,1.75863e-01,9.13927e-02,-4.79231e-03,1.28096e-01,-4.54294e-02,1.83524e-01,-5.81186e-02,5.25679e-02,8.87983e-02,1.05904e-01,5.22829e-02,-6.22019e-03,-2.07425e-02,7.13533e-03,-1.12493e-02,-2.75019e-02,-4.28510e-02,-1.55157e-01,-1.21250e-01,-4.11509e-02,-5.44227e-02,1.66693e-01,4.39346e-02,6.98841e-02,1.43556e-01,9.35001e-02,1.71126e-01,1.93790e-01,-9.09436e-03,5.36135e-03,3.16749e-02,-6.25119e-02,-5.19889e-02,-9.29094e-03,5.83412e-02,1.13236e-01,4.90259e-02,7.02488e-02,1.16982e-01,3.85238e-02,-6.34792e-02,-5.26937e-02,2.73135e-02,-5.85449e-03,-1.31262e-02,1.94189e-02,6.41043e-03,4.55605e-03,-1.63953e-02,5.42235e-02,8.40595e-02,1.30312e-01,1.72637e-01,1.84557e-01,6.29936e-02,1.73086e-01,-1.45808e-02,2.86655e-02,-5.89474e-02,-1.70713e-02,-5.92335e-02,-8.90412e-02,5.96542e-02,8.61328e-02,1.38217e-01,5.64910e-02,3.63508e-02,1.27474e-01,-3.53595e-03,1.03969e-01,4.15099e-02,-1.00524e-02,1.03767e-02,-2.00000e-03,9.00234e-02,6.74878e-02,8.89127e-02,1.07759e-01,6.84861e-03,6.82695e-02,2.05552e-01,9.49313e-02,4.38298e-02,8.71422e-02,-1.27892e-01,9.38396e-02,8.68935e-02,3.92560e-02,-2.40487e-03,1.55631e-02,-5.26212e-02,1.38803e-01,2.32950e-02,1.55605e-01,1.14746e-01,7.93124e-02,-2.78464e-02,3.13216e-02,-7.71303e-03,6.42417e-03,9.24445e-02,1.15779e-01,-3.58982e-02,6.45713e-03,9.59736e-02,1.01086e-01,-5.13693e-02,9.88131e-02,1.08837e-01,9.88277e-02,1.28562e-01,4.81036e-02,-1.24357e-01,-2.20630e-02,1.09969e-02,7.70280e-03,1.47454e-01,8.28329e-02,-8.50763e-02,2.49739e-02,7.89920e-02,1.01194e-01,1.65062e-02,1.08247e-01,1.38193e-02,4.15573e-02,2.80904e-02,4.20515e-02,5.33422e-02,-6.16525e-02,-7.66991e-02,-7.73899e-02,2.16738e-02,7.80528e-02,-4.82454e-02,1.01224e-01,2.25756e-02,8.52850e-02,-2.49649e-02,3.94437e-02,-8.93659e-02,-1.22905e-01,-8.36684e-02,-7.03339e-03,7.81025e-02,-4.21675e-03,-4.06043e-02,1.21143e-01,4.06267e-02,3.95669e-03,-3.26640e-02,-5.06488e-02,5.94674e-03,3.65606e-02,2.00263e-02,1.26790e-01,8.43544e-02,-4.90337e-02,-1.13683e-01,-8.85222e-02,3.03300e-02,1.53228e-02,-1.46182e-02,8.77987e-02,4.98774e-02,-8.24219e-02,-4.83707e-02,-1.65660e-01,-1.63367e-01,1.42237e-02,-3.03118e-02,-6.47664e-02,5.63167e-02,5.43792e-02,-2.11761e-02,1.02592e-02,1.97847e-02,1.69917e-02,-6.20499e-03,-3.32632e-02,-3.15867e-02,4.79365e-02,4.50414e-02,3.54723e-02,3.20357e-05,-6.14297e-02,6.33207e-02,-7.65403e-02,7.03051e-03,1.28999e-03,4.18193e-02,-8.29744e-02,-1.26284e-01,-2.77874e-02,-1.48365e-01,-1.81759e-01,-1.10511e-01,1.56657e-01,-1.44367e-02,1.06055e-02,5.18363e-02,-5.25607e-02,-7.14235e-03,-8.91877e-02,-5.13613e-02,2.84144e-02,-1.13512e-01,-2.62923e-02,-4.07354e-02,-5.18972e-03,-7.29735e-02,-7.97711e-03,4.65555e-02,-5.84908e-02,3.56151e-02,1.19592e-01,2.58622e-02,-8.96207e-02,-5.62606e-02,-2.09112e-01,-2.12236e-01,-1.82649e-01,-1.31349e-01,-8.11905e-02,-1.04886e-01,9.25179e-02,2.47918e-02,-3.44262e-02,3.96475e-02,7.51878e-02,-4.53260e-03,1.08020e-01,7.91984e-02,-5.29851e-02,-6.63686e-02,-8.32661e-02,-1.99168e-02,1.71666e-02,4.25879e-02,4.95002e-02,-4.98632e-02,5.54618e-02,-9.89500e-03,-3.97344e-02,2.19172e-02,-1.22727e-01,-1.06577e-01,-2.43134e-01,-2.06932e-01,-1.07680e-01,-6.31491e-02,-1.42520e-01,-1.00511e-02,-3.57425e-02,3.28706e-02,-1.65748e-02,-1.81627e-02,9.36835e-02,1.17486e-01,-3.57873e-03,8.34362e-02,-4.11353e-02,-4.25680e-02,-7.82350e-02,1.75146e-03,-6.67634e-02,-2.79374e-03,4.87100e-02,1.29357e-01,4.18157e-02,1.09574e-01,7.70472e-02,6.55711e-02,-7.59925e-02,-1.39521e-01,-8.42809e-02,-7.05751e-02,-1.86114e-01,-1.61546e-01,5.10017e-02,-3.96163e-02,-6.44309e-02,-1.58638e-02,-1.65428e-02,8.45387e-03,-2.36685e-02,-4.96988e-02,-1.21981e-02,-4.36874e-02,-5.93434e-02,7.88096e-02,-8.56116e-02,-1.29879e-01,-6.65458e-02,-4.08458e-02,5.88274e-02,2.60974e-02,1.60168e-02,9.39980e-02,8.80271e-02,-2.96902e-02,-1.64404e-02,5.66593e-03,-1.12072e-01,-1.60218e-01,1.54424e-02,-2.48740e-02,1.34843e-01,9.90070e-02,9.34719e-02,-8.21368e-02,-4.02560e-02,-2.70330e-02,8.21798e-02,-8.47318e-03,-1.31291e-01,-1.01505e-01,-6.11672e-02,-1.82055e-01,-9.23294e-02,-5.58829e-02,3.08549e-02,3.15263e-02,-2.49977e-02,1.89244e-02,-1.24108e-01,-3.92761e-03,6.10347e-02,-7.19027e-02,-1.21371e-01,6.14785e-02,-1.04876e-01,-1.00938e-01,-5.16005e-02,-5.95986e-02,-9.48358e-02,-5.58047e-02,1.86806e-03,-6.86301e-02,4.19090e-02,-3.47459e-02,1.77432e-02,1.54764e-02,7.53286e-02,-3.19450e-02,-6.44738e-02,2.11456e-02,-3.63849e-02,-1.47300e-02,7.16810e-02,-1.63046e-02,3.84303e-02,6.08060e-02,-4.53123e-03,-9.26565e-02,-7.31802e-02,6.25976e-02,-7.30441e-02,-1.89213e-02,1.00315e-01,6.86729e-02,2.85695e-02,2.89352e-02,-3.90697e-02,-1.16693e-02,2.30300e-02,2.02329e-02,
-7.91538e-02,-8.14612e-02,-8.04611e-02,2.51926e-02,-1.47893e-02,-7.47614e-02,7.80453e-02,-7.86003e-02,1.79193e-02,8.27577e-02,-1.60865e-02,6.68264e-02,1.18874e-02,-9.63998e-03,-5.63263e-02,4.90656e-02,-7.37159e-02,-7.24835e-02,3.23934e-02,-4.47582e-02,-5.23549e-02,1.12166e-02,3.27193e-02,-6.44851e-02,3.12876e-02,7.86310e-02,3.96491e-02,-5.26122e-02,6.24416e-02,5.70093e-02,-1.26710e-02,2.18289e-02,-6.03865e-02,8.50794e-02,4.42213e-03,8.32407e-02,1.35790e-01,1.50458e-01,5.49515e-02,1.71522e-01,1.89737e-01,1.38835e-01,-7.70017e-02,3.21739e-02,5.06504e-02,8.20433e-03,1.62407e-01,1.30847e-01,1.79676e-01,8.03722e-02,2.82170e-02,6.97974e-02,3.11565e-02,-5.67152e-02,3.11330e-04,-2.66798e-02,5.01922e-02,8.16220e-02,-7.46648e-02,9.96612e-02,5.98410e-02,1.24711e-01,9.92803e-02,9.98220e-02,1.72738e-01,5.65202e-02,3.87959e-02,1.07616e-01,1.22245e-01,1.69360e-02,8.05708e-02,4.08344e-02,-4.82725e-02,-7.81705e-02,3.58245e-02,3.42134e-02,6.84394e-02,3.13877e-02,1.82771e-01,6.67510e-02,-3.66930e-02,2.52608e-03,4.45816e-02,-1.00085e-02,-7.12462e-02,-8.01618e-02,9.50968e-03,1.91943e-02,7.79057e-02,9.21864e-02,3.74493e-03,1.11226e-01,6.51649e-02,5.88323e-02,5.91314e-02,1.34358e-01,7.05107e-02,7.05211e-02,-3.87144e-02,5.04114e-02,-1.27154e-01,-2.60927e-02,-1.30699e-01,-7.71889e-02,-1.29005e-01,-6.68558e-02,8.41814e-02,1.10773e-01,5.97275e-02,-2.04021e-02,-1.84096e-02,-5.90096e-02,-6.72021e-02,1.34990e-02,7.73709e-02,1.11558e-01,1.23295e-01,1.34572e-01,7.88596e-03,1.08932e-01,1.01482e-01,9.64694e-02,1.62549e-01,1.26636e-01,1.00279e-02,1.01240e-01,-7.88109e-03,-9.58454e-02,7.22946e-03,-1.33673e-01,-9.04259e-02,4.74315e-03,3.77536e-02,-9.29862e-02,-3.03500e-02,1.12706e-01,-2.41429e-02,9.82184e-02,1.21910e-02,1.45356e-01,4.71155e-03,-4.90897e-02,4.34087e-02,-3.05694e-03,-2.17610e-03,-8.29253e-02,1.58427e-02,4.05421e-02,-4.22043e-02,-1.28958e-02,3.81854e-02,5.27888e-02,-9.80302e-02,-1.87730e-03,-7.39064e-02,1.52828e-02,-8.07481e-02,-1.37465e-01,-1.07698e-01,1.29591e-02,-2.05221e-02,-1.78997e-02,-5.81769e-02,6.10332e-02,5.34116e-02,1.01201e-01,9.43785e-02,3.10588e-02,-1.91974e-02,7.20200e-02,-1.57902e-01,-1.75629e-01,-4.95850e-02,-7.07479e-02,5.37369e-02,-8.19777e-03,7.08265e-02,2.26253e-03,-6.90846e-02,3.84109e-04,-2.54547e-02,-1.13959e-01,1.49966e-02,-7.97653e-02,-1.23390e-01,-1.64185e-01,-1.84502e-01,-8.86909e-02,-6.01030e-02,-2.29977e-02,-4.72437e-02,1.23175e-01,-3.21531e-04,3.45725e-02,8.14001e-02,3.00660e-02,3.47209e-02,8.26691e-02,-1.34885e-01,-4.07102e-02,3.96225e-02,1.47600e-01,-6.01878e-02,8.00022e-02,4.35047e-02,7.88636e-02,7.69915e-02,-4.20250e-02,2.48512e-02,9.73688e-03,-7.53630e-02,9.27967e-03,-4.63627e-02,-1.27456e-01,-9.56024e-02,-2.99041e-02,-1.04163e-01,-1.11376e-01,7.46747e-04,2.02684e-02,3.81393e-02,1.13116e-01,-3.96514e-02,1.07872e-01,1.77717e-01,-1.21265e-01,1.04961e-01,1.41853e-01,2.17771e-01,1.22388e-01,5.63552e-04,4.67186e-03,-2.06299e-02,-2.60871e-02,-2.34330e-02,-8.50789e-02,-5.13376e-02,-4.61085e-02,-1.15391e-01,-3.86658e-02,-1.06043e-01,-2.27530e-02,-4.20267e-02,-1.21130e-01,-6.74726e-02,-3.39007e-03,-3.36280e-02,-9.83336e-02,-9.93178e-03,3.87315e-02,-1.84099e-02,-1.88961e-03,9.68568e-03,5.84156e-02,7.08748e-02,-2.37140e-02,1.33017e-01,1.08460e-01,2.40954e-02,-1.99366e-02,2.19771e-02,6.80760e-02,-4.95410e-02,-9.79258e-02,-1.16950e-01,3.46153e-03,-1.34199e-01,-1.44464e-01,-6.67587e-02,4.68857e-02,-1.40774e-02,7.75965e-02,-4.46597e-03,4.08573e-02,-3.19317e-02,2.56366e-02,-1.51730e-01,-4.68874e-02,1.70168e-02,1.06982e-01,-5.86193e-02,-7.17432e-02,4.14826e-02,7.66504e-02,9.24257e-03,3.64040e-02,-4.07290e-02,-8.85959e-02,-6.51779e-02,1.04889e-02,-8.92358e-02,-1.41113e-02,-7.71492e-02,-2.78194e-02,-1.50530e-01,-9.28219e-02,1.43027e-02,5.83235e-02,1.27112e-02,9.37945e-02,-3.68080e-02,-1.49199e-02,9.10034e-02,1.05812e-01,-2.14108e-02,3.30624e-02,1.71251e-02,1.98790e-02,-5.11154e-02,8.09646e-02,-7.72945e-02,8.03552e-02,6.53512e-02,8.88425e-02,-5.41468e-02,-1.96822e-02,7.66505e-02,-2.91192e-02,9.94020e-02,7.57073e-02,-2.85921e-03,6.97392e-02,-1.01614e-01,-1.54998e-01,-9.35330e-03,8.27854e-02,5.05233e-02,1.32305e-01,-9.39866e-03,2.11054e-02,1.21344e-01,6.76316e-02,9.58318e-02,-9.25908e-02,-1.25705e-01,-1.76580e-02,-1.65636e-02,3.38473e-02,-5.10440e-02,-2.96054e-02,-2.16210e-03,4.00314e-03,5.75312e-02,8.16344e-02,2.87561e-03,9.48583e-02,3.67390e-02,1.90933e-01,1.03114e-01,1.00754e-01,-1.22461e-02,-2.55642e-02,9.35874e-02,6.16504e-02,1.64188e-01,8.76289e-02,8.48960e-02,2.59924e-02,1.52971e-01,1.71529e-01,2.57344e-01,-7.49815e-02,-6.74760e-02,3.65577e-02,-2.72562e-02,-3.19061e-02,-4.39733e-02,4.26579e-03,-4.99572e-02,-8.39296e-03,-1.64920e-02,2.96936e-03,-1.92989e-02,3.52061e-02,8.80674e-02,2.08995e-02,-2.02318e-02,-9.10148e-02,-8.37792e-02,8.42737e-02,-4.16793e-03,1.12673e-01,1.63594e-01,1.66837e-01,9.32602e-02,1.47849e-01,9.42939e-02,1.86115e-01,8.09477e-02,-7.21467e-03,-4.87179e-02,-1.87672e-02,-2.06673e-02,1.00935e-01,1.14268e-02,-3.60077e-02,-3.80377e-02,3.23799e-02,-3.35165e-02,7.36704e-02,1.09167e-01,7.25438e-02,4.65017e-02,1.03649e-01,5.85700e-02,-9.58239e-02,-8.27768e-03,4.06339e-02,5.77262e-02,9.77546e-02,2.20551e-02,4.50459e-02,-2.50478e-02,4.46626e-02,1.67160e-01,-1.95810e-04,-1.02919e-02,-5.52220e-02,-1.92237e-01,-2.81657e-02,-3.35434e-02,-8.54047e-03,5.03466e-02,-3.18783e-02,-1.08798e-01,4.92935e-02,3.88377e-02,5.00080e-03,1.33049e-01,-2.62989e-02,1.03541e-01,1.06429e-01,5.39240e-02,2.96454e-02,7.12107e-02,-1.96939e-02,1.15402e-02,1.79471e-02,5.26836e-02,-1.66745e-02,8.84466e-02,8.33734e-03,8.24687e-02,9.75046e-02,-1.75336e-03,-7.62334e-02,2.54182e-02,-1.25166e-01,7.10997e-02,-2.53480e-02,-6.46602e-03,-1.94488e-03,-4.53127e-02,7.01117e-02,-4.39056e-02,8.75499e-02,1.91523e-02,-4.98029e-02,5.30722e-02,6.37627e-02,1.54454e-01,1.53787e-01,5.58552e-02,-3.47247e-02,-7.86512e-03,-3.19829e-02,-7.42276e-02,3.42435e-02,-4.26059e-02,1.08053e-01,8.59260e-02,1.45939e-02,3.01673e-02,8.43333e-02,-2.15105e-01,-4.58705e-02,-1.46112e-02,1.01177e-01,3.45670e-02,-3.04922e-02,5.27406e-02,-2.79208e-02,5.49234e-02,8.44272e-02,7.59554e-03,-1.25417e-01,-3.26248e-02,-3.13781e-03,1.12440e-01,6.99873e-02,3.53860e-02,-6.55000e-02,-1.64135e-02,-6.18071e-02,-4.68741e-02,8.37004e-02,3.20034e-02,7.87214e-02,3.04327e-02,-6.47083e-02,2.12511e-02,-5.31663e-02,-3.25431e-02,-1.42890e-01,2.82364e-02,8.22760e-02,1.29318e-01,1.00693e-01,-1.59432e-03,-4.07194e-02,-5.94123e-02,3.09803e-02,-9.79146e-02,-1.79974e-02,-9.19604e-03,2.96722e-02,6.73630e-02,1.52051e-01,1.06316e-01,6.44652e-02,-6.04521e-02,1.84777e-02,1.27228e-03,-3.68517e-02,1.08724e-01,-1.73680e-02,-6.27744e-02,-7.29317e-02,-1.11022e-01,-1.12340e-02,-9.39900e-02,-2.28737e-02,1.38143e-02,-1.16673e-01,1.11047e-01,6.63371e-02,4.32040e-02,5.10615e-02,8.71161e-02,-7.76189e-03,-8.57617e-02,2.77619e-03,-4.27412e-02,-3.21011e-03,1.06377e-01,7.58972e-03,1.12645e-01,1.68310e-02,-1.10869e-01,6.30904e-02,2.32383e-02,3.13219e-02,1.68035e-02,-8.15984e-02,-2.32976e-02,-5.92846e-02,-1.40213e-01,-9.52970e-02,-1.12388e-01,3.08108e-02,3.18607e-02,5.90577e-02,1.22873e-01,1.18404e-01,1.11255e-01,2.63499e-02,-1.82359e-02,7.37221e-02,-3.04168e-02,-2.65563e-02,1.25328e-02,6.10170e-02,-3.03109e-02,4.35241e-02,-4.30732e-02,-3.65741e-03,3.72529e-02,1.14673e-01,1.29088e-01,-1.16118e-02,4.13083e-02,2.34187e-02,-1.24624e-01,-1.26084e-01,-3.70666e-02,-5.49980e-02,-6.76568e-02,4.99070e-02,-2.83602e-02,4.87655e-02,1.61002e-01,1.18113e-01,6.98143e-02,3.47031e-02,2.85504e-02,1.04449e-02,1.15545e-01,5.53825e-02,2.73437e-02,-2.68318e-02,-4.57749e-02,5.85284e-02,2.95776e-02,6.82645e-02,-4.83942e-02,6.55060e-02,2.41590e-02,-8.87795e-02,-4.12753e-02,-2.67223e-02,-6.27606e-02,-1.02456e-01,-1.39181e-01,-5.39995e-02,6.35806e-02,9.04747e-03,1.14387e-02,7.32159e-02,7.44088e-02,1.10890e-01,1.20507e-01,9.57839e-02,4.71234e-02,-2.36321e-02,-3.11565e-02,-3.83822e-02,-5.90825e-02,-8.51113e-02,-5.62953e-02,1.17084e-02,-2.53919e-02,8.02250e-02,4.81173e-02,-2.56929e-02,3.00603e-03,4.75702e-02,1.72906e-02,-3.22463e-02,-3.37298e-02,-8.71846e-02,-2.31032e-01,-2.20878e-02,1.76104e-01,5.94533e-02,-8.40145e-03,-6.43264e-02,9.70860e-02,1.67760e-01,-6.95576e-02,-1.10714e-01,-8.49474e-02,-3.97546e-02,-7.42423e-02,-7.37434e-03,4.54437e-03,-1.85223e-02,-6.03504e-02,4.69450e-02,7.76887e-02,3.22347e-02,2.59101e-02,1.49818e-02,4.88771e-02,-1.15964e-02,-1.21066e-02,-1.21531e-01,-5.54555e-02,-3.73657e-02,-2.81890e-01,-9.24307e-02,1.23502e-01,2.28663e-02,-2.01420e-03,-1.13386e-02,5.69655e-02,1.86603e-01,3.93543e-02,-5.51851e-02,-3.62102e-02,-5.55486e-02,-8.88566e-02,-1.07229e-01,-2.83680e-02,-1.21845e-02,-7.78238e-02,1.85390e-02,1.14661e-01,7.51519e-02,4.47909e-03,-1.23208e-02,-8.17637e-02,-1.30781e-01,-1.11181e-01,3.00715e-02,-7.29795e-02,-1.16529e-02,-1.47896e-01,-5.70972e-02,6.93688e-03,-3.97356e-02,-6.09259e-02,5.32207e-02,-3.04123e-02,-1.88502e-02,-1.10296e-01,-1.08680e-01,4.12635e-02,8.79357e-02,-5.19641e-02,-1.01440e-01,2.97876e-02,6.31734e-03,-3.00336e-02,9.89742e-02,-4.12729e-02,3.73148e-03,2.04871e-02,-1.42563e-01,-1.10385e-01,-4.06469e-02,-1.15349e-01,-1.17072e-01,-5.08822e-02,8.24572e-03,-5.37514e-03,-5.08304e-02,7.06895e-02,-4.47032e-02,4.11276e-02,1.75508e-02,-6.47487e-02,-1.06925e-02,-1.22341e-01,-3.32091e-02,-1.12900e-01,2.31066e-02,-1.42642e-02,-9.59851e-02,-6.12398e-02,-7.86942e-02,4.32974e-02,-1.16522e-01,-1.30862e-01,-1.00146e-01,-5.55876e-02,1.13152e-02,-5.08527e-02,-9.27262e-02,-1.63460e-01,-1.83506e-01,1.38343e-02,1.16710e-02,-2.82367e-02,-5.42059e-02,-6.39164e-02,-2.73021e-02,-5.46315e-02,-7.16597e-02,1.65697e-02,-7.06003e-02,-2.68503e-02,-2.80407e-02,-3.74325e-02,-1.13621e-01,-1.08353e-01,-5.24167e-02,-8.21166e-02,-1.75163e-01,-1.05692e-01,-1.63543e-01,-2.14392e-01,-7.97924e-02,-1.60128e-01,1.57888e-02,-1.01318e-01,-1.45166e-01,-3.50635e-04,1.17056e-01,2.16122e-02,1.25406e-02,7.91479e-02,-3.66920e-02,-6.53968e-02,-8.31104e-02,
-1.70901e-02,-4.11800e-02,2.15984e-03,-7.55542e-02,6.49805e-02,5.28370e-02,-3.64970e-02,3.41072e-02,7.94568e-02,6.60057e-02,-2.93025e-03,-9.31926e-04,3.13581e-02,-3.27164e-02,-1.17672e-02,-1.04272e-02,6.73246e-02,-3.54314e-02,-5.86588e-02,5.93421e-03,-7.05942e-02,-2.69295e-02,-5.01145e-02,-5.39287e-02,2.23362e-02,-8.16837e-02,5.61682e-02,7.80515e-02,-4.11499e-02,-1.50227e-02,2.82745e-02,-3.21653e-02,3.85732e-02,7.03232e-02,-2.98340e-02,-7.49674e-02,2.86166e-02,-6.26431e-02,-2.53833e-02,-2.06462e-02,8.81393e-03,-1.35076e-02,-2.36441e-02,1.49833e-02,-4.52883e-02,-1.93253e-02,2.33319e-02,1.39694e-02,1.33306e-02,3.21626e-04,1.48073e-02,-4.94903e-02,1.59104e-02,-5.26943e-02,7.83354e-05,-8.24248e-02,6.16988e-02,-1.43434e-02,6.21269e-02,-2.43728e-02,-9.85053e-02,1.02556e-02,-2.40393e-02,-2.82733e-02,-5.97281e-02,-1.12274e-01,-1.81364e-01,-1.33440e-01,-1.59289e-01,-1.49692e-01,-1.88120e-01,-1.49597e-01,-1.16752e-01,-7.47323e-02,-2.28925e-02,-3.65741e-02,3.10465e-02,-2.84789e-03,-9.99157e-02,-1.10960e-01,1.01358e-02,-3.05869e-02,-7.59124e-02,2.56960e-03,-4.45098e-02,-7.29761e-02,-7.50261e-02,-5.40630e-02,-2.35854e-02,-7.49154e-02,2.92164e-02,6.02911e-02,-1.55449e-01,-1.42699e-01,-5.67646e-02,-9.53084e-03,3.09573e-02,-1.37829e-01,-1.90258e-01,-1.18070e-01,-3.83275e-02,-9.68906e-02,-2.99912e-02,-8.74100e-02,5.46547e-02,-1.35254e-03,1.23696e-01,5.62428e-02,-2.25409e-02,8.78288e-02,8.01553e-03,4.35906e-02,-4.18789e-02,4.26962e-02,-7.81405e-02,-1.04067e-01,-6.83566e-02,-6.37802e-03,-1.40615e-03,-7.50288e-02,-6.91195e-02,-4.89241e-03,-2.61677e-03,-2.51272e-02,3.95365e-02,-5.41799e-02,-1.89823e-03,-3.93592e-02,1.30618e-01,1.08860e-01,-8.84323e-02,4.95386e-02,1.71080e-02,-6.23996e-02,1.27207e-01,1.39634e-01,2.37305e-01,7.96528e-02,8.01597e-02,-8.55393e-02,-5.41413e-03,-1.31812e-02,-4.02295e-04,-1.33039e-01,-6.43687e-02,-2.15949e-01,-2.87733e-02,-3.24892e-02,-1.23866e-01,4.13578e-02,-9.84639e-02,-4.79315e-02,1.26526e-02,-6.05014e-02,-7.44073e-03,-6.67518e-02,-1.18411e-01,-2.74464e-02,-6.73594e-03,6.58709e-02,3.60063e-02,3.99878e-02,9.80547e-02,-3.09378e-02,4.33020e-02,1.21415e-01,8.01156e-02,-4.70804e-02,6.83175e-02,3.30753e-02,-6.03924e-02,-2.27572e-01,1.07546e-02,3.02964e-02,-1.93682e-02,8.44083e-02,2.94627e-02,3.55826e-02,8.58218e-03,-8.14881e-02,-7.34770e-02,-8.39148e-02,-1.00560e-01,-1.41448e-01,-1.50929e-01,-9.77688e-02,-1.05678e-01,-2.71952e-02,-5.60041e-02,-1.44283e-01,1.10050e-01,3.95206e-02,1.92174e-01,1.81673e-01,4.92915e-02,-3.57157e-02,7.15468e-02,-7.26572e-02,-6.74780e-02,-1.32004e-01,-1.93791e-02,2.06837e-01,-1.87140e-02,6.59342e-02,1.73351e-01,8.86232e-03,1.81368e-02,2.59700e-02,2.78354e-02,-1.32985e-01,-2.68482e-02,-1.34257e-01,-1.60628e-01,-6.56148e-02,1.92979e-02,-5.15108e-03,5.28235e-02,9.11497e-02,1.07059e-01,1.17816e-01,7.89131e-02,1.01424e-01,9.58644e-02,-5.64132e-02,-2.08795e-02,-1.29076e-01,9.71259e-02,-4.72763e-02,1.87334e-02,3.62496e-02,1.29683e-02,4.91033e-02,8.97441e-02,7.28777e-02,1.25540e-02,-3.87126e-02,-5.69005e-02,-5.59455e-02,-4.62326e-02,-3.71198e-02,-5.51237e-02,-2.28638e-02,9.64329e-02,-2.73932e-02,6.02979e-02,5.76547e-02,4.01162e-03,2.22059e-01,2.34047e-01,2.21353e-01,1.85640e-01,5.29682e-02,6.90779e-02,-1.13213e-01,9.81591e-02,4.42418e-02,-6.30637e-04,6.23361e-02,8.54113e-02,-1.35056e-02,9.47271e-02,1.38385e-01,1.13991e-02,7.78203e-03,-5.87747e-02,-1.55883e-01,-1.90987e-01,-1.26129e-01,-1.18135e-02,-1.21320e-02,-1.48075e-02,1.03826e-01,6.94527e-02,6.31691e-02,1.56917e-01,1.59146e-01,1.64739e-01,2.37864e-01,1.63682e-01,-6.54651e-02,4.57722e-02,-8.50397e-02,-3.81053e-02,1.50662e-02,3.87980e-02,-2.42125e-02,1.25611e-02,1.12527e-01,5.58754e-02,9.41236e-02,1.06253e-01,1.12316e-01,-5.17323e-02,-1.97106e-01,-2.13791e-01,-1.59025e-01,-3.18627e-02,1.34842e-02,1.26933e-02,7.70502e-02,3.13850e-04,1.73139e-01,6.42786e-02,1.34591e-01,2.15572e-01,4.27849e-02,4.06176e-02,1.86997e-02,6.02666e-02,-5.65100e-02,-1.51253e-01,-2.00455e-02,9.11363e-02,1.49783e-01,1.56853e-01,1.77639e-01,1.39070e-01,1.76434e-01,6.33482e-02,9.07670e-02,1.20100e-01,-9.55499e-02,-8.53800e-02,-2.53715e-01,-1.13011e-01,-1.05462e-01,-9.38352e-02,1.03917e-01,-6.59350e-02,2.67742e-02,1.44062e-02,9.40742e-02,1.34410e-01,2.36992e-01,1.13595e-01,-8.45378e-02,-5.65709e-03,-2.36922e-02,-1.18767e-01,-1.00216e-02,-4.05848e-02,9.95892e-02,5.83365e-02,1.30957e-01,1.55544e-01,3.84100e-02,8.07329e-02,1.37672e-01,2.04590e-01,-3.39436e-02,-9.72833e-02,-2.29175e-01,-1.46823e-01,-1.67633e-01,-1.41445e-01,-4.99134e-02,6.24545e-02,3.45195e-02,3.97348e-02,2.80248e-02,1.60352e-01,1.37300e-01,1.44244e-02,-8.56370e-02,2.69646e-02,-6.10174e-02,-1.16647e-01,3.83120e-02,4.57935e-04,1.04262e-01,1.20130e-01,1.21689e-01,9.37157e-02,1.59310e-01,-2.76390e-02,1.44751e-01,1.07620e-01,-2.91729e-02,-1.13518e-01,-1.09959e-01,-1.30851e-01,-3.66779e-02,1.89636e-02,-3.73341e-02,3.16379e-02,-8.88074e-02,1.90034e-02,-2.98173e-02,-6.94821e-02,1.09408e-01,3.21338e-03,1.48979e-01,-1.87825e-02,-5.62094e-02,-2.00024e-01,-5.78297e-03,-5.74199e-02,7.50591e-02,6.15434e-02,-8.89704e-02,2.51024e-02,5.47386e-02,-3.64217e-02,1.28231e-01,1.30855e-01,9.57172e-02,1.13452e-03,-4.33103e-02,1.61627e-02,1.44259e-06,-6.49122e-02,-1.09436e-01,-1.36558e-01,-1.24421e-01,-6.66607e-02,-1.94847e-01,-1.00768e-01,8.82494e-02,3.07491e-02,1.51432e-02,-7.43456e-02,3.15188e-02,3.98520e-02,5.53571e-02,-1.89781e-02,-1.09866e-01,-6.22204e-02,-8.15963e-02,-7.26104e-02,-6.75866e-02,-7.51038e-02,-2.49353e-02,1.00321e-01,1.61899e-01,1.54603e-01,-5.05411e-02,-2.32814e-02,-1.03104e-02,-9.24421e-02,-5.16528e-02,-9.49169e-02,-1.78519e-01,-1.47897e-01,-1.86164e-02,-8.49421e-02,4.67339e-02,1.01088e-01,-2.17423e-02,-9.18657e-02,-2.93553e-04,1.47862e-02,1.72155e-01,-1.04453e-01,-1.01586e-01,-2.03551e-01,-2.10790e-01,-1.36307e-01,-5.75582e-02,-3.19593e-02,-3.90603e-02,8.99452e-02,8.50007e-02,1.58521e-01,1.03753e-01,3.48707e-02,-2.59624e-02,-4.43229e-02,-8.29302e-02,-2.09441e-01,-2.11261e-01,-5.26434e-02,-5.49831e-02,-1.31033e-01,1.40777e-01,3.04594e-02,-1.06965e-01,6.84343e-02,-2.25313e-02,-1.46531e-01,-4.94169e-02,-6.19582e-02,-1.28381e-01,-1.11138e-01,-1.63494e-01,-1.76606e-01,-9.72949e-02,-1.36282e-01,3.17453e-02,1.78909e-01,1.57366e-01,1.92055e-02,6.27596e-02,4.91894e-02,-2.19589e-02,-1.26692e-01,-4.30799e-02,-2.11659e-01,-2.07660e-01,-1.09708e-01,-3.72897e-02,4.97734e-02,-1.45109e-01,-5.50307e-02,4.78095e-02,-1.52596e-01,-1.02072e-01,-1.41571e-01,-9.32400e-02,-7.13764e-02,-1.22540e-01,-3.87581e-02,-1.67364e-01,-8.42976e-02,-1.47522e-01,-1.21542e-01,6.30884e-02,1.32941e-01,2.30126e-01,-3.72182e-03,-2.59327e-02,-2.90506e-02,-1.14899e-02,-3.47092e-02,-6.56516e-02,-1.13371e-01,-1.98031e-01,-1.79545e-01,-4.22567e-02,1.70479e-01,-2.25162e-02,1.26980e-02,-4.43849e-03,8.31264e-02,-7.56565e-02,-1.42103e-01,-1.40596e-01,-2.30326e-01,-1.17590e-01,-1.10960e-01,-1.82851e-01,-4.51547e-02,-3.41387e-04,7.43059e-02,2.86011e-02,1.12537e-01,1.36692e-01,9.02234e-02,7.75443e-02,-1.41455e-03,1.14677e-02,-1.06287e-02,-1.22482e-02,-9.72832e-02,-1.29490e-02,-9.97945e-02,5.65194e-02,1.58264e-01,3.02764e-02,-5.69252e-02,-6.73673e-02,3.36034e-02,3.95046e-02,2.70070e-02,-4.08367e-02,-2.85018e-01,-2.03186e-01,-1.39827e-01,-1.01526e-01,-3.63331e-02,4.33207e-02,8.66014e-02,1.67384e-01,1.30963e-01,1.40380e-01,-1.80099e-02,-4.39378e-02,-2.34087e-02,2.63917e-02,-3.19103e-04,-2.45992e-02,-2.21514e-03,-7.12780e-02,-9.58034e-02,-3.51719e-02,-1.58693e-02,-8.79674e-02,-9.11392e-02,7.61208e-03,-7.44693e-02,4.79078e-02,-7.32937e-02,-5.07112e-02,-1.97701e-01,-1.45847e-01,-1.19830e-02,-8.80337e-02,-4.74791e-02,6.85079e-02,-7.64042e-02,-1.64279e-02,-4.46175e-02,9.16442e-02,-3.85708e-02,4.90872e-02,4.82745e-02,1.19107e-01,1.19917e-01,-2.26903e-02,3.45574e-02,3.99689e-02,-5.81950e-02,-5.34963e-03,-5.31507e-02,-1.21599e-01,4.32045e-02,-2.91709e-02,7.01350e-02,6.33323e-02,5.01822e-02,8.50052e-03,-1.07858e-01,-1.00169e-01,-1.10832e-01,-1.48867e-01,-1.06830e-01,-8.83301e-02,-1.36887e-01,-2.20435e-02,1.74837e-02,7.32821e-02,1.17018e-01,3.11439e-02,-1.79220e-02,1.05583e-01,3.26496e-02,5.09961e-02,3.12491e-02,9.69635e-02,8.15640e-02,1.80166e-02,1.53151e-02,3.17881e-02,1.06894e-01,5.49424e-02,-4.77946e-02,5.07018e-02,4.59794e-02,-1.44483e-02,-3.38401e-02,-1.37923e-01,-7.36368e-02,-1.73938e-01,-4.65056e-02,-1.25257e-02,-2.55290e-02,2.14402e-02,5.58809e-03,5.18109e-02,8.18503e-02,4.56417e-02,1.71306e-01,6.90133e-02,9.29195e-02,1.14666e-01,1.39956e-01,-1.96735e-02,1.05333e-01,2.33015e-02,-1.28110e-02,-7.98614e-02,7.97362e-02,2.59412e-02,-2.76288e-02,-9.08881e-03,-8.70331e-02,3.58893e-02,-1.22907e-01,-1.49917e-01,-2.96731e-01,-1.09239e-01,-1.68584e-01,5.55275e-02,-5.53415e-03,8.24189e-02,2.70877e-02,8.60655e-02,1.62317e-01,3.87870e-02,1.16412e-01,5.61603e-02,1.87765e-01,1.25781e-01,6.78984e-02,3.04638e-03,1.61012e-02,2.82996e-02,6.64212e-02,-5.86811e-02,-1.12989e-01,-6.98042e-02,8.08972e-02,4.41628e-02,6.06982e-02,3.11818e-03,-1.35479e-01,-2.10898e-01,-2.22496e-01,-1.68554e-01,-1.23852e-01,-1.24735e-01,8.32231e-02,-9.40729e-03,5.06745e-02,2.89056e-02,4.26988e-02,9.38614e-02,1.80775e-01,1.35231e-01,1.51135e-01,2.11370e-03,5.09241e-02,5.89756e-02,9.19571e-02,2.54644e-02,-4.09705e-02,-4.53449e-02,2.75040e-03,-6.05813e-03,-5.10088e-02,3.90768e-02,6.09462e-02,-4.33279e-03,-7.06589e-02,-1.95512e-01,-3.16718e-01,-2.58013e-01,-1.58509e-01,-2.66114e-01,-2.51451e-01,-9.30256e-02,-6.76033e-02,-1.46233e-01,-1.51528e-01,-8.52614e-02,-1.75550e-02,-5.56402e-02,-5.78018e-02,-1.76641e-01,-1.18071e-01,-1.48732e-01,3.22852e-02,3.29486e-02,9.62713e-03,-3.78914e-02,9.11375e-03,1.60106e-02,1.07828e-02,-2.43762e-02,5.23654e-02,7.86288e-02,2.50144e-02,-1.50004e-02,-8.64460e-02,-5.18451e-02,-1.46412e-01,-5.30616e-02,-6.67269e-02,-1.11319e-01,-8.68064e-02,-8.87610e-02,-5.94528e-02,-1.01437e-01,-2.28975e-01,-2.14665e-01,-1.70317e-01,-6.60434e-02,-1.24460e-02,-3.96591e-02,-9.93794e-03,-4.61174e-02,-5.92222e-02,6.16808e-02,2.17640e-02,-4.07737e-02,
5.90824e-02,-7.01955e-02,-2.93588e-02,-7.25296e-02,-4.79312e-02,-7.36512e-04,7.65243e-02,2.91651e-02,4.24606e-02,3.62408e-02,3.02513e-02,1.30751e-02,2.92149e-02,4.64090e-02,7.36364e-02,-3.64638e-02,6.28222e-02,-7.68446e-02,-1.88455e-02,-8.20232e-02,-5.32073e-02,-2.43472e-02,-6.58354e-02,7.04385e-04,-8.08762e-02,-6.18000e-02,-1.15140e-02,2.49773e-02,-2.06439e-02,-4.51086e-02,7.42178e-02,3.86764e-02,-5.33357e-02,9.25646e-03,6.12565e-02,2.12261e-03,-7.18058e-02,-4.94404e-02,1.06464e-01,5.18498e-02,1.46527e-01,1.96799e-01,9.20909e-02,1.26611e-01,8.17149e-02,6.37712e-02,4.58997e-02,1.50920e-01,9.27684e-02,9.93047e-02,-3.15781e-02,-2.12985e-02,6.67317e-02,-3.21459e-02,-7.19214e-03,-5.10029e-02,-7.68684e-02,-5.16991e-02,8.13094e-02,1.00398e-02,5.39829e-02,2.75434e-02,-1.94086e-03,-4.96006e-02,-3.82361e-02,-1.55731e-01,-9.69023e-02,-5.53368e-02,-1.30360e-01,-1.84101e-01,-1.43024e-01,-5.06539e-02,4.56154e-02,9.79181e-02,1.69220e-01,1.36475e-01,1.93831e-02,-4.35738e-03,1.77107e-01,1.34001e-01,-6.88228e-02,-1.16956e-01,5.32230e-03,6.09314e-02,7.30553e-02,6.52472e-02,-9.23652e-02,1.19941e-01,1.01736e-01,7.79332e-04,-5.49356e-02,-9.36857e-02,-8.40205e-02,-1.66568e-01,-1.28644e-01,-1.56302e-01,-1.38184e-01,-1.91902e-01,-7.07213e-02,1.72846e-02,3.05916e-02,7.57076e-02,1.23152e-01,8.18129e-02,9.85228e-02,4.58087e-02,3.52054e-02,-5.85826e-02,-3.88011e-03,2.57235e-02,4.30878e-02,-4.72099e-02,1.26596e-02,-3.18309e-02,-1.27342e-01,1.26326e-01,-1.03218e-02,-2.56699e-02,-9.02755e-02,-1.03917e-01,-9.40605e-02,-1.71328e-01,-7.01495e-02,-8.85090e-02,-4.83236e-02,-4.55445e-02,-8.47242e-02,3.28968e-03,-1.26637e-01,4.49753e-02,9.56902e-02,1.35769e-02,3.36466e-02,9.58367e-02,6.50065e-02,2.42239e-03,7.26712e-02,6.16666e-02,7.54143e-02,1.13944e-01,-2.67635e-02,7.48919e-02,-8.86541e-03,1.22994e-01,-1.97063e-02,-2.93737e-02,-1.25704e-01,-1.67824e-01,-1.47498e-01,-1.55269e-01,-7.89137e-02,-6.50549e-02,-2.19874e-02,3.16220e-02,-9.84386e-02,1.85781e-03,-2.42159e-02,4.89194e-02,-6.97443e-02,6.39621e-02,-1.55960e-02,1.20419e-02,6.84727e-02,7.56334e-02,4.64147e-02,6.48585e-02,6.53379e-02,2.79012e-02,-5.34536e-03,-6.58012e-02,1.11893e-01,-6.53459e-03,-5.39820e-02,3.41420e-02,-1.11837e-01,-8.45492e-02,-1.13961e-01,-7.50573e-03,3.92743e-03,2.60873e-02,9.61037e-03,-4.17460e-03,7.68180e-02,5.83715e-02,-5.85814e-02,-5.09619e-02,4.38077e-02,-9.28266e-03,2.24799e-02,-5.65763e-02,4.31260e-02,-1.28965e-02,1.34740e-01,2.41669e-01,7.26740e-02,5.87672e-02,-3.84447e-02,-9.88270e-02,7.06801e-03,-2.25243e-02,-1.25169e-01,-6.58718e-02,-1.88072e-01,-1.19767e-01,-1.21359e-01,6.48177e-03,-9.83276e-03,-4.23249e-02,6.41557e-02,1.01338e-01,3.93659e-02,1.49920e-02,3.53376e-02,1.28708e-01,1.14887e-01,6.97344e-02,8.34654e-02,1.78563e-01,1.19023e-01,1.85231e-01,1.68152e-01,2.35208e-01,8.20142e-02,1.05244e-01,3.64956e-02,-4.35933e-02,3.49853e-03,-5.91442e-02,-4.10445e-02,-8.48628e-02,-1.74939e-02,-1.06200e-01,3.29093e-02,-4.30216e-02,2.00808e-03,-2.81687e-02,-1.39177e-02,-1.29205e-03,1.16713e-01,7.58983e-03,1.65568e-01,1.39303e-01,1.15213e-01,1.59743e-01,1.50861e-01,2.04739e-01,1.97274e-01,1.73496e-01,1.60676e-01,2.51574e-01,1.37215e-01,3.98082e-02,-2.18973e-02,1.80663e-02,-5.49227e-02,-7.86230e-02,-1.54590e-02,-1.44676e-01,-9.45955e-02,-5.28026e-02,2.59511e-02,-7.22550e-02,-6.74472e-02,5.98658e-03,-4.05941e-02,-4.95298e-02,3.82075e-02,3.20412e-02,7.61236e-02,5.11304e-02,-7.07866e-02,3.91151e-02,1.00471e-01,2.65872e-02,8.64554e-02,1.40687e-01,2.23442e-01,1.79454e-01,1.30943e-01,3.86278e-02,-4.95054e-02,5.64582e-02,-4.03156e-02,-3.57531e-02,7.60746e-02,-1.13560e-01,-2.95957e-02,1.76045e-02,7.62535e-02,-1.61331e-02,-2.50848e-02,-3.98074e-02,-2.45544e-02,2.07779e-02,-2.06030e-02,-2.14007e-02,-7.15447e-02,-2.68856e-01,-2.65326e-01,-2.39707e-01,-2.36749e-01,-1.56010e-01,-2.06771e-02,-1.06920e-01,-3.96816e-02,1.00561e-01,7.55818e-02,6.96851e-02,-1.99198e-02,-9.99366e-03,-4.77008e-02,-8.10126e-02,6.81978e-02,3.94705e-02,6.64669e-02,5.19283e-02,-2.08826e-02,7.66950e-02,4.02055e-03,2.41536e-02,2.98836e-02,9.01388e-02,2.72904e-02,-1.10233e-01,-2.53118e-01,-2.72382e-01,-3.66549e-01,-4.16202e-01,-4.18159e-01,-3.46361e-01,-2.92067e-01,-1.62378e-01,-8.21991e-02,2.31179e-02,1.16068e-01,-4.07816e-02,1.72620e-02,-6.19215e-02,-1.22464e-01,-1.26771e-01,-4.94883e-02,-1.06175e-02,-2.55145e-02,-1.13933e-02,-6.55139e-02,1.29793e-02,-3.97459e-02,6.15655e-02,-4.99361e-02,4.48737e-02,6.68274e-02,4.30377e-02,-1.91759e-01,-1.98704e-01,-2.02271e-01,-2.09239e-01,-3.67244e-01,-4.52684e-01,-3.94231e-01,-3.57269e-01,-2.15165e-01,-2.44075e-01,-6.01356e-03,-1.01812e-01,2.27030e-02,-1.17080e-01,2.58860e-03,-6.72989e-02,-5.00724e-03,1.15995e-01,1.58341e-03,7.66258e-02,4.12002e-02,-1.53849e-02,3.19205e-02,1.63209e-02,9.91571e-02,1.37328e-01,1.21338e-01,3.31807e-02,-1.16849e-02,-9.17042e-02,-9.88945e-02,-1.09642e-01,-6.60975e-02,-3.13240e-01,-2.08565e-01,-2.47666e-01,-2.39122e-01,-8.42731e-02,-6.70634e-02,-4.35545e-02,-1.05641e-04,-1.65423e-02,-7.97898e-02,-8.21538e-02,9.97504e-02,2.97861e-02,-4.18358e-02,2.46104e-02,2.67030e-02,1.36024e-02,4.73507e-03,-4.45683e-02,5.75207e-02,2.11720e-02,-1.96803e-02,4.37948e-03,7.09006e-02,-1.15701e-02,1.30490e-01,3.65368e-02,-2.87184e-02,-9.46534e-02,-1.41399e-01,-1.82696e-01,-1.73800e-01,-9.44187e-02,-5.38613e-02,-3.57143e-02,8.98383e-02,-3.39253e-02,-2.38644e-02,-6.86406e-02,-4.21590e-02,-2.10821e-02,-2.23034e-03,2.45071e-02,-6.81336e-02,-3.55725e-02,-4.88083e-03,-4.17049e-02,9.54300e-02,-2.43979e-02,-9.24703e-03,2.59428e-02,5.59093e-02,1.29201e-01,4.70192e-02,9.26423e-02,8.85301e-02,-6.23645e-03,-3.86338e-02,-5.31116e-02,-9.62512e-02,-2.12831e-01,-1.95940e-01,-3.24130e-02,-3.43443e-03,4.51955e-03,-7.08765e-02,-4.30223e-02,-7.04952e-03,7.07109e-02,-8.84674e-02,1.28413e-02,-2.83602e-02,-4.99246e-02,4.53233e-02,-3.75868e-02,5.14093e-02,2.59826e-02,-9.37499e-02,6.90095e-03,-6.91320e-03,5.18377e-02,5.33468e-02,9.71467e-02,-4.46627e-02,-7.43180e-02,-3.71893e-02,-8.01347e-02,-1.36200e-01,-1.44842e-01,-2.06926e-01,-9.94558e-02,6.58436e-02,-5.49480e-03,-1.63563e-01,-2.86908e-02,-4.12803e-02,-6.85230e-02,-4.18875e-02,-4.14512e-03,1.98298e-02,-4.07063e-03,-3.88912e-02,4.29943e-02,4.60356e-02,-1.23750e-01,-1.37687e-01,1.04158e-01,9.22625e-02,4.88559e-02,1.14644e-01,3.86289e-02,7.84715e-02,-3.33968e-02,6.80962e-02,1.67307e-03,1.13761e-02,-1.81694e-01,-4.09972e-02,-4.06962e-02,-5.17612e-02,-1.83140e-02,-7.43060e-02,7.85009e-02,4.48823e-02,-1.17374e-01,2.22163e-03,-3.43261e-03,-5.79560e-03,-5.76940e-02,-2.33957e-02,2.84966e-02,-2.14861e-02,-6.83933e-02,-7.75489e-02,-1.65823e-02,4.03795e-02,5.64951e-02,3.20508e-02,9.25473e-02,-5.07228e-02,-4.23261e-02,5.49914e-03,-5.07963e-02,-1.90478e-01,-1.00171e-02,3.54251e-02,6.45579e-03,1.79007e-02,-6.37281e-06,-1.29747e-02,-5.65209e-02,3.28732e-02,-5.50662e-02,1.29615e-01,7.36112e-02,1.52572e-01,6.19428e-02,-5.21364e-02,6.40312e-02,-1.11103e-02,1.34715e-02,-2.82225e-02,-2.48816e-03,-1.03839e-02,-2.55816e-02,1.25890e-01,1.07750e-01,4.40137e-03,-4.86767e-02,6.62360e-04,6.08138e-02,-4.04751e-03,-5.48506e-02,-1.53120e-01,-5.45539e-03,2.53837e-02,-4.09587e-02,-5.83434e-02,-1.02006e-01,3.44694e-02,1.33325e-02,-1.70703e-02,-5.42637e-03,-1.24523e-03,6.02987e-02,1.51203e-01,3.39143e-02,4.03758e-02,1.12144e-01,-2.02983e-02,3.93496e-02,4.99235e-02,2.49997e-02,4.37799e-02,3.50225e-04,-5.89532e-03,-4.09929e-02,-2.09198e-02,3.31158e-02,-5.28134e-02,7.30507e-02,1.59008e-02,4.16653e-03,-3.18300e-02,-5.11518e-02,-3.71225e-02,-1.67218e-01,1.13251e-02,8.16203e-02,-1.08208e-01,-3.02233e-02,-1.23907e-04,1.21141e-01,4.50146e-02,8.24382e-02,6.04070e-02,4.54480e-02,-2.71307e-02,9.48150e-02,1.56661e-02,6.08391e-02,-6.64475e-02,2.52766e-02,7.58827e-02,3.31095e-02,-1.25363e-02,7.49972e-02,-6.89727e-02,-1.14285e-02,-1.01717e-01,3.74151e-02,5.83116e-02,-3.35050e-02,-1.18619e-01,-1.14131e-01,-8.24431e-02,-8.03650e-02,-1.30760e-01,-1.47941e-02,-2.67175e-02,3.14997e-02,-1.75912e-02,1.07470e-01,9.06154e-02,7.76985e-02,1.14995e-01,4.44282e-02,-1.37030e-03,8.56716e-02,-2.03646e-02,-1.90140e-02,9.18396e-02,2.71412e-02,-2.23232e-02,-3.79787e-02,6.79971e-02,5.83665e-03,-6.02032e-03,-3.02158e-02,-7.50766e-02,-7.25932e-02,-3.18684e-02,-9.97766e-02,-4.91331e-02,5.92421e-03,-6.88608e-02,-8.57774e-02,-1.02001e-02,2.75204e-02,-8.41202e-03,3.84783e-02,2.04007e-02,-7.22139e-02,-9.43385e-03,-1.03491e-02,4.89140e-02,-3.22127e-02,1.17040e-02,-6.46890e-02,-1.57472e-02,-9.80521e-02,-1.05540e-01,6.81271e-02,-7.91464e-04,9.93219e-03,-2.96718e-02,-7.15728e-02,-9.31212e-03,4.05185e-02,-8.42434e-02,1.16431e-01,-2.83306e-02,5.25415e-02,-6.16453e-02,1.88299e-03,-2.90897e-02,-1.07086e-03,-5.40304e-02,-2.75235e-02,6.31596e-02,5.18332e-02,-1.17045e-02,5.20423e-02,2.47884e-02,-5.79157e-03,4.65667e-02,-4.42364e-02,-4.18872e-02,-3.75768e-02,7.06688e-02,-5.54401e-02,3.24169e-02,1.92985e-02,-7.26677e-02,7.86544e-03,5.50787e-02,-1.36236e-02,9.74589e-02,1.25479e-01,8.74074e-02,-7.58702e-02,4.19172e-02,4.13356e-02,-7.63544e-02,2.77338e-02,2.80127e-02,-3.78020e-02,-3.87328e-02,5.32164e-03,-3.82812e-02,1.19973e-01,4.01328e-03,1.74690e-01,2.34326e-03,1.57020e-01,1.51248e-01,2.08324e-01,1.69490e-01,2.04241e-01,7.91338e-02,4.53814e-02,7.22912e-02,-6.09141e-02,-1.49705e-02,4.57351e-02,8.05022e-02,2.45706e-02,1.39757e-02,1.37285e-01,-6.54685e-02,-1.09651e-01,-5.67855e-02,-4.42614e-02,8.29428e-02,1.26696e-01,8.62480e-02,5.42938e-02,4.37320e-03,5.78442e-02,4.47200e-02,5.84042e-02,-7.51120e-02,-4.37812e-03,1.03186e-01,1.64675e-01,6.48437e-02,-2.80517e-02,5.83319e-02,-2.47297e-03,-2.03228e-02,-6.28762e-02,-6.01840e-02,-5.16048e-02,-7.33648e-02,4.63869e-02,-2.74278e-02,-1.38643e-02,1.05626e-01,6.38142e-02,7.83049e-02,7.91355e-02,3.51523e-02,1.21012e-01,3.93101e-03,-1.78925e-02,4.88489e-02,2.46300e-02,-3.94852e-02,1.08196e-02,-7.35070e-02,-5.61684e-02,-9.61488e-03,6.74844e-02,-4.87766e-02,-2.42241e-02,-2.13095e-02,-2.15763e-02,-6.98806e-02,-1.71145e-02,
-6.50075e-02,5.62392e-02,6.57848e-02,8.12608e-02,3.17496e-02,2.89961e-02,5.24476e-04,-3.58740e-02,-3.54360e-02,-6.98490e-02,3.25870e-02,4.48561e-02,-3.78743e-02,-7.99873e-02,-1.38194e-01,3.42479e-02,7.39908e-02,3.87937e-02,2.27333e-02,-6.74607e-02,-2.37581e-02,4.24705e-02,-4.37367e-02,-5.89748e-02,4.14372e-02,-5.12382e-02,-4.24737e-02,-2.84739e-02,-7.07898e-02,-4.92633e-02,-6.94763e-02,-3.72397e-02,-7.37778e-02,-6.78864e-02,-7.91072e-02,-4.98760e-02,-7.92489e-02,-2.17739e-03,-6.77462e-02,1.41284e-04,2.71720e-02,-1.55031e-02,2.17184e-02,-7.44786e-02,-2.79517e-01,-1.96466e-01,-1.41762e-01,-4.57334e-02,-1.08505e-01,2.50952e-02,-3.53119e-03,-2.51946e-02,-1.41303e-02,1.69286e-02,6.23431e-02,-5.79885e-02,5.91495e-02,-1.24787e-02,4.30995e-02,-9.76327e-02,-8.18770e-02,-1.18780e-01,-8.41674e-02,-8.56330e-02,-1.78388e-01,-2.10764e-01,-1.99443e-01,-1.39823e-01,-2.00084e-01,-7.72495e-02,-2.12516e-02,-1.20421e-01,-2.15739e-01,-3.02804e-02,-1.61931e-01,-6.18976e-02,-1.49073e-01,-1.24785e-01,-4.93072e-02,-1.57540e-02,-1.23365e-01,-6.28635e-02,5.68306e-02,-7.75069e-03,-2.58462e-02,-5.67903e-02,8.04902e-03,-1.47425e-01,-1.51785e-01,-3.00297e-02,-1.15277e-01,-3.71897e-02,-1.40335e-01,-2.10681e-01,-1.60306e-01,-1.17726e-01,-1.02869e-01,-1.12761e-01,1.00477e-02,-9.26443e-02,-1.99085e-03,4.69554e-03,-6.18518e-02,-4.16167e-02,3.10341e-02,-6.33482e-03,-5.46013e-02,-5.10890e-02,-5.32860e-02,1.38454e-01,2.15584e-01,-2.69362e-02,-8.30572e-02,5.41324e-02,-4.07217e-02,-8.40264e-02,-7.81853e-02,-1.69692e-01,-2.91855e-02,-5.62249e-02,-2.07884e-01,-1.37135e-01,-9.23966e-02,-1.21708e-01,-2.07222e-02,1.31861e-02,4.12396e-02,5.83944e-03,2.57961e-02,-8.57536e-02,-1.39367e-02,-4.95828e-02,6.03965e-02,2.89261e-02,1.08998e-01,2.08756e-01,2.14258e-01,1.58999e-01,2.64836e-02,2.65077e-02,3.78440e-02,6.50601e-02,-1.74475e-01,-6.64407e-02,-1.13663e-01,-7.05316e-02,-2.33353e-02,2.82148e-02,-4.25748e-02,-3.36906e-02,-1.22865e-02,1.34479e-02,1.02506e-01,1.41231e-02,1.36168e-01,-9.59108e-03,-8.65987e-02,-1.05596e-01,6.28845e-02,-1.72093e-02,-6.08479e-02,-9.65891e-02,-3.24124e-02,-1.06784e-02,5.65911e-02,-5.71458e-03,3.73153e-02,-5.36783e-02,4.68528e-02,-8.24600e-02,-7.74664e-02,-1.28674e-01,-1.08544e-01,-4.10958e-02,-1.24059e-02,1.34287e-02,-6.62562e-02,-7.49085e-02,-3.54944e-02,1.32009e-01,1.21047e-01,1.30997e-01,5.44455e-02,2.76401e-02,1.26406e-01,1.43496e-01,6.18726e-02,4.43004e-02,2.52644e-02,1.97276e-02,-8.64163e-03,8.23540e-02,-5.02279e-03,3.21099e-03,1.38019e-01,4.98138e-02,4.27317e-02,-3.85717e-02,6.50247e-03,-8.00986e-02,-1.00971e-01,-8.52662e-02,-7.54431e-02,-4.59192e-02,2.22570e-02,1.02355e-01,6.27673e-02,5.77469e-02,1.39853e-01,5.30670e-02,1.37442e-01,9.23136e-02,1.15989e-01,1.52993e-01,1.56653e-01,5.57649e-02,2.04440e-02,2.58215e-02,1.76125e-02,1.72162e-01,1.19131e-01,-2.43932e-02,1.47487e-01,6.33084e-02,-2.15848e-02,3.46098e-02,-6.13728e-02,-5.27404e-02,-1.59116e-01,-3.74092e-02,3.25308e-02,-5.98589e-02,7.90566e-02,7.70063e-02,-4.58816e-03,-3.69485e-03,1.36385e-01,5.58486e-02,8.02825e-02,1.02488e-01,2.55709e-02,1.10711e-02,1.03706e-01,4.86072e-02,5.27014e-02,1.30140e-01,-2.43430e-03,2.42229e-02,1.07803e-01,1.61528e-01,4.34428e-02,-8.59746e-03,-2.36337e-02,7.32473e-02,8.14085e-02,-4.12700e-02,-1.22220e-01,-3.00547e-02,2.58010e-02,9.22213e-02,1.01192e-01,1.27944e-01,9.54107e-02,-1.46955e-03,-6.73443e-03,1.03690e-01,-1.85360e-02,-3.85479e-02,7.17475e-02,5.97002e-02,1.46169e-01,1.08981e-01,1.48374e-01,1.46650e-01,3.47128e-02,7.47735e-02,1.25724e-01,1.20067e-01,4.02329e-02,1.30053e-01,-3.82229e-02,1.05497e-01,1.13009e-01,-1.24732e-02,-8.52339e-02,-1.92957e-02,4.70482e-02,2.62595e-02,1.17102e-01,1.63470e-01,8.64346e-02,4.32468e-02,-2.33763e-02,2.02654e-02,-4.20008e-02,1.04595e-01,5.06495e-02,5.04796e-02,1.22610e-01,1.20544e-01,5.92907e-02,6.74595e-02,1.43900e-01,-9.32981e-02,-3.32368e-02,1.48396e-01,2.56361e-02,1.18744e-01,-2.47819e-02,6.87765e-02,-1.88295e-02,4.25360e-02,-7.23885e-02,2.34089e-02,2.32531e-02,1.08134e-01,6.30372e-02,1.39923e-01,1.62246e-01,-3.06149e-02,-3.65481e-02,-7.30950e-02,-1.03920e-01,-4.90811e-02,1.47808e-02,1.23773e-01,8.72183e-02,9.33747e-02,1.68509e-01,8.37261e-02,-2.23857e-03,-6.19905e-02,-9.28441e-02,-1.64505e-01,1.05508e-02,-5.76873e-03,3.69983e-02,9.41025e-02,5.73492e-02,4.75652e-02,-1.99934e-02,1.32336e-02,3.15589e-02,-1.80977e-03,8.93917e-02,2.13287e-02,9.63934e-02,1.23504e-01,-7.78983e-02,-1.01789e-01,-6.33479e-02,-1.91722e-02,-2.04836e-03,-5.00016e-02,4.96842e-02,6.96586e-02,-2.29509e-02,1.72419e-02,-1.30801e-02,7.13927e-02,-1.08766e-01,-1.88977e-01,-4.53527e-02,-1.20471e-02,2.39865e-02,5.88723e-02,4.00483e-02,4.18779e-02,9.68341e-02,-3.64035e-02,-2.02746e-02,1.36284e-01,-1.20405e-02,1.46879e-01,2.37449e-02,7.85405e-02,-1.08814e-01,-1.12687e-01,-1.15128e-01,-2.22944e-02,3.10892e-02,-3.10375e-02,-6.53570e-03,6.73818e-02,9.28287e-02,7.76392e-02,-5.09323e-02,-3.59921e-02,-1.64811e-01,-1.25510e-01,2.41272e-02,-9.25763e-02,-1.75313e-02,1.11271e-02,-3.13177e-03,9.74969e-03,1.88973e-01,-3.20001e-02,-1.01268e-02,7.11808e-02,1.59122e-02,1.52500e-01,1.03967e-01,8.48845e-02,-4.51044e-02,-3.64191e-02,-3.88423e-02,-7.02393e-03,-1.28887e-02,5.49776e-02,1.30499e-01,5.33306e-02,7.69993e-02,3.05919e-02,2.26207e-02,-1.54781e-01,-1.88796e-01,-1.36631e-01,-1.73290e-01,1.18556e-02,7.09870e-03,5.67073e-02,-4.80031e-02,-2.49057e-02,6.57558e-02,-2.04094e-02,-5.71293e-02,4.40387e-02,9.79407e-02,1.16976e-01,4.74788e-02,8.64054e-02,-4.84730e-02,-4.64581e-02,-1.30546e-01,-7.26546e-02,6.41479e-03,1.05755e-01,9.88944e-02,1.17386e-02,1.08982e-02,-5.39530e-02,-1.47004e-02,-9.97251e-02,-2.11812e-01,-2.98304e-01,-3.11029e-02,-7.67056e-02,1.30413e-02,2.21223e-02,-7.14227e-02,-1.04101e-01,-4.04911e-03,-4.94971e-02,-3.22979e-02,1.88682e-02,7.05879e-02,9.25447e-02,1.19660e-02,-1.51867e-03,-6.74598e-02,-1.38438e-01,-1.16868e-01,-1.40983e-02,9.07543e-02,1.16990e-01,4.28068e-02,-8.73608e-02,2.64578e-02,2.13279e-02,-1.63471e-01,-1.83456e-01,-1.47156e-01,-2.96173e-01,-2.40485e-01,-1.95483e-01,1.30198e-02,6.60255e-02,-4.11576e-03,-1.24772e-01,-4.42561e-02,4.40996e-03,-1.13959e-01,4.88016e-03,1.61282e-01,6.42416e-02,-5.70906e-02,3.68742e-02,3.62747e-02,-3.64532e-02,5.65888e-03,3.83297e-02,1.15726e-01,1.27468e-01,1.31396e-01,5.86214e-03,1.15702e-01,8.43538e-03,7.57899e-03,-1.00104e-01,-5.33502e-02,-2.14800e-01,-1.59133e-02,-1.27621e-01,1.11250e-01,-4.00808e-02,-5.37796e-02,-9.08724e-02,-1.43506e-02,-8.29041e-02,-3.98789e-02,2.58778e-02,1.24305e-01,6.60070e-02,-6.35107e-02,-4.61343e-02,-1.11315e-02,5.07791e-02,-3.36536e-02,1.40269e-02,4.41214e-02,6.55890e-02,2.50126e-02,9.73658e-02,7.74751e-02,5.79281e-02,-6.22738e-02,-2.09058e-01,-6.88951e-02,-3.00591e-01,9.68511e-03,-4.89538e-02,5.51103e-02,2.92710e-02,4.45724e-02,4.95139e-02,-2.14320e-02,-4.19010e-02,4.49024e-03,5.38368e-02,-3.34040e-02,1.49735e-02,-1.71967e-02,-1.56522e-03,-1.57460e-02,-6.43283e-02,5.22979e-02,5.89635e-02,-2.71289e-03,1.13555e-02,-2.26151e-02,7.13467e-02,5.08086e-02,-1.56242e-02,-3.11732e-02,-1.87841e-01,-6.40354e-02,-1.67743e-01,-2.68876e-01,-5.17094e-02,-5.53104e-02,8.83057e-02,5.51615e-02,-5.80564e-02,-6.93931e-03,4.89317e-02,-6.63715e-02,-4.11784e-02,-4.55495e-02,-7.84969e-02,-3.43551e-03,-1.14310e-01,9.68541e-03,2.59771e-03,-3.24515e-03,-3.54418e-02,7.84189e-04,1.30225e-02,-1.17890e-02,5.31092e-02,-6.50614e-02,7.25423e-02,-1.61556e-03,-1.59261e-01,-7.49133e-02,-1.18647e-01,-2.26548e-01,8.66441e-02,-5.86618e-02,1.16793e-03,-1.92177e-01,2.64596e-03,3.29240e-02,2.14890e-02,5.53163e-04,-1.37880e-01,-1.20572e-02,-1.05519e-02,-5.46644e-02,-2.71559e-02,8.40042e-02,-1.30953e-03,-4.09132e-02,-4.98631e-02,2.70388e-02,4.94960e-02,-6.47590e-02,-4.60425e-02,-1.49315e-02,7.04446e-02,-5.01712e-02,-3.23306e-02,3.38051e-02,-3.17674e-02,-1.28237e-01,2.68420e-02,-3.48803e-02,3.54731e-02,-3.38691e-02,-1.45007e-01,-6.50967e-02,4.72775e-02,4.89299e-02,-5.31626e-02,6.77417e-02,4.36197e-02,-1.15993e-02,4.47494e-02,9.90217e-02,1.17980e-01,6.97355e-03,1.03306e-01,9.90332e-03,-2.48500e-02,9.61710e-02,1.05973e-01,-2.60894e-02,-4.67684e-02,6.17943e-02,5.17111e-02,7.00578e-02,1.34547e-02,1.64409e-03,-2.43758e-02,4.57484e-02,-1.09627e-02,-6.28678e-02,-9.99150e-02,3.40331e-02,6.11629e-02,3.30376e-02,5.91867e-03,-5.74906e-02,-5.64575e-02,3.28130e-02,2.92661e-02,-3.75354e-02,1.02429e-01,1.54478e-01,1.02305e-01,9.63523e-02,5.46641e-02,3.78427e-03,-8.50487e-02,5.10554e-02,1.73566e-02,-9.52258e-02,-1.05522e-01,-6.14093e-02,1.83807e-02,-1.36488e-03,-3.10856e-02,7.66008e-03,7.45122e-02,1.85428e-02,6.15297e-02,8.67729e-02,1.41301e-01,1.38946e-01,1.07771e-01,1.48704e-01,8.37218e-02,1.57220e-01,1.61059e-02,2.11335e-02,4.65276e-02,1.15683e-01,4.38126e-02,-2.61960e-02,-5.62957e-02,4.57624e-02,6.07330e-02,1.41716e-02,-8.15991e-02,-7.55479e-02,2.47158e-02,-6.64624e-02,-5.24727e-02,8.04866e-03,2.44102e-02,3.49196e-02,-2.36303e-02,6.30260e-03,1.11270e-01,2.04271e-01,1.73217e-01,5.65349e-02,1.16963e-01,7.86290e-02,1.17565e-01,8.07652e-02,6.37553e-02,3.24191e-02,7.65802e-02,-1.26763e-02,-6.67667e-03,-8.16104e-03,7.20187e-02,-1.90128e-02,-2.83758e-02,-2.80702e-02,6.52770e-02,-7.31500e-02,3.15196e-02,-4.11664e-02,-6.46663e-02,-8.53668e-02,1.90581e-02,3.49277e-02,6.03179e-02,-4.06925e-03,-2.96101e-02,1.35032e-01,2.09646e-01,1.46486e-01,4.48341e-02,9.35392e-02,3.12813e-01,2.13848e-01,5.65672e-02,1.43052e-01,2.09434e-01,2.18244e-01,1.39255e-01,2.07540e-01,1.48260e-01,7.13357e-02,3.54407e-02,1.59973e-01,1.66560e-01,7.12299e-02,6.39208e-02,8.67476e-02,-1.48130e-02,3.37270e-02,1.27560e-02,6.86049e-02,2.01418e-02,1.33430e-02,-7.51172e-02,5.11478e-02,7.87584e-02,3.63035e-02,9.47231e-02,1.54776e-01,1.01958e-01,1.90597e-01,1.67370e-01,9.79750e-02,1.70632e-01,2.04236e-01,2.20526e-01,1.25304e-01,1.32194e-01,3.20613e-01,1.99790e-01,1.27149e-01,6.29487e-02,1.94328e-03,2.26639e-02,1.59019e-02,-1.52141e-02,5.88844e-02,3.94595e-02,
8.28915e-02,5.35033e-02,-5.30759e-02,3.86759e-02,6.58653e-02,-2.55672e-02,2.53685e-02,-7.47930e-02,4.46109e-02,2.74151e-02,4.20414e-02,-3.06035e-02,1.81031e-02,-2.90484e-02,3.86446e-02,3.48922e-02,-2.77970e-02,7.00371e-02,-5.20543e-02,-4.57147e-02,8.26108e-03,-4.89037e-02,5.77796e-02,-3.92378e-02,-1.20006e-02,3.13795e-02,-4.30108e-02,3.35914e-02,5.07438e-02,6.80642e-02,-3.29722e-02,-7.69362e-04,2.50423e-02,-7.04378e-02,-6.77615e-02,-1.46224e-01,-2.10197e-01,-1.36962e-01,-1.89807e-01,-6.21080e-02,-1.68209e-01,-1.60444e-02,9.94008e-02,-2.65918e-01,-1.26279e-01,-1.78617e-01,-8.69734e-02,-5.31963e-02,-8.76672e-02,3.07440e-02,-4.69083e-02,-2.94790e-02,6.47874e-02,1.51891e-03,2.25557e-02,1.66789e-02,1.27530e-02,-4.50737e-03,-1.31107e-02,-1.04489e-01,-5.99310e-02,5.80954e-02,-1.51145e-01,-1.42107e-01,-2.02856e-01,-1.67562e-01,-1.78929e-01,-1.92913e-01,-3.24514e-01,-1.65124e-01,-5.20291e-02,-2.34616e-01,8.75403e-03,-1.48301e-01,-5.01462e-02,-1.15064e-01,-7.81010e-02,2.69755e-02,7.27115e-02,5.63575e-02,-1.22019e-01,-6.07266e-02,3.20832e-02,5.39737e-02,4.76908e-02,6.04108e-03,-3.20735e-02,5.50688e-02,-1.61356e-02,-6.95218e-02,-2.20590e-01,-2.16193e-01,-2.45259e-01,-8.80408e-02,-1.13726e-01,-1.41548e-01,-1.53553e-01,-2.39577e-01,-1.72600e-01,-1.50727e-01,-1.29575e-01,-9.29649e-02,7.70592e-02,-7.84924e-02,-1.04130e-01,-1.80577e-01,9.62498e-02,-2.73020e-02,-4.24215e-02,-4.61823e-02,-4.60062e-02,-2.14039e-02,2.36543e-02,6.12429e-02,4.52676e-02,8.17816e-02,-5.59370e-03,1.91619e-02,4.75856e-02,-3.86224e-02,-4.00292e-02,2.58223e-02,3.80022e-02,-1.90202e-02,5.43899e-02,-3.44509e-02,-1.21499e-01,-1.09445e-01,-1.02478e-01,-9.08796e-02,-1.06533e-01,-6.34414e-02,-1.48397e-01,-9.13803e-02,-1.05423e-01,2.72774e-02,1.17343e-01,4.84891e-02,-1.14573e-01,7.10922e-02,4.18175e-02,3.60887e-02,1.08707e-01,4.15081e-02,-4.14568e-02,3.49369e-02,-7.76043e-02,-6.02306e-02,1.96157e-02,-6.50401e-02,-2.05394e-02,-3.53838e-02,-5.77952e-02,-6.01875e-02,-1.69395e-02,-6.07203e-02,-1.20583e-01,-3.90115e-02,-2.67824e-02,-1.98410e-02,-6.57779e-02,-8.68680e-02,-7.40043e-02,-8.68910e-02,3.76581e-02,5.36561e-02,-1.00326e-01,3.47349e-02,8.07894e-02,7.45131e-02,7.58850e-02,8.07365e-02,-2.90313e-02,6.65945e-02,5.66174e-02,6.64628e-02,1.30608e-01,-4.38534e-02,-7.21562e-03,-4.36474e-02,5.23365e-02,-1.10999e-01,1.17571e-02,-1.32611e-03,-3.87005e-02,-8.94068e-02,-7.27702e-02,-2.73320e-02,7.48464e-02,2.27711e-02,-4.13893e-03,3.63781e-02,-5.51343e-02,-1.20115e-01,-1.68681e-01,-4.52944e-02,-7.71023e-02,1.14302e-01,1.78692e-01,1.63092e-01,-5.09305e-02,-2.67844e-02,1.20282e-01,1.08021e-01,-4.45656e-02,-3.62348e-02,6.82630e-02,-2.32421e-02,-4.01820e-02,-5.00393e-03,-6.25325e-03,-8.04297e-02,-1.67968e-02,5.95974e-02,6.92528e-02,-9.28155e-02,5.50950e-02,5.31509e-02,1.13459e-01,-2.55456e-02,-1.39008e-02,-8.07189e-02,-4.17627e-02,-4.26276e-02,3.56630e-03,1.34625e-01,7.17055e-02,5.55500e-02,2.56038e-02,1.32420e-01,1.42841e-01,4.90962e-02,8.77466e-02,-2.89493e-03,1.16255e-01,1.49633e-01,4.28272e-02,-1.57403e-02,4.87418e-02,-6.16782e-02,2.68696e-02,-1.04041e-01,-3.35976e-02,-1.84681e-01,-4.16552e-02,6.04157e-02,6.84333e-02,1.21563e-01,4.20142e-04,9.02179e-02,-8.43012e-02,-5.07475e-03,5.61794e-02,8.13888e-02,5.96181e-02,7.05346e-02,2.06470e-01,1.29292e-01,6.86594e-03,6.43859e-02,-3.12895e-02,1.54165e-02,9.10706e-02,1.31737e-01,1.04697e-01,2.40493e-02,7.76172e-02,2.65561e-02,-1.10416e-01,-9.11896e-03,-1.51517e-01,-4.20512e-02,-1.07489e-01,3.71688e-02,6.41239e-02,1.44077e-02,-5.97391e-02,-9.14096e-02,-1.55324e-01,-3.50488e-03,8.12735e-02,1.27382e-01,2.18839e-02,8.10401e-03,6.02400e-02,-2.06918e-02,-2.20589e-02,-5.21046e-03,2.16467e-02,6.59023e-02,-5.15595e-03,1.44839e-01,1.53984e-01,1.14512e-01,-7.61319e-03,-7.62347e-02,-4.59365e-02,-4.95809e-02,-9.95054e-02,-9.33248e-02,-5.23012e-02,7.58225e-02,7.20816e-02,-2.80664e-02,-2.03349e-01,1.06586e-04,-6.89007e-02,-3.09239e-02,1.07738e-01,1.12987e-01,2.53084e-01,-5.42048e-02,3.94562e-02,1.27516e-01,-4.98508e-02,4.91851e-02,-4.72494e-02,5.72209e-02,8.67760e-02,1.11951e-02,4.05911e-02,6.55321e-02,9.15996e-03,-3.59846e-02,-9.51401e-02,-2.32840e-02,-6.71063e-03,-1.07406e-01,1.65773e-02,6.16720e-02,4.53169e-02,-1.11191e-01,-2.66875e-01,-4.61092e-02,-9.40668e-02,8.69439e-02,-6.93969e-02,2.13083e-01,1.38618e-01,2.39881e-02,1.03368e-01,2.66730e-02,-4.37583e-02,8.76795e-02,9.93986e-02,3.85318e-02,2.96188e-02,1.30897e-02,3.13927e-02,1.22407e-02,9.74801e-02,1.11177e-01,-4.97188e-02,3.12410e-02,-2.72969e-02,-9.11732e-02,4.64579e-02,-2.71359e-02,1.62155e-04,-1.87944e-01,-1.76638e-01,-1.38865e-01,-5.84934e-02,-9.99529e-02,-5.25220e-02,8.58357e-02,1.46393e-01,5.40806e-02,5.43186e-02,2.96828e-02,-8.04448e-02,2.78587e-02,7.32832e-02,-2.14483e-02,1.04640e-01,-1.30816e-02,2.94695e-02,-9.43500e-02,-3.78821e-02,-2.35140e-02,-5.71777e-02,2.01373e-02,-2.83248e-03,-1.68776e-01,2.50501e-02,2.68447e-02,9.27375e-03,-1.36237e-01,-7.76944e-02,-1.18249e-01,-1.47956e-01,-5.56657e-02,-7.91664e-02,1.02421e-01,2.21753e-01,8.28818e-02,-3.18157e-03,1.00425e-01,-5.26417e-02,-9.16725e-02,-7.76824e-02,6.75535e-02,3.01743e-02,-4.18747e-02,5.45296e-02,-5.61633e-02,4.97446e-02,-1.21989e-01,-4.27929e-02,1.34071e-01,-4.64421e-02,-4.34500e-04,8.09439e-02,3.40141e-03,5.89621e-02,-8.80972e-02,-1.12848e-02,-1.04813e-01,-1.19403e-01,-4.59678e-02,-1.58018e-03,-3.25945e-02,2.21501e-01,5.79501e-02,1.08466e-02,2.87058e-02,-4.02865e-03,-3.13367e-02,-6.01176e-02,-1.74335e-02,1.46813e-01,1.48390e-02,-6.39165e-02,1.94394e-02,-1.22583e-01,-3.25204e-02,2.68760e-02,1.07524e-01,1.28414e-01,1.47480e-02,7.80138e-02,8.67154e-02,9.37864e-02,-3.63857e-02,-2.36764e-01,-1.99737e-01,-5.24990e-03,-3.41495e-02,3.77129e-02,2.85576e-02,1.40207e-01,1.08407e-02,6.57346e-03,1.11760e-01,2.58975e-02,9.08183e-02,-5.36953e-02,2.79502e-02,-1.11822e-03,2.17423e-02,5.60907e-02,-1.30674e-01,-1.16529e-01,3.03102e-02,7.12530e-02,1.67507e-01,1.82015e-01,9.28571e-02,3.11923e-02,1.03672e-01,-2.38067e-02,7.07066e-02,-1.67082e-01,-2.42119e-01,-1.99650e-01,-1.01516e-01,7.06295e-03,-5.80431e-02,1.69085e-01,-2.11566e-02,-2.47875e-02,-1.51657e-02,5.10537e-03,9.11590e-02,3.09244e-02,-2.40435e-02,-7.21411e-02,-6.15968e-02,-1.06925e-01,-2.07642e-01,-1.44558e-01,1.87007e-01,1.20146e-01,1.70244e-01,1.36045e-01,-3.53482e-02,2.16281e-04,-2.55782e-02,1.15927e-01,8.03445e-03,-6.57771e-02,-1.80765e-01,-1.37154e-01,-1.24400e-01,8.07403e-02,-2.73228e-03,1.34468e-01,5.91944e-02,3.96728e-02,2.88714e-02,7.37287e-03,9.31761e-03,-8.52134e-03,6.23344e-02,7.73279e-03,-6.41410e-02,-1.17986e-01,-2.30862e-01,1.01907e-01,1.93360e-01,2.23993e-01,1.60935e-01,-6.48692e-03,-4.71149e-03,-3.40528e-02,-2.03819e-02,-4.63634e-02,-2.34114e-02,-6.13859e-03,-1.54985e-01,-3.20752e-02,-2.91440e-02,3.68211e-02,5.93155e-02,7.80189e-02,9.60161e-02,1.36934e-01,4.86403e-02,-1.21664e-01,-3.04896e-04,5.27158e-02,4.51665e-02,-1.72999e-01,-2.10550e-01,-3.78223e-01,-4.32336e-01,-2.29150e-02,2.88596e-01,1.10632e-01,2.83538e-02,-2.01880e-02,-4.23687e-02,-8.84821e-02,-1.86820e-02,-7.72648e-02,-1.09513e-01,9.37933e-03,-1.70679e-01,-1.76794e-02,-6.98054e-02,3.12909e-02,1.04630e-01,1.88121e-01,2.55270e-02,-2.40470e-02,-4.71161e-02,-6.21089e-02,-1.21719e-01,-5.74884e-02,-2.23936e-01,-2.46074e-01,-1.59943e-01,-4.10202e-01,-3.27799e-01,8.35917e-02,1.05517e-01,1.78953e-01,1.16095e-01,-8.50900e-04,-1.87313e-01,-1.67911e-01,-1.53002e-01,-2.20078e-01,-2.65864e-01,-3.51344e-02,1.37803e-02,8.14558e-02,-4.55796e-02,-5.72527e-02,-1.36288e-02,2.04589e-02,-7.84407e-02,-1.36316e-01,1.24721e-02,-9.33407e-02,-6.98352e-02,-7.83080e-02,-9.15152e-02,-5.38405e-02,-1.92220e-01,-7.28220e-02,-1.68764e-01,8.74097e-02,2.15958e-01,1.56874e-01,-1.83249e-02,4.67203e-02,-1.10129e-01,-1.74831e-01,-7.64561e-02,-1.21048e-01,-2.09452e-01,1.02419e-02,3.83927e-02,-6.05832e-02,-4.10131e-02,-8.97413e-03,-5.44128e-03,6.97989e-03,-1.54509e-01,-2.53181e-02,-7.89521e-02,1.28723e-03,-6.18638e-03,-7.23126e-02,-1.61134e-01,-1.52910e-01,-1.76831e-01,-6.52269e-02,4.47393e-02,5.78565e-02,1.86168e-01,1.56949e-01,1.23307e-01,8.85614e-03,2.29649e-02,1.58241e-02,-9.92890e-02,-1.42858e-01,-3.02794e-01,-2.16743e-02,1.11178e-01,6.62679e-03,7.48320e-02,6.93128e-02,-2.39840e-02,-6.66819e-02,2.46714e-03,1.97699e-02,6.07205e-02,-2.07912e-02,-1.38657e-01,-1.20512e-01,-2.67698e-01,-2.72980e-01,-5.05494e-02,2.41632e-02,7.31513e-02,5.28864e-02,2.02228e-01,6.55676e-02,1.93299e-01,-1.28826e-02,-9.18865e-02,-1.13327e-01,-1.61918e-01,-2.47121e-01,-2.52911e-01,2.19833e-02,1.00546e-01,8.11335e-02,5.51827e-04,-4.72840e-02,8.20371e-03,-4.90682e-02,-1.26753e-01,-1.89213e-02,-6.22293e-02,-1.61867e-01,-1.76962e-01,-2.58942e-01,-2.92315e-01,-2.51741e-01,-1.75803e-01,-1.15963e-01,2.45325e-02,3.10927e-02,1.12421e-01,2.02994e-01,1.62606e-01,8.56423e-02,-1.26382e-02,-1.88869e-02,2.23377e-02,1.15877e-02,-1.27702e-01,-3.99702e-02,-2.89356e-02,6.97154e-02,2.34032e-02,1.02309e-02,2.87367e-02,-1.16517e-01,-4.19510e-02,-1.14956e-01,2.58609e-02,-6.97623e-02,-1.29557e-01,-1.39538e-01,-2.49242e-01,-2.82687e-01,-1.78286e-01,-1.63100e-01,-2.21116e-02,8.67675e-02,1.53772e-01,1.23754e-01,1.06961e-01,1.04972e-01,5.79106e-02,2.88333e-02,1.28097e-01,9.43551e-02,-3.80418e-03,-1.90345e-02,6.16875e-02,-2.11253e-02,-7.54737e-02,7.18227e-02,6.19986e-02,4.94518e-02,-3.46100e-02,7.11545e-02,2.64605e-02,2.80306e-02,3.94646e-02,1.61415e-01,8.99050e-02,-5.23591e-02,7.27372e-02,-2.24164e-02,-5.19502e-02,2.30014e-02,7.96317e-02,2.90103e-02,9.23417e-02,1.06400e-01,1.68340e-01,1.09882e-01,-1.46377e-02,1.87806e-01,-3.17241e-02,-1.38246e-02,-7.53956e-02,6.15110e-02,1.23758e-02,-3.50969e-03,-1.32360e-02,7.05459e-02,-6.92722e-02,8.23479e-02,-4.47186e-02,-1.63382e-02,2.80488e-02,1.13443e-01,1.73334e-01,1.11804e-01,1.66496e-01,2.28922e-02,1.85435e-01,-3.43592e-03,4.84838e-03,1.03580e-01,1.39488e-01,1.90423e-01,7.18356e-02,1.06961e-01,1.86182e-01,2.48406e-01,7.19981e-02,1.58690e-04,-6.32000e-02,8.39466e-02,-3.12661e-02,
-7.19704e-02,4.41829e-02,5.51284e-02,6.16873e-02,3.03236e-02,-1.46071e-02,3.75460e-02,-4.40554e-02,1.41468e-02,-1.52159e-02,-4.21176e-02,-7.63432e-02,3.02104e-02,2.25242e-02,-9.12748e-02,-8.90750e-02,-8.03735e-02,6.92505e-02,4.94873e-02,-1.17284e-02,4.46791e-02,-4.38116e-03,-1.73515e-02,-3.47174e-03,2.46196e-02,-6.71708e-02,-4.75102e-02,1.04408e-02,9.10716e-03,4.23613e-02,4.77563e-02,-7.95741e-03,-6.70087e-02,-7.50150e-03,4.52003e-02,3.80803e-02,-9.44976e-02,-2.15731e-02,1.09248e-01,3.64803e-02,-7.15010e-02,6.09280e-02,9.66638e-04,-4.67868e-02,-1.70066e-01,-1.05534e-01,8.09539e-02,1.17890e-01,-5.01770e-02,1.55304e-01,1.02154e-01,1.50837e-01,-7.10265e-02,-2.17363e-02,1.29424e-02,2.02379e-02,-7.59250e-02,-7.42470e-02,-6.74721e-02,-8.16146e-02,-9.69414e-02,-3.52757e-02,1.33835e-01,7.08632e-02,5.37395e-02,-5.31489e-02,1.41379e-01,1.55313e-01,1.56699e-01,9.85920e-02,1.54381e-01,1.58369e-01,-4.99148e-02,-8.22118e-03,-4.25945e-02,7.77183e-02,1.26464e-01,2.52973e-02,1.57783e-01,-6.10758e-03,5.91149e-02,1.60773e-02,4.89008e-02,3.65432e-03,-1.50339e-02,4.78146e-02,-1.45124e-02,-3.65964e-02,-1.19727e-01,1.24661e-02,9.54090e-02,8.98294e-03,3.62769e-03,4.65422e-02,1.14355e-01,8.44250e-02,5.51477e-02,-7.39271e-03,1.38702e-02,-7.26313e-02,-1.01711e-01,-8.47383e-02,-6.14733e-02,-9.36146e-02,1.00819e-02,6.06704e-02,6.21914e-02,1.99507e-02,2.55281e-02,-2.30807e-02,-3.65872e-02,1.52256e-02,-3.68612e-02,-6.31576e-02,-1.24269e-02,-7.44873e-02,-7.29824e-02,-4.52775e-02,-9.94933e-02,5.07218e-02,-2.21020e-02,-6.38321e-03,7.38370e-02,-4.37109e-02,-5.60747e-02,-1.27631e-03,2.10765e-02,-1.41466e-01,2.43221e-02,3.17563e-02,7.57508e-03,-1.88311e-02,7.66714e-02,5.94154e-02,6.76827e-02,1.26466e-01,5.83592e-02,-1.37456e-01,-1.25476e-01,-1.74554e-02,2.36321e-02,-4.81229e-02,-1.99208e-02,-5.73788e-02,-1.31956e-01,-7.73080e-02,-1.74528e-01,-1.63411e-01,-9.17383e-02,-5.70204e-02,-1.47504e-02,-7.59009e-02,-3.02292e-04,5.61306e-02,4.15197e-02,-9.58758e-02,-1.14381e-01,1.85596e-02,3.48487e-02,2.98494e-02,5.79625e-02,9.74543e-04,1.45993e-03,2.26501e-03,3.92948e-02,-2.90726e-02,-1.04502e-01,-6.46815e-02,-5.02862e-02,5.06100e-03,4.05770e-03,-1.01739e-01,-1.63774e-01,-1.18832e-01,-1.45720e-01,-1.66359e-01,-5.77121e-02,-1.10391e-01,-4.98380e-03,-1.19096e-01,9.07423e-03,-4.20901e-02,-1.17252e-01,-8.13279e-02,-1.53665e-02,4.57074e-02,-1.43193e-03,8.69265e-03,7.17760e-02,-3.25715e-02,5.01947e-02,-2.69112e-02,-2.51635e-02,6.96688e-02,6.08748e-02,7.38556e-02,4.77206e-02,-1.04317e-01,-7.95555e-03,-1.08472e-01,-7.71481e-02,-1.81983e-01,-1.38785e-01,-2.09476e-01,-1.61625e-01,-1.20437e-01,-4.60418e-02,-2.57228e-02,-1.11702e-01,-8.83209e-02,4.25281e-02,9.42387e-03,-9.68856e-02,4.57187e-02,4.50651e-02,2.86198e-02,-3.12285e-02,1.10438e-01,-4.38156e-02,1.20582e-02,6.67973e-02,4.54025e-02,7.86033e-02,5.27176e-02,-2.05975e-02,-6.61711e-02,-4.97184e-03,-6.13995e-02,-1.08169e-01,-2.12218e-01,-1.79266e-01,-2.82371e-01,-8.52556e-02,4.25510e-02,-2.89119e-03,-4.30480e-02,-1.03387e-01,-5.74939e-02,-5.55203e-02,-5.67058e-02,-1.25546e-01,-7.74964e-02,-1.36560e-01,-8.47603e-02,-1.20601e-01,-3.12038e-02,-8.43396e-02,-1.03292e-01,-2.38006e-02,1.09593e-01,-7.18110e-02,-9.14612e-06,3.44884e-02,-3.56101e-02,-1.03165e-01,-7.32036e-02,-9.84951e-02,-2.69271e-01,-1.81668e-01,-1.67844e-01,-7.85470e-02,-1.33638e-02,5.87670e-02,2.93137e-02,-1.15755e-01,1.95452e-02,-9.39374e-02,-3.55705e-02,-1.11512e-01,-1.41014e-01,-1.10272e-01,-3.55801e-02,-7.42166e-02,-5.97428e-02,-1.24166e-01,-2.02895e-01,-1.13569e-01,-1.15527e-01,-9.34979e-02,-4.89024e-03,-5.97795e-02,-8.93631e-02,-1.81312e-01,-1.00355e-01,-2.31323e-01,-2.15564e-01,-1.93712e-01,-1.10144e-01,-8.90480e-02,1.83492e-02,-3.62265e-02,8.06302e-02,2.04355e-02,-1.47035e-01,-2.03290e-01,-1.11057e-01,-1.47789e-01,-7.04616e-02,-1.00320e-01,2.91013e-02,-6.34078e-02,-1.16745e-01,-1.14621e-01,-1.41323e-01,-1.51284e-01,-3.26679e-02,-6.02495e-02,-1.30291e-02,4.37677e-02,-1.87198e-01,-1.78603e-01,-1.61232e-01,-1.18283e-01,-2.17097e-01,-8.59782e-02,-4.70411e-02,-2.20985e-02,1.05884e-01,2.59596e-02,2.96480e-02,5.70481e-02,-4.67225e-02,-1.31529e-01,1.37933e-02,-8.02052e-02,-8.71181e-02,1.24441e-02,8.34318e-02,7.17780e-02,-1.55983e-02,-1.45063e-01,-1.93594e-01,-2.35087e-01,-2.09802e-01,-1.53701e-01,-4.96033e-02,6.08874e-02,-1.24465e-01,-1.05147e-01,-1.91982e-01,-1.76448e-01,-2.45770e-01,-5.65938e-02,-1.85487e-02,4.05062e-02,8.04330e-02,1.11272e-01,1.36576e-01,4.05883e-02,-3.30345e-03,1.15437e-02,3.29722e-02,-2.37735e-02,-6.35987e-02,-8.48639e-03,-1.29242e-02,3.11550e-02,1.58766e-01,-4.74456e-02,-1.87408e-02,-4.26817e-02,-9.60385e-02,-1.38777e-01,-5.68564e-02,6.67200e-02,-3.10534e-02,-8.55581e-02,-1.04340e-01,-1.41005e-01,-1.84287e-01,2.25128e-02,1.30787e-01,1.40852e-01,1.19198e-02,1.47435e-01,1.23449e-01,1.10954e-01,8.82348e-02,8.94952e-02,6.40205e-02,8.87109e-02,6.29326e-02,-8.41925e-03,1.15968e-01,2.10099e-02,5.44064e-02,1.08741e-01,5.79819e-02,-1.21660e-01,5.90980e-02,-4.22319e-02,-1.32530e-01,1.87917e-03,-9.55940e-02,-1.41106e-01,-6.93361e-02,5.22371e-02,-3.14486e-02,3.00056e-02,1.39667e-01,2.42670e-02,1.59337e-01,6.52414e-02,-3.76076e-03,4.59528e-02,2.71654e-02,6.23247e-02,1.09962e-01,1.50954e-01,1.05693e-01,2.03337e-02,-4.02131e-02,-1.80902e-02,1.12786e-01,-1.41109e-03,-7.59038e-02,-1.19010e-02,1.08106e-01,-7.48406e-02,-7.14286e-02,-8.68932e-02,-9.59704e-02,1.45306e-01,7.56423e-02,-4.31807e-02,-3.34491e-02,1.63653e-02,1.21507e-01,8.19297e-02,1.76573e-01,-1.64531e-02,5.81476e-02,-1.10487e-02,1.44191e-01,5.96417e-02,4.74638e-02,1.42400e-01,3.12533e-02,9.42261e-04,5.03661e-02,2.57894e-02,-7.43408e-03,1.00400e-01,9.91971e-02,-3.46414e-02,1.20098e-01,4.02928e-02,2.49956e-02,-8.62776e-02,1.09586e-03,1.74725e-02,-3.26532e-02,-7.46710e-02,-3.11172e-02,3.99632e-02,7.68192e-02,1.23280e-01,2.43668e-03,9.58374e-02,7.90136e-02,3.78745e-02,1.50842e-01,1.34547e-01,1.12075e-01,8.45733e-02,1.39641e-01,-2.53850e-02,-3.28415e-02,-4.63555e-02,-1.70164e-02,2.52454e-02,2.14486e-02,2.09397e-02,1.09713e-01,-1.54932e-01,-6.81996e-02,-2.95276e-02,-5.16788e-03,2.91356e-02,5.00240e-02,5.51501e-02,1.21805e-01,7.58911e-02,1.12891e-02,8.10224e-02,3.48753e-03,-1.62732e-02,-6.31763e-03,2.08731e-02,1.65227e-01,1.59341e-01,1.22282e-01,9.87106e-02,2.89960e-02,5.05640e-02,-8.30685e-02,1.72574e-02,1.10659e-01,6.49985e-02,5.76652e-02,-6.03890e-02,-2.84772e-02,-1.07811e-01,-1.66273e-01,-3.69968e-02,-8.49987e-02,5.49032e-02,8.80781e-02,4.32957e-02,7.17012e-02,1.25707e-01,2.84389e-02,1.26661e-02,1.33894e-02,3.34181e-02,-2.87768e-03,1.52588e-01,6.28929e-02,7.87200e-02,2.21665e-02,2.52494e-02,8.43649e-03,-9.45701e-02,1.30557e-02,-8.24991e-02,8.16157e-02,-9.40938e-02,1.15451e-01,-1.62252e-02,1.07844e-01,-2.10802e-01,4.65942e-02,-3.99541e-02,-1.17603e-01,-1.88333e-02,2.61182e-01,1.22069e-01,4.06594e-02,3.11703e-02,3.05191e-02,-9.95353e-02,-2.62276e-02,8.47483e-02,5.56261e-02,6.21971e-02,1.00044e-01,2.27804e-02,5.37418e-02,-1.69727e-02,-1.92225e-02,4.85012e-02,5.64151e-02,-3.38786e-02,2.05021e-02,8.79048e-02,1.25458e-01,9.97776e-02,8.94015e-02,6.40640e-02,3.57548e-02,7.57654e-02,-5.89324e-03,-2.13660e-02,8.24612e-02,8.84193e-02,-1.86254e-02,-6.33358e-02,-1.18987e-02,-1.15869e-01,-8.47244e-02,1.27094e-02,5.38852e-02,3.87191e-02,1.40942e-02,-1.15740e-01,-1.61916e-02,3.25265e-02,3.99557e-02,2.43961e-02,-8.38864e-02,2.19417e-02,4.09543e-03,-5.06386e-02,-8.85132e-03,2.59833e-02,7.05901e-02,1.94970e-02,5.71690e-03,4.18047e-02,7.05286e-02,-1.14806e-02,5.86853e-02,7.78635e-02,-5.34057e-02,-1.22749e-01,-1.00307e-01,3.27664e-03,3.11698e-02,-5.28324e-02,6.88626e-02,-4.13970e-03,-2.34551e-02,-9.49226e-02,-8.34213e-02,3.94624e-02,-3.90328e-02,-5.41926e-02,7.26852e-02,-5.61286e-02,3.46067e-02,7.06395e-02,-7.19392e-02,5.45779e-02,7.66400e-02,-4.48834e-03,2.84544e-02,6.34121e-02,4.57552e-02,-4.71343e-02,-1.55117e-02,-4.15447e-02,-3.63696e-02,-1.15564e-01,-1.54806e-01,-6.45162e-02,-1.60303e-02,-8.17280e-02,3.21270e-02,-1.11919e-01,1.29997e-02,-7.79064e-02,-3.49139e-02,-2.78247e-02,2.24432e-02,-2.20377e-02,1.09881e-01,2.10190e-02,1.22928e-01,-2.71521e-02,-2.01874e-02,-1.64754e-02,-1.49643e-02,7.47752e-02,5.11688e-02,-5.51261e-02,3.45746e-02,-4.27797e-02,-6.35041e-02,-7.94487e-02,-4.85389e-02,-1.22430e-01,4.99861e-03,-8.40532e-02,-6.23688e-02,-1.18033e-01,-1.50946e-01,-3.45242e-04,-1.24791e-01,-3.63155e-02,-8.69081e-02,-5.72775e-02,8.10983e-02,6.06089e-02,1.49675e-01,1.44450e-01,1.12294e-01,9.42264e-02,-3.29718e-02,-8.57150e-02,2.71970e-02,-2.33427e-02,-2.09238e-02,4.68292e-02,-1.09276e-02,-1.19261e-01,-1.32261e-01,-5.83663e-02,1.46586e-03,5.90410e-02,6.22831e-02,3.41717e-02,-4.51007e-02,-1.30783e-01,-6.85672e-02,-1.06726e-01,-3.56096e-02,-1.56202e-01,-4.47250e-02,7.16502e-03,-1.29544e-01,3.67239e-02,-7.76902e-02,-4.03189e-03,7.49485e-02,1.25421e-01,3.58578e-02,-8.72898e-02,2.08245e-01,9.11318e-02,6.16095e-02,-7.91407e-02,-2.90225e-03,7.45361e-02,3.35991e-02,4.52467e-02,9.71806e-02,1.04587e-01,-1.58855e-02,4.57584e-02,1.63693e-02,2.77674e-02,-9.43845e-02,-6.51559e-02,-7.72170e-02,-6.08052e-02,-1.31515e-01,-1.69589e-02,-8.49456e-02,-4.41584e-02,-6.96527e-02,5.27620e-03,2.82311e-02,1.15154e-01,3.80257e-02,-1.04683e-01,1.92138e-02,1.02666e-01,-6.48261e-02,-7.56788e-02,-1.33022e-02,3.52559e-02,2.24323e-02,1.42858e-01,6.81014e-02,1.80208e-01,7.02579e-02,6.60103e-02,-1.10332e-01,-8.50893e-02,1.11145e-02,1.17748e-01,-3.98412e-03,3.19893e-02,2.35519e-02,9.91705e-02,-9.37489e-02,-7.62864e-02,-4.98159e-02,-8.23755e-02,-4.45388e-02,-2.00951e-02,4.78281e-02,-2.68814e-02,6.30799e-02,4.66509e-02,6.96784e-02,5.17235e-02,4.04248e-02,5.11490e-02,-4.60617e-04,4.21524e-02,-8.25588e-02,-1.47037e-01,-7.61159e-02,-8.11857e-02,1.40610e-02,-8.29338e-02,5.84696e-02,5.20583e-02,-1.04589e-01,1.76845e-02,1.34389e-01,-5.20347e-02,-6.94503e-02,9.44885e-02,-6.34574e-02,4.02438e-02,-1.23679e-01,2.83734e-03,-4.61004e-02,-3.05425e-02,-5.93580e-02,-1.37031e-02,-3.13762e-02,
