// Neural Network File Format by Kyle Julian, Stanford 2016
3,784,10,784,
784,256,256,10,
0,
0,0,0,0,0,0,0,0,0,0,0,0,0,0,0,0,0,0,0,0,0,0,0,0,0,0,0,0,0,0,0,0,0,0,0,0,0,0,0,0,0,0,0,0,0,0,0,0,0,0,0,0,0,0,0,0,0,0,0,0,0,0,0,0,0,0,0,0,0,0,0,0,0,0,0,0,0,0,0,0,0,0,0,0,0,0,0,0,0,0,0,0,0,0,0,0,0,0,0,0,0,0,0,0,0,0,0,0,0,0,0,0,0,0,0,0,0,0,0,0,0,0,0,0,0,0,0,0,0,0,0,0,0,0,0,0,0,0,0,0,0,0,0,0,0,0,0,0,0,0,0,0,0,0,0,0,0,0,0,0,0,0,0,0,0,0,0,0,0,0,0,0,0,0,0,0,0,0,0,0,0,0,0,0,0,0,0,0,0,0,0,0,0,0,0,0,0,0,0,0,0,0,0,0,0,0,0,0,0,0,0,0,0,0,0,0,0,0,0,0,0,0,0,0,0,0,0,0,0,0,0,0,0,0,0,0,0,0,0,0,0,0,0,0,0,0,0,0,0,0,0,0,0,0,0,0,0,0,0,0,0,0,0,0,0,0,0,0,0,0,0,0,0,0,0,0,0,0,0,0,0,0,0,0,0,0,0,0,0,0,0,0,0,0,0,0,0,0,0,0,0,0,0,0,0,0,0,0,0,0,0,0,0,0,0,0,0,0,0,0,0,0,0,0,0,0,0,0,0,0,0,0,0,0,0,0,0,0,0,0,0,0,0,0,0,0,0,0,0,0,0,0,0,0,0,0,0,0,0,0,0,0,0,0,0,0,0,0,0,0,0,0,0,0,0,0,0,0,0,0,0,0,0,0,0,0,0,0,0,0,0,0,0,0,0,0,0,0,0,0,0,0,0,0,0,0,0,0,0,0,0,0,0,0,0,0,0,0,0,0,0,0,0,0,0,0,0,0,0,0,0,0,0,0,0,0,0,0,0,0,0,0,0,0,0,0,0,0,0,0,0,0,0,0,0,0,0,0,0,0,0,0,0,0,0,0,0,0,0,0,0,0,0,0,0,0,0,0,0,0,0,0,0,0,0,0,0,0,0,0,0,0,0,0,0,0,0,0,0,0,0,0,0,0,0,0,0,0,0,0,0,0,0,0,0,0,0,0,0,0,0,0,0,0,0,0,0,0,0,0,0,0,0,0,0,0,0,0,0,0,0,0,0,0,0,0,0,0,0,0,0,0,0,0,0,0,0,0,0,0,0,0,0,0,0,0,0,0,0,0,0,0,0,0,0,0,0,0,0,0,0,0,0,0,0,0,0,0,0,0,0,0,0,0,0,0,0,0,0,0,0,0,0,0,0,0,0,0,0,0,0,0,0,0,0,0,0,0,0,0,0,0,0,0,0,0,0,0,0,0,0,0,0,0,0,0,0,0,0,0,0,0,0,0,0,0,0,0,0,0,0,0,0,0,0,0,0,0,0,0,0,0,0,0,0,0,0,0,0,0,0,0,0,0,0,0,0,0,0,0,0,0,0,0,0,0,0,0,0,0,0,0,0,0,0,0,0,0,0,0,0,0,0,0,0,0,0,0,0,0,0,0,0,0,0,0,0,0,0,0,0,0,0,0,0,0,0,0,0,0,0,0,0,0,0,0,0,0,0,0,0,0,0,0,0,0,0,0,0,0,0,0,0,0,0,0,0,0,0,0,0,0,0,0,0,0,0,0,0,0,0,0,0,0,0,0,0,0,0,0,0,0,0,0,
1,1,1,1,1,1,1,1,1,1,1,1,1,1,1,1,1,1,1,1,1,1,1,1,1,1,1,1,1,1,1,1,1,1,1,1,1,1,1,1,1,1,1,1,1,1,1,1,1,1,1,1,1,1,1,1,1,1,1,1,1,1,1,1,1,1,1,1,1,1,1,1,1,1,1,1,1,1,1,1,1,1,1,1,1,1,1,1,1,1,1,1,1,1,1,1,1,1,1,1,1,1,1,1,1,1,1,1,1,1,1,1,1,1,1,1,1,1,1,1,1,1,1,1,1,1,1,1,1,1,1,1,1,1,1,1,1,1,1,1,1,1,1,1,1,1,1,1,1,1,1,1,1,1,1,1,1,1,1,1,1,1,1,1,1,1,1,1,1,1,1,1,1,1,1,1,1,1,1,1,1,1,1,1,1,1,1,1,1,1,1,1,1,1,1,1,1,1,1,1,1,1,1,1,1,1,1,1,1,1,1,1,1,1,1,1,1,1,1,1,1,1,1,1,1,1,1,1,1,1,1,1,1,1,1,1,1,1,1,1,1,1,1,1,1,1,1,1,1,1,1,1,1,1,1,1,1,1,1,1,1,1,1,1,1,1,1,1,1,1,1,1,1,1,1,1,1,1,1,1,1,1,1,1,1,1,1,1,1,1,1,1,1,1,1,1,1,1,1,1,1,1,1,1,1,1,1,1,1,1,1,1,1,1,1,1,1,1,1,1,1,1,1,1,1,1,1,1,1,1,1,1,1,1,1,1,1,1,1,1,1,1,1,1,1,1,1,1,1,1,1,1,1,1,1,1,1,1,1,1,1,1,1,1,1,1,1,1,1,1,1,1,1,1,1,1,1,1,1,1,1,1,1,1,1,1,1,1,1,1,1,1,1,1,1,1,1,1,1,1,1,1,1,1,1,1,1,1,1,1,1,1,1,1,1,1,1,1,1,1,1,1,1,1,1,1,1,1,1,1,1,1,1,1,1,1,1,1,1,1,1,1,1,1,1,1,1,1,1,1,1,1,1,1,1,1,1,1,1,1,1,1,1,1,1,1,1,1,1,1,1,1,1,1,1,1,1,1,1,1,1,1,1,1,1,1,1,1,1,1,1,1,1,1,1,1,1,1,1,1,1,1,1,1,1,1,1,1,1,1,1,1,1,1,1,1,1,1,1,1,1,1,1,1,1,1,1,1,1,1,1,1,1,1,1,1,1,1,1,1,1,1,1,1,1,1,1,1,1,1,1,1,1,1,1,1,1,1,1,1,1,1,1,1,1,1,1,1,1,1,1,1,1,1,1,1,1,1,1,1,1,1,1,1,1,1,1,1,1,1,1,1,1,1,1,1,1,1,1,1,1,1,1,1,1,1,1,1,1,1,1,1,1,1,1,1,1,1,1,1,1,1,1,1,1,1,1,1,1,1,1,1,1,1,1,1,1,1,1,1,1,1,1,1,1,1,1,1,1,1,1,1,1,1,1,1,1,1,1,1,1,1,1,1,1,1,1,1,1,1,1,1,1,1,1,1,1,1,1,1,1,1,1,1,1,1,1,1,1,1,1,1,1,1,1,1,1,1,1,1,1,1,1,1,1,1,1,1,1,1,1,1,1,1,1,1,1,1,1,1,1,1,1,1,1,1,1,1,1,1,1,1,1,1,1,1,1,1,1,1,1,1,1,1,1,1,1,1,1,1,1,1,1,1,1,1,1,1,1,1,1,1,1,1,1,1,1,1,1,1,1,1,1,1,1,1,1,1,1,1,1,1,1,1,
0,0,0,0,0,0,0,0,0,0,0,0,0,0,0,0,0,0,0,0,0,0,0,0,0,0,0,0,0,0,0,0,0,0,0,0,0,0,0,0,0,0,0,0,0,0,0,0,0,0,0,0,0,0,0,0,0,0,0,0,0,0,0,0,0,0,0,0,0,0,0,0,0,0,0,0,0,0,0,0,0,0,0,0,0,0,0,0,0,0,0,0,0,0,0,0,0,0,0,0,0,0,0,0,0,0,0,0,0,0,0,0,0,0,0,0,0,0,0,0,0,0,0,0,0,0,0,0,0,0,0,0,0,0,0,0,0,0,0,0,0,0,0,0,0,0,0,0,0,0,0,0,0,0,0,0,0,0,0,0,0,0,0,0,0,0,0,0,0,0,0,0,0,0,0,0,0,0,0,0,0,0,0,0,0,0,0,0,0,0,0,0,0,0,0,0,0,0,0,0,0,0,0,0,0,0,0,0,0,0,0,0,0,0,0,0,0,0,0,0,0,0,0,0,0,0,0,0,0,0,0,0,0,0,0,0,0,0,0,0,0,0,0,0,0,0,0,0,0,0,0,0,0,0,0,0,0,0,0,0,0,0,0,0,0,0,0,0,0,0,0,0,0,0,0,0,0,0,0,0,0,0,0,0,0,0,0,0,0,0,0,0,0,0,0,0,0,0,0,0,0,0,0,0,0,0,0,0,0,0,0,0,0,0,0,0,0,0,0,0,0,0,0,0,0,0,0,0,0,0,0,0,0,0,0,0,0,0,0,0,0,0,0,0,0,0,0,0,0,0,0,0,0,0,0,0,0,0,0,0,0,0,0,0,0,0,0,0,0,0,0,0,0,0,0,0,0,0,0,0,0,0,0,0,0,0,0,0,0,0,0,0,0,0,0,0,0,0,0,0,0,0,0,0,0,0,0,0,0,0,0,0,0,0,0,0,0,0,0,0,0,0,0,0,0,0,0,0,0,0,0,0,0,0,0,0,0,0,0,0,0,0,0,0,0,0,0,0,0,0,0,0,0,0,0,0,0,0,0,0,0,0,0,0,0,0,0,0,0,0,0,0,0,0,0,0,0,0,0,0,0,0,0,0,0,0,0,0,0,0,0,0,0,0,0,0,0,0,0,0,0,0,0,0,0,0,0,0,0,0,0,0,0,0,0,0,0,0,0,0,0,0,0,0,0,0,0,0,0,0,0,0,0,0,0,0,0,0,0,0,0,0,0,0,0,0,0,0,0,0,0,0,0,0,0,0,0,0,0,0,0,0,0,0,0,0,0,0,0,0,0,0,0,0,0,0,0,0,0,0,0,0,0,0,0,0,0,0,0,0,0,0,0,0,0,0,0,0,0,0,0,0,0,0,0,0,0,0,0,0,0,0,0,0,0,0,0,0,0,0,0,0,0,0,0,0,0,0,0,0,0,0,0,0,0,0,0,0,0,0,0,0,0,0,0,0,0,0,0,0,0,0,0,0,0,0,0,0,0,0,0,0,0,0,0,0,0,0,0,0,0,0,0,0,0,0,0,0,0,0,0,0,0,0,0,0,0,0,0,0,0,0,0,0,0,0,0,0,0,0,0,0,0,0,0,0,0,0,0,0,0,0,0,0,0,0,0,0,0,0,0,0,0,0,0,0,0,0,0,0,0,0,0,0,0,0,0,0,0,0,0,0,0,0,0,0,0,0,0,0,0,0,0,0,0,0,0,0,0,0,0,0,0,0,0,0,0,0,0,0,0,0,0,0,0,0,0,0,0,0,0,0,0,0,0,
0,0,0,0,0,0,0,0,0,0,0,0,0,0,0,0,0,0,0,0,0,0,0,0,0,0,0,0,0,0,0,0,0,0,0,0,0,0,0,0,0,0,0,0,0,0,0,0,0,0,0,0,0,0,0,0,0,0,0,0,0,0,0,0,0,0,0,0,0,0,0,0,0,0,0,0,0,0,0,0,0,0,0,0,0,0,0,0,0,0,0,0,0,0,0,0,0,0,0,0,0,0,0,0,0,0,0,0,0,0,0,0,0,0,0,0,0,0,0,0,0,0,0,0,0,0,0,0,0,0,0,0,0,0,0,0,0,0,0,0,0,0,0,0,0,0,0,0,0,0,0,0,0,0,0,0,0,0,0,0,0,0,0,0,0,0,0,0,0,0,0,0,0,0,0,0,0,0,0,0,0,0,0,0,0,0,0,0,0,0,0,0,0,0,0,0,0,0,0,0,0,0,0,0,0,0,0,0,0,0,0,0,0,0,0,0,0,0,0,0,0,0,0,0,0,0,0,0,0,0,0,0,0,0,0,0,0,0,0,0,0,0,0,0,0,0,0,0,0,0,0,0,0,0,0,0,0,0,0,0,0,0,0,0,0,0,0,0,0,0,0,0,0,0,0,0,0,0,0,0,0,0,0,0,0,0,0,0,0,0,0,0,0,0,0,0,0,0,0,0,0,0,0,0,0,0,0,0,0,0,0,0,0,0,0,0,0,0,0,0,0,0,0,0,0,0,0,0,0,0,0,0,0,0,0,0,0,0,0,0,0,0,0,0,0,0,0,0,0,0,0,0,0,0,0,0,0,0,0,0,0,0,0,0,0,0,0,0,0,0,0,0,0,0,0,0,0,0,0,0,0,0,0,0,0,0,0,0,0,0,0,0,0,0,0,0,0,0,0,0,0,0,0,0,0,0,0,0,0,0,0,0,0,0,0,0,0,0,0,0,0,0,0,0,0,0,0,0,0,0,0,0,0,0,0,0,0,0,0,0,0,0,0,0,0,0,0,0,0,0,0,0,0,0,0,0,0,0,0,0,0,0,0,0,0,0,0,0,0,0,0,0,0,0,0,0,0,0,0,0,0,0,0,0,0,0,0,0,0,0,0,0,0,0,0,0,0,0,0,0,0,0,0,0,0,0,0,0,0,0,0,0,0,0,0,0,0,0,0,0,0,0,0,0,0,0,0,0,0,0,0,0,0,0,0,0,0,0,0,0,0,0,0,0,0,0,0,0,0,0,0,0,0,0,0,0,0,0,0,0,0,0,0,0,0,0,0,0,0,0,0,0,0,0,0,0,0,0,0,0,0,0,0,0,0,0,0,0,0,0,0,0,0,0,0,0,0,0,0,0,0,0,0,0,0,0,0,0,0,0,0,0,0,0,0,0,0,0,0,0,0,0,0,0,0,0,0,0,0,0,0,0,0,0,0,0,0,0,0,0,0,0,0,0,0,0,0,0,0,0,0,0,0,0,0,0,0,0,0,0,0,0,0,0,0,0,0,0,0,0,0,0,0,0,0,0,0,0,0,0,0,0,0,0,0,0,0,0,0,0,0,0,0,0,0,0,0,0,0,0,0,0,0,0,0,0,0,0,0,0,0,0,0,0,0,0,0,0,0,0,0,0,0,0,0,0,0,0,0,0,0,0,0,0,0,0,0,0,0,0,0,0,0,0,0,0,0,0,0,0,0,0,0,0,0,0,0,0,0,0,0,0,0,0,0,0,0,0,0,0,0,0,0,0,0,0,0,0,0,0,0,0,0,0,0,
-2.88864e-02,6.85512e-02,7.80376e-03,-8.60232e-03,6.06192e-02,1.77005e-02,-2.91103e-02,-4.37168e-02,6.04689e-03,2.00862e-02,-2.80131e-02,2.99829e-02,-2.56330e-02,2.46017e-02,-1.72689e-02,-4.60124e-02,2.86277e-02,5.50760e-02,-2.81781e-02,2.32255e-02,-2.78905e-02,-6.21859e-02,5.76681e-02,2.68090e-02,3.65281e-02,-2.67273e-03,1.82939e-02,4.86852e-02,-5.47804e-02,-5.72799e-03,1.03236e-02,6.63699e-02,-6.28624e-02,2.01032e-02,-3.50753e-02,-3.39086e-02,4.53884e-03,-4.45444e-02,6.89954e-02,4.63716e-03,-6.82871e-02,-7.22562e-02,-1.62532e-02,-5.11021e-03,-5.83363e-02,7.88565e-02,7.97737e-02,-2.32012e-02,1.68558e-02,6.80271e-02,2.02649e-03,-2.49667e-03,-7.56694e-02,1.70167e-02,-2.27627e-02,3.06810e-02,-1.45013e-02,-3.58834e-02,-6.73601e-02,2.33648e-02,-1.65265e-02,5.14238e-02,-4.95415e-02,-3.68379e-02,8.24182e-02,1.29645e-01,2.85545e-02,-2.44734e-02,-4.85951e-02,3.67241e-02,-1.09435e-02,3.13160e-02,5.62461e-02,-3.53889e-03,-4.68793e-02,2.25064e-02,-8.12283e-02,2.56405e-03,-6.44126e-02,2.97350e-02,3.54795e-03,-6.86148e-02,6.79710e-02,1.66768e-02,-5.18383e-02,1.65482e-02,-3.70382e-03,6.58220e-02,1.62381e-02,1.99984e-02,-7.69344e-02,6.59221e-02,2.41460e-02,-5.47228e-04,7.61132e-03,-6.35877e-02,-8.51839e-02,-1.08305e-01,-1.09872e-01,-4.52723e-02,7.85741e-02,3.13123e-02,-6.92881e-02,-1.32841e-02,1.74552e-02,-4.76539e-02,9.11345e-03,4.40634e-02,-3.92096e-02,7.30803e-02,-1.97589e-02,4.46193e-02,-1.43501e-02,3.21733e-02,5.82527e-02,-3.60913e-02,4.70322e-02,1.19981e-01,-8.03811e-02,1.08852e-02,1.73508e-02,-1.23936e-01,-1.32661e-02,-1.30151e-01,-1.19785e-01,1.04843e-01,-1.04776e-02,-5.54020e-02,-1.87114e-01,-2.88791e-02,-9.42758e-02,-2.08800e-03,-3.44494e-02,1.56665e-02,-5.03575e-02,7.78695e-02,1.90752e-02,-9.14094e-02,5.31994e-02,6.39742e-02,-3.05999e-02,1.21259e-02,-2.94396e-02,2.43708e-03,3.50151e-02,9.75342e-02,1.14997e-02,3.62039e-02,-8.56661e-03,-1.18892e-01,-1.18727e-01,-1.73491e-01,6.91135e-03,7.97388e-03,2.91925e-02,-1.97169e-01,-4.37717e-02,-1.22774e-01,-5.70361e-02,2.01564e-02,-1.38195e-02,-2.40030e-02,-6.37347e-02,-2.00418e-02,-6.90219e-02,-2.74986e-02,5.75909e-02,-6.79582e-02,5.54464e-02,-7.59648e-03,4.60033e-02,-2.75018e-02,-1.92979e-02,-3.99651e-02,1.71406e-02,1.54822e-02,-3.41971e-02,-1.25386e-01,-2.38399e-01,-2.30111e-01,-3.87422e-02,1.47482e-02,7.45809e-03,-2.39577e-01,-1.68030e-01,-3.27189e-03,4.50785e-02,-3.22956e-02,-8.10232e-02,-5.19762e-02,7.85582e-04,-2.07360e-02,-4.03104e-02,8.65085e-02,1.92310e-02,7.42325e-02,5.63657e-03,5.00467e-03,-2.77189e-02,-3.76028e-02,-4.33146e-02,-1.79529e-02,9.34131e-03,-8.43757e-02,-9.60430e-02,-1.78370e-01,-1.66807e-01,-1.50078e-01,-2.77278e-01,-1.04458e-01,1.89914e-02,-2.41271e-01,-1.70966e-01,-8.20462e-02,-6.35647e-02,1.57059e-03,-9.67180e-02,-8.44776e-02,-2.59092e-02,-6.49833e-02,-6.27868e-02,-4.62493e-02,-9.82606e-04,-3.54022e-02,3.30611e-02,3.18343e-02,-2.10609e-02,1.44308e-03,-7.04188e-02,4.74117e-02,-6.35049e-02,5.20165e-02,-1.40151e-02,-9.72520e-02,-8.35023e-02,-1.15580e-01,-2.76985e-01,-8.29778e-02,9.82883e-03,-2.83846e-03,-6.69106e-02,-1.23510e-01,-1.64412e-01,-1.47596e-01,-9.85119e-02,-8.79446e-02,-1.44092e-01,-7.57476e-02,1.44890e-02,-5.22984e-02,-4.34518e-02,2.38014e-02,7.39626e-02,-9.22042e-02,-6.35890e-02,-2.22745e-02,5.16740e-02,4.91289e-02,1.46299e-02,-7.05918e-02,-3.89303e-02,-7.42674e-02,-8.15483e-02,-1.85308e-01,-2.53510e-01,-1.00065e-01,7.21008e-02,-1.56056e-02,-1.24776e-01,-7.04217e-02,-7.87393e-02,-6.74136e-02,-3.55662e-03,-1.00069e-01,9.19830e-03,5.27894e-02,3.18784e-02,-3.58061e-03,1.67714e-02,1.46442e-02,-4.24643e-02,-1.79506e-02,-1.77342e-02,-6.36439e-02,-5.44409e-02,-1.08336e-02,-6.61976e-02,-1.27647e-01,-1.42887e-01,-1.43365e-01,-4.90972e-02,-2.34438e-01,-1.89806e-01,-1.17996e-01,1.23932e-01,-8.91669e-03,-2.03673e-01,-1.14756e-01,-1.45118e-01,-5.92982e-02,2.81413e-02,-8.61699e-02,3.01850e-02,4.84000e-02,1.00734e-01,6.08559e-02,-7.79763e-02,-1.92179e-02,-7.47508e-02,-6.47034e-02,2.99851e-02,1.59400e-02,-1.61829e-02,-2.08183e-02,-5.47043e-02,-6.27337e-02,-6.87181e-02,-1.33722e-01,-1.05121e-01,-1.54430e-01,-1.12706e-01,-6.49407e-02,1.02720e-01,-1.59634e-01,-1.27581e-01,-2.48776e-02,2.32874e-02,-4.26538e-02,-7.40414e-02,-4.81623e-02,-6.57332e-02,-4.00805e-02,3.56196e-02,4.18645e-03,5.22788e-02,-4.89024e-02,-1.97282e-02,8.99451e-03,-7.61354e-02,-1.27209e-03,1.51333e-02,-6.39042e-02,-3.13590e-02,-5.66831e-02,-2.72202e-03,1.82954e-02,-1.05686e-01,-1.52579e-01,-2.24081e-01,-3.01783e-02,1.19085e-01,-2.77557e-01,-1.63625e-01,-1.46406e-01,-1.47533e-02,1.23466e-02,3.08259e-02,-3.95330e-02,-8.86260e-02,-1.44123e-01,-7.96091e-02,-9.74455e-02,7.59793e-03,-4.21331e-02,5.86919e-04,1.42070e-02,-8.16587e-02,2.35183e-03,-4.96932e-02,1.59591e-02,6.55166e-03,-6.00004e-02,-4.98413e-02,-3.81075e-02,-2.27715e-01,-2.04512e-01,8.59889e-03,-3.05648e-02,1.37427e-02,-2.75746e-02,-6.81028e-02,4.30839e-02,-2.53704e-02,-5.16890e-02,-4.92562e-02,-1.15836e-01,-2.32631e-02,-9.45067e-02,-4.26989e-03,-6.68837e-02,9.04495e-02,8.87350e-02,5.34376e-02,2.15841e-02,7.44905e-03,1.56406e-02,-2.32068e-02,-2.94465e-02,4.20023e-02,9.76237e-03,2.48381e-02,7.92416e-03,-2.01320e-01,-7.89147e-02,4.41326e-02,-4.14028e-02,-6.50907e-02,-3.73793e-02,2.00811e-02,8.69475e-02,-4.56671e-03,-6.93270e-02,-7.67446e-02,1.47416e-02,-1.09211e-02,1.27335e-02,-1.33695e-02,-6.06266e-02,3.25260e-02,5.32082e-02,-2.30447e-02,3.07570e-03,1.73948e-02,-4.59865e-02,-6.10770e-02,-1.27053e-01,1.67564e-02,2.38511e-02,-1.14675e-02,-2.09898e-02,-1.47538e-01,-1.21629e-01,2.68683e-02,-1.57920e-01,-1.63594e-01,-1.43116e-01,5.80690e-02,1.43371e-01,-3.12757e-02,7.07558e-04,2.33559e-02,-9.01783e-02,-4.62830e-02,-8.56817e-02,-1.29853e-02,-5.36121e-02,-6.83789e-02,-9.09770e-03,1.49012e-03,2.73141e-02,-5.34998e-02,-4.27397e-02,-2.04069e-02,-1.07390e-01,-2.65737e-02,-8.50443e-02,-4.98364e-02,-1.42638e-01,-1.85200e-01,-7.95903e-02,-1.04666e-01,-2.91101e-01,-2.41165e-01,-1.57985e-01,6.44255e-02,-7.44008e-03,-1.19937e-01,-1.12330e-01,-3.01136e-02,-2.46638e-02,-2.10907e-02,-5.64532e-02,-2.32062e-02,-7.79065e-02,3.03383e-02,1.27539e-02,2.68806e-02,-6.06299e-03,-3.84647e-02,-5.23262e-03,-3.31858e-02,-1.05536e-01,-1.09412e-03,-8.72870e-02,-2.12672e-02,-5.75991e-02,-1.11993e-01,-1.28861e-01,-1.19538e-01,-2.04346e-01,-2.35785e-01,-1.76974e-01,1.01938e-01,-7.25251e-02,-2.74738e-02,1.72109e-02,-9.08904e-02,-5.69219e-02,-4.68295e-02,5.08877e-02,-1.20927e-01,-1.35365e-01,-7.26726e-02,-3.62461e-02,-2.31850e-02,-2.66912e-02,8.17978e-03,-4.76900e-02,3.12178e-02,-3.32949e-02,-5.75586e-03,2.73606e-02,1.20506e-02,-1.29550e-01,-1.67208e-01,-1.80319e-02,-4.40039e-02,-9.85048e-02,-1.71367e-01,-6.53121e-02,-8.63600e-02,-7.54212e-02,-3.72047e-03,-4.29577e-02,-6.49250e-02,-1.54260e-01,3.93405e-02,1.57176e-02,-3.34174e-02,3.99206e-03,4.46062e-02,1.89777e-02,-5.57399e-02,-5.59395e-02,5.50536e-02,-4.59119e-02,6.53374e-02,1.42042e-02,-9.61353e-02,-6.86058e-02,-9.02208e-04,4.73913e-03,-7.61658e-05,-5.63721e-02,2.05350e-02,-8.72374e-02,-2.37164e-01,4.86113e-02,4.27283e-02,-1.74421e-01,-9.03894e-02,-1.56785e-03,-7.08461e-02,-7.69142e-02,-3.04256e-03,4.41047e-02,-4.92117e-02,-2.30803e-02,-1.25166e-01,-7.23398e-02,5.61025e-02,-2.69666e-04,-6.04406e-02,7.20004e-03,2.53745e-02,-2.82721e-03,-3.74529e-02,2.17009e-02,-1.83493e-02,8.43013e-03,-8.99048e-02,-9.19733e-02,-6.04469e-02,-1.39405e-01,-1.56110e-01,5.49691e-02,-1.52793e-02,-2.08978e-01,-1.28236e-01,1.46507e-02,-3.57257e-02,-1.10517e-01,-1.12065e-02,-4.20057e-02,6.23360e-02,-4.81867e-02,-1.10829e-01,-6.02596e-03,-1.01934e-02,5.17668e-02,3.19085e-02,-4.33934e-02,-4.56123e-02,-5.39500e-02,-5.02905e-02,1.78450e-02,-2.97582e-02,-9.25616e-02,-1.15122e-01,-1.08453e-01,4.76914e-02,-1.24944e-01,-1.30811e-01,2.51384e-02,-1.04268e-01,-2.46480e-01,-5.97880e-02,-3.14670e-02,6.06835e-03,-1.08588e-03,7.23249e-02,8.39749e-02,-8.37708e-03,-1.02266e-01,-8.25316e-02,6.82325e-02,-3.63701e-02,-2.06009e-02,3.41109e-02,-7.35562e-02,-9.54513e-02,6.15550e-03,-9.80922e-02,-3.21768e-03,-2.69631e-02,4.08553e-03,-5.03328e-02,-7.72783e-02,2.54914e-02,-1.50911e-02,2.67903e-02,-2.61208e-02,-9.68841e-02,-2.98894e-01,-3.01511e-02,-1.08562e-01,-1.05909e-01,-4.76915e-02,6.02749e-02,-5.71726e-02,-2.94951e-02,-6.92343e-02,2.62847e-02,-3.28829e-02,4.32401e-02,3.53205e-02,7.09029e-02,8.13255e-03,-6.79871e-03,-8.22456e-02,-9.20791e-03,-2.61561e-02,-1.25414e-01,-4.22294e-03,-9.91284e-02,-1.76838e-01,5.84148e-02,4.09743e-02,4.26835e-03,-2.43860e-02,-1.31630e-01,-3.69511e-01,-2.91954e-02,-1.23749e-01,-3.32883e-02,-4.71914e-02,4.82168e-02,3.04900e-02,-4.07330e-02,5.90857e-02,4.35115e-02,4.10776e-02,3.31009e-03,-4.88105e-02,-6.44345e-03,5.13694e-02,5.04427e-02,5.86069e-02,-6.60317e-02,-7.96798e-02,1.86983e-03,-1.03851e-01,-9.28359e-02,-1.74830e-01,-1.10495e-01,-1.00323e-01,-7.08152e-02,-6.12353e-02,-1.15285e-01,-1.53203e-01,5.37026e-02,-6.62428e-02,4.85986e-03,-5.22518e-02,-7.02976e-02,6.37949e-02,-8.04180e-03,-7.46451e-02,7.30444e-02,4.81361e-02,-1.78497e-02,3.02921e-02,4.95368e-02,-6.72408e-02,-5.49501e-02,1.93673e-02,-5.59367e-04,-4.77474e-02,-7.66284e-02,-2.32926e-02,7.80621e-02,9.82210e-02,2.52788e-02,-5.11890e-02,-5.60775e-02,-1.16609e-02,-6.81749e-02,-4.32009e-02,-6.80814e-02,-1.14748e-01,-1.08434e-01,-2.03198e-02,-3.55819e-02,-6.47486e-03,2.42835e-02,6.62851e-02,-7.18999e-02,-2.28829e-02,-3.83393e-03,-4.45597e-02,-1.76239e-03,-1.26913e-02,5.24513e-04,3.92896e-02,5.21249e-02,5.54477e-02,4.74573e-02,-7.06962e-02,-7.03748e-02,-6.43235e-02,-1.08009e-02,-1.54505e-02,-2.53319e-02,-1.00998e-01,-5.91557e-02,3.12368e-02,-9.89177e-03,-3.79686e-02,-8.84441e-02,1.83256e-04,1.68520e-02,5.99044e-02,3.75089e-02,1.75495e-02,-4.35232e-02,6.45116e-02,1.77076e-02,-2.02473e-03,4.99386e-02,4.25492e-02,5.97084e-02,-1.05183e-02,-5.51762e-02,1.04044e-03,2.37298e-02,2.04583e-02,2.78605e-02,1.88326e-02,-7.41076e-02,-5.31526e-02,-2.87523e-02,-4.65739e-02,1.08367e-02,2.97327e-03,9.03372e-03,4.58316e-02,2.21350e-02,1.00470e-02,2.37396e-02,-6.79882e-02,6.42700e-02,4.98924e-02,-5.72820e-02,-3.43906e-02,
-6.20569e-02,-2.04328e-02,-1.51092e-02,3.88393e-02,5.59433e-02,3.75797e-02,6.78726e-02,5.59521e-02,-3.04303e-02,-1.02397e-02,-9.02495e-03,-5.46563e-02,3.23608e-02,7.49763e-02,4.06903e-02,-5.96260e-03,-7.96426e-03,-2.93443e-02,7.51555e-02,-4.92157e-02,-1.96873e-02,-5.14413e-02,-4.58376e-03,-5.14764e-03,5.05855e-02,-1.41958e-02,5.73100e-02,-6.46577e-02,-6.86119e-02,6.22451e-03,4.88259e-02,2.94246e-02,2.26198e-02,-3.66561e-03,6.25935e-02,-6.90818e-02,-7.51248e-02,1.37847e-02,-8.20196e-02,-2.86220e-02,-4.70515e-02,-3.43015e-03,-5.65846e-02,1.97611e-02,-1.64338e-02,-5.72883e-02,-7.51421e-03,4.87006e-02,7.62524e-03,4.69970e-02,6.44270e-02,5.67686e-02,3.65666e-02,2.21568e-02,-7.52612e-02,-4.30278e-02,-1.98977e-03,3.56254e-02,-3.40056e-02,-5.92336e-04,4.06781e-02,1.53134e-02,-4.12945e-02,-4.57840e-03,-6.69639e-02,4.12892e-02,-5.81004e-02,7.11264e-02,1.12750e-01,-2.80471e-02,-7.48515e-02,6.26362e-02,3.16159e-02,-2.04321e-02,-4.85490e-02,-1.04970e-02,2.75151e-03,-3.35591e-02,3.77303e-03,5.47402e-02,-7.00333e-02,-7.27453e-02,7.06799e-02,4.85834e-02,-3.82844e-02,-2.26691e-02,5.63163e-02,5.37464e-02,4.57867e-02,6.24932e-02,-5.33140e-02,3.07949e-03,4.68733e-02,-2.12163e-02,4.84650e-02,-2.11219e-02,7.46576e-02,4.52643e-02,4.92810e-02,-7.61175e-02,-3.55155e-02,2.68172e-02,-3.49097e-02,6.70797e-03,-2.10813e-02,3.24972e-02,7.08474e-02,3.59703e-03,-3.02358e-02,-6.53076e-02,4.73017e-02,1.72552e-02,-3.91328e-02,-3.42536e-02,1.67722e-03,-2.71928e-02,-4.04795e-02,2.95866e-02,-3.53683e-02,5.13996e-02,1.99945e-02,-6.28191e-02,3.64274e-02,3.53524e-02,1.67551e-02,-1.17160e-02,1.24323e-03,-7.42257e-02,-4.52895e-03,-7.66875e-02,5.58872e-02,5.26303e-02,-2.19576e-02,-4.69648e-02,-5.98278e-02,-7.24831e-02,-7.57374e-02,4.73933e-02,-7.49370e-02,-7.18030e-03,-5.60653e-02,-2.56192e-02,-6.98904e-02,-4.29574e-03,1.98660e-02,5.05979e-02,7.38024e-02,-1.00185e-03,-4.00928e-02,1.33583e-02,6.53851e-02,-3.30553e-02,-9.28987e-03,-7.11060e-02,-6.57483e-02,-8.48031e-02,1.37113e-02,-9.07310e-02,-1.64004e-03,-5.30935e-02,-3.56698e-02,-7.55894e-02,-6.72473e-02,-3.21433e-02,-1.69739e-04,4.52438e-03,7.57294e-02,6.61563e-03,3.50406e-02,-5.99824e-02,6.18033e-02,-3.54716e-02,2.92753e-02,-8.91083e-02,-3.91381e-02,-4.06321e-02,-5.16596e-02,4.17157e-03,-7.74166e-02,8.84997e-03,-1.26078e-02,-7.13942e-03,1.77910e-03,-1.91802e-02,-2.35769e-02,-5.98915e-02,-5.33230e-02,1.86864e-02,-2.14836e-02,1.06640e-02,-1.10408e-02,-2.39461e-02,4.93327e-03,-2.05870e-03,-3.49494e-02,-5.23297e-02,-5.24394e-02,7.41259e-02,-3.99189e-02,5.59092e-02,2.34505e-02,-6.23988e-02,-6.67691e-02,-3.48724e-02,5.40461e-03,4.22550e-02,-5.01809e-02,-5.31634e-02,-5.22195e-02,2.45282e-02,-5.01265e-02,-5.24198e-02,-3.66807e-02,4.19986e-02,-5.73992e-02,-4.38764e-02,-1.54290e-02,1.37944e-02,-6.15690e-02,-5.05220e-02,-5.22332e-02,4.49947e-02,-1.71666e-02,-1.42884e-02,2.01899e-02,1.01358e-01,-2.54285e-02,-7.80451e-02,-7.56175e-03,2.11974e-02,3.06313e-02,-8.22825e-02,-8.76618e-02,2.15066e-02,3.44171e-02,-3.71639e-02,2.65678e-02,2.96196e-02,2.08104e-02,-3.00060e-02,2.05480e-02,-3.25276e-02,-9.39696e-02,2.17024e-02,-9.40340e-03,3.44715e-02,-1.62797e-02,2.54772e-02,-6.97909e-02,2.97918e-03,-4.07674e-02,-9.57889e-03,5.59587e-02,2.72719e-02,6.77585e-03,-5.23569e-02,-4.46696e-02,-1.74491e-02,1.43632e-02,-8.92551e-02,-2.05418e-02,-5.03438e-02,-8.36918e-02,-5.31038e-02,-8.62056e-02,3.54197e-03,1.27833e-02,1.18836e-02,-1.54136e-02,-6.48576e-02,-4.00206e-02,3.42938e-02,-7.41483e-02,4.85671e-02,-2.52032e-02,4.76488e-02,2.14572e-02,2.51953e-02,-6.15382e-02,1.63896e-02,-8.38814e-03,7.37821e-02,-2.76973e-02,6.63407e-02,-1.84069e-02,3.39836e-02,-5.44788e-03,-1.73312e-02,2.12042e-02,-9.53703e-03,3.80987e-03,6.13952e-02,-6.64029e-02,3.31424e-02,-1.83595e-02,3.99152e-02,2.07172e-03,1.98007e-02,-3.19295e-02,3.94709e-02,-8.70074e-02,2.30349e-03,-8.83790e-05,1.70924e-02,-3.30034e-02,3.15135e-02,-6.28764e-02,-4.23473e-02,-5.67860e-02,-3.31967e-02,4.39467e-02,-4.20279e-02,-6.61142e-02,4.10503e-02,-9.68638e-03,-4.92125e-02,1.51307e-02,-3.66168e-02,1.96516e-02,-4.66103e-02,3.13828e-02,1.73327e-02,-4.14718e-02,-5.97363e-02,-4.46623e-02,4.44805e-02,-5.50704e-02,-3.28532e-02,-3.06341e-02,-1.39892e-02,1.18910e-02,5.47854e-03,1.91949e-02,-4.57458e-02,3.52020e-02,-2.09780e-02,-5.35876e-02,4.65880e-02,5.79481e-02,-4.61202e-02,-7.18939e-02,8.67252e-04,3.24942e-02,2.57398e-02,-8.61438e-02,3.47308e-02,-5.59442e-02,-1.41964e-03,-1.17514e-02,-1.35842e-02,-9.53615e-02,-9.96899e-02,5.44936e-03,2.43754e-02,-3.98590e-02,-1.83133e-02,-4.53653e-02,4.18301e-02,4.39198e-02,5.66398e-02,-5.60902e-02,-7.21942e-02,-1.92512e-02,3.71179e-02,2.57103e-02,-3.47728e-02,-7.69811e-02,-3.96744e-02,-1.02272e-01,-3.53660e-03,-5.76479e-02,-2.35440e-02,-3.51167e-02,-3.25296e-02,-6.48670e-03,-3.61064e-02,-3.17916e-02,-1.09876e-01,-9.61325e-04,2.63507e-03,-4.01356e-02,5.54577e-02,-1.46079e-02,-2.85654e-02,-2.72860e-02,-6.30398e-02,1.20971e-02,4.82276e-02,2.54241e-02,3.58853e-02,6.46943e-02,4.56645e-02,-9.65464e-03,-6.77535e-02,-2.88926e-02,6.03752e-02,-8.35609e-02,5.06074e-02,-2.07371e-02,2.43167e-02,2.82002e-02,-3.59062e-02,-2.94736e-02,-6.79594e-02,-8.76283e-03,-6.86108e-02,-5.46214e-02,-4.64381e-02,4.08863e-02,2.12425e-03,-5.09724e-03,2.64164e-02,2.16070e-02,-1.21471e-02,2.11093e-02,2.43457e-02,-4.21144e-02,-8.68938e-03,2.01326e-02,-4.86699e-02,-2.44559e-02,-1.86451e-02,3.83527e-02,5.56853e-03,4.71482e-02,-6.74971e-02,3.36794e-02,2.61973e-02,-4.65576e-02,-8.19373e-02,-5.73211e-02,-4.19097e-02,-2.39136e-02,-3.46509e-03,-7.33896e-02,-6.56709e-02,3.47562e-03,-4.40259e-02,3.58217e-02,-5.00604e-02,-4.08331e-02,-7.19549e-02,-3.03490e-02,-4.22843e-02,8.10066e-03,7.85507e-02,4.27704e-02,5.58085e-02,-5.65743e-02,-5.37246e-03,1.34071e-02,6.33182e-02,-7.38379e-02,6.55450e-02,-5.60979e-03,-6.08597e-02,-3.80803e-03,-3.13011e-02,3.64643e-02,4.08115e-02,-5.00165e-02,2.75996e-02,-3.34577e-02,3.51300e-02,4.10010e-02,-2.69245e-02,-9.08298e-02,-2.15233e-02,4.96676e-02,-6.54257e-02,2.83073e-02,4.06409e-02,-5.46734e-02,-5.40709e-02,4.31545e-02,5.95852e-02,5.11946e-02,6.32806e-02,2.67867e-02,3.32636e-02,-4.76564e-02,-5.83112e-02,-2.54508e-03,-6.31251e-02,4.75721e-02,3.41266e-02,2.76917e-02,-8.36075e-02,-3.51725e-02,4.46264e-02,-5.39891e-02,-8.85399e-02,6.61538e-02,-8.81463e-02,1.94599e-03,2.68380e-03,2.61716e-02,-1.47127e-02,-4.45859e-02,6.31267e-02,3.00542e-02,-1.68017e-02,4.94318e-02,2.66938e-02,5.06687e-02,-1.50999e-02,1.96425e-02,-3.48341e-02,3.29357e-02,3.10710e-02,-5.34708e-02,-2.43238e-02,3.74653e-02,-1.02439e-02,-4.65727e-02,-3.94671e-02,-3.02538e-02,-3.94020e-02,5.70134e-02,-6.66202e-02,-2.41519e-02,-1.03518e-02,-6.87217e-02,-5.99844e-02,2.19094e-02,-7.31344e-02,-7.15101e-02,1.43410e-02,3.56893e-03,-1.24222e-02,2.92318e-02,-1.19297e-02,1.55133e-02,-2.74361e-02,1.05486e-02,1.24667e-02,-6.31236e-02,-2.30841e-02,2.71087e-02,-6.91695e-02,1.88908e-02,-5.13538e-03,-8.30152e-02,3.26850e-02,-4.80126e-02,5.29212e-02,3.59128e-03,-7.57220e-02,-1.37374e-02,-3.37140e-02,2.81451e-02,2.02257e-02,2.35892e-02,5.43116e-03,-7.22959e-02,-4.91261e-02,-7.75854e-02,-8.45594e-03,-4.49921e-02,4.40025e-02,-3.47358e-02,-2.22805e-02,-8.63808e-03,-5.73334e-02,-7.94671e-02,2.98763e-02,6.24866e-03,-6.05127e-02,-6.06599e-02,1.81306e-02,4.25165e-02,7.17006e-03,4.04897e-02,-7.52696e-02,-5.35722e-02,-7.21433e-02,4.40430e-02,-4.33781e-02,-5.64382e-02,-4.58744e-02,-5.93622e-02,-8.53868e-02,6.17165e-02,-5.58327e-02,3.95243e-03,-4.97936e-02,4.40113e-02,-2.40848e-02,2.42580e-02,5.49124e-02,-7.20556e-02,5.00915e-02,1.78152e-02,5.40307e-02,1.59478e-02,-6.18722e-02,4.31295e-02,-4.24865e-02,2.34845e-02,8.94262e-03,2.62986e-03,5.30470e-02,-4.50944e-02,-4.96784e-02,-3.73005e-02,4.45375e-02,5.20706e-02,-4.01120e-02,6.53716e-02,-3.72669e-02,2.46461e-02,5.73376e-02,4.73407e-02,-1.45199e-02,-5.67990e-02,-6.54384e-02,3.14432e-02,-5.65699e-02,-4.79098e-02,-5.62426e-02,-4.72128e-02,6.77640e-03,-9.12393e-02,-6.02190e-02,-8.23676e-03,-6.20946e-02,-8.54398e-02,1.25673e-02,-4.29379e-02,-5.77117e-02,2.54776e-02,3.53812e-02,-4.77305e-02,-6.10935e-02,5.14924e-03,-6.36883e-02,4.61803e-02,7.61821e-03,2.12073e-02,3.63804e-02,-9.44670e-03,5.68936e-02,-3.39767e-02,1.29125e-02,-2.67177e-02,4.45269e-02,-7.28528e-02,1.35604e-02,-2.56730e-02,-3.58788e-03,-1.15420e-02,5.28907e-02,5.97955e-02,-2.21236e-02,-2.66185e-02,-7.01865e-02,-4.38019e-02,-8.15577e-02,-6.97197e-02,-8.71006e-02,-8.91006e-02,1.49591e-02,-7.47148e-02,2.93439e-02,-8.85596e-02,4.98547e-03,-4.45838e-03,-4.48669e-02,-1.05213e-03,-1.22574e-02,3.60754e-02,2.31428e-02,-4.10819e-02,-2.71543e-02,-7.16849e-02,-1.79393e-02,-5.49332e-02,-4.66199e-02,2.03136e-02,3.69885e-02,3.66008e-02,8.67413e-03,5.24192e-02,2.93312e-02,-5.06439e-02,-5.47817e-02,-5.02760e-02,2.00220e-02,6.63223e-02,2.65632e-02,3.45145e-02,-3.09000e-02,2.41370e-02,1.09332e-02,-1.05616e-02,-4.35447e-02,-5.96202e-02,5.61365e-02,7.25597e-02,3.76944e-02,-1.19092e-02,-4.81563e-02,-6.26883e-02,-4.75295e-02,6.73290e-02,-3.32557e-03,-2.38517e-02,5.16534e-02,-3.90767e-02,4.15087e-02,2.62126e-02,6.60943e-02,-4.66040e-02,-1.68246e-03,5.63560e-02,6.26164e-03,-7.34461e-02,1.54066e-02,2.55874e-02,5.82668e-02,-5.39501e-02,1.40491e-02,7.03426e-02,-2.73257e-02,4.36606e-02,-6.69153e-02,1.57195e-02,1.47694e-02,-6.70817e-02,6.48351e-02,2.98096e-02,3.35289e-02,1.25930e-02,1.60478e-02,-3.06244e-02,2.75740e-02,2.60469e-02,1.56639e-02,-3.69268e-02,9.37772e-03,-6.06569e-02,-3.21893e-03,5.79819e-02,-1.67003e-02,-8.39145e-02,5.38854e-02,8.22399e-02,7.03440e-03,1.86067e-03,-6.46126e-02,-5.92827e-02,-5.15837e-02,-5.18872e-02,-5.08384e-02,-5.06211e-02,-5.20439e-02,-2.82775e-02,6.11888e-02,4.32326e-03,-1.29562e-02,4.47775e-02,1.20835e-02,7.38501e-02,-4.66684e-02,5.41819e-02,-6.19244e-02,-6.87090e-02,7.35125e-02,-4.97339e-04,4.48714e-02,2.19204e-02,-8.14208e-02,5.90178e-02,-4.56184e-02,-8.63234e-02,1.67990e-02,-2.05938e-02,6.02718e-02,-1.98647e-02,5.76870e-02,6.81912e-02,3.44428e-02,-7.17890e-02,3.06914e-02,
3.60158e-02,-4.65598e-02,-5.18554e-02,-5.01924e-02,5.09280e-02,-3.16128e-02,6.82663e-02,5.45764e-02,3.02425e-02,6.19519e-02,-3.05448e-02,-1.70143e-02,2.34983e-02,-5.39140e-02,4.35504e-02,-4.30389e-02,4.70919e-02,-5.71346e-02,-2.07093e-02,-3.13406e-02,-3.14957e-02,-6.41486e-02,-4.27594e-02,7.72015e-03,3.56168e-02,-6.77383e-02,-1.88589e-02,2.79279e-02,-6.69942e-02,-5.03916e-02,4.78597e-03,4.71847e-02,-6.98089e-02,5.63892e-02,-4.59484e-02,-3.99277e-02,-9.01535e-02,-4.80451e-02,-1.11243e-02,4.47536e-02,8.09589e-02,5.90004e-02,-2.40590e-02,-8.71495e-02,-1.13264e-01,-8.01464e-02,-6.04210e-02,-2.08148e-02,2.01777e-02,1.69785e-02,-2.20174e-02,-2.68561e-02,2.08166e-02,-6.88415e-02,-7.43340e-02,4.64896e-02,-4.24243e-02,-2.77199e-04,2.67182e-02,5.44780e-02,-4.09466e-02,-3.03860e-02,-4.25237e-02,2.02774e-02,-1.24231e-01,-2.83914e-02,-1.65443e-01,-1.90278e-01,-1.34250e-01,-1.90524e-02,9.59038e-02,2.63604e-02,-1.61844e-01,-1.35949e-01,-6.49788e-02,2.61487e-02,-7.18429e-02,6.17246e-02,4.73532e-02,2.41863e-02,5.88294e-02,-5.43155e-02,3.13052e-02,1.11737e-02,3.60377e-02,3.26876e-02,5.62121e-02,1.34993e-02,-4.33886e-02,-1.19591e-01,-2.30595e-01,-2.58125e-01,-1.89715e-01,-2.78522e-01,-3.46128e-01,-3.21567e-01,-3.21856e-01,-1.49720e-01,-7.24597e-03,-1.04489e-01,-6.80861e-02,-1.63358e-01,-1.65701e-01,-8.19696e-02,3.35727e-02,1.02625e-01,-1.80407e-02,6.81240e-02,4.35710e-02,7.85164e-03,1.43276e-02,-6.50714e-03,6.14835e-02,-4.85734e-02,-4.37083e-03,8.87607e-03,1.72647e-02,6.07854e-02,-2.36446e-01,-4.99069e-01,-7.30652e-01,-6.81293e-01,-6.53105e-01,-6.12368e-01,-5.93581e-01,-7.40129e-01,-5.94665e-01,-5.53016e-01,-5.41389e-01,-5.65976e-01,-4.29106e-01,-4.24443e-01,-3.64897e-01,-1.67068e-01,-7.39057e-02,-6.51304e-02,5.61520e-02,-2.08185e-02,9.41665e-03,3.05265e-02,-1.55510e-02,-1.63713e-02,-2.44617e-02,-4.54399e-02,1.07085e-02,4.35926e-01,3.93990e-01,3.11617e-01,4.16496e-01,4.23454e-01,-1.40616e-01,-3.42386e-01,-2.37665e-01,-1.85572e-02,-6.05441e-02,-3.22982e-01,-2.85251e-01,-3.51371e-01,-4.42783e-01,-3.88252e-01,-4.41534e-01,-8.35191e-01,-4.07660e-01,-3.97874e-01,-4.53298e-01,-1.15200e-01,-3.78068e-02,4.45469e-03,-1.77189e-02,-6.14972e-02,3.70030e-02,3.18399e-01,-3.17122e-02,3.66054e-01,3.34632e-01,1.12213e-01,1.53303e-01,2.32488e-01,3.46922e-01,1.62104e-01,1.67182e-02,9.34627e-02,-1.77671e-01,1.00441e-02,-2.56390e-02,-1.32216e-02,-2.44572e-01,-4.46247e-02,2.60890e-02,6.98905e-02,2.27517e-01,-1.01867e-01,-2.36186e-01,-2.68483e-01,-8.93171e-02,6.09409e-02,1.16765e-02,-1.75876e-01,8.18148e-03,1.76332e-01,9.30817e-02,-1.20917e-02,1.12958e-01,1.76887e-01,-7.93137e-02,2.83154e-01,1.30356e-01,1.60702e-01,2.41230e-01,1.44215e-02,-6.44901e-02,4.31881e-02,1.80297e-01,2.93694e-01,1.41915e-01,2.73156e-01,2.96087e-01,-3.44114e-02,1.37021e-01,1.12255e-01,8.45863e-02,-3.95849e-01,-2.04323e-01,-3.65741e-02,-2.49536e-01,-2.83480e-01,5.13680e-02,6.63840e-02,-1.02138e-01,-7.85775e-02,-9.28034e-02,1.21893e-01,1.53783e-01,-1.60759e-02,8.79607e-02,1.61323e-01,2.09941e-01,1.48861e-01,1.64161e-01,1.70473e-01,1.22523e-01,1.97293e-01,1.56292e-01,3.20250e-01,4.05163e-01,2.32544e-02,1.08970e-01,2.49789e-01,2.03513e-01,-2.51506e-01,-2.09030e-01,1.20860e-02,6.47811e-02,-1.52385e-01,-4.97979e-01,-2.60790e-01,-7.64642e-02,-1.71170e-01,2.57163e-02,7.90366e-02,6.07203e-02,2.02293e-01,3.62429e-02,-3.71098e-02,7.62994e-03,9.58304e-02,1.01448e-01,1.80681e-03,-5.99402e-03,2.44742e-01,2.46165e-02,1.05994e-01,1.54613e-01,8.58319e-02,1.75051e-01,-1.57836e-01,1.71827e-01,-2.04297e-01,-1.29994e-01,-4.32459e-02,4.00197e-02,-1.16072e-01,-4.02494e-01,-4.31846e-01,-2.65800e-01,-2.29781e-01,-2.96102e-02,8.07965e-02,1.28135e-01,-5.17593e-02,-4.07813e-02,-1.58156e-01,-4.36303e-01,-4.00529e-01,-4.62296e-01,-4.50067e-02,1.06194e-01,2.56146e-01,-4.20884e-02,1.33212e-01,1.75063e-01,-8.56612e-04,-2.15113e-02,-2.69460e-01,-3.67454e-01,-2.57814e-02,-3.52274e-02,2.14685e-02,5.29641e-02,-3.80098e-03,5.19584e-03,-2.46147e-01,-1.99104e-01,9.36736e-02,7.42650e-02,2.65401e-01,4.76784e-02,-7.26494e-02,2.06026e-01,2.08038e-02,-2.72535e-01,-6.43392e-01,-5.82694e-01,6.75674e-03,1.36905e-01,-1.52697e-02,-3.41288e-02,-8.90465e-02,-4.59882e-02,-2.33070e-01,-2.00403e-02,-1.81402e-01,-3.69920e-01,5.57336e-02,-1.55285e-02,4.73354e-03,-2.49156e-02,6.82817e-02,3.61428e-02,-7.47153e-02,-1.49664e-01,9.39972e-02,9.34370e-02,2.92232e-01,2.46781e-01,5.53098e-02,9.93328e-02,-2.94694e-02,-3.13710e-01,-1.17352e+00,-6.89606e-01,2.77802e-01,1.05467e-01,6.18651e-02,5.67990e-02,-2.67464e-01,-3.59364e-01,-1.14209e-01,-6.87299e-02,-3.22319e-01,-3.30649e-01,1.19392e-01,9.76028e-02,-5.53642e-02,-4.58612e-02,4.80117e-03,2.18130e-01,-7.28399e-02,-4.03812e-01,-1.80362e-01,3.04690e-02,1.80919e-01,1.83913e-01,-5.83289e-02,-2.58974e-01,-3.81029e-01,-6.58375e-01,-1.00145e+00,-1.34848e-01,2.19101e-01,1.58770e-01,3.44001e-02,-2.30035e-01,-3.16296e-01,-3.25264e-01,-2.38267e-01,-9.06532e-02,-3.87093e-01,-3.91473e-01,-2.68841e-01,-2.40811e-03,-2.86499e-02,-6.07252e-02,5.96652e-02,-8.88607e-02,-1.61935e-01,-3.42061e-01,-1.67163e-01,-8.63212e-02,1.04922e-01,-2.37640e-01,-5.63551e-01,-5.22212e-01,-5.41226e-01,-8.34725e-01,-6.93960e-01,-5.12375e-03,6.70369e-02,-4.81478e-02,-1.99177e-03,-8.98307e-02,-1.30986e-01,-2.25208e-01,-1.61453e-02,4.18695e-02,-2.76500e-03,-2.53984e-01,-3.17286e-01,3.45354e-03,7.57229e-02,-4.47053e-03,7.01362e-02,-1.89421e-01,-3.07194e-01,-2.41432e-01,-3.39395e-01,-5.76118e-01,-4.46570e-01,-6.97332e-01,-4.07855e-01,-3.66505e-01,-3.43896e-01,-3.53053e-01,-1.11449e-01,-1.41259e-01,1.37957e-01,-1.16967e-01,3.33633e-02,1.55586e-01,4.54406e-02,-2.17808e-02,-7.59717e-02,3.33997e-02,-2.52513e-01,-6.03546e-01,-2.84165e-01,-4.92774e-02,1.93780e-02,-4.59301e-02,6.04677e-02,-3.18031e-01,-3.79041e-01,-4.03977e-01,-3.13027e-01,-5.05749e-01,-8.36780e-01,-4.49533e-01,-4.36877e-01,-4.13549e-01,-3.35369e-01,-3.65295e-02,-2.01896e-01,-1.60525e-01,4.44194e-02,1.15429e-01,1.98244e-01,2.00043e-01,-3.48071e-02,-8.60627e-02,-1.25447e-01,-4.19979e-01,-8.71977e-01,-4.33076e-01,-3.70274e-01,-2.02921e-01,-2.13176e-02,5.43935e-03,-3.39732e-03,-9.42488e-04,-3.34624e-01,-3.81713e-01,-3.26238e-01,-4.97413e-01,-3.84432e-01,-1.09404e-01,-5.22519e-02,-1.50385e-01,2.49587e-01,4.48035e-02,-5.48928e-02,-6.89303e-02,1.28803e-01,1.61591e-01,1.51271e-01,1.40442e-01,9.20800e-02,8.56048e-02,-2.25629e-01,-2.75866e-01,-6.81380e-01,-6.32655e-01,-6.00064e-01,-2.47681e-01,-7.41744e-03,-3.85868e-02,1.95748e-02,-1.15896e-01,-4.90147e-01,-4.41427e-01,-3.45026e-02,-2.31075e-01,4.85321e-02,2.10985e-01,1.78113e-02,-3.54852e-02,1.02816e-01,1.37082e-01,2.86137e-02,4.50200e-02,1.91302e-01,1.88360e-01,3.85182e-01,3.37533e-01,2.07642e-01,-7.47815e-02,-4.31646e-01,-4.07773e-01,-7.74676e-01,-5.70278e-01,-6.84786e-01,-9.61352e-02,-2.60019e-02,6.85360e-02,-1.01515e-01,-1.18151e-01,-1.38243e-01,-1.24435e-01,-2.06911e-01,-5.41171e-01,-1.03907e-01,1.77547e-01,1.63677e-01,6.49791e-02,8.53567e-02,1.00826e-01,5.47775e-02,1.36544e-01,1.65108e-01,-4.30530e-02,3.45957e-02,2.09510e-02,1.03273e-01,9.64998e-02,-5.64082e-02,-1.43718e-02,-6.82600e-01,-4.24060e-01,-1.91620e-01,-9.27618e-02,-4.15426e-02,2.83993e-02,-2.71418e-02,-2.20388e-02,-2.37976e-01,-4.75253e-01,-5.80778e-01,-5.62785e-01,-3.98410e-01,-5.04601e-02,-9.56999e-02,6.71409e-02,6.71277e-02,2.60635e-01,4.50007e-02,1.15172e-02,1.64909e-01,-3.63787e-01,-3.82345e-01,-4.22682e-01,-1.13358e-01,-3.44100e-01,-5.36299e-01,-3.02351e-01,-7.29451e-01,-3.89683e-01,-3.01566e-01,-3.39612e-02,7.00317e-02,1.18878e-02,-3.35906e-02,-8.93780e-02,-1.62482e-01,-2.49220e-01,-3.90235e-01,-2.81923e-01,-3.52019e-01,-3.25894e-01,-3.46056e-01,-1.37500e-01,7.79897e-04,-3.22347e-03,-1.05650e-01,-7.41970e-02,-7.28280e-02,-1.31583e-01,-4.00740e-01,-4.82997e-01,-2.74452e-01,-5.11590e-01,-3.67035e-01,-4.48603e-01,-6.93814e-01,-2.72234e-01,-9.07231e-02,-3.73383e-02,2.83507e-02,6.12690e-02,-1.62746e-02,-1.99647e-01,-3.63394e-01,-2.86239e-01,-2.33850e-01,-1.85331e-01,-1.39040e-01,-2.41372e-01,-1.05026e-01,-9.16060e-02,-2.17179e-01,-4.00964e-01,2.11820e-02,-2.44351e-02,1.57748e-01,-7.95195e-03,-6.21104e-02,-2.72500e-01,-2.52145e-01,-2.13028e-01,-5.51087e-01,-3.55118e-01,-3.15399e-01,-2.38029e-02,-1.82591e-01,-3.72571e-02,-3.10309e-02,3.77463e-02,1.91063e-02,-2.30776e-01,-4.10653e-01,-3.71790e-02,-3.51710e-02,1.23540e-01,1.64048e-01,-3.21372e-01,4.66740e-02,-1.58690e-01,-2.58807e-01,-1.79680e-01,-1.75696e-01,-2.06621e-01,5.28357e-02,-7.34093e-02,-2.23938e-01,-5.26263e-01,-7.40646e-01,-4.21033e-01,-1.56759e-01,-1.26799e-01,5.30285e-02,1.85971e-01,-7.91075e-02,-1.21824e-01,-5.00193e-02,-1.47914e-02,5.06507e-02,-5.68554e-02,-5.26606e-02,1.56206e-01,3.52760e-01,1.96968e-01,1.12224e-01,4.76353e-02,-5.64203e-02,-3.32656e-02,-5.43663e-02,-3.43366e-02,-1.41244e-01,-8.66471e-02,-4.31869e-02,-1.32951e-01,-5.76486e-02,-6.04104e-01,-8.05892e-01,-3.73808e-01,-3.14779e-01,-1.95581e-01,-1.19779e-02,-1.08391e-01,-3.42878e-02,-3.32160e-02,6.30950e-02,4.89115e-02,-1.99353e-02,-1.96511e-01,-2.99561e-02,2.00281e-01,2.04752e-01,-3.91792e-02,2.20007e-02,1.28013e-01,-5.61695e-02,-2.95810e-01,-1.66218e-01,9.09590e-02,-1.29848e-01,-1.71152e-01,1.01138e-01,1.07211e-01,-3.88203e-01,-4.27885e-01,-4.90829e-01,-3.86695e-01,-3.46469e-01,-1.19574e-01,1.48562e-03,-5.85989e-02,4.10131e-02,-3.31904e-02,3.58198e-02,-6.19369e-02,-3.98531e-03,-3.97928e-02,5.44710e-02,-6.95491e-02,-1.30182e-01,-7.87995e-02,-5.43268e-02,1.34736e-02,1.36484e-02,-3.65883e-01,-2.86048e-01,-5.14953e-01,1.55169e-02,-8.83179e-02,-1.03350e-01,1.62917e-01,2.20561e-02,-2.73133e-03,3.31265e-02,-9.88532e-03,-6.55944e-03,8.85348e-02,-6.00073e-02,-6.00277e-02,-6.10987e-02,-5.38252e-02,-2.67184e-02,-1.58300e-03,-2.96585e-02,3.95035e-02,-6.71527e-03,-1.60614e-02,-6.25104e-02,-1.94244e-01,-4.04989e-01,-4.35395e-01,-7.11277e-01,-2.20865e-01,-2.33024e-01,-3.46542e-01,-3.85632e-01,-5.07758e-01,-6.46788e-01,-5.43528e-01,-7.38166e-02,5.18703e-02,9.18486e-02,6.99899e-02,7.36969e-02,-7.02299e-02,6.34537e-02,5.61663e-02,-4.33575e-02,-2.00485e-02,-4.79684e-02,
6.42988e-02,7.26125e-02,-5.73637e-02,-4.63029e-02,2.29539e-02,-4.61820e-02,5.90284e-02,-3.10787e-02,6.08085e-02,-5.85891e-02,-1.49248e-02,2.87631e-02,8.80805e-03,4.79182e-03,-3.46393e-02,-2.30790e-02,-6.41343e-02,-6.02566e-02,-3.18611e-03,-3.93701e-02,-2.96059e-02,4.63513e-02,-6.18149e-02,-3.11515e-02,4.69162e-02,-3.48386e-02,3.40670e-03,4.46068e-02,2.51064e-02,7.37624e-02,6.97159e-02,-3.88079e-02,6.54276e-02,4.23665e-03,1.52325e-02,-6.24276e-02,-1.99218e-02,6.93859e-02,7.57043e-02,6.66896e-02,-8.77669e-04,-2.14688e-02,-3.79632e-02,1.94964e-03,6.16891e-03,-4.83994e-02,-7.69159e-02,1.56934e-02,4.52771e-02,-5.64796e-02,4.65484e-02,6.00289e-02,2.95952e-02,5.74508e-02,3.32765e-02,7.36116e-02,-3.15549e-02,-2.89343e-02,-7.04332e-02,1.18186e-03,-5.90010e-02,2.89120e-02,1.11099e-02,2.56248e-02,4.35039e-04,5.61146e-02,-2.98066e-02,-3.01189e-02,-1.22305e-02,-9.17617e-02,5.39238e-02,-5.06856e-02,-3.24712e-02,-8.21438e-02,-1.06637e-01,-4.25153e-01,-3.70487e-01,-4.80902e-01,-3.58802e-01,-2.32539e-01,-5.26416e-02,-4.27999e-02,2.47352e-03,3.28988e-04,2.66394e-02,-6.92643e-04,-5.94238e-02,2.03114e-01,3.00352e-01,5.63219e-02,5.76139e-02,-4.03128e-02,-4.81541e-02,1.00327e-02,-3.07844e-01,-4.53758e-01,-4.73158e-01,-1.68333e-01,9.14169e-02,-1.32443e-02,-8.35738e-02,-3.81606e-01,-1.06239e-01,2.04228e-01,-1.65745e-01,1.54092e-01,-2.04146e-01,-6.87589e-03,3.08068e-01,-9.49278e-02,-1.53370e-02,7.33624e-02,6.17923e-02,2.16051e-02,-3.83487e-03,1.23463e-01,-5.06960e-03,-1.80618e-02,-2.63298e-01,-3.66070e-01,-2.12904e-01,-2.98889e-01,-4.83227e-01,-5.04984e-01,-4.95167e-01,-1.21329e-01,5.28738e-02,-2.04319e-01,-1.00525e-01,9.54039e-02,2.54128e-01,2.41249e-01,1.66332e-01,2.43996e-01,2.78254e-01,5.07762e-01,4.64315e-01,1.88892e-01,-6.72415e-02,6.00089e-02,-4.30439e-02,4.38016e-02,-4.60602e-02,1.47519e-01,-1.10177e-01,-2.26850e-01,-1.82051e-01,-1.76869e-01,-2.97147e-01,-5.31382e-01,-4.22832e-01,-2.27376e-01,-1.99093e-01,-9.48941e-02,-1.83621e-01,-6.40269e-02,-2.90373e-02,2.99071e-01,3.96976e-01,3.49474e-03,2.62173e-01,3.28570e-01,1.17317e-01,2.42821e-01,2.04485e-01,-1.40092e-01,-2.07585e-01,-4.87401e-02,-3.01212e-02,-7.18357e-02,-2.57337e-02,-5.11933e-02,-8.99506e-02,-2.33706e-01,-3.38719e-01,-2.33090e-01,-4.45014e-01,-6.84627e-01,-3.67176e-01,-1.06451e-01,3.39773e-02,-3.57507e-02,-3.55005e-02,1.47361e-02,-9.58755e-02,7.45339e-02,1.46442e-01,1.33800e-01,2.76136e-01,2.94823e-01,-1.91727e-01,-1.29296e-01,-2.31357e-01,-5.15096e-01,-1.71249e-01,-6.09391e-02,-4.47808e-02,-7.55400e-02,-4.62947e-02,-7.33870e-02,-2.22364e-01,-1.96594e-01,-2.25631e-01,-2.06784e-01,-2.70431e-01,-3.94480e-01,-3.35851e-01,4.72384e-02,7.25365e-02,1.53861e-01,7.99749e-03,-1.54653e-01,-1.12829e-01,-1.48477e-01,-2.54489e-01,-1.91612e-01,-1.44484e-01,-3.02172e-01,-4.05298e-01,-5.05664e-01,-6.08797e-01,-6.13961e-02,-1.01618e-01,3.35508e-02,1.92035e-02,-3.92247e-02,-9.18997e-02,-2.17663e-01,-1.92835e-01,-1.59289e-01,-3.25122e-01,-3.36639e-01,-3.12137e-01,-4.14432e-01,-3.04466e-01,1.02746e-01,2.19748e-01,1.46887e-01,8.80299e-02,-2.96150e-01,-4.70875e-01,-5.24382e-01,-7.16904e-01,-7.52552e-01,-6.08601e-01,-7.04805e-01,-6.23977e-01,-4.89030e-01,-2.29993e-01,-1.10689e-01,3.87597e-02,7.00732e-03,2.43964e-02,-7.58630e-04,-1.23766e-03,-1.64915e-01,-3.81126e-01,-1.06970e-01,-2.39256e-01,-3.58057e-01,-3.88186e-01,-3.59688e-01,-2.13699e-01,6.94031e-02,2.47914e-01,4.81210e-01,2.92902e-01,-9.15112e-02,-1.89508e-01,-2.81954e-01,-6.07064e-01,-8.38864e-01,-1.01481e+00,-8.16471e-01,-7.41516e-01,-5.57623e-01,-4.71824e-01,3.18345e-02,-2.22945e-02,2.84714e-02,1.12984e-02,-5.04861e-02,6.65665e-02,-4.09904e-02,5.55571e-02,6.90265e-02,3.05405e-02,-1.49224e-01,-2.11926e-01,-5.53523e-01,-2.93208e-01,-5.13237e-02,2.20395e-01,3.60192e-01,1.39462e-01,9.85863e-02,7.64187e-02,-1.07545e-01,-2.58330e-01,-3.79111e-01,-6.52798e-01,-8.97592e-01,-6.97390e-01,-5.88054e-01,-4.15682e-01,4.93553e-02,-1.06022e-01,-6.12207e-02,4.30803e-02,7.02648e-02,8.13390e-04,1.26575e-01,1.23759e-01,5.13296e-02,3.14518e-02,-7.45418e-02,-4.24241e-01,-2.91078e-01,-1.90459e-01,-1.66557e-01,-4.42575e-02,2.74632e-02,-1.24424e-01,4.90455e-02,2.81301e-01,1.44942e-01,9.55306e-02,-2.54858e-02,-2.52052e-01,-4.49226e-01,-5.58701e-01,-2.98678e-01,-5.45402e-02,5.06439e-02,1.06107e-02,4.02285e-02,3.03095e-02,-2.00262e-02,4.82516e-02,1.02770e-01,4.44832e-02,1.38043e-02,5.59561e-02,-2.20565e-01,-2.57233e-01,-2.43324e-01,-2.00222e-01,-1.65330e-02,-1.07211e-01,-8.10656e-02,-2.28218e-01,-1.96365e-03,1.40721e-01,4.73253e-02,1.69104e-01,-2.32349e-02,8.91056e-02,-1.83636e-02,-1.57805e-01,-1.50335e-01,-9.19308e-02,-7.21151e-02,-6.16545e-02,-1.06096e-01,-2.29762e-03,5.78424e-02,-4.53377e-02,7.75766e-02,4.60382e-02,-3.75770e-02,-1.23594e-02,-2.24604e-01,-2.06630e-01,-1.50079e-01,-1.78555e-01,-3.50024e-02,6.36887e-04,-1.58663e-01,-1.18018e-01,2.58213e-02,-5.30563e-04,7.66953e-02,-1.34296e-02,-1.08640e-01,-7.38392e-02,-2.60507e-02,-3.32764e-01,-3.06675e-01,-1.86103e-01,-1.05715e-01,8.65187e-03,-3.37302e-02,-4.37913e-03,1.46689e-02,-8.09069e-02,1.11953e-01,7.77360e-03,1.79921e-01,2.42762e-01,-1.61456e-01,-2.92262e-01,-5.20920e-01,-5.56454e-02,7.59281e-02,-7.27291e-02,-3.84471e-02,-1.57375e-02,1.58647e-01,1.20904e-01,-5.24695e-02,1.93965e-01,-1.52808e-01,-2.65931e-03,-1.38165e-02,-2.14367e-01,-3.86881e-01,-1.58286e-01,-6.67338e-02,5.40897e-02,-5.44954e-02,6.35405e-02,-7.72256e-03,-5.09768e-02,-7.48504e-02,1.24764e-01,5.00485e-01,3.22793e-01,2.40816e-01,-2.08006e-01,-5.50333e-01,-4.24192e-01,-2.86995e-01,-1.31727e-01,-7.98673e-02,-2.65471e-01,1.90597e-02,1.21137e-01,9.23001e-02,1.89623e-01,-1.11113e-01,9.25545e-02,2.18381e-01,-1.15561e-01,-2.80015e-01,-8.00403e-02,4.62426e-02,1.58989e-02,4.12602e-03,3.04055e-02,5.70394e-02,-4.24052e-02,-3.73216e-01,1.81325e-02,1.77532e-01,3.03664e-01,7.01078e-02,-1.25807e-01,-5.13160e-01,-6.42918e-01,-5.00716e-01,-4.81567e-01,-4.20365e-01,-2.12856e-01,-1.55107e-01,-2.37354e-01,8.64775e-02,1.80063e-01,-6.41960e-02,1.14260e-01,5.34664e-02,-3.24957e-01,-2.91080e-01,6.78107e-03,-4.41468e-02,-7.44657e-02,-2.32068e-02,-4.85489e-02,-5.10447e-03,5.00894e-02,-3.10312e-01,-1.42938e-01,1.88166e-01,3.16736e-01,1.95324e-01,-4.18521e-02,-1.25577e-01,-4.62920e-01,-4.42784e-01,-7.15927e-01,-4.94045e-01,-1.43499e-01,-9.32862e-02,-7.26546e-02,-3.58973e-02,2.35090e-01,3.00180e-02,1.32984e-01,-7.81034e-02,-1.05917e-01,-1.92184e-01,-1.22771e-02,-2.02579e-02,-1.91206e-02,-6.35319e-04,-1.52369e-02,-4.92912e-02,-9.45758e-02,-2.66110e-01,-7.98397e-02,4.18220e-02,1.00420e-01,3.17691e-01,-1.38820e-02,-2.51181e-02,-2.42614e-02,-1.34347e-01,-3.83501e-02,-1.69466e-01,-9.84203e-02,-5.40954e-02,6.75644e-02,6.50449e-02,1.18127e-01,-3.75915e-02,-1.22609e-01,-1.22709e-01,-2.59556e-01,-2.65188e-01,-1.00697e-01,6.07610e-02,2.70539e-02,-6.87948e-02,2.24878e-02,1.02222e-01,2.63544e-02,-1.89925e-01,6.65629e-02,5.78810e-02,1.18936e-02,1.38991e-01,3.74196e-02,9.17110e-02,6.17929e-02,8.54315e-02,1.73188e-02,1.44707e-01,6.14551e-02,3.81916e-02,1.62520e-02,-1.40233e-01,5.98572e-02,-9.69979e-02,-1.04203e-02,-1.03403e-01,-1.06805e-01,-1.29051e-01,-6.00836e-02,-4.74025e-02,8.00599e-03,2.70004e-02,-3.29648e-02,-1.22316e-02,4.31391e-02,-1.92233e-01,1.02643e-01,8.85748e-02,1.54473e-01,-2.29734e-02,1.40918e-01,2.02136e-01,2.65823e-02,3.87363e-02,-6.73522e-02,3.83038e-02,5.81018e-02,4.62982e-02,-1.59852e-01,1.66971e-01,1.03024e-01,6.71933e-02,-2.37644e-01,-2.41031e-01,-2.17065e-01,-2.14719e-01,-2.97269e-02,2.10290e-04,-3.07190e-02,4.10691e-02,-1.65115e-02,-6.96144e-02,-7.81437e-02,-1.56232e-01,-1.90455e-01,1.15267e-01,1.42725e-01,5.10974e-02,-1.32971e-01,1.22951e-01,1.04032e-01,9.72011e-02,4.64497e-02,-4.00712e-03,3.82320e-02,2.31071e-02,4.63532e-03,-2.05688e-02,8.01187e-03,7.41363e-02,-7.29882e-02,-2.85076e-01,-3.02007e-01,-5.39858e-02,-1.63481e-02,-4.97141e-03,8.62485e-02,1.98303e-02,2.55120e-02,-5.20638e-02,-1.44864e-01,-2.05618e-01,-1.65672e-01,4.47019e-02,-1.88749e-01,-2.18037e-01,-1.04769e-01,3.96336e-02,3.95975e-02,-1.63813e-02,-3.71131e-02,6.70255e-02,2.64385e-02,1.49659e-01,1.57811e-01,8.29849e-02,1.61185e-01,2.43957e-01,1.60160e-02,-5.48794e-02,-1.51754e-02,4.54223e-02,-1.59437e-01,-1.07494e-02,5.91000e-03,5.27043e-02,2.17637e-02,7.03339e-03,1.71652e-02,-2.29637e-01,-8.22574e-02,5.74276e-02,1.16097e-01,-1.78849e-01,3.93659e-02,1.27189e-01,1.34901e-01,5.05611e-02,4.62419e-03,7.44233e-02,4.69063e-02,1.07954e-01,6.82987e-02,5.29726e-02,-1.27607e-01,-9.77156e-02,1.40796e-01,1.27196e-01,-1.01782e-02,4.86379e-02,-1.40838e-01,-5.36327e-02,-4.85012e-02,-1.25072e-02,-7.51929e-02,3.31222e-02,2.92526e-02,-5.49924e-02,1.09897e-01,2.61685e-01,2.16104e-01,1.29491e-01,-1.08258e-01,4.19974e-02,1.68256e-02,-9.40961e-02,1.44055e-01,1.56530e-01,-2.13467e-01,-3.58443e-01,-5.13472e-01,-3.36418e-01,-1.53024e-02,-8.33081e-02,9.74102e-02,-5.32773e-02,-6.41256e-03,4.83968e-03,7.13018e-02,4.43686e-02,5.56282e-02,3.74686e-02,7.18699e-02,6.30734e-02,4.06310e-02,4.50744e-02,1.54534e-02,-7.41576e-02,1.30511e-02,-3.45858e-02,-9.40769e-02,-1.06827e-01,-4.00766e-03,-3.46250e-02,3.43400e-02,4.59271e-03,7.31990e-02,1.89687e-02,-2.30762e-01,-2.73773e-01,5.35768e-02,8.76125e-02,1.68462e-01,7.66688e-02,1.19539e-02,-6.26960e-02,4.20801e-03,-3.66787e-02,-4.14575e-02,6.03052e-02,-5.69538e-02,-1.70508e-02,-5.10799e-02,3.42548e-03,-7.56807e-02,-1.86705e-02,-4.92546e-02,2.84340e-02,-4.05033e-02,4.88533e-02,2.46690e-03,-7.11169e-02,-1.63162e-01,-1.01213e-01,-1.01588e-02,1.42250e-01,-1.03230e-01,-1.99699e-01,-1.63618e-01,1.72437e-02,2.85834e-02,-1.98544e-02,-2.12902e-02,2.62662e-02,-1.50046e-02,5.47950e-02,1.06004e-02,-2.66837e-02,1.54665e-03,3.19976e-02,6.62841e-02,5.82789e-02,-6.21020e-02,6.06416e-02,-1.68193e-02,1.87854e-02,-1.23921e-02,2.77374e-02,-7.89587e-02,2.93516e-02,4.65745e-02,-7.58413e-02,3.49242e-02,-6.56535e-02,-6.35123e-02,-6.08375e-02,-4.99825e-02,2.44263e-02,-9.90136e-03,-5.13649e-02,2.35498e-02,-4.02846e-03,3.84752e-02,-1.48515e-02,4.53859e-02,-5.63852e-02,
3.19022e-02,-5.61928e-02,-4.99770e-02,-3.44669e-02,-7.33523e-02,1.89304e-02,5.88095e-02,3.23579e-03,-2.58597e-02,-3.64811e-02,9.05481e-03,6.33440e-02,5.17175e-02,-5.68829e-02,2.74631e-02,2.54879e-02,-5.72668e-02,5.67765e-02,-2.44637e-02,-7.05014e-02,-4.53555e-02,2.78837e-02,4.37975e-02,2.45287e-02,-1.07118e-02,-4.02607e-02,-5.35620e-02,3.43557e-02,6.23520e-02,-3.64268e-02,5.00384e-02,2.78497e-03,-5.45135e-02,-6.76310e-02,-5.79843e-02,5.38871e-03,-3.49917e-02,-3.55265e-02,-5.15278e-02,4.74479e-02,-8.95480e-03,-3.56332e-02,-6.30842e-02,-1.02035e-02,-6.45876e-02,5.41476e-02,-5.29165e-02,-2.52523e-02,7.46557e-02,-5.11438e-03,-2.38003e-02,-3.76950e-02,6.98110e-02,4.87226e-02,-6.92599e-02,2.57645e-03,5.25462e-02,-4.98180e-03,2.68494e-02,-7.35684e-02,-4.08351e-02,-3.55278e-02,-5.85874e-02,2.83821e-02,-2.74078e-02,2.17498e-02,-2.50163e-02,-2.88823e-02,-6.17170e-02,-4.68588e-02,6.24272e-03,-4.63429e-02,-3.92573e-02,1.08675e-02,-2.49892e-02,-2.63391e-02,-6.17147e-02,-3.75793e-03,1.95348e-02,-2.37982e-02,2.67899e-02,5.27352e-02,7.00304e-02,3.54690e-02,4.46297e-02,1.80412e-02,7.27086e-02,-6.22792e-02,3.59697e-02,3.03978e-02,2.80823e-02,1.17576e-01,6.11796e-02,6.36316e-02,1.10555e-02,-2.90898e-02,-2.76256e-02,8.81600e-02,2.57942e-02,-9.38333e-02,5.45515e-02,-8.21386e-02,-9.06292e-02,7.11572e-02,1.79559e-02,2.33241e-02,-3.23783e-02,-3.59366e-02,3.88264e-02,5.35532e-02,4.32049e-02,-2.57073e-02,2.08103e-02,1.98760e-02,-1.89070e-02,-6.99125e-02,-4.72319e-02,6.82370e-02,-1.69897e-03,-3.12897e-02,2.88880e-02,-2.17447e-02,4.16697e-02,9.55727e-02,2.19209e-02,7.76782e-02,-6.67778e-02,-7.31302e-02,-3.78790e-03,4.02749e-02,-4.49936e-02,6.93727e-04,-7.03503e-02,3.31725e-02,5.45963e-02,6.81392e-02,2.23435e-02,-2.07778e-02,-7.13440e-02,5.25264e-02,-7.12247e-03,1.53990e-02,7.38511e-02,-5.36631e-02,1.87416e-02,-6.41201e-03,3.24342e-02,-8.93942e-03,-2.76540e-02,-5.64200e-02,4.08824e-02,1.29249e-02,-3.83840e-02,-1.37115e-01,-2.20482e-02,2.99904e-03,2.67635e-02,4.75758e-02,-3.36906e-02,2.84535e-02,2.79233e-03,1.93341e-02,-3.93515e-02,-3.66361e-03,-8.92657e-02,-6.81316e-02,6.03499e-02,4.02899e-02,-4.56168e-02,2.41087e-02,5.16346e-02,-6.74582e-02,2.77983e-02,6.26710e-02,-6.07847e-02,1.01679e-02,1.12156e-03,7.00828e-02,-7.95263e-02,-7.86462e-02,-1.25917e-01,-1.02649e-01,1.59570e-03,-5.73220e-02,-8.34654e-02,-2.62867e-02,-3.74735e-02,-1.46481e-02,-1.50141e-02,4.19365e-03,3.51869e-02,5.14426e-02,3.99614e-02,-8.84538e-02,-5.60188e-02,-2.85307e-02,2.71260e-02,-7.03235e-02,-2.45881e-02,5.08537e-02,-5.04411e-02,-4.52537e-02,9.42277e-02,-5.62037e-02,-7.02464e-02,-4.09097e-02,-9.99279e-02,-8.50816e-02,6.40997e-03,-1.11922e-01,-7.86142e-03,-6.00835e-02,-5.22340e-02,-1.58867e-02,-2.79296e-02,-1.95326e-02,2.92431e-02,1.96049e-02,-7.51787e-02,-9.19228e-02,-3.53631e-02,7.33888e-02,7.07496e-02,-2.73655e-02,2.17737e-02,-3.18545e-02,5.40513e-02,3.66459e-02,-8.15896e-02,-2.54904e-02,-3.32562e-02,-4.66128e-02,-4.86670e-02,-6.60039e-02,-1.73732e-02,9.32239e-03,-3.95627e-02,-7.45938e-02,-1.39221e-01,-6.47040e-02,-1.14810e-02,9.23950e-03,-1.07260e-01,-9.49840e-02,-7.96396e-02,-2.17104e-02,9.55682e-02,5.86431e-02,8.84073e-03,2.49384e-02,5.13224e-02,-4.10691e-02,-7.00478e-02,-4.09750e-02,4.45793e-02,-3.05089e-02,2.37169e-03,1.11482e-02,4.76366e-02,1.19916e-02,-5.99237e-03,-6.78072e-02,-9.16900e-02,1.86711e-02,-5.93617e-02,-7.53865e-03,-1.26433e-01,-1.00462e-01,-1.10285e-02,-1.20612e-01,9.21630e-03,1.76453e-02,-2.92173e-02,8.72917e-03,9.04863e-02,7.00558e-02,3.46723e-02,-8.39358e-02,-5.50112e-02,3.02644e-02,-5.55306e-02,-6.88496e-02,-4.30413e-02,-5.41581e-03,6.09581e-02,-4.00223e-02,3.43903e-02,-3.23045e-02,2.52235e-02,-4.72914e-02,-8.90682e-02,-9.04234e-02,-5.17801e-02,-1.36363e-01,-8.46385e-02,-5.71927e-02,-8.67104e-02,1.62630e-02,-8.12621e-02,3.95612e-02,1.78885e-02,-6.78325e-02,1.52614e-02,9.94954e-02,-2.42234e-02,-1.16068e-01,5.59874e-02,-5.15046e-02,1.71729e-02,3.28430e-02,3.65282e-02,-7.30185e-02,3.72005e-02,5.27310e-02,2.19057e-04,-8.62159e-02,7.77150e-03,6.25299e-03,-1.30164e-01,-2.67009e-02,-5.46646e-02,-5.54171e-02,-1.05047e-01,-4.01177e-02,-4.96528e-02,-1.12719e-02,5.25618e-02,2.04795e-02,-5.02159e-02,-1.01062e-01,-5.82720e-02,4.56790e-02,1.34285e-01,-6.39291e-02,-2.39761e-02,7.10589e-02,3.01394e-02,-1.06742e-02,-4.88124e-02,1.54941e-02,-5.67618e-02,-3.19344e-02,3.92866e-04,1.06480e-03,5.15855e-02,-6.49613e-02,-1.46444e-01,-6.54955e-02,-1.14766e-01,-1.27343e-01,-6.62645e-02,-8.08696e-04,5.33015e-02,-1.70197e-02,-5.13567e-02,-1.04318e-01,-1.47890e-01,-3.76380e-02,-8.66865e-02,1.44125e-02,9.23352e-02,-5.79217e-02,-5.13533e-02,1.05143e-02,1.26693e-02,-3.30810e-02,1.59322e-02,8.33869e-02,-7.18923e-02,-8.60329e-02,-5.68084e-02,7.52694e-03,2.86872e-02,1.83621e-02,-3.58132e-02,6.70020e-04,2.01071e-03,-1.12980e-01,1.38019e-02,-2.42252e-02,4.97700e-02,1.20398e-03,-2.19441e-02,6.98315e-03,-1.17147e-01,-1.22435e-01,-8.69883e-02,-3.63358e-02,4.82234e-02,-8.21647e-03,2.74688e-02,1.23499e-02,2.90276e-03,-2.06909e-02,7.04284e-02,7.26295e-02,-5.80426e-02,-4.05009e-02,-4.99964e-02,-7.57713e-02,-1.46483e-02,2.20470e-02,-1.00114e-01,-1.01666e-01,-4.19524e-03,-1.62471e-02,-3.81455e-02,3.30013e-02,-9.10631e-02,-1.00991e-01,-1.42916e-03,-2.71817e-02,-1.01908e-01,-4.26943e-02,-4.15556e-02,5.79353e-02,6.98992e-02,-9.79475e-02,-3.54327e-03,-6.41396e-02,-3.06442e-04,-3.89478e-02,1.58513e-02,5.15209e-05,-2.41836e-02,3.64661e-02,-1.46105e-01,-7.70899e-02,-8.58233e-03,-2.53815e-02,-3.90534e-02,-1.05178e-01,4.24766e-02,-8.80834e-02,-9.27747e-02,-1.20084e-02,-9.47611e-02,-9.56999e-03,-9.99273e-02,-6.79647e-02,-2.23178e-02,-4.58097e-02,-5.10043e-02,4.94961e-02,-4.37110e-02,-8.27690e-02,-2.91376e-02,6.67035e-02,8.47962e-03,-4.00103e-02,2.67068e-02,-5.20566e-03,-4.30260e-02,-5.61027e-03,-8.72790e-02,-1.15122e-01,-3.54450e-02,7.72903e-03,4.79947e-02,-2.96745e-03,-8.95592e-03,-9.35162e-02,-1.07115e-01,-3.29701e-02,-3.42325e-02,-6.91402e-02,-9.45118e-02,3.92711e-02,-2.51991e-02,-3.47483e-02,4.26051e-02,7.89745e-02,-1.12445e-01,-7.02514e-02,5.11645e-02,-2.14250e-02,-5.03522e-02,-5.74657e-02,6.57216e-02,3.16012e-02,-2.31930e-02,-5.55186e-02,6.00133e-02,2.09659e-02,-2.20934e-02,5.00338e-02,-1.34079e-02,4.43829e-02,-2.96996e-02,-8.44821e-02,-3.94266e-02,-2.36869e-02,1.40344e-02,3.15740e-03,3.00091e-02,-2.61391e-02,5.06404e-02,4.69366e-02,-3.89433e-02,9.39436e-03,-6.78109e-02,-4.51272e-03,3.17789e-02,2.65890e-02,1.08657e-02,-2.31366e-02,-4.08417e-02,-1.80177e-02,3.65066e-02,-7.36012e-02,-7.78485e-02,-4.18358e-02,2.88092e-03,-3.57092e-03,-8.56624e-02,3.42536e-03,-2.14713e-02,-1.32687e-02,-1.01804e-01,-1.13317e-01,-3.62045e-02,-2.59653e-02,-1.14925e-03,8.58567e-02,7.02877e-02,2.79469e-02,-7.26537e-02,-1.16645e-01,-1.27599e-01,3.44787e-02,-3.16745e-02,-2.41535e-03,-4.63965e-03,-2.49652e-02,2.22982e-03,-6.94802e-03,-8.64678e-02,-5.23517e-02,-6.43418e-02,-6.31320e-02,-1.05521e-01,-1.43967e-01,-5.78988e-02,1.78340e-02,-9.71706e-02,3.85326e-02,-1.42605e-02,1.82880e-02,-4.34180e-02,-8.14352e-02,-4.08820e-02,2.49300e-02,1.24966e-02,-7.75205e-02,-5.35688e-02,-9.60655e-02,-1.04255e-01,-5.76827e-02,-4.03237e-02,9.77505e-03,1.48657e-02,2.59318e-02,-3.68304e-02,-6.73950e-02,6.49875e-02,5.18632e-02,1.76811e-05,-1.06511e-01,-6.57116e-02,-5.77599e-02,-7.79730e-02,-1.98016e-02,-2.46560e-02,-1.30638e-02,1.19970e-02,-4.94955e-02,5.75980e-02,-9.37803e-03,-8.50493e-02,-8.54638e-02,1.16176e-02,3.73520e-02,-4.89793e-02,-4.66861e-04,3.14353e-02,-2.96247e-02,7.18125e-02,-5.96464e-02,-1.50676e-02,6.79803e-03,-3.33820e-03,4.11347e-03,-3.53546e-03,-1.17850e-02,-5.28886e-02,3.91194e-02,3.62523e-02,-4.47728e-02,-8.52291e-03,2.70245e-02,-7.12256e-02,5.31395e-02,-5.27504e-02,1.00937e-02,-1.02230e-01,-1.01484e-01,-1.27773e-01,-1.07832e-01,-6.66098e-02,5.60842e-02,1.78466e-02,-5.54219e-02,-8.22707e-02,-3.26449e-02,-7.58114e-02,6.41575e-02,-3.16136e-02,-7.06576e-02,-4.20909e-03,-9.88107e-03,1.74978e-02,6.16336e-02,-2.66101e-02,4.09549e-03,-1.93684e-02,-2.15625e-02,-4.86582e-02,-7.21775e-02,-7.58454e-02,-2.43382e-02,-1.10303e-01,-7.94386e-02,-7.95151e-03,-5.87777e-02,5.56866e-02,-8.72246e-03,-2.02834e-02,4.14000e-02,-3.35473e-02,7.01278e-02,6.18654e-02,1.45812e-02,-2.34532e-02,4.88941e-02,-2.20868e-02,-3.89273e-02,1.20122e-02,-5.33273e-02,1.09527e-01,-7.03595e-02,3.56717e-02,-6.98048e-02,-4.65718e-02,-7.35146e-03,-6.74357e-02,-8.10896e-02,-1.37905e-02,-1.17753e-01,-1.18789e-01,3.35256e-02,-5.70756e-02,2.62387e-02,3.05743e-03,1.41552e-02,-3.79922e-02,-8.08422e-02,-1.53333e-02,8.17568e-02,-4.05858e-02,9.29831e-03,6.77716e-02,6.51517e-02,7.34768e-03,-9.75644e-03,4.95427e-02,-2.67576e-02,6.70209e-02,2.23888e-02,1.91111e-02,-7.09192e-02,-3.20078e-02,-7.73683e-02,-1.36617e-02,-3.10742e-02,2.13204e-02,-6.31593e-03,-4.62690e-02,-8.98744e-02,-2.24402e-02,-8.39528e-02,-6.39180e-02,-7.26453e-02,2.61598e-02,8.36876e-02,-1.19703e-03,-6.08202e-02,6.16220e-02,7.44557e-02,2.08843e-02,4.57634e-02,5.57140e-02,-2.40024e-02,1.71722e-02,7.49640e-02,-7.21652e-02,-2.31591e-02,-1.65428e-02,-3.53135e-02,-7.03664e-02,-2.35605e-03,-5.21144e-03,-7.07285e-02,-6.37604e-02,-4.12698e-02,-9.06045e-02,3.96936e-02,-4.19172e-02,1.83739e-02,-6.07152e-02,-8.47019e-02,3.25252e-02,1.90194e-02,6.98257e-03,2.84079e-02,-4.14084e-02,-1.63018e-02,-6.05413e-02,5.32510e-02,6.76313e-02,7.58522e-02,3.01184e-02,-9.78146e-03,-3.56811e-03,-3.38286e-02,-3.07426e-02,5.66627e-02,8.48438e-03,9.04092e-03,2.60552e-02,-3.11320e-02,-1.15997e-02,-6.84166e-02,-6.28674e-02,-1.36854e-02,1.16664e-02,-3.42770e-02,-3.78917e-02,-8.83992e-02,-9.21518e-02,-2.21122e-02,-2.49843e-02,1.89430e-02,-4.85453e-02,-6.30902e-02,2.68166e-02,4.18219e-03,3.54376e-02,2.58784e-02,1.47062e-02,-5.65756e-02,5.23494e-02,6.67864e-02,8.70781e-02,6.06334e-02,-7.15644e-02,1.48558e-02,-5.48647e-02,-2.79785e-02,-7.17324e-02,-2.46327e-02,-4.51498e-02,5.72398e-02,-6.97445e-02,2.68995e-02,-5.12899e-02,-4.68096e-02,-1.37921e-03,2.91585e-03,9.98016e-02,-3.85795e-02,-1.43611e-02,4.76743e-02,1.32047e-02,3.34009e-02,
4.03994e-02,-6.28960e-02,-2.33461e-02,-4.82486e-02,5.99604e-02,2.25568e-03,3.29443e-02,7.52657e-02,-1.80501e-02,2.98683e-02,-1.42842e-02,-6.53594e-02,-5.27472e-02,-1.75049e-02,-6.10991e-02,3.77057e-02,1.53542e-03,-1.21791e-02,-5.43340e-02,-6.51941e-02,-5.31387e-02,-4.39599e-02,-2.30203e-02,4.70747e-02,-6.36803e-02,-5.47653e-02,-5.67712e-02,-3.41585e-02,-3.84643e-03,-4.39757e-02,-6.74292e-02,-5.81365e-02,7.77406e-03,6.09457e-02,3.65593e-02,5.86168e-02,4.23926e-02,-2.41529e-02,-3.48017e-02,2.85758e-02,-1.67901e-02,-2.73943e-02,-3.05008e-03,-1.70886e-02,3.25917e-02,-6.17033e-02,6.23993e-02,-3.85110e-02,-3.05455e-03,-1.08464e-02,-7.12406e-02,3.53747e-02,-9.36835e-03,8.35647e-03,-9.84113e-03,5.75642e-03,-2.33571e-02,3.62059e-03,-4.12014e-02,-3.00963e-02,7.00670e-02,-1.45974e-02,2.81088e-02,-7.65630e-02,-6.59334e-02,-1.29079e-01,-1.23485e-01,-4.43323e-02,-6.82113e-02,-1.43025e-01,-8.92938e-02,-8.55758e-02,-2.61079e-01,-1.93531e-01,3.33726e-01,3.41870e-01,3.05507e-01,-3.91195e-02,2.89483e-02,1.04412e-01,2.25849e-03,-7.14598e-02,-4.85513e-02,-6.34851e-02,7.41791e-02,2.31776e-02,-6.96979e-02,6.19966e-02,8.22117e-03,-2.12382e-02,-3.95574e-03,-5.54240e-02,-1.03501e-01,-1.72526e-01,-3.70306e-01,-5.63654e-01,-2.68596e-01,-1.38028e-01,-1.17590e-01,5.16645e-02,-1.60441e-01,-2.17719e-01,8.96554e-02,-6.06960e-02,9.22468e-02,-4.81649e-02,-1.89841e-01,-3.45928e-01,2.05064e-01,-6.96537e-03,1.24319e-01,3.53394e-02,2.38141e-02,6.63901e-02,5.36901e-02,-3.41338e-02,-1.07688e-01,-1.35138e-01,-8.16543e-02,-1.82342e-02,-3.58071e-01,-7.62578e-02,-9.74264e-02,1.27572e-01,3.80606e-03,-9.37966e-02,-1.76767e-01,-2.71164e-03,-3.04988e-01,-3.38205e-01,1.05423e-01,2.41769e-01,-3.88468e-02,4.52542e-02,-6.10728e-02,1.60667e-02,5.61879e-01,3.06264e-01,5.30386e-02,-5.72383e-02,5.58092e-02,-1.57540e-02,-2.34420e-02,-2.12243e-01,-1.75588e-01,-3.84568e-01,-3.86717e-01,-4.13439e-01,-8.09796e-02,4.99680e-02,5.99617e-02,9.03732e-02,-6.25131e-02,-1.52267e-01,-1.78701e-01,-1.53054e-01,4.59714e-02,1.58389e-01,2.22885e-01,2.07586e-01,1.96585e-01,1.28154e-02,1.23966e-01,2.50352e-03,1.90676e-01,1.77933e-01,7.08571e-02,-7.74875e-02,-3.62931e-02,3.82664e-02,5.33983e-02,-3.78680e-01,-1.69516e-01,-2.27790e-01,-2.90564e-01,-1.61626e-01,-1.91541e-02,1.65870e-02,5.37100e-02,4.57445e-02,1.30913e-01,-3.72790e-02,-9.13829e-02,-1.10001e-01,-1.38754e-01,2.20649e-01,1.50455e-01,2.11761e-01,2.19888e-01,2.47855e-01,1.91208e-01,1.39863e-01,2.10035e-01,-1.42838e-01,3.13671e-01,-2.08186e-02,1.45004e-02,3.69384e-02,1.38052e-01,-2.33788e-01,-2.21737e-01,3.49569e-02,1.87421e-02,-1.68576e-02,1.56069e-01,1.25365e-01,2.46803e-01,1.52514e-01,2.66068e-02,7.92036e-02,1.72086e-01,1.86853e-01,2.74094e-01,2.49721e-01,4.52206e-01,3.66997e-01,4.82567e-01,2.22581e-01,-7.94920e-02,-2.27849e-01,-6.05872e-02,-4.31865e-01,-1.57850e-01,-3.46260e-02,-2.74131e-02,-7.40452e-02,-1.23500e-01,-1.17915e-01,-1.74107e-01,-1.66805e-02,-5.04347e-02,6.54452e-02,-7.57786e-04,1.21818e-01,7.04505e-02,1.58717e-01,1.70302e-01,7.34120e-02,1.05435e-01,1.53789e-01,3.06089e-01,3.12972e-01,4.17347e-01,2.00998e-01,-1.04931e-01,-1.67891e-01,-2.21178e-01,-1.59231e-01,-1.23025e-01,-8.42774e-01,-2.27832e-01,-1.05596e-02,-1.35848e-02,-6.30180e-03,-2.69163e-01,-3.01068e-01,-1.20448e-01,1.39785e-02,-2.01902e-01,-7.19219e-02,-1.41166e-01,3.59778e-03,-1.17331e-01,8.89023e-02,-3.68270e-02,-2.84352e-01,-5.21673e-01,-6.35037e-01,-4.90033e-01,-1.60525e-01,-2.97941e-01,-2.24542e-01,-3.41424e-01,-3.74179e-01,-2.27423e-01,-4.02402e-03,-2.86653e-01,-5.09374e-01,1.86475e-01,7.18545e-03,4.20683e-02,-9.54668e-02,2.58557e-02,-2.65204e-01,5.24784e-02,-9.29079e-02,4.62029e-02,2.49150e-02,-2.98701e-03,2.66483e-02,-2.45862e-02,-1.11384e-02,-4.95509e-02,-4.42856e-01,-1.03559e+00,-1.07240e+00,-9.23919e-01,-1.08832e+00,-1.41914e+00,-1.38439e+00,-9.77673e-01,-7.51218e-01,-6.69486e-01,-6.26871e-01,-5.71529e-01,-3.52453e-02,-4.92630e-02,-1.45368e-02,1.31785e-02,-3.38949e-02,-9.60218e-02,-2.46497e-01,1.43567e-01,-6.89778e-02,1.33702e-01,-1.39739e-01,-7.04409e-02,-5.17873e-02,6.99858e-02,6.18714e-02,7.68617e-02,-2.63914e-02,-9.32374e-02,-1.84980e-01,-1.95662e-01,-3.11904e-01,-4.17973e-01,-1.14432e+00,-1.10102e+00,-9.77356e-01,-1.11393e+00,-1.10605e+00,-6.09087e-01,-2.62851e-01,3.25671e-02,4.14510e-02,-4.09311e-02,-5.89964e-02,-8.94815e-02,-1.42489e-01,7.72065e-02,-6.51258e-02,-8.29664e-03,1.13962e-01,1.09265e-01,-7.97785e-02,6.08670e-02,1.70173e-01,2.70100e-01,2.15854e-01,-1.32508e-02,-1.87059e-01,-1.58445e-01,-1.50991e-01,-1.56618e-01,-2.27193e-01,-3.35961e-01,-4.19760e-01,-8.43334e-01,-8.16754e-01,-6.16473e-01,-1.55573e-01,-4.51786e-02,-7.10674e-02,-3.08659e-02,2.09683e-02,-5.29468e-02,-1.51491e-01,-2.25878e-02,1.66029e-01,7.79352e-02,1.47800e-01,-6.48453e-02,3.67650e-03,7.74677e-02,1.98043e-01,1.53919e-01,2.24031e-01,1.21200e-01,1.26055e-01,-1.28994e-01,1.38137e-02,-1.26005e-01,2.11524e-02,-7.71001e-02,-7.43334e-02,-4.13100e-02,-1.05054e-01,-4.59918e-01,-1.71317e-01,-4.16754e-02,-8.31889e-02,-4.50151e-02,4.36853e-02,3.20549e-02,1.10862e-01,-4.34368e-02,-7.49041e-02,2.31731e-01,1.29793e-01,7.10441e-02,-4.07668e-02,1.13636e-01,-5.61623e-02,-2.16043e-02,-1.47597e-02,-1.22676e-02,3.43534e-03,1.92151e-02,1.54792e-02,-1.36226e-03,1.88557e-01,2.02141e-01,-3.91145e-03,-1.35150e-01,3.73390e-01,-6.40353e-02,-1.66349e-01,-1.12137e-01,-8.08750e-02,-1.69581e-02,6.83002e-02,-4.17953e-02,-1.03479e-01,-1.76783e-01,-1.07506e-01,-6.59363e-02,-4.46238e-02,5.90496e-02,2.01424e-01,3.34973e-01,-3.79441e-02,-7.01556e-02,-1.31022e-01,-2.15661e-02,-2.89890e-01,-1.55854e-01,3.14774e-03,-6.08525e-02,-5.08215e-02,2.45594e-01,2.21594e-01,1.24113e-02,-1.11988e-01,2.50020e-01,3.94428e-02,-2.68903e-02,-7.51979e-02,-1.33542e-04,5.10286e-02,-9.90339e-02,-2.35079e-02,-1.31835e-01,-1.61643e-01,-1.51384e-01,-2.28258e-01,-3.21639e-01,-3.27216e-02,-4.70315e-03,-2.46646e-02,-4.07777e-02,-2.43564e-02,4.12382e-02,-1.45501e-01,-2.39864e-01,-7.55257e-02,8.73191e-03,-2.66268e-02,-1.42050e-02,1.49933e-01,5.40449e-02,7.28375e-02,-2.90184e-02,-9.34543e-02,-8.28916e-02,1.51076e-02,-1.69618e-02,-1.71611e-02,-1.60223e-01,7.43873e-02,-8.84562e-02,-2.93203e-01,-8.96936e-02,-4.66554e-02,-3.91390e-01,-5.62331e-01,-3.34222e-01,-2.51647e-01,-3.42176e-01,-3.29477e-01,-1.90230e-01,-2.78260e-01,-2.91702e-01,-1.30559e-01,9.34810e-02,1.51799e-01,1.95259e-02,1.20707e-01,1.21598e-01,6.41992e-02,6.54378e-02,-9.26830e-02,-1.13273e-01,-3.30173e-03,-2.32625e-02,-4.43225e-02,-1.13937e-01,2.92167e-01,-2.09513e-01,7.97637e-02,-2.29515e-01,-1.77577e-01,-1.68076e-01,-4.10398e-01,-4.76652e-01,-6.80812e-01,-8.62486e-01,-6.75776e-01,-5.16140e-01,-4.24003e-01,-1.14694e-01,-8.28588e-02,3.96404e-03,-3.05994e-02,3.85520e-02,9.09166e-02,-8.85596e-03,-4.76472e-02,2.86729e-01,3.18453e-01,1.06053e-02,-5.55574e-03,4.88488e-02,9.06007e-02,-2.61405e-01,5.32378e-02,-1.23215e-01,4.83752e-02,7.59900e-03,-2.87585e-01,-1.30831e-01,-1.40119e-01,-1.95681e-01,-1.20246e-01,-8.59939e-02,-3.39591e-01,-3.05904e-01,-1.86768e-01,1.19577e-02,1.04978e-01,8.33722e-02,-9.80594e-02,1.32079e-01,3.19044e-02,-1.38064e-01,-5.44856e-02,3.32601e-01,4.62914e-01,-2.15347e-02,9.86012e-02,7.32898e-02,-3.68818e-02,-3.24698e-01,-1.42136e-01,6.39003e-02,7.57001e-03,-7.88244e-02,-2.82935e-01,-5.30849e-02,-1.80674e-01,7.40134e-02,1.97355e-01,1.03900e-01,2.02952e-01,-6.68930e-02,9.32945e-02,1.35771e-01,1.90726e-01,8.54600e-02,7.49544e-03,6.60335e-02,-1.62158e-02,-1.74370e-01,-4.44683e-02,2.36534e-01,3.71277e-01,-1.80157e-01,-4.58268e-02,-1.84915e-02,-2.51626e-02,-1.66892e-01,-7.89338e-02,1.78317e-01,1.88485e-01,-1.35871e-01,-1.42695e-01,3.01346e-02,-1.00389e-02,7.13082e-02,8.72783e-02,1.42493e-01,1.44149e-01,1.30216e-01,1.74319e-01,1.64756e-01,1.65694e-01,1.76124e-01,1.75102e-01,-2.27314e-03,6.38724e-02,-4.45746e-02,9.79707e-02,1.19869e-01,3.54667e-01,5.18720e-02,3.86587e-02,-4.33937e-02,-1.77155e-02,7.31185e-02,-8.24206e-02,1.85091e-02,4.38144e-03,-1.18760e-01,-2.18456e-01,-6.42059e-02,-5.24194e-02,-6.66505e-02,6.79542e-02,6.70587e-02,7.33668e-02,1.64343e-01,1.11308e-01,1.86417e-01,8.89568e-02,5.89796e-03,6.78266e-02,2.61245e-02,1.06372e-01,2.20053e-01,2.90505e-01,1.33461e-01,3.62368e-01,6.80554e-02,4.49999e-02,1.64508e-02,5.45606e-02,-1.63527e-02,-1.85304e-02,1.23121e-01,6.25644e-02,6.30794e-02,-9.70363e-02,1.35025e-01,-6.20044e-04,2.36491e-03,7.27378e-02,6.03482e-02,1.69397e-01,1.13679e-01,1.28582e-01,-5.23465e-03,-1.11204e-01,-2.89760e-01,-1.95942e-01,1.22250e-01,2.81819e-01,2.69329e-01,6.64857e-02,-7.86103e-02,6.30010e-02,6.82548e-02,7.41502e-02,-6.15001e-02,-5.39547e-02,-4.23138e-02,-2.68100e-01,2.88240e-01,1.73217e-01,-1.61854e-01,-1.02924e-01,-1.60982e-01,-1.58988e-01,-7.36051e-02,-5.72278e-02,1.90025e-01,9.96286e-02,-5.35474e-02,-2.42531e-02,-2.37892e-01,3.15640e-02,1.57694e-01,2.87315e-03,1.21398e-01,2.56508e-01,1.64405e-01,-1.87653e-01,-2.70634e-02,-1.73174e-03,3.22651e-03,2.73207e-02,-2.09865e-02,-6.44788e-02,-4.67298e-02,-1.18638e-01,-2.05020e-01,-1.00873e-01,-1.26756e-01,-1.51825e-02,-1.49763e-01,-2.49087e-02,-3.48882e-01,-1.83984e-01,1.56208e-01,4.22466e-02,-1.03284e-02,1.03820e-01,2.39087e-02,-6.27415e-02,2.05821e-01,2.93945e-01,2.92513e-01,2.21932e-01,2.26880e-01,1.08813e-02,1.40284e-02,-3.94333e-02,-7.59407e-03,5.33026e-03,6.06918e-02,4.21348e-02,6.78524e-02,-6.61016e-05,7.94853e-03,-3.59081e-02,-3.47018e-02,8.45189e-03,-7.35393e-03,-1.24984e-01,-2.92754e-01,-3.21141e-01,-2.45568e-01,-1.19069e-01,-1.17131e-01,1.11332e-01,1.05663e-01,-2.26727e-01,-9.98297e-02,1.23421e-01,5.74490e-02,1.72983e-01,2.24598e-01,8.02842e-02,-8.51025e-03,4.93295e-02,2.13887e-02,-4.88391e-02,4.13306e-02,-1.64006e-02,4.56483e-02,3.20709e-02,6.66278e-02,-6.35750e-02,6.81146e-02,-1.13354e-02,-8.79899e-03,6.38474e-02,1.79611e-02,3.68918e-02,6.64168e-02,-3.27354e-02,-3.55589e-02,3.33001e-02,3.24884e-02,4.14469e-02,-2.91659e-02,4.05289e-02,-6.53492e-02,5.55558e-02,5.96369e-02,7.30389e-02,-6.95533e-02,-3.17371e-02,-1.53024e-02,-5.97243e-02,
4.87421e-03,-2.23358e-02,-1.85053e-02,-6.85098e-02,-5.62165e-02,-2.08423e-02,-4.28065e-02,4.11397e-02,-2.06808e-02,3.25093e-02,-7.05560e-03,-5.72696e-02,-5.96512e-02,-5.66964e-02,1.69838e-02,2.49131e-03,-2.48437e-03,-5.98690e-02,4.55781e-02,-3.30209e-02,-8.15216e-03,-1.34904e-02,-7.56246e-02,3.72031e-03,-3.35523e-02,4.82164e-02,3.88894e-02,-6.72052e-02,6.41737e-03,3.45473e-02,1.29345e-03,-2.64248e-02,1.48750e-02,4.66656e-02,4.10045e-02,2.12507e-02,-1.96057e-02,2.37674e-02,-6.39740e-02,-2.35127e-02,-5.35856e-02,2.92207e-02,-6.89843e-04,-9.42982e-02,-4.12047e-03,1.43562e-02,4.02132e-02,3.91843e-02,-2.98683e-02,7.81518e-03,-4.36589e-02,3.31790e-02,6.86634e-02,1.50249e-02,-2.46512e-02,5.98658e-02,-7.11376e-02,1.52449e-02,3.28176e-02,1.67067e-03,-7.24571e-02,-3.74960e-02,-3.04866e-02,3.23543e-02,-2.87411e-02,-8.26961e-02,1.45667e-02,-1.17496e-01,-1.33189e-01,-2.34891e-02,-4.08696e-02,3.59078e-02,-6.94940e-03,-4.09994e-02,-3.10814e-02,-1.37017e-02,1.28428e-02,-2.90938e-02,4.11950e-02,1.10021e-02,7.90392e-03,-4.84834e-02,6.59167e-02,1.97350e-02,3.59637e-02,6.60265e-02,8.81359e-02,-1.89615e-03,2.44334e-02,6.23354e-02,1.41873e-01,2.75066e-02,-8.89693e-02,-9.81251e-03,-3.25017e-02,3.17548e-02,1.08659e-02,-4.01614e-02,-8.39918e-02,-1.38559e-01,-7.78466e-02,-1.07322e-02,-2.81911e-02,-7.51941e-02,-3.15727e-02,-6.74951e-02,-7.44592e-02,-7.81735e-02,-8.07736e-02,-7.60752e-03,1.24504e-02,6.72833e-02,2.14354e-02,5.02482e-02,-4.44871e-02,3.33757e-02,5.75894e-02,3.87266e-02,-3.53122e-02,4.08996e-02,-9.50510e-02,4.65055e-02,4.57304e-03,2.07557e-02,-3.26818e-03,1.49928e-02,-2.05473e-05,-6.60247e-02,-1.04743e-01,-9.26651e-02,4.22326e-02,-4.56126e-02,-4.48010e-02,-4.73452e-02,2.19091e-02,-1.83738e-01,-1.03655e-01,-4.30626e-02,-1.28296e-03,3.97553e-03,-3.17636e-02,5.02814e-02,6.88004e-02,2.00581e-02,-5.28414e-02,-2.46146e-02,6.43252e-02,1.24402e-02,-1.58961e-02,-9.54087e-02,-1.03317e-01,-1.89383e-01,-1.04061e-01,-5.50449e-02,-6.01231e-02,-1.09821e-01,8.05540e-03,4.90144e-02,-5.16127e-02,-1.37711e-01,-4.59760e-03,-1.59502e-02,-3.58616e-02,-2.61545e-02,-3.98999e-03,-9.82193e-02,-5.93708e-02,5.12135e-02,-4.30848e-02,2.50342e-02,-1.03710e-02,-3.89283e-02,-1.43701e-01,-4.03933e-02,4.30103e-03,-1.08181e-01,-1.09813e-01,-1.26068e-01,-1.56473e-01,-8.29977e-02,-1.11453e-01,-6.60914e-02,3.88121e-02,-3.32240e-02,-2.84916e-02,8.65517e-02,-6.40088e-02,-5.89633e-02,2.71914e-02,3.64340e-02,4.73503e-02,-3.52497e-03,3.79911e-03,-1.28372e-01,1.78763e-02,1.36330e-02,2.59985e-02,5.17380e-02,-7.25824e-02,-1.22532e-01,-1.24427e-01,-1.46989e-01,-6.70570e-02,-7.38758e-02,-2.52830e-02,-6.13239e-02,-5.12298e-02,5.10961e-03,-2.57665e-02,-9.63939e-02,-1.52147e-01,-4.36315e-02,6.88458e-03,-4.67888e-02,2.86947e-02,-3.41356e-02,1.00999e-02,-6.30926e-02,-1.48672e-01,-1.48439e-01,-9.05550e-02,-5.17056e-02,-2.65175e-02,-4.53205e-02,1.61228e-02,1.15460e-02,5.69874e-02,-9.45533e-03,2.20480e-02,-1.10485e-01,1.25439e-02,2.74785e-02,2.86064e-02,7.30235e-02,5.44247e-02,1.09499e-03,-1.22595e-01,-1.03587e-01,-9.69347e-02,5.28675e-02,4.39921e-02,6.24588e-02,-6.45869e-02,-8.33587e-02,-2.03424e-01,-2.34360e-01,-1.80045e-01,-3.13798e-01,-1.19474e-01,-1.11248e-01,2.32045e-02,5.83321e-02,1.41309e-02,1.17365e-01,-3.15638e-02,-8.05827e-02,-1.24545e-01,-2.41391e-02,1.05961e-01,8.92207e-02,8.94543e-02,-8.77865e-02,-5.30556e-02,-1.59923e-01,-2.83412e-02,-3.01606e-02,4.08626e-02,-1.65977e-03,-1.30501e-02,-6.42733e-02,-1.19766e-01,-1.70057e-01,-2.81704e-01,-2.61936e-01,-3.24872e-01,-2.55911e-01,-1.01893e-01,-8.49179e-02,8.27628e-02,2.65210e-03,-3.89360e-02,-2.78223e-02,5.56786e-02,-6.14530e-02,-1.39184e-01,-7.98731e-02,3.83566e-02,7.44795e-02,-1.32320e-01,-1.68843e-01,-1.11799e-01,-1.06780e-01,5.75336e-02,1.19390e-01,-7.53969e-02,2.21946e-02,-4.23532e-02,-2.46295e-02,-1.08697e-02,-1.79022e-01,-2.74450e-01,-3.05279e-01,-2.09104e-01,-2.77655e-01,-1.10585e-01,-2.52957e-02,8.92631e-02,-1.24839e-02,4.09659e-02,3.49299e-03,-2.55744e-02,1.31535e-02,-3.38468e-02,-5.76272e-02,-1.23721e-01,-8.57919e-02,-1.09551e-01,-1.36944e-01,-4.28130e-02,1.24900e-01,1.02499e-01,8.80111e-03,-5.91819e-02,1.43354e-02,-1.35948e-01,-1.16115e-01,2.94408e-02,4.57757e-02,-2.60816e-02,-5.22937e-02,-1.03399e-01,-1.64208e-01,-6.49158e-02,-7.29912e-02,8.13970e-02,-1.69783e-02,-3.00963e-02,-7.27392e-02,1.20527e-02,9.94410e-02,-1.03144e-01,-7.45605e-02,-7.45914e-02,-1.16966e-02,5.62837e-02,3.33935e-02,2.85348e-02,1.22792e-01,-6.20631e-02,-1.30185e-01,9.61732e-02,-4.26575e-02,-9.43249e-02,1.01766e-03,-6.87464e-02,-1.38953e-02,2.38545e-02,1.25557e-01,4.22016e-02,-3.95204e-02,-9.54349e-02,8.83184e-02,-1.16687e-01,-8.93827e-02,5.50221e-02,-2.25477e-02,-1.58457e-02,-4.79701e-02,-3.54231e-02,-5.14993e-02,-4.63526e-02,-9.60051e-02,5.99357e-03,1.31135e-02,3.95292e-02,-3.29763e-02,2.12326e-02,8.06285e-03,6.50375e-02,-8.69895e-03,-5.95950e-02,-1.32339e-01,-8.70847e-02,-6.37515e-02,-2.73013e-02,-3.47012e-02,5.54221e-02,7.97659e-03,-1.94488e-02,-1.03455e-01,-1.52520e-01,-4.42713e-02,-5.90837e-04,-5.26397e-02,-1.01825e-01,-5.18225e-02,-1.18768e-01,-3.93949e-02,-1.17039e-01,-5.33560e-02,-7.66083e-02,9.21405e-03,2.83464e-02,-8.08309e-02,-5.01369e-02,1.01357e-02,3.94560e-02,-1.36192e-01,-9.91937e-02,-7.35291e-02,-1.65153e-01,-2.11832e-01,-7.83374e-02,-7.96588e-02,-1.55142e-02,1.14310e-01,-4.29484e-02,-5.64933e-02,-9.81535e-02,-7.59084e-02,3.67763e-02,-4.17853e-02,5.01728e-03,3.35342e-02,-7.04740e-02,4.95701e-03,-7.89401e-02,-2.57763e-02,-1.02457e-01,2.00263e-02,-2.50721e-02,-1.52711e-02,3.53401e-02,-9.52587e-02,-4.25157e-03,-5.00196e-02,-9.69607e-02,-5.65474e-02,-5.01669e-02,-2.05432e-01,-1.29067e-01,-5.34588e-02,8.81758e-04,8.67703e-02,1.67784e-01,-1.00336e-01,-1.80130e-01,-2.50362e-02,-6.01203e-02,-2.45665e-02,-1.03960e-02,1.83211e-02,-1.42920e-01,-5.25782e-03,7.10181e-02,-3.84471e-02,3.39610e-02,-3.67265e-02,3.58926e-02,9.31643e-03,2.33851e-02,-9.36459e-02,-4.99052e-03,-1.02567e-01,-6.64271e-02,1.45254e-03,-1.06143e-01,-1.38830e-01,-2.73870e-01,-2.01774e-02,-5.26894e-02,8.68262e-02,2.75946e-01,-9.52713e-02,-8.83261e-02,7.42881e-02,7.36863e-02,5.29421e-02,6.42674e-03,4.10906e-02,-5.13878e-02,-4.35782e-02,5.33467e-02,-1.52139e-02,-3.87343e-02,-2.02905e-01,-2.21065e-01,-1.62928e-01,-1.13313e-01,-6.67891e-02,-7.78260e-02,-1.24177e-01,-5.13902e-02,1.69702e-02,4.40954e-02,-6.09163e-02,-1.55054e-01,-7.22784e-02,-1.99572e-02,1.29052e-01,1.14539e-01,-1.62407e-01,-1.16256e-02,-7.23640e-02,-2.01428e-02,3.29852e-02,5.07994e-02,9.02636e-02,-8.40718e-02,-4.06455e-02,-1.51029e-02,-3.48984e-02,-7.49376e-02,-2.45649e-01,-2.72217e-01,-1.86187e-01,-1.38104e-01,-1.14338e-01,-4.73977e-02,-9.94077e-02,-9.94638e-02,-5.31958e-02,2.21048e-02,-1.72386e-01,-5.77613e-02,-6.04018e-02,2.92698e-02,1.01002e-01,-3.83121e-02,-1.89319e-02,2.80655e-02,6.63693e-02,3.18885e-02,-8.93354e-02,3.85205e-02,6.91323e-02,-4.58530e-02,-8.92819e-03,-1.69678e-01,-1.82825e-01,-1.63891e-01,-1.40999e-01,-2.14973e-01,-1.86575e-01,-1.97672e-01,-1.46756e-01,-1.77829e-01,-1.68667e-01,-1.64263e-01,-9.18704e-02,-2.52301e-02,-1.08527e-01,-8.10342e-02,-6.71535e-04,2.47138e-02,-5.51624e-02,-6.87383e-02,-1.06886e-01,2.39736e-02,-3.01270e-03,5.48212e-02,-3.84542e-02,3.63836e-02,-7.28478e-02,-8.45103e-02,-4.57859e-02,-1.02113e-01,-1.99909e-01,-9.42674e-02,-3.09348e-02,-1.37025e-01,-5.34480e-02,-1.21730e-01,-1.10455e-01,-7.97645e-02,-1.04396e-01,-1.92362e-02,-7.07719e-02,7.60776e-02,-3.95498e-02,-7.09889e-02,-1.41749e-02,-2.02309e-02,-7.64888e-02,-3.59670e-02,-1.43185e-01,-1.18154e-03,-4.16557e-02,-2.06692e-02,-6.89339e-03,4.10977e-02,-7.93891e-02,-1.83351e-01,4.33482e-03,-2.09785e-02,-6.55779e-04,-9.36682e-02,-6.45546e-02,-1.25533e-02,4.85463e-02,-5.39059e-02,-3.53734e-03,-5.71800e-02,-8.08925e-02,2.05240e-02,-4.97368e-02,-2.53072e-02,-1.21351e-01,-3.10006e-02,-1.02705e-02,2.16016e-02,-2.98722e-02,-5.57842e-02,2.77251e-02,-9.93680e-02,3.01548e-02,-4.81235e-02,-5.24166e-02,8.18603e-02,-8.28008e-02,-1.10400e-01,-1.13417e-01,7.37444e-02,-1.12305e-02,-1.13278e-01,-2.33907e-02,-4.67938e-02,4.88883e-02,-1.10796e-01,-5.27864e-04,-5.31622e-02,-5.49194e-02,-3.01172e-02,-4.74898e-02,-7.71370e-02,-9.48483e-03,1.80017e-02,1.26885e-02,-6.28648e-02,1.13410e-03,-5.26209e-02,4.75593e-02,5.85012e-02,-4.28173e-02,-3.02347e-02,-1.68696e-02,3.85363e-02,-2.67360e-02,-2.08453e-02,-1.97897e-01,-4.90068e-02,1.04675e-01,2.99708e-02,-4.70573e-02,1.37235e-02,-5.55344e-02,-4.64605e-02,-7.33967e-02,-7.38360e-02,1.10684e-03,-1.00094e-01,-1.38428e-01,-5.53129e-02,9.28156e-02,-6.43749e-02,1.13290e-02,-4.65016e-02,-3.00894e-02,-1.53452e-02,3.22717e-02,8.73536e-03,4.32519e-02,-6.25782e-02,-7.07594e-02,3.32288e-02,2.93698e-02,3.77442e-02,-9.49475e-02,-8.15319e-02,2.91152e-02,1.25569e-01,1.14490e-01,7.32884e-02,-3.01131e-02,-4.38870e-02,-9.23699e-02,-4.64788e-02,-6.70172e-02,-1.04276e-01,-3.15698e-02,-8.56760e-02,-1.72908e-04,-1.03293e-01,-9.25736e-02,-3.86239e-02,-9.02750e-02,1.54837e-02,2.41385e-02,9.40856e-02,-1.08487e-02,6.82858e-02,3.50995e-02,-1.48338e-02,-2.75297e-02,-1.92366e-02,4.67413e-02,-4.39152e-02,1.01596e-02,5.33905e-02,-1.01821e-02,5.82594e-02,-1.47257e-03,-1.69660e-01,-1.25292e-02,4.19925e-03,-1.15816e-01,-3.31822e-02,-1.36068e-02,-1.76972e-02,4.08949e-02,-6.83882e-02,-9.97147e-02,-5.51810e-02,-7.88359e-02,-9.29015e-02,7.48076e-02,2.95553e-02,1.04385e-02,5.43557e-02,1.38564e-03,2.62246e-02,-1.91008e-02,1.99807e-02,-5.15862e-02,-2.26959e-03,5.92316e-02,-2.35336e-02,3.79946e-03,7.61258e-02,-2.11173e-02,-9.25158e-02,-1.57083e-01,4.44372e-02,2.48640e-02,1.27797e-01,1.60453e-01,5.55045e-03,-3.13371e-02,-1.01952e-01,-1.35909e-01,-6.40601e-02,-3.22809e-02,4.50206e-02,-4.15321e-02,-7.37351e-02,-1.55622e-02,6.40847e-02,3.47011e-02,-7.73630e-03,2.90363e-02,-6.58859e-02,8.09033e-02,1.00806e-01,4.51106e-02,2.87832e-02,3.67269e-02,8.32358e-02,1.19684e-02,7.96421e-02,5.51098e-03,1.99183e-02,2.62194e-02,1.01934e-01,-3.52601e-03,-1.12681e-01,-5.24902e-02,-1.76451e-02,-2.53606e-04,1.67437e-02,7.46941e-02,2.40629e-02,-1.22536e-03,-5.65130e-02,-5.63584e-02,
1.10984e-02,6.05977e-02,-1.92786e-02,2.06945e-02,-5.90127e-02,-7.28428e-03,5.04596e-02,-4.19533e-02,-2.67632e-02,-6.25496e-02,3.22181e-02,-6.67252e-02,-3.44051e-02,5.12233e-02,6.25210e-02,-7.79137e-03,-5.44978e-02,5.51376e-02,-3.09013e-02,6.32243e-02,5.57259e-02,-4.85970e-02,2.22072e-02,3.21694e-02,2.97946e-02,3.39973e-02,-5.08964e-02,1.13402e-02,-5.94540e-02,-2.95742e-02,3.97149e-02,-2.52349e-02,2.05585e-02,-4.36851e-03,-3.81174e-02,4.49806e-03,-1.40320e-02,-2.97472e-02,-6.47049e-02,1.05733e-02,-3.70356e-02,6.65616e-02,2.71268e-02,-6.38373e-03,4.29857e-02,-7.68758e-02,7.05891e-02,2.51475e-02,-1.57673e-03,5.72824e-03,5.34858e-02,-1.63458e-02,-3.30745e-02,-7.53392e-02,-6.37651e-02,5.20860e-02,-3.23175e-03,-4.71346e-02,-3.78212e-02,2.84848e-02,1.00493e-02,3.97465e-02,-9.54146e-03,-2.37741e-02,3.44237e-02,2.57736e-02,-1.69841e-02,2.78832e-02,-7.84755e-02,-1.00320e-01,-7.24250e-02,6.32249e-02,-2.73896e-03,3.54524e-02,-3.34141e-02,3.65640e-02,-1.02223e-01,-1.40345e-02,-7.13395e-02,-8.38651e-02,1.17327e-03,-2.28627e-02,-5.19766e-02,7.54775e-02,-5.31745e-02,2.57864e-02,5.65129e-02,7.44659e-02,4.17498e-02,-7.51027e-02,-1.74890e-03,4.23971e-02,2.20764e-02,-1.91944e-02,-8.43986e-02,-4.01175e-02,-5.05449e-02,2.01300e-02,-5.44900e-02,-2.01707e-02,-3.64554e-02,3.76042e-02,-1.19496e-01,-9.22890e-02,-1.07565e-03,-1.47481e-02,-1.87445e-02,-8.18420e-02,5.81253e-02,-2.93698e-02,-1.48401e-02,-4.02040e-02,1.15821e-02,-3.48682e-02,4.96607e-02,4.17352e-02,1.77030e-02,3.12554e-02,-6.27169e-02,2.49087e-02,3.93762e-02,2.55751e-02,9.03749e-02,6.63988e-02,-9.37804e-02,3.23268e-02,-3.60144e-02,6.90637e-02,-9.23190e-03,7.77526e-03,7.81832e-02,7.55925e-02,-1.59590e-01,-1.52471e-01,-1.37564e-01,1.49395e-02,2.97618e-02,-4.07076e-02,2.50323e-02,4.84743e-02,5.60682e-02,2.10706e-02,5.34548e-02,1.11079e-02,3.90558e-02,-7.28238e-02,3.79231e-02,-7.46257e-02,-4.88673e-03,-8.04220e-02,-5.96253e-02,-4.49189e-02,-1.21228e-01,-1.82904e-03,1.58159e-02,3.70828e-02,7.06017e-02,-6.35681e-02,1.29058e-02,-1.76523e-02,5.66909e-02,-1.31918e-01,-8.97163e-02,4.23169e-02,-7.32075e-02,-6.88634e-02,-1.30951e-02,-5.29663e-02,-4.58824e-02,-7.11033e-02,-1.10001e-02,6.88178e-03,-3.46011e-02,1.93394e-02,-4.47861e-02,2.40867e-02,-1.80364e-02,-2.63726e-02,7.21487e-03,-1.16530e-01,-1.31018e-01,-2.87973e-02,-2.27014e-02,-6.51266e-02,-1.53258e-01,-1.65530e-01,-9.50518e-02,-4.05900e-02,4.52914e-03,-9.25331e-02,-9.70118e-02,-3.56464e-02,-6.74203e-02,-1.86881e-02,6.82796e-02,3.02122e-02,7.59456e-02,-3.32630e-02,-2.98751e-02,-4.69217e-02,-1.30464e-01,-1.05504e-01,-1.04041e-01,-1.32025e-01,-6.66436e-02,-1.32097e-01,-7.68508e-03,-1.03103e-01,-1.63323e-01,-1.87112e-01,-3.01175e-02,-1.18899e-01,-6.88183e-02,-2.09899e-01,-1.24953e-01,6.62454e-03,-6.40289e-02,1.09773e-02,-2.85978e-02,-4.55152e-02,-9.01906e-02,7.19675e-02,-4.25513e-02,-1.24607e-02,6.28884e-02,1.63391e-02,5.34591e-02,-1.56128e-02,1.93646e-02,-4.50972e-02,-6.11429e-02,-1.32295e-01,-4.36795e-02,-5.30787e-02,-1.53297e-01,-1.20846e-01,-1.84521e-01,-2.22450e-01,-1.94197e-01,-1.73796e-01,-8.29113e-02,-2.20421e-02,-3.16996e-02,6.60895e-03,1.52720e-02,-3.49720e-03,-6.53735e-02,-8.53264e-02,-6.44060e-03,-5.23664e-02,4.83405e-02,4.20534e-02,6.78509e-02,-4.59841e-02,3.43701e-02,1.23768e-02,2.16089e-02,-4.30400e-02,-3.45451e-02,3.42475e-03,-8.81364e-02,-1.73913e-01,-1.21904e-01,-1.58625e-01,-1.57655e-01,-1.36194e-01,-6.30740e-02,1.99986e-02,2.65286e-03,2.29215e-02,-6.97576e-02,-6.51947e-02,3.96103e-02,-5.76835e-02,-1.25132e-01,-1.27130e-01,1.38477e-02,-8.27160e-02,-7.44477e-02,7.05219e-02,-6.07777e-02,2.40412e-02,5.76491e-02,-4.96097e-02,-1.72900e-02,2.19048e-02,-1.73882e-02,-1.11933e-01,-8.85164e-02,-1.70158e-01,-2.00718e-01,-3.10588e-02,-1.79766e-02,1.85452e-02,-6.16812e-02,-5.93621e-02,-1.04652e-01,-9.38147e-02,-1.24192e-01,-7.71572e-02,3.16134e-02,-5.47680e-04,3.36364e-02,-3.88621e-02,-1.43676e-02,5.90859e-02,5.11412e-02,8.90704e-03,-9.67608e-03,1.35519e-02,7.11080e-02,-6.14877e-02,6.42573e-03,-1.73951e-02,-1.15806e-01,-1.54515e-01,-1.18580e-01,-2.59520e-02,-1.40181e-01,-6.57745e-02,-9.52455e-02,-1.15185e-01,-7.52479e-02,-1.03613e-01,-1.20421e-01,-4.98061e-02,-1.44406e-01,8.76699e-03,9.09808e-03,-1.25818e-02,-6.56202e-02,-1.53051e-01,-2.18831e-02,-3.95673e-02,9.86760e-03,5.96364e-02,1.09055e-02,-1.89071e-02,-2.80194e-02,-4.90970e-02,-3.85342e-02,-2.51585e-02,-1.59893e-01,9.44240e-02,-7.52886e-02,1.28953e-03,-6.24393e-02,-6.41320e-02,-1.39256e-01,-1.71705e-01,-1.68382e-02,-5.26522e-02,1.47090e-04,-2.32449e-02,-8.86908e-02,-3.95426e-02,-1.11328e-02,-3.81764e-02,-1.13355e-02,-6.90866e-02,1.11385e-02,-7.66248e-03,1.05551e-01,3.98451e-02,-2.07409e-03,-4.37527e-02,8.97222e-02,5.59982e-02,-3.26044e-03,-1.39066e-01,1.73036e-02,9.75152e-02,-7.97280e-02,1.53118e-03,-1.20228e-01,-5.85925e-02,-8.44953e-02,-2.85398e-02,-1.18501e-01,-4.76479e-02,-2.79822e-02,-5.34411e-02,-1.38939e-01,5.71316e-02,-5.26638e-02,3.95183e-02,-2.02155e-01,-3.35363e-02,-8.70612e-02,-2.48130e-02,5.71482e-02,-5.85405e-02,3.07356e-02,-7.55115e-02,-3.39437e-02,-2.20447e-02,-2.54716e-04,-1.06466e-01,1.42983e-01,6.92085e-02,-9.84884e-02,-9.86427e-02,-9.45770e-02,-1.94490e-01,-7.98563e-02,-1.82807e-03,-1.27375e-01,-6.43291e-02,-5.41816e-02,-1.55829e-01,-1.48298e-01,-3.36989e-02,-2.91598e-03,-1.64082e-01,-1.16841e-01,1.09102e-02,-1.31510e-02,6.15096e-04,2.16281e-02,1.00029e-02,3.74466e-02,6.48497e-02,4.52913e-02,-6.09728e-02,2.23284e-02,-2.10119e-02,1.28691e-01,1.11421e-01,-9.86126e-02,-8.49129e-02,-1.50726e-01,-2.09762e-01,-1.98019e-04,1.75502e-02,-1.21238e-01,-1.25690e-01,-9.80127e-03,-1.88392e-01,4.19438e-02,-7.43519e-03,1.73653e-02,-1.13989e-01,-1.13204e-01,2.65625e-02,-2.21230e-02,-5.37168e-02,5.93197e-02,4.41091e-02,5.21055e-02,5.51455e-03,2.88911e-02,3.46304e-02,-9.70946e-02,1.06563e-01,7.99095e-02,-2.54348e-02,-1.66717e-01,-2.06877e-01,-1.56949e-01,-1.88903e-01,-3.63108e-02,-1.78500e-01,-2.11916e-02,-1.07145e-01,-1.38647e-01,-7.06368e-02,-4.06990e-02,-6.42384e-03,-1.49718e-01,-8.50441e-02,-9.04618e-02,-8.71668e-02,8.89478e-02,-1.30196e-02,1.30512e-02,6.45023e-02,5.77300e-02,-6.05778e-02,-8.77195e-04,-1.88740e-02,-1.19744e-01,7.58387e-02,-2.76986e-02,3.94314e-03,-8.63339e-02,-2.99907e-02,2.23351e-02,-9.88463e-02,8.05258e-03,-8.11674e-02,-1.76178e-01,-1.78934e-01,-4.50501e-02,-4.94792e-02,-2.41693e-02,2.68633e-02,-1.73696e-01,-6.94180e-02,-1.04434e-01,-9.23829e-02,2.06240e-02,-3.25777e-02,5.19162e-02,-1.86632e-02,1.28546e-02,6.38159e-02,-2.12715e-03,3.43660e-03,-1.65766e-01,4.78623e-02,1.16614e-01,-1.42224e-02,-8.33623e-02,-1.29411e-02,-2.84698e-02,-7.09685e-02,-2.10151e-03,-1.74241e-01,-1.14300e-01,-3.95732e-02,-2.48492e-02,2.97073e-02,-3.34703e-02,-1.21163e-01,-1.04325e-01,-1.48628e-02,-1.01422e-01,-3.89911e-02,-4.94595e-02,1.00770e-02,-5.75671e-02,6.46120e-03,6.38408e-02,-1.30656e-02,4.61145e-02,-8.70016e-02,-1.39707e-01,4.12380e-02,2.47269e-02,-3.42186e-02,5.20522e-02,-4.81293e-02,-3.21792e-02,-2.35955e-02,-1.50438e-01,-6.06732e-02,2.97151e-02,-3.63956e-02,5.34782e-02,-7.38184e-02,-2.24568e-01,-1.73619e-01,-5.90092e-02,-4.33232e-02,5.64107e-03,-2.50691e-02,3.85810e-02,-9.67821e-02,-1.70068e-02,2.65824e-02,1.46973e-02,7.13734e-02,-1.04093e-01,-7.35557e-02,-2.73808e-02,-9.08638e-02,4.12951e-03,4.12756e-02,-2.42811e-02,-2.58843e-02,-6.44292e-02,-6.41950e-02,-3.64310e-02,-5.85151e-02,-4.27012e-02,-3.80111e-02,5.99412e-02,-1.04916e-01,-1.25797e-01,-8.72993e-02,-8.78414e-02,3.12531e-02,-3.54931e-02,-2.02830e-02,-8.10557e-03,-7.53319e-02,-4.06155e-02,-6.16585e-02,3.64381e-02,5.76744e-02,-3.61180e-03,1.57910e-02,-4.91316e-02,-7.84068e-02,5.44641e-02,-6.83080e-02,-2.90156e-02,4.22339e-02,-4.84413e-02,-1.33547e-01,-1.33271e-01,-9.56503e-02,-5.60261e-02,-3.59009e-02,-1.71964e-01,-2.17645e-01,-1.28979e-01,-3.10211e-02,-1.38837e-02,-1.45413e-02,3.44628e-02,-7.46173e-02,-5.04578e-02,-1.37655e-02,5.76864e-02,-2.99269e-02,-2.20111e-02,-6.52064e-02,3.18447e-02,-6.15140e-02,-1.35595e-02,-1.63126e-01,8.84997e-03,3.84792e-02,2.95280e-02,4.46832e-02,-3.21559e-02,2.76421e-02,-8.52429e-03,-5.44860e-02,-5.14810e-02,-4.10845e-02,-7.74369e-02,-8.20024e-02,-6.52702e-02,-5.44018e-03,-4.21808e-02,-8.72684e-02,-7.70717e-02,-5.16569e-02,-6.72161e-02,7.27443e-02,-2.03782e-02,-1.60452e-02,-2.17855e-02,-2.62339e-02,-3.43796e-02,-8.42353e-02,1.42695e-02,-6.95896e-02,-6.64710e-02,-1.47799e-01,-9.10075e-02,-3.01301e-02,1.47415e-02,8.99860e-02,3.12380e-02,2.74701e-02,-1.42589e-02,-9.42499e-02,-9.59269e-02,-5.55474e-02,-3.06227e-02,8.17384e-03,-9.19416e-03,2.17847e-02,-1.62317e-02,-8.39439e-02,2.70465e-02,2.26769e-02,3.41006e-02,7.07471e-02,-1.14053e-02,-4.05863e-04,5.77783e-02,-1.82528e-02,2.52406e-02,4.06492e-02,1.05500e-01,2.70364e-02,-1.43542e-02,5.01323e-02,-1.23451e-02,5.90045e-02,-3.54210e-03,-5.53761e-02,-8.91672e-02,-1.04690e-01,-3.80303e-02,1.34986e-02,2.83306e-03,-4.59446e-02,4.43760e-03,-7.47956e-03,1.02448e-02,-1.27190e-02,-1.82536e-02,2.99836e-02,-9.05170e-03,6.38426e-02,-6.21340e-02,-2.93499e-02,1.27212e-02,4.87793e-02,3.53535e-02,-2.44983e-03,5.08871e-02,-6.61746e-02,-2.38755e-02,6.87441e-03,2.47274e-03,1.20880e-02,-6.22573e-02,-7.24456e-02,-3.13925e-02,-8.16448e-02,-7.64284e-03,-4.88392e-02,5.32610e-02,-3.87663e-02,4.63832e-02,4.89933e-03,-5.07207e-02,4.07692e-02,-3.66383e-03,-3.09867e-02,4.36392e-02,-1.51356e-02,-4.03929e-02,-5.43440e-02,4.05587e-02,3.94344e-02,7.30132e-02,-4.67880e-03,3.67450e-03,-5.01974e-02,3.58917e-03,3.63972e-02,-9.50226e-03,2.69788e-02,-1.33951e-02,-2.01455e-02,5.60604e-02,-3.42934e-02,7.67297e-02,-5.23169e-02,5.18576e-02,-3.94462e-02,2.06000e-03,-4.50306e-02,3.47733e-02,3.20163e-02,9.66723e-03,-3.94300e-02,5.44782e-02,1.41545e-03,2.24913e-02,2.14845e-02,-7.53346e-02,6.04066e-02,2.89340e-02,1.69589e-02,3.87831e-02,-3.76700e-02,1.68364e-02,-3.44010e-03,-1.45107e-02,7.03804e-02,7.98682e-02,1.15120e-01,3.67860e-02,1.77505e-02,-1.13250e-03,6.22596e-02,-6.11024e-03,-5.85336e-02,-4.40272e-02,-4.27000e-04,6.15127e-02,-1.89847e-02,2.76301e-02,4.27568e-02,-5.08132e-02,-1.65602e-02,
-1.31480e-02,2.16499e-03,-3.78940e-02,6.73281e-02,-6.45838e-02,4.38328e-02,1.87858e-02,-3.29784e-02,-7.56585e-02,-2.11872e-02,-6.12410e-02,4.45341e-02,7.46381e-03,5.95779e-02,-4.56001e-02,-1.67754e-02,-4.22570e-02,-1.25771e-02,1.85375e-02,-2.86901e-02,2.82681e-02,2.92672e-02,-2.25022e-04,3.59294e-02,5.81439e-02,2.09737e-02,-3.62263e-02,3.96921e-02,-4.12886e-03,6.77099e-02,-2.72731e-02,1.52360e-02,-5.56307e-02,-3.44578e-03,-1.90631e-02,5.78298e-02,3.29109e-02,5.12233e-03,-4.99891e-02,-7.24384e-02,5.22942e-02,-1.98485e-02,-6.62609e-02,3.99050e-02,-6.67844e-02,-5.31600e-02,-7.14416e-02,1.54502e-02,-1.11043e-03,7.41206e-02,-1.14687e-02,8.12976e-03,1.32954e-03,-6.85847e-02,2.14835e-02,7.15982e-02,7.53137e-03,-2.86023e-02,4.78338e-02,-4.93079e-04,-2.74167e-02,-4.12869e-03,-6.09387e-02,-7.44089e-02,4.13242e-02,4.10686e-02,1.44072e-02,3.75370e-04,8.99236e-03,-7.32156e-02,-1.36760e-02,-1.63829e-02,-5.58959e-02,6.22252e-02,-6.82056e-02,-1.85086e-02,-7.47937e-02,6.31265e-02,1.94373e-03,4.25292e-02,-1.40277e-02,-2.76184e-02,-6.76296e-02,-4.00675e-02,-9.21761e-03,9.03515e-03,4.05288e-02,4.08509e-02,2.99981e-02,-4.92337e-02,-6.76449e-02,-6.86727e-02,-9.29360e-02,-8.05189e-02,3.70692e-02,-5.19086e-02,-5.14664e-02,-2.50635e-02,-7.60752e-02,-2.56456e-02,2.82925e-02,-6.36918e-02,-9.60269e-02,5.29146e-02,1.73452e-02,4.70483e-02,4.60013e-03,4.67293e-03,3.41323e-02,-6.09725e-02,5.77876e-02,1.54805e-02,-3.56930e-02,2.10303e-02,2.54271e-02,4.74586e-02,-3.10339e-03,-7.83668e-02,-3.65913e-02,1.26831e-02,-1.66483e-02,1.28344e-02,-6.57754e-02,-5.42709e-02,-4.41015e-02,-3.52996e-03,-3.19367e-02,-2.73795e-02,-3.25180e-02,3.97351e-02,4.42374e-02,3.91106e-02,5.68807e-02,-3.40296e-02,-6.09956e-02,-4.53914e-02,3.84849e-02,5.43801e-02,-6.82266e-02,-2.38243e-02,1.19042e-02,2.25792e-02,1.66023e-02,5.04830e-03,1.04644e-02,1.56054e-02,2.82480e-02,-9.28223e-02,-3.40457e-03,1.30411e-02,-7.60523e-02,-2.41074e-02,-4.84760e-02,-7.54537e-02,-8.57595e-02,-7.40114e-02,-1.00149e-01,-1.96359e-02,-3.78529e-02,-5.40101e-02,2.06005e-02,-8.03454e-02,4.95775e-04,-6.29732e-02,-8.57798e-04,1.35872e-03,-4.49905e-02,2.26321e-02,1.17090e-02,4.38349e-02,-5.83665e-02,5.73454e-02,2.63134e-03,-4.63979e-03,-7.85427e-02,1.84031e-02,4.63478e-02,-7.97552e-02,2.48106e-02,-5.84712e-02,-2.99577e-02,1.34011e-02,-1.13065e-02,5.93224e-02,-8.59573e-02,-7.42346e-02,-7.37725e-02,-7.34919e-02,-1.08378e-02,-3.01768e-02,-5.17767e-02,-1.70752e-02,2.59285e-02,-2.40151e-02,6.23565e-02,-5.49088e-02,7.26426e-02,-1.16345e-02,-4.66366e-02,7.93617e-02,6.31918e-02,5.18098e-02,-1.70215e-02,-9.46078e-03,1.94500e-02,-8.02926e-03,-4.89569e-02,1.78027e-02,5.93840e-02,5.21331e-03,4.56084e-02,-1.61144e-02,2.32160e-02,-1.01799e-02,7.71647e-02,-3.03922e-03,-6.65437e-02,-2.81019e-02,1.63534e-02,-3.48435e-02,4.21223e-02,5.11040e-02,7.68410e-02,-1.19975e-02,9.30028e-03,1.28894e-02,6.89118e-02,2.41848e-02,1.42244e-02,2.47784e-02,4.08306e-02,-1.00554e-01,-3.46245e-03,-1.00021e-01,3.49315e-02,4.69224e-03,-4.86304e-02,-1.11739e-01,6.12836e-03,-9.60194e-02,-4.77606e-03,3.67211e-02,3.97473e-02,-3.08294e-02,-7.43326e-02,-7.95802e-03,-6.48584e-02,3.69738e-02,7.04577e-02,1.98482e-03,3.06889e-02,-6.44569e-02,4.48504e-02,6.04196e-02,-3.49117e-02,2.31035e-02,6.61563e-02,6.29673e-02,-5.77873e-02,-9.06594e-02,-8.34531e-02,6.82046e-03,-5.88666e-02,-1.09284e-01,-1.28201e-01,-1.48709e-02,2.11570e-03,-5.81704e-03,3.45146e-02,-4.41448e-02,4.17805e-02,-3.45156e-02,8.57251e-04,-8.64257e-02,3.30421e-02,-9.23535e-02,1.54045e-02,-2.86667e-02,6.86922e-02,-1.94929e-03,-7.46771e-02,6.50968e-02,-5.09282e-02,-1.43121e-02,-7.04289e-02,-5.65382e-02,1.86482e-02,-6.33519e-02,-1.08079e-02,3.32560e-02,2.32712e-02,-2.60446e-02,-1.14947e-01,-9.44322e-02,-6.87339e-02,-3.12093e-03,5.37656e-02,6.23025e-02,-6.98451e-02,-1.05444e-02,-8.55402e-02,-5.24600e-02,1.18396e-02,-7.46035e-02,-5.38561e-02,-1.16694e-02,-2.10822e-04,-4.27579e-02,-1.89386e-02,5.74486e-02,-3.28249e-02,4.66122e-02,-5.42227e-02,-1.97037e-02,2.83214e-02,-4.52423e-02,4.30596e-02,-2.84585e-02,6.94406e-03,-2.57478e-02,2.03075e-02,-6.75474e-02,-1.22263e-02,-6.72593e-02,5.35005e-02,-6.68572e-02,-6.86294e-03,-3.03908e-02,-9.49246e-02,-7.87926e-02,-7.43936e-02,-4.34382e-02,-2.39829e-02,2.23377e-02,5.26679e-02,-1.57574e-03,-7.35646e-02,-1.67606e-02,-7.13574e-02,3.27404e-02,1.02154e-02,-2.09970e-02,5.21706e-02,8.10933e-03,5.13805e-02,-7.49377e-02,-7.48252e-02,3.51693e-02,-9.98043e-02,4.27358e-02,3.75718e-03,6.99160e-02,-4.80772e-02,-4.96748e-02,-1.75809e-02,-4.06218e-02,5.72556e-02,1.52710e-02,-6.22295e-03,-7.89942e-02,-1.22166e-02,6.99640e-02,5.60176e-02,1.68662e-02,6.67545e-02,-3.16884e-02,-3.28206e-02,5.41846e-02,3.57969e-02,6.24458e-02,-2.77002e-03,-4.89078e-04,3.85306e-02,3.77054e-02,3.15201e-02,-2.67254e-02,-8.01938e-02,-6.75652e-02,-1.62258e-02,2.35766e-02,-8.21844e-02,-1.36701e-02,-3.45434e-02,3.59602e-02,5.51022e-02,3.91256e-02,-6.43876e-02,2.05427e-02,-8.00899e-02,-2.94087e-03,-6.12232e-02,-1.36863e-02,2.85032e-02,-1.29973e-02,-1.63220e-02,-1.39613e-02,-4.39579e-02,6.05771e-02,-1.01183e-03,-5.20105e-02,-3.59676e-02,4.39670e-02,-4.45644e-02,-1.14148e-02,-6.11037e-02,-6.14330e-02,3.60438e-02,-6.02893e-02,3.48050e-02,-4.43040e-02,-8.99321e-02,8.20035e-03,-3.61705e-02,-6.58636e-02,4.89294e-02,1.19777e-02,-2.44279e-02,4.66977e-02,-1.83506e-02,-1.87452e-02,2.54517e-02,5.05190e-02,4.42199e-02,6.97219e-02,-3.81682e-02,6.77771e-02,-1.12713e-01,-9.12122e-02,-9.77024e-02,-8.19216e-03,1.49443e-03,-1.24099e-02,3.63078e-02,2.35402e-02,-9.69642e-03,-6.59908e-02,-8.44808e-02,-8.72132e-03,-5.76363e-02,5.40341e-02,-6.86184e-02,3.76784e-02,1.73124e-02,-2.25709e-02,7.17508e-03,-2.33332e-02,-4.10515e-02,-1.16000e-02,-4.04545e-02,4.23904e-02,5.96406e-02,-3.94494e-02,-1.65212e-02,-6.86256e-02,1.13774e-02,5.74685e-02,1.75742e-02,5.82667e-04,-1.41703e-02,4.12156e-02,-7.25851e-02,-3.07898e-03,-1.21164e-01,-8.29856e-02,-3.36266e-02,-3.11202e-02,-1.38391e-02,-2.03204e-02,2.88394e-02,2.43985e-02,3.71389e-02,-1.74648e-02,-4.74932e-02,-4.16419e-02,3.78239e-02,4.49391e-02,5.49665e-02,-5.70954e-02,6.63535e-03,7.51621e-02,-3.20490e-02,-7.69090e-03,-5.84511e-02,4.22085e-02,-1.01622e-01,3.29013e-02,-3.23784e-02,1.09285e-02,-1.16735e-01,-7.62329e-02,-1.24197e-01,-1.11667e-01,-2.08920e-02,-7.59745e-02,-8.01006e-02,4.44004e-02,-9.48385e-02,-7.18570e-02,-6.14500e-02,-2.05027e-02,-5.65265e-03,-7.60832e-03,-6.95219e-02,3.20486e-02,3.49662e-02,-2.45560e-02,2.91786e-02,-1.71885e-02,-2.73223e-02,-2.10063e-03,-6.72290e-02,1.29731e-02,3.27833e-02,3.56310e-02,-5.77176e-02,7.08232e-03,3.24510e-02,-7.54945e-02,2.10319e-02,6.22015e-03,-7.27056e-02,-1.02268e-03,2.93051e-02,-5.84788e-02,-6.36003e-02,-9.50527e-02,1.79677e-02,8.62286e-03,-6.75455e-02,-3.45321e-02,-2.04702e-03,-6.41069e-02,1.44041e-03,3.83472e-02,-3.38237e-02,-2.59454e-02,-5.07785e-02,-5.73792e-02,-5.66394e-03,3.17186e-02,-8.80532e-02,-2.84528e-02,4.44992e-02,5.75314e-02,2.98592e-02,5.04950e-02,-7.15641e-02,3.86295e-03,-9.33667e-02,1.75551e-02,-9.14825e-02,1.43261e-02,-5.03790e-02,-7.34021e-02,7.89276e-02,3.93393e-02,-7.02074e-03,-1.11566e-01,-3.00743e-02,5.02133e-02,-1.61387e-04,-3.05329e-02,-2.63595e-02,-3.81789e-02,-5.57373e-02,-5.60816e-02,9.12882e-03,-5.71761e-02,-2.18827e-02,3.03339e-02,-6.68139e-02,-4.03636e-02,-5.95710e-02,9.17364e-03,2.09755e-02,-9.28124e-02,3.14973e-03,3.85505e-02,2.98486e-02,4.70472e-03,-3.87152e-02,-5.97089e-02,7.33719e-02,1.94586e-02,-1.95410e-02,5.42045e-02,3.80298e-02,5.65448e-02,-4.63099e-02,7.46242e-02,-3.03343e-02,-4.57531e-02,9.43111e-03,5.65357e-02,6.51713e-02,-6.44623e-02,-1.02005e-01,-9.01967e-02,-8.77946e-02,-3.85481e-02,6.29665e-03,-6.94540e-02,-5.35510e-02,-4.27582e-02,3.55357e-02,4.46761e-02,-4.90682e-02,-4.13625e-02,-7.67608e-03,-1.45502e-02,8.95528e-04,-2.22846e-02,-1.44061e-04,2.73778e-02,1.31538e-03,-2.59984e-02,6.92845e-02,7.36103e-02,-4.20861e-02,1.30561e-02,-3.29065e-02,1.23094e-02,-7.08084e-02,9.57072e-03,1.20750e-02,-7.77641e-02,-1.17544e-02,-2.59267e-02,4.34887e-02,-8.60214e-02,-6.52704e-02,-4.28961e-02,5.47297e-02,-3.42708e-02,-6.13283e-02,3.06930e-02,4.01936e-03,-8.27075e-02,5.19806e-02,8.54548e-02,1.77726e-02,-1.18673e-02,-4.64397e-02,-5.28610e-02,1.02988e-02,-4.22777e-02,6.16961e-02,1.17238e-02,-6.62725e-03,9.32911e-02,3.85087e-02,5.98041e-02,-3.49501e-02,-6.09415e-02,4.48595e-03,-2.38840e-02,5.78333e-02,-8.59049e-02,7.02453e-03,2.41079e-03,6.04153e-04,-6.77219e-02,-3.35950e-02,-1.04967e-01,1.51763e-02,1.03178e-02,-6.99994e-02,3.71575e-02,1.48048e-02,-5.51842e-02,-2.41144e-02,5.61673e-02,2.77480e-02,4.77193e-03,1.99638e-04,-4.60465e-02,-1.94339e-03,-6.76637e-03,-7.33478e-02,3.16914e-02,5.02721e-02,-4.45034e-02,-6.19164e-02,-7.88492e-02,-4.36714e-02,5.16238e-02,-5.40574e-02,-8.81953e-02,8.54720e-02,4.32791e-02,-5.18883e-02,-3.24668e-02,-1.82199e-02,-8.52405e-02,4.66137e-02,7.95406e-02,3.91433e-02,-8.17123e-03,1.20447e-02,-6.85399e-02,5.84055e-03,4.73910e-02,-3.51328e-02,-2.74602e-02,-6.94020e-02,-6.89524e-02,-6.49556e-02,1.07564e-02,-1.78083e-02,1.53839e-02,-3.87716e-03,-7.66574e-02,-6.80636e-02,-5.31381e-02,-2.02443e-02,5.74877e-02,7.91180e-02,2.94566e-02,4.30082e-02,-2.13164e-02,-8.80485e-02,-7.13271e-02,-6.38133e-03,2.42371e-02,-5.65117e-02,-2.98734e-02,-9.77777e-03,-4.64628e-02,-4.80041e-02,-4.27198e-02,7.24446e-02,3.91001e-02,-2.98445e-02,-6.27914e-02,7.13326e-03,2.83326e-02,-7.54534e-02,1.89651e-02,2.70245e-02,4.96545e-03,-3.49694e-02,-3.96170e-02,-7.07842e-02,3.54601e-03,9.29664e-03,-7.29892e-02,-1.57774e-02,2.97855e-03,3.15806e-02,3.17282e-02,6.59129e-02,4.74197e-02,5.64730e-02,6.57337e-02,2.68681e-02,6.04654e-02,4.70862e-02,-2.68616e-02,5.73283e-02,5.56931e-02,4.56004e-02,3.38472e-02,-4.65882e-02,1.94512e-03,-4.88516e-02,7.12093e-02,-2.14320e-02,-2.17854e-02,4.65097e-02,6.99308e-02,4.55870e-02,-4.01120e-02,1.29000e-02,4.39861e-02,6.69628e-02,-5.48785e-02,3.31328e-02,4.13498e-02,7.47384e-02,-2.56263e-02,-3.86827e-02,6.50729e-02,1.93610e-02,3.41566e-02,
